    0.145096062283612937E+00    0.552074285609959858E+00    0.464580637686058521E+10   -0.138651392561336053E+03
    0.237825820178659386E+00    0.697140706437114233E+00    0.369944590572631502E+10   -0.134646527357480807E+03
    0.147134164649819765E+00    0.587714486173823047E+00    0.461364999051000214E+10   -0.134517712415678318E+03
    0.146536294107755816E+00    0.540713427496354981E+00    0.469587700242962551E+10   -0.134325691716195536E+03
    0.198180788494673021E+00    0.560029963893985183E+00    0.409046476579950571E+10   -0.134171146674992372E+03
    0.212922370999888533E+00    0.533709123584602096E+00    0.385430447207959890E+10   -0.133651389390844514E+03
    0.206924749548949294E+00    0.510273782993639458E+00    0.400520986642781162E+10   -0.133634671541852470E+03
    0.158912659307032800E+00    0.623329726953683050E+00    0.451374553632601166E+10   -0.133505690719204836E+03
    0.186055863458330806E+00    0.581678154568365358E+00    0.413612330948867178E+10   -0.133436297210715622E+03
    0.196259392913754049E+00    0.612149165434594522E+00    0.400963454643652058E+10   -0.133287007006356674E+03
    0.173029386274786728E+00    0.535631321578968311E+00    0.429265123700495100E+10   -0.133226834141365458E+03
    0.240137666868306843E+00    0.659643590186146156E+00    0.366261510240327644E+10   -0.133066809987465774E+03
    0.200382472665032785E+00    0.556507554674663396E+00    0.397489825101245737E+10   -0.133007270442213411E+03
    0.220799074385699512E+00    0.625056863463978374E+00    0.380669980720199823E+10   -0.132990079963850576E+03
    0.177904668246019915E+00    0.559244495319200396E+00    0.431025700387493896E+10   -0.132980708036241168E+03
    0.225815829042474603E+00    0.614132023202106581E+00    0.379316296236215973E+10   -0.132968536842371691E+03
    0.219576763764228522E+00    0.532813944702091646E+00    0.386648814458895493E+10   -0.132965887630379655E+03
    0.197055917742825937E+00    0.593048779417772565E+00    0.408823740469942665E+10   -0.132879642472090154E+03
    0.212865560279829280E+00    0.575390586353503153E+00    0.390165898773485327E+10   -0.132836551614997290E+03
    0.160735396799070646E+00    0.535235585783524925E+00    0.447067248365987206E+10   -0.132768459811745316E+03
    0.239056828982490976E+00    0.614644481441253276E+00    0.371522931136395025E+10   -0.132686981593864118E+03
    0.229471563327566352E+00    0.553428034864595020E+00    0.373228916495160198E+10   -0.132624050574353305E+03
    0.188721878760467754E+00    0.568972957942495583E+00    0.414394309557203245E+10   -0.132612173179885787E+03
    0.232331351806415676E+00    0.521037337744109763E+00    0.374463424066070843E+10   -0.132444838488169353E+03
    0.229850197528011835E+00    0.552985526881727196E+00    0.373821924487736654E+10   -0.132436125159810274E+03
    0.180839535063124890E+00    0.571132886271168871E+00    0.426628685678746462E+10   -0.132394801090589851E+03
    0.201092285741823529E+00    0.737994817066368824E+00    0.403626396754238892E+10   -0.132367077504610705E+03
    0.200480613906455385E+00    0.673663662984271383E+00    0.408324498849492073E+10   -0.132330297237130509E+03
    0.244453012926678370E+00    0.615287889680091737E+00    0.365859826676715374E+10   -0.132225178416201203E+03
    0.207606502556810568E+00    0.595357001913260575E+00    0.395726827175099134E+10   -0.132202503236680798E+03
    0.224347027506712704E+00    0.529116602903080491E+00    0.377821383465456247E+10   -0.132184178123035707E+03
    0.205187085136937508E+00    0.523052731420062145E+00    0.397868304394399929E+10   -0.132117789004597512E+03
    0.179086513927439350E+00    0.581629692152530353E+00    0.426777827214759207E+10   -0.132079938309145774E+03
    0.176577570331339972E+00    0.542742689519757349E+00    0.426571256554971123E+10   -0.132059895042232483E+03
    0.226570127897839202E+00    0.622249589271193670E+00    0.377147867762737751E+10   -0.132053777598479627E+03
    0.208059746282817370E+00    0.529401725318287220E+00    0.395510216922933578E+10   -0.132044443599182699E+03
    0.218237358909194434E+00    0.585637140082459595E+00    0.389217293762060738E+10   -0.132032933977263042E+03
    0.173435759509356413E+00    0.521361798687420830E+00    0.427648094535856724E+10   -0.131975244802697773E+03
    0.198579789148125296E+00    0.531918461729601333E+00    0.405942213361148071E+10   -0.131859712141242710E+03
    0.206384666343783607E+00    0.545069817794260558E+00    0.396635707751654243E+10   -0.131758452498485553E+03
    0.217945697637099201E+00    0.549390951016476947E+00    0.389066649822154474E+10   -0.131684637491751062E+03
    0.188154709308034851E+00    0.578120541626949702E+00    0.419115746521156836E+10   -0.131643291089351465E+03
    0.181475929161747263E+00    0.510520976264928095E+00    0.422105463802159071E+10   -0.131627457765094675E+03
    0.222616650751516210E+00    0.589335652997908355E+00    0.378858284298379374E+10   -0.131623314460036966E+03
    0.185521875541272252E+00    0.599006218900612453E+00    0.422450560319804192E+10   -0.131622574115342161E+03
    0.209265254781256960E+00    0.538316429432745380E+00    0.392888998285791254E+10   -0.131598538752560671E+03
    0.186932859168087440E+00    0.571649123146292126E+00    0.413096225868125629E+10   -0.131563167876322240E+03
    0.212549144013227498E+00    0.573492791492917320E+00    0.392099402778146648E+10   -0.131552161474551866E+03
    0.182855684028368271E+00    0.565814098611113536E+00    0.418818979967080307E+10   -0.131551615583501501E+03
    0.174225422153907072E+00    0.528521261311301060E+00    0.427001632151393127E+10   -0.131528492431067150E+03
    0.185244514998434751E+00    0.582780249179675636E+00    0.420860084843355560E+10   -0.131519716009113267E+03
    0.176070632849779862E+00    0.578261910301486992E+00    0.427908921179447794E+10   -0.131511340127579018E+03
    0.216206835793119279E+00    0.531119672144201971E+00    0.389486244339071035E+10   -0.131489001301691218E+03
    0.183205845369150189E+00    0.523081410315292317E+00    0.421611931072734976E+10   -0.131452815964159555E+03
    0.174098590200607972E+00    0.549617247984961921E+00    0.427748156766633129E+10   -0.131440247037035363E+03
    0.193163756720294899E+00    0.588794848811167171E+00    0.410168562698007154E+10   -0.131416823439467208E+03
    0.190920509403085914E+00    0.533704275082682145E+00    0.408792654915827084E+10   -0.131386212344610186E+03
    0.215733323113064757E+00    0.540347550004256050E+00    0.386703960111532164E+10   -0.131366856307485250E+03
    0.184574766883949026E+00    0.602775148480054312E+00    0.415572274595008516E+10   -0.131298516530329380E+03
    0.169083922343653520E+00    0.554445392794576719E+00    0.438716163790059090E+10   -0.131241488559573952E+03
    0.205525230666399272E+00    0.540574473554597645E+00    0.396207375586334133E+10   -0.131218855518393639E+03
    0.218829348888357700E+00    0.665645920628751497E+00    0.388368413300501013E+10   -0.131207753984433992E+03
    0.176704880837162348E+00    0.547299135116944058E+00    0.432378353714796257E+10   -0.131201975945819413E+03
    0.199432809600436800E+00    0.591635872238249760E+00    0.403262361416498470E+10   -0.131186184015959213E+03
    0.219237435851231122E+00    0.555393793265665181E+00    0.382397673902628326E+10   -0.131150364714064949E+03
    0.181116742586326096E+00    0.557178583419146278E+00    0.423670779272955036E+10   -0.131147670737635167E+03
    0.179403254681139490E+00    0.525580108130011325E+00    0.422377222332353163E+10   -0.131143879468497602E+03
    0.216469674436909842E+00    0.572942877898407588E+00    0.386796902870883799E+10   -0.131132486045481471E+03
    0.177277153456093517E+00    0.540540348579778396E+00    0.427279752487378597E+10   -0.131130238716375771E+03
    0.209589963206017860E+00    0.543810331178679718E+00    0.398026774979909945E+10   -0.131129019848816426E+03
    0.237185595823997619E+00    0.690505287282462632E+00    0.370603765023771191E+10   -0.131103185398151538E+03
    0.182638989341459168E+00    0.563100616668634757E+00    0.417825781740482092E+10   -0.131068414802837822E+03
    0.213808285236301243E+00    0.585371790383195645E+00    0.390405510691854954E+10   -0.131055861924616124E+03
    0.179623369906615094E+00    0.537328010576771931E+00    0.424712061064435673E+10   -0.131055235611257274E+03
    0.196831240697899590E+00    0.663354449623145825E+00    0.408003234322096395E+10   -0.131053855100259710E+03
    0.185270553748073497E+00    0.546000545247268931E+00    0.416833938297801399E+10   -0.131037565295138108E+03
    0.216446641101002479E+00    0.609255486871900231E+00    0.386215168643486929E+10   -0.131028629329561227E+03
    0.194823210466192498E+00    0.663819840147802154E+00    0.411314026713301516E+10   -0.131027509859288728E+03
    0.200320300547093932E+00    0.610214034624188884E+00    0.403455257890752172E+10   -0.131018941431851317E+03
    0.175654140843036488E+00    0.520012984012712565E+00    0.427051105381022835E+10   -0.130996659955569555E+03
    0.175654140843036488E+00    0.520012984012712565E+00    0.427051105381022835E+10   -0.130996659955569555E+03
    0.173450976328338669E+00    0.579142538062564327E+00    0.431817745029526138E+10   -0.130992317700332421E+03
    0.182149534706120164E+00    0.596487625122563259E+00    0.419425513894323683E+10   -0.130961651515061561E+03
    0.177875260870819119E+00    0.581229696780226845E+00    0.424502493024809504E+10   -0.130913552455760282E+03
    0.177875260870819119E+00    0.581229696780226845E+00    0.424502493024809504E+10   -0.130913552455760282E+03
    0.167146299926490660E+00    0.546393677405985656E+00    0.439382802489201832E+10   -0.130908505534530207E+03
    0.167146299926490660E+00    0.546393677405985656E+00    0.439382802489201832E+10   -0.130908505534530207E+03
    0.205401805198330900E+00    0.705887015717514998E+00    0.397238986357923079E+10   -0.130902543146688032E+03
    0.172147743357355471E+00    0.559248082795129164E+00    0.433355973192459488E+10   -0.130900955302723048E+03
    0.172147743357355471E+00    0.559248082795129164E+00    0.433355973192459488E+10   -0.130900955302723048E+03
    0.193209909544760139E+00    0.642762306630647373E+00    0.414775608449894762E+10   -0.130896074513215467E+03
    0.182917661875820758E+00    0.557018782173381410E+00    0.422495101238264036E+10   -0.130885792917438664E+03
    0.225057159289759612E+00    0.639602759281771682E+00    0.381042446833912134E+10   -0.130872104836022856E+03
    0.169447090614639140E+00    0.527707798728895838E+00    0.436796049520003033E+10   -0.130868868446682484E+03
    0.206584011152865399E+00    0.528172654565610245E+00    0.397152820410338449E+10   -0.130850421520476829E+03
    0.228857111528508739E+00    0.603818769220435314E+00    0.377142653508488750E+10   -0.130842457878578557E+03
    0.188974809010501232E+00    0.503743852337601439E+00    0.414033244407761908E+10   -0.130810763365804348E+03
    0.219261918053986649E+00    0.564429844635201405E+00    0.383902146208063364E+10   -0.130794058532389698E+03
    0.219261918053986649E+00    0.564429844635201405E+00    0.383902146208063364E+10   -0.130794058532389698E+03
    0.230146614123225124E+00    0.546157292572180708E+00    0.373587799415399599E+10   -0.130767380144944951E+03
    0.230146614123225124E+00    0.546157292572180708E+00    0.373587799415399599E+10   -0.130767380144944951E+03
    0.213519622603652315E+00    0.591872576053640742E+00    0.389004523315329695E+10   -0.130753188477288745E+03
    0.213519622603652315E+00    0.591872576053640742E+00    0.389004523315329695E+10   -0.130753188477288745E+03
    0.169140176943141318E+00    0.538740506792407814E+00    0.438920941673565388E+10   -0.130718405532066811E+03
    0.169140176943141318E+00    0.538740506792407814E+00    0.438920941673565388E+10   -0.130718405532066811E+03
    0.206226277574663719E+00    0.538363499776245646E+00    0.397077232913299894E+10   -0.130698017518032174E+03
    0.206226277574663719E+00    0.538363499776245646E+00    0.397077232913299894E+10   -0.130698017518032174E+03
    0.213817945150526767E+00    0.508791933397059637E+00    0.387188539850089645E+10   -0.130676480795633154E+03
    0.214943249587802643E+00    0.578375035694520534E+00    0.386978537469959736E+10   -0.130673109241797420E+03
    0.194844251110713129E+00    0.587837868702536070E+00    0.408320607553736591E+10   -0.130660153555838804E+03
    0.194844251110713129E+00    0.587837868702536070E+00    0.408320607553736591E+10   -0.130660153555838804E+03
    0.194574357835953837E+00    0.625792651881916129E+00    0.411763905976574087E+10   -0.130655197541294257E+03
    0.184725311357497368E+00    0.560115929632218013E+00    0.420968995742921209E+10   -0.130624656335628174E+03
    0.184725311357497368E+00    0.560115929632218013E+00    0.420968995742921209E+10   -0.130624656335628174E+03
    0.179223451908606612E+00    0.591410359772568839E+00    0.423485101981175184E+10   -0.130612747288353376E+03
    0.207194688818086781E+00    0.619466724830422422E+00    0.395288236815106916E+10   -0.130599758162854982E+03
    0.218320239414224515E+00    0.524610374563099668E+00    0.385358957607530546E+10   -0.130575061539289038E+03
    0.180536459826723117E+00    0.602429280513547383E+00    0.426766957251053429E+10   -0.130572242338956187E+03
    0.198011104253546677E+00    0.643730921650906396E+00    0.403803822251232672E+10   -0.130570843268655551E+03
    0.201960258496802547E+00    0.554246615357957495E+00    0.399541886034211397E+10   -0.130570464365165662E+03
    0.216799527169329653E+00    0.590002987939202583E+00    0.386687327048914814E+10   -0.130535015402349018E+03
    0.223465207102898133E+00    0.545348385025414828E+00    0.380993373607172394E+10   -0.130534002755403606E+03
    0.223465207102898133E+00    0.545348385025414828E+00    0.380993373607172394E+10   -0.130534002755403606E+03
    0.190378680865710359E+00    0.541057559084945794E+00    0.411024963975472736E+10   -0.130527629194750773E+03
    0.190378680865710359E+00    0.541057559084945794E+00    0.411024963975472736E+10   -0.130527629194750773E+03
    0.221625004936342573E+00    0.608627745172556800E+00    0.380606138834965897E+10   -0.130524863328256828E+03
    0.193453212311031575E+00    0.598201310693909249E+00    0.410752750473470783E+10   -0.130480353795011524E+03
    0.193453212311031575E+00    0.598201310693909249E+00    0.410752750473470783E+10   -0.130480353795011524E+03
    0.219017014921445874E+00    0.660134809655311017E+00    0.386075123241383314E+10   -0.130470140504942748E+03
    0.196101601582298779E+00    0.611968527116676597E+00    0.406050282085331249E+10   -0.130456474506946506E+03
    0.207855523430482192E+00    0.585649535631123541E+00    0.397027643279687309E+10   -0.130449978998266715E+03
    0.223156569277816741E+00    0.565784408647754589E+00    0.380668464811965942E+10   -0.130431995598123251E+03
    0.223156569277816741E+00    0.565784408647754589E+00    0.380668464811965942E+10   -0.130431995598123251E+03
    0.207659990309448983E+00    0.735420590646496564E+00    0.394596061803341484E+10   -0.130413905588568923E+03
    0.207659990309448983E+00    0.735420590646496564E+00    0.394596061803341484E+10   -0.130413905588568923E+03
    0.183976263452582500E+00    0.572982739579629197E+00    0.421057629993941736E+10   -0.130409757767328529E+03
    0.187667012838557246E+00    0.556639263563354802E+00    0.413372857331239939E+10   -0.130399816728030032E+03
    0.198558630355848142E+00    0.606797621115859442E+00    0.402307529016238880E+10   -0.130392075302672993E+03
    0.176296595206829776E+00    0.560622435049666024E+00    0.428975760610940838E+10   -0.130388012556589899E+03
    0.187968438591798626E+00    0.589629295237010354E+00    0.416733184328403282E+10   -0.130385398461453519E+03
    0.187968438591798626E+00    0.589629295237010354E+00    0.416733184328403282E+10   -0.130385398461453519E+03
    0.195666800972141453E+00    0.530841380538129570E+00    0.407779045450727177E+10   -0.130348448876892576E+03
    0.187161858622054422E+00    0.542522559122030401E+00    0.415936043698999119E+10   -0.130340038256123222E+03
    0.179463282669689639E+00    0.581683320557960570E+00    0.423253972100257301E+10   -0.130335360216453921E+03
    0.192838561260613328E+00    0.553648567584781759E+00    0.407587700836549950E+10   -0.130330174117481590E+03
    0.209764967924527701E+00    0.573457158607318718E+00    0.391796895837071419E+10   -0.130306344038342985E+03
    0.190795477782719491E+00    0.558187533462104923E+00    0.412209507020817423E+10   -0.130284906185301452E+03
    0.197101218586506866E+00    0.608620102160717380E+00    0.404647331993502140E+10   -0.130279534316010768E+03
    0.197101218586506866E+00    0.608620102160717380E+00    0.404647331993502140E+10   -0.130279534316010768E+03
    0.185530768859442308E+00    0.555654184666957818E+00    0.418671020337049150E+10   -0.130274476075968892E+03
    0.185530768859442308E+00    0.555654184666957818E+00    0.418671020337049150E+10   -0.130274476075968892E+03
    0.206194761661961379E+00    0.585592378343246622E+00    0.400475174225413656E+10   -0.130265462508310179E+03
    0.206194761661961379E+00    0.585592378343246622E+00    0.400475174225413656E+10   -0.130265462508310179E+03
    0.218877550649803798E+00    0.587251748837244847E+00    0.386926731639564133E+10   -0.130256941456141703E+03
    0.188354395884193726E+00    0.554443564590489046E+00    0.414713743484247684E+10   -0.130252548560761710E+03
    0.199241890599509697E+00    0.652124686210033389E+00    0.406325050234936190E+10   -0.130236672952993274E+03
    0.176863821824330025E+00    0.539030726260364190E+00    0.426441665447390366E+10   -0.130234651107785822E+03
    0.203750997333834116E+00    0.554552602481052759E+00    0.396541391433073187E+10   -0.130219765061916689E+03
    0.215768562282911580E+00    0.610845152075034648E+00    0.388427854958261204E+10   -0.130218804496370325E+03
    0.214055395393528969E+00    0.616495324068868200E+00    0.388262519015407324E+10   -0.130206615476154354E+03
    0.214055395393528969E+00    0.616495324068868200E+00    0.388262519015407324E+10   -0.130206615476154354E+03
    0.204052484500451936E+00    0.521640927961936285E+00    0.400283185677215099E+10   -0.130200469747562749E+03
    0.206268705542056174E+00    0.578084255040858253E+00    0.394923966116019440E+10   -0.130194295432658578E+03
    0.206268705542056174E+00    0.578084255040858253E+00    0.394923966116019440E+10   -0.130194295432658578E+03
    0.172835126541109718E+00    0.550601972958000729E+00    0.432625234466282177E+10   -0.130187328577534402E+03
    0.212985934098133711E+00    0.517532025844175791E+00    0.389229971699330711E+10   -0.130164109142197276E+03
    0.212985934098133711E+00    0.517532025844175791E+00    0.389229971699330711E+10   -0.130164109142197276E+03
    0.176226844612520306E+00    0.566120129415111251E+00    0.428445790161820650E+10   -0.130155328854286893E+03
    0.176226844612520306E+00    0.566120129415111251E+00    0.428445790161820650E+10   -0.130155328854286893E+03
    0.192214625337731038E+00    0.597020522215725435E+00    0.409475623607350063E+10   -0.130136460034442990E+03
    0.201111079996413422E+00    0.686218277320016057E+00    0.401961209385150814E+10   -0.130136112669212764E+03
    0.218654413242257262E+00    0.586457231531236189E+00    0.384760244131150246E+10   -0.130121522674248524E+03
    0.218654413242257262E+00    0.586457231531236189E+00    0.384760244131150246E+10   -0.130121522674248524E+03
    0.182484779216255610E+00    0.564584225552584584E+00    0.424159643619783735E+10   -0.130093996823654606E+03
    0.213719523617311669E+00    0.529269928842435178E+00    0.391752547290127707E+10   -0.130092706560190038E+03
    0.176688746257514240E+00    0.577410950561500158E+00    0.426440444331299925E+10   -0.130090516324480859E+03
    0.183693553408459109E+00    0.613234244120427263E+00    0.420820366179424286E+10   -0.130087246696097878E+03
    0.202627529046782551E+00    0.529211076327042562E+00    0.400321452351234627E+10   -0.130084154674345143E+03
    0.218898423480127557E+00    0.608751673906247959E+00    0.383076289309285355E+10   -0.130077835368544669E+03
    0.201882132409824999E+00    0.597521821047395818E+00    0.401098313628347492E+10   -0.130075440508078430E+03
    0.201882132409824999E+00    0.597521821047395818E+00    0.401098313628347492E+10   -0.130075440508078430E+03
    0.180274190503212972E+00    0.584568303770549136E+00    0.423554808330235386E+10   -0.130069829693366984E+03
    0.195607691982019605E+00    0.668690355772232792E+00    0.408231051278801298E+10   -0.130055910715061771E+03
    0.197038958697831168E+00    0.672638283232714684E+00    0.407171853820677376E+10   -0.130053362553593786E+03
    0.222622262258524883E+00    0.626091489948102264E+00    0.382254734445999479E+10   -0.130050280545085883E+03
    0.204720648803632665E+00    0.554116201133396657E+00    0.398359755136342287E+10   -0.130048996018445820E+03
    0.204720648803632665E+00    0.554116201133396657E+00    0.398359755136342287E+10   -0.130048996018445820E+03
    0.197607712040148487E+00    0.599182915404352201E+00    0.402817340428364611E+10   -0.130033683332351302E+03
    0.196530056852879609E+00    0.646080732931974211E+00    0.409250760639004993E+10   -0.130023007540087747E+03
    0.196530056852879609E+00    0.646080732931974211E+00    0.409250760639004993E+10   -0.130023007540087747E+03
    0.190770667038052288E+00    0.615770666428581137E+00    0.410956488866578865E+10   -0.130008633839539527E+03
    0.179004554972802377E+00    0.576814507751388206E+00    0.424136184917334890E+10   -0.130008360971333786E+03
    0.187662831194055690E+00    0.523216751847259687E+00    0.413661100615670061E+10   -0.130001551562929592E+03
    0.187662831194055690E+00    0.523216751847259687E+00    0.413661100615670061E+10   -0.130001551562929592E+03
    0.209462696731238129E+00    0.524198636318510935E+00    0.392737624786638784E+10   -0.129989072118178200E+03
    0.186408008518829105E+00    0.569906188572257832E+00    0.416490861804401302E+10   -0.129988979042854595E+03
    0.185935698215900225E+00    0.521403179767963465E+00    0.415051319024626541E+10   -0.129970842489359370E+03
    0.185935698215900225E+00    0.521403179767963465E+00    0.415051319024626541E+10   -0.129970842489359370E+03
    0.214558682485388730E+00    0.596618486852694474E+00    0.387597946232855272E+10   -0.129966850498829643E+03
    0.225224744930862031E+00    0.564460027984591051E+00    0.380333666447285748E+10   -0.129963847958826591E+03
    0.193578579118627858E+00    0.562375644146328568E+00    0.410319236335992861E+10   -0.129946735900587726E+03
    0.198518510639404400E+00    0.577493078379742286E+00    0.402101233681755829E+10   -0.129944819941082358E+03
    0.198518510639404400E+00    0.577493078379742286E+00    0.402101233681755829E+10   -0.129944819941082358E+03
    0.202155783120699484E+00    0.602659795291755174E+00    0.399794506989721346E+10   -0.129926062570594695E+03
    0.185536558303912136E+00    0.572470767192260865E+00    0.416688876895652628E+10   -0.129913433049697971E+03
    0.194390849954652223E+00    0.661675863065195102E+00    0.410672610491243744E+10   -0.129909426872977036E+03
    0.194390849954652223E+00    0.661675863065195102E+00    0.410672610491243744E+10   -0.129909426872977036E+03
    0.199257720749052569E+00    0.651205205543829990E+00    0.406794889874266911E+10   -0.129907785958331601E+03
    0.185575797372310558E+00    0.567486936576109713E+00    0.420766216118473053E+10   -0.129899924991694718E+03
    0.185575797372310558E+00    0.567486936576109713E+00    0.420766216118473053E+10   -0.129899924991694718E+03
    0.216697893520386542E+00    0.576537155629653242E+00    0.388247092996401739E+10   -0.129881096577836132E+03
    0.216697893520386542E+00    0.576537155629653242E+00    0.388247092996401739E+10   -0.129881096577836132E+03
    0.221250555468023191E+00    0.568310615404053365E+00    0.384161635988027906E+10   -0.129869484576158925E+03
    0.211068485887998092E+00    0.517965492590892751E+00    0.389465392078016567E+10   -0.129869058483747324E+03
    0.211068485887998092E+00    0.517965492590892751E+00    0.389465392078016567E+10   -0.129869058483747324E+03
    0.219857857403555124E+00    0.571324907906200607E+00    0.384373516634736395E+10   -0.129860208233877245E+03
    0.206055650165812676E+00    0.721276314943368746E+00    0.396425953590576029E+10   -0.129839785620982752E+03
    0.206055650165812676E+00    0.721276314943368746E+00    0.396425953590576029E+10   -0.129839785620982752E+03
    0.222191874165804604E+00    0.554773702297897131E+00    0.382833724922018003E+10   -0.129838251584492525E+03
    0.189094443704515169E+00    0.513095400248635869E+00    0.414285394479549837E+10   -0.129835567811630085E+03
    0.189094443704515169E+00    0.513095400248635869E+00    0.414285394479549837E+10   -0.129835567811630085E+03
    0.194805552885384259E+00    0.578081536620928205E+00    0.406749154755674458E+10   -0.129832127032943731E+03
    0.197511477795489776E+00    0.664577241209190817E+00    0.404082080974773073E+10   -0.129830146420301020E+03
    0.183604331796714593E+00    0.551463016454729171E+00    0.420014671350584173E+10   -0.129829286536759184E+03
    0.210759333678078420E+00    0.508401701078524226E+00    0.391961017238891220E+10   -0.129819703831068239E+03
    0.198950392379990959E+00    0.647246236848610934E+00    0.402662319842822075E+10   -0.129809275599978406E+03
    0.198915295557124949E+00    0.597610681430717605E+00    0.404399671065780687E+10   -0.129801399466174672E+03
    0.210741712202461073E+00    0.540945523927245375E+00    0.392337536345271492E+10   -0.129796152169823387E+03
    0.210741712202461073E+00    0.540945523927245375E+00    0.392337536345271492E+10   -0.129796152169823387E+03
    0.187945264612913776E+00    0.539846316164091178E+00    0.413191903651162195E+10   -0.129795109454853730E+03
    0.197819521392203879E+00    0.639646735012156853E+00    0.406237768455987930E+10   -0.129779179347484927E+03
    0.202826551414262146E+00    0.611204893165940177E+00    0.401276558428350830E+10   -0.129746253108226085E+03
    0.182362798132178205E+00    0.625696598951764216E+00    0.422361243901372766E+10   -0.129738751386998587E+03
    0.188641346321767434E+00    0.517944110522510215E+00    0.412448416275000620E+10   -0.129737742843098033E+03
    0.196059012018922785E+00    0.602998906254923028E+00    0.404766692014785719E+10   -0.129717885907961715E+03
    0.210818184388184393E+00    0.538334357985355894E+00    0.391567167108370876E+10   -0.129712282846063147E+03
    0.181217721855812142E+00    0.607676417861036100E+00    0.421848436181347227E+10   -0.129709342382875633E+03
    0.209148589094489246E+00    0.533609243148831069E+00    0.394413805354052925E+10   -0.129706412207609219E+03
    0.202976241785667588E+00    0.611213804540767569E+00    0.400259746143168116E+10   -0.129705556612129783E+03
    0.187428334437320654E+00    0.535823939545567285E+00    0.413798787577833223E+10   -0.129695843520977178E+03
    0.189200514400342246E+00    0.547411449733232303E+00    0.412872121835305691E+10   -0.129693903192547680E+03
    0.189200514400342246E+00    0.547411449733232303E+00    0.412872121835305691E+10   -0.129693903192547680E+03
    0.189393947789615436E+00    0.495480961856138435E+00    0.411951037745037794E+10   -0.129671204484919173E+03
    0.189393947789615436E+00    0.495480961856138435E+00    0.411951037745037794E+10   -0.129671204484919173E+03
    0.206678917476102897E+00    0.584972952210057073E+00    0.396368256802918673E+10   -0.129666040542761863E+03
    0.194882856091452505E+00    0.551215593138977056E+00    0.409088953432759428E+10   -0.129658451752304131E+03
    0.194642171764416561E+00    0.649899558076551642E+00    0.408865437585189819E+10   -0.129656901758279275E+03
    0.194642171764416561E+00    0.649899558076551642E+00    0.408865437585189819E+10   -0.129656901758279275E+03
    0.189574984279414660E+00    0.535917606721040940E+00    0.413244453082614994E+10   -0.129649780225745587E+03
    0.179055904537451072E+00    0.560442693014914894E+00    0.423981869228531647E+10   -0.129639703977036078E+03
    0.196610918915005983E+00    0.593625385108698111E+00    0.405841721163570929E+10   -0.129635182273667482E+03
    0.224112314839482019E+00    0.562691258774190572E+00    0.380701818809439802E+10   -0.129631192581196075E+03
    0.191754597532324822E+00    0.492884277464881393E+00    0.411701964699221325E+10   -0.129628724858195255E+03
    0.179913957839676231E+00    0.581529436076591466E+00    0.423663864242515659E+10   -0.129624181865460571E+03
    0.179913957839676231E+00    0.581529436076591466E+00    0.423663864242515659E+10   -0.129624181865460571E+03
    0.211573662719359401E+00    0.635569808994429053E+00    0.391651050455471373E+10   -0.129612021798866607E+03
    0.205328368272741923E+00    0.600532437095967708E+00    0.398179288678051758E+10   -0.129602775179458774E+03
    0.186885523479167315E+00    0.509168558425054485E+00    0.416346009822457266E+10   -0.129589828599275961E+03
    0.196347245827535100E+00    0.637636850111869435E+00    0.405999206843365335E+10   -0.129588856591553991E+03
    0.195097778227870000E+00    0.659965680432595292E+00    0.410011827990125036E+10   -0.129577150339533716E+03
    0.195097778227870000E+00    0.659965680432595292E+00    0.410011827990125036E+10   -0.129577150339533716E+03
    0.209221144716808471E+00    0.573284044570314677E+00    0.396071444862590456E+10   -0.129574344434010953E+03
    0.207864940777942986E+00    0.624231973886232083E+00    0.395120220593171453E+10   -0.129564849439783757E+03
    0.207864940777942986E+00    0.624231973886232083E+00    0.395120220593171453E+10   -0.129564849439783757E+03
    0.193388859934541579E+00    0.585722690412424640E+00    0.408032752797038651E+10   -0.129564307512111725E+03
    0.193388859934541579E+00    0.585722690412424640E+00    0.408032752797038651E+10   -0.129564307512111725E+03
    0.217822270505459992E+00    0.557661302609513854E+00    0.387985710956904316E+10   -0.129559955290427979E+03
    0.217822270505459992E+00    0.557661302609513854E+00    0.387985710956904316E+10   -0.129559955290427979E+03
    0.209814206332706976E+00    0.520645738915222367E+00    0.392060583233437014E+10   -0.129540607288126949E+03
    0.203234723798357608E+00    0.596647212993410392E+00    0.400358259725617456E+10   -0.129537405104439131E+03
    0.203234723798357608E+00    0.596647212993410392E+00    0.400358259725617456E+10   -0.129537405104439131E+03
    0.217985867472195949E+00    0.581418401339456992E+00    0.386251318940627480E+10   -0.129536296529865353E+03
    0.190942905613102898E+00    0.602061991192075041E+00    0.409986698772993374E+10   -0.129532154833672593E+03
    0.190942905613102898E+00    0.602061991192075041E+00    0.409986698772993374E+10   -0.129532154833672593E+03
    0.197690096195747456E+00    0.539677782982066034E+00    0.406172739073466873E+10   -0.129530238230897112E+03
    0.197690096195747456E+00    0.539677782982066034E+00    0.406172739073466873E+10   -0.129530238230897112E+03
    0.192878292535496820E+00    0.494210803462165060E+00    0.409321772777158546E+10   -0.129526283393546777E+03
    0.196881997388640928E+00    0.670490572317600453E+00    0.408595010162133503E+10   -0.129526190430795310E+03
    0.200682326301254099E+00    0.696419328266530968E+00    0.402139766494833231E+10   -0.129520636508304648E+03
    0.200682326301254099E+00    0.696419328266530968E+00    0.402139766494833231E+10   -0.129520636508304648E+03
    0.201339322815095645E+00    0.599156960828562291E+00    0.403055159759350824E+10   -0.129501478699749782E+03
    0.195985896912432012E+00    0.584964175331819547E+00    0.406614422001284218E+10   -0.129493220476740873E+03
    0.202188975213693056E+00    0.516485652013901841E+00    0.400246500485188341E+10   -0.129487943569995423E+03
    0.200549929392490833E+00    0.563742074969926676E+00    0.402402920381786489E+10   -0.129485817344243372E+03
    0.198508666384229426E+00    0.736385955536993819E+00    0.403661442466683865E+10   -0.129484300170898507E+03
    0.199087238522799415E+00    0.716666642520040753E+00    0.403807835593612576E+10   -0.129482858136724474E+03
    0.216034615532345098E+00    0.548482914939953048E+00    0.386860741828420544E+10   -0.129480728491148341E+03
    0.197317863684591921E+00    0.612432424639674622E+00    0.404836599060733843E+10   -0.129471377756736473E+03
    0.217766106944800475E+00    0.544874024493164910E+00    0.387908535026226187E+10   -0.129460804503902580E+03
    0.197606052601529081E+00    0.645861792707361104E+00    0.404239543894723129E+10   -0.129456434629052552E+03
    0.213520398576699855E+00    0.565735001910836033E+00    0.390554444377276278E+10   -0.129443215220498701E+03
    0.201160973283694922E+00    0.597941753329845227E+00    0.401149839777399111E+10   -0.129436064308787024E+03
    0.192743566796057586E+00    0.585006514767078656E+00    0.410336030720887041E+10   -0.129419851731226174E+03
    0.195828312283739314E+00    0.662861190878373918E+00    0.409616854681472254E+10   -0.129419465402327916E+03
    0.191783350870660785E+00    0.591033508499966942E+00    0.409364176254648924E+10   -0.129409581448945175E+03
    0.191783350870660785E+00    0.591033508499966942E+00    0.409364176254648924E+10   -0.129409581448945175E+03
    0.187234380399867673E+00    0.566119977926089035E+00    0.415757223685255480E+10   -0.129405011349659219E+03
    0.183430706145144062E+00    0.551024632652003632E+00    0.421887733406959820E+10   -0.129394421050804340E+03
    0.192758877807160112E+00    0.567259813878903785E+00    0.410185200119588327E+10   -0.129392643783339594E+03
    0.199824313282010779E+00    0.673664083855499030E+00    0.402844971790160179E+10   -0.129388871804042651E+03
    0.190562279594895523E+00    0.541091574643912665E+00    0.411415663404416656E+10   -0.129374035945104396E+03
    0.200437949430089468E+00    0.676042794511813483E+00    0.402958720926787663E+10   -0.129372888256846096E+03
    0.199450503233729759E+00    0.692393924637752178E+00    0.404065180019055939E+10   -0.129362796628720162E+03
    0.201184014297745517E+00    0.670099619768576460E+00    0.403209815159543562E+10   -0.129358569934083960E+03
    0.202280973024701938E+00    0.554012800669642758E+00    0.400463270031244755E+10   -0.129341238796597111E+03
    0.194258838257749422E+00    0.588551271471036586E+00    0.406998524358204508E+10   -0.129335713264110552E+03
    0.208928748923682739E+00    0.655396408908419659E+00    0.394278256954982567E+10   -0.129334993201192816E+03
    0.200381647573554700E+00    0.560104644118082362E+00    0.402126439809139585E+10   -0.129334796917303720E+03
    0.200381647573554700E+00    0.560104644118082362E+00    0.402126439809139585E+10   -0.129334796917303720E+03
    0.215540827133280988E+00    0.544919838167754023E+00    0.389660763734871674E+10   -0.129333383770369267E+03
    0.187041076353614499E+00    0.532375077664358543E+00    0.414770443931938314E+10   -0.129326575026626017E+03
    0.188541785028163600E+00    0.595655833150354752E+00    0.413782625374248600E+10   -0.129325123824764063E+03
    0.188100397317246981E+00    0.542714805439203474E+00    0.414253697219699478E+10   -0.129314218169817593E+03
    0.201685935133880445E+00    0.561730792182469685E+00    0.401741859055470705E+10   -0.129314200191750729E+03
    0.217341281599429725E+00    0.538830101206077217E+00    0.385519732294233561E+10   -0.129313863766708579E+03
    0.197704631169903000E+00    0.647900569648268032E+00    0.405048320935749054E+10   -0.129300533255422067E+03
    0.200071291684804142E+00    0.671616543606726069E+00    0.402782883071870804E+10   -0.129293853626385754E+03
    0.200574362777295123E+00    0.611769911591309778E+00    0.403232437706603384E+10   -0.129289285742389893E+03
    0.216806139563176736E+00    0.542921079746198743E+00    0.387052983869939327E+10   -0.129287463943644752E+03
    0.203531078328707760E+00    0.565937488815350775E+00    0.400984843074257994E+10   -0.129282917267435550E+03
    0.209145051304571838E+00    0.695737370167492486E+00    0.393701544264901638E+10   -0.129260559109774078E+03
    0.218502882334580151E+00    0.541603209360964399E+00    0.384827000526085234E+10   -0.129256468400104040E+03
    0.202878508164391014E+00    0.661106201330625254E+00    0.401331731073581076E+10   -0.129251367057290111E+03
    0.195663353609802082E+00    0.553795833408820215E+00    0.409166132881553745E+10   -0.129249166511810017E+03
    0.186422537347804118E+00    0.538026215097374916E+00    0.416499531693992090E+10   -0.129245124075780154E+03
    0.215920988349635523E+00    0.529594240836290808E+00    0.389129383331831932E+10   -0.129242472452099065E+03
    0.196064076566719592E+00    0.629979293785588368E+00    0.406544408441171026E+10   -0.129242239517319547E+03
    0.186187896028077116E+00    0.576713154439516984E+00    0.416205948577665520E+10   -0.129233746121565872E+03
    0.196185083033600050E+00    0.667774845307818055E+00    0.406448598108963299E+10   -0.129228255871692852E+03
    0.209202264657167958E+00    0.560575362857939297E+00    0.393467555224031591E+10   -0.129226647345106073E+03
    0.195952187585788973E+00    0.522029366584636279E+00    0.407548702193627882E+10   -0.129224958136762751E+03
    0.200619151595730238E+00    0.563899672106874306E+00    0.402722608745670795E+10   -0.129220982679051275E+03
    0.192831615019466607E+00    0.565068849220587310E+00    0.409214570033349705E+10   -0.129209949421473482E+03
    0.211011933112076999E+00    0.546518246014080944E+00    0.393518397310672379E+10   -0.129206100035618078E+03
    0.198463386072011472E+00    0.725764950630962247E+00    0.404037582311086226E+10   -0.129202131900077745E+03
    0.204003695363572102E+00    0.601064637842640082E+00    0.397522460306567144E+10   -0.129193752088579572E+03
    0.191511592052403534E+00    0.532453524857142924E+00    0.412094488919261456E+10   -0.129191336383410601E+03
    0.201646223194824337E+00    0.592978001535925614E+00    0.401587299755461025E+10   -0.129190335668234781E+03
    0.201975650846078159E+00    0.577234001813888398E+00    0.400571562856701708E+10   -0.129181355010713219E+03
    0.190236759744149719E+00    0.561420545887767020E+00    0.412909424264229822E+10   -0.129166823637135820E+03
    0.198085015887988880E+00    0.649819945054053605E+00    0.405911484694721842E+10   -0.129163443931811457E+03
    0.203110353662355803E+00    0.513721516466636885E+00    0.400039231807235384E+10   -0.129151119737669291E+03
    0.219336101742332590E+00    0.546378523434469798E+00    0.384674659226740551E+10   -0.129148920076087393E+03
    0.189379581949222386E+00    0.540645012703590666E+00    0.413894256930443811E+10   -0.129140533313051264E+03
    0.195083067522253018E+00    0.504138535910501062E+00    0.409294440606225586E+10   -0.129125793106231527E+03
    0.214295347230545496E+00    0.535205039691346585E+00    0.389214800345514679E+10   -0.129117839837313966E+03
    0.221408948114084903E+00    0.578656378879712108E+00    0.383144839134999466E+10   -0.129117700684150265E+03
    0.191107007106165017E+00    0.580895723887646653E+00    0.411213303947634792E+10   -0.129114330272922984E+03
    0.207084397663329089E+00    0.549103278942663309E+00    0.395995147826872540E+10   -0.129113630468686125E+03
    0.219042655664694330E+00    0.541329762385240443E+00    0.384353395434199381E+10   -0.129107743915288466E+03
    0.195359291627530629E+00    0.575766915499837495E+00    0.407610222644162989E+10   -0.129103335214955052E+03
    0.195151627579223608E+00    0.624464768658064884E+00    0.406913762865487862E+10   -0.129085368358298751E+03
    0.194006689631450013E+00    0.647183899310942223E+00    0.412183503891154099E+10   -0.129084979072243300E+03
    0.195709655474663513E+00    0.600188425315383967E+00    0.407174253376103592E+10   -0.129077098696236192E+03
    0.202721950810081042E+00    0.571598094140126634E+00    0.399298886202675962E+10   -0.129069197321329739E+03
    0.200238258550097969E+00    0.559862740151578109E+00    0.402805388955631971E+10   -0.129069026706776924E+03
    0.201567947589718355E+00    0.552125250617475416E+00    0.402157747960634089E+10   -0.129041643250028983E+03
    0.211832482882502227E+00    0.607271473385424088E+00    0.391530232902977276E+10   -0.129031073907371706E+03
    0.194698041831873947E+00    0.640839468870568751E+00    0.409421519441987610E+10   -0.129019665328675387E+03
    0.201473006149198997E+00    0.555555815926116026E+00    0.400878690952659273E+10   -0.129018367809689863E+03
    0.198477307634517874E+00    0.528591916308165821E+00    0.404491276225771046E+10   -0.129015509679806826E+03
    0.214801177863653270E+00    0.537579038787733055E+00    0.390352262965423632E+10   -0.129008320561703528E+03
    0.188404502626896453E+00    0.496375665062018356E+00    0.414779769974113607E+10   -0.129003440764075151E+03
    0.213050770454384031E+00    0.596456212325751522E+00    0.389815766044616938E+10   -0.129002279050957753E+03
    0.201943660877325182E+00    0.569360070149221187E+00    0.399080100312845135E+10   -0.129001143794012108E+03
    0.197648939170504689E+00    0.521252322500917131E+00    0.405717876991567469E+10   -0.128981852262051348E+03
    0.191351830624512997E+00    0.492655889322708873E+00    0.411239790725628757E+10   -0.128971374603787581E+03
    0.200624254960834580E+00    0.566810919038044148E+00    0.401287279578559923E+10   -0.128964290690448934E+03
    0.193535201010748892E+00    0.557991231120224640E+00    0.409511548659921741E+10   -0.128962898036326749E+03
    0.193268579779841909E+00    0.588852551923688239E+00    0.408356256112745953E+10   -0.128962817587246121E+03
    0.209829595878114894E+00    0.678640940647838420E+00    0.393157109023239422E+10   -0.128962009918552894E+03
    0.218288916383727549E+00    0.584873849112410582E+00    0.386279348758447838E+10   -0.128951561279847454E+03
    0.212422315350502711E+00    0.599523812561816527E+00    0.390126951867624950E+10   -0.128946642089030803E+03
    0.205125558638612260E+00    0.637393712159786574E+00    0.398364018374299860E+10   -0.128944558063488557E+03
    0.192501193356491296E+00    0.496357302348531704E+00    0.410225282448954630E+10   -0.128941445187906368E+03
    0.194404751828527012E+00    0.561259683220335148E+00    0.407734460621316338E+10   -0.128940369024302925E+03
    0.203348857650130332E+00    0.615169162890875754E+00    0.398625703227422428E+10   -0.128939330468177047E+03
    0.194171025592021873E+00    0.595372144834662720E+00    0.409646749675334406E+10   -0.128924777767938963E+03
    0.192296716236749932E+00    0.539904957406633912E+00    0.409464428107283163E+10   -0.128920094990142246E+03
    0.192864609411716625E+00    0.565683498289866193E+00    0.409634040804877901E+10   -0.128898962919249527E+03
    0.205542704820349253E+00    0.551575057766672927E+00    0.397321552879350185E+10   -0.128887795585381468E+03
    0.199073758319606886E+00    0.604015608619592470E+00    0.403174987188432693E+10   -0.128883986678545966E+03
    0.210302354944764569E+00    0.625581256543108921E+00    0.393325867546898413E+10   -0.128878632510563534E+03
    0.202681800595017669E+00    0.559828181597037400E+00    0.402134061656342173E+10   -0.128863853464961153E+03
    0.204305979158551310E+00    0.618431662328367437E+00    0.397427297518467331E+10   -0.128863134712173405E+03
    0.198155923130129918E+00    0.652403943231782080E+00    0.405815653057031202E+10   -0.128855725310921571E+03
    0.201296780066113401E+00    0.689057389835468825E+00    0.402287077656197977E+10   -0.128852814106116398E+03
    0.204466625634785792E+00    0.584171145625917987E+00    0.398534863002092838E+10   -0.128847288883132506E+03
    0.200051230854632112E+00    0.513958985437790616E+00    0.402562287008186483E+10   -0.128844305758260475E+03
    0.206056918510392428E+00    0.591040598816473306E+00    0.398537562283332920E+10   -0.128837536662059279E+03
    0.199989545019952364E+00    0.568407884219359616E+00    0.401245993631197166E+10   -0.128833381416492159E+03
    0.192172647439984634E+00    0.583690122966080693E+00    0.410792390956182718E+10   -0.128827231214537164E+03
    0.190609468178334907E+00    0.566703999454796659E+00    0.413036960794101381E+10   -0.128802319371872670E+03
    0.231677392950087546E+00    0.701019889898757853E+00    0.375590132415504885E+10   -0.128798315144514305E+03
    0.196690097033006606E+00    0.536105451664528943E+00    0.406317990301009369E+10   -0.128781652333822535E+03
    0.201852353103033011E+00    0.564386495777384312E+00    0.403945993559588861E+10   -0.128776168139599861E+03
    0.218958247184168231E+00    0.542877799901940961E+00    0.385343728008274269E+10   -0.128774260675956441E+03
    0.195371078801051645E+00    0.653466433976408467E+00    0.410258876684812212E+10   -0.128771406871820716E+03
    0.191017785501589488E+00    0.499819513813221761E+00    0.410646579593334675E+10   -0.128747454619599353E+03
    0.203874925046104105E+00    0.615852871287327019E+00    0.400252606237778759E+10   -0.128745873866367361E+03
    0.203697847167284951E+00    0.604333551708958083E+00    0.401618382646540499E+10   -0.128731602449753694E+03
    0.202214416613588965E+00    0.670609998106693084E+00    0.400578586200277901E+10   -0.128720863588752110E+03
    0.232738012065035360E+00    0.683415615716707947E+00    0.374590833447239208E+10   -0.128655338628385294E+03
    0.225698522894011211E+00    0.660188006719504727E+00    0.380469397242841291E+10   -0.127542511590838700E+03
    0.225698522894011211E+00    0.660188006719504727E+00    0.380469397242841291E+10   -0.127542511590838700E+03
    0.224241905494709293E+00    0.634511088527325740E+00    0.381433883141762352E+10   -0.128670659383778627E+03
    0.227111456468385819E+00    0.677236475983470143E+00    0.379391010803825712E+10   -0.127677003147937711E+03
    0.227111456468385819E+00    0.677236475983470143E+00    0.379391010803825712E+10   -0.127677003147937711E+03
    0.222908165682955350E+00    0.660432935628827877E+00    0.382926881927738094E+10   -0.128215769596452446E+03
    0.220643271733054702E+00    0.567304984658338896E+00    0.384126676091490698E+10   -0.127961192875092792E+03
    0.223282897395547908E+00    0.589432833446675630E+00    0.381901138406465578E+10   -0.128606825347708536E+03
    0.220626469966291927E+00    0.615346376640415471E+00    0.384548563414710855E+10   -0.128390645333132994E+03
    0.224500592646258990E+00    0.649460742003689973E+00    0.381488805681507397E+10   -0.128089704752217926E+03
    0.228593753924389465E+00    0.677718724714612364E+00    0.378049953770633650E+10   -0.127930003653151147E+03
    0.222643509927039185E+00    0.605808969320278834E+00    0.382628682546947765E+10   -0.128552217978360034E+03
    0.222792946199936615E+00    0.580504293129955329E+00    0.382355344058621168E+10   -0.128327061558507296E+03
    0.227586589846053122E+00    0.615554478424229501E+00    0.378465631640903091E+10   -0.128300130003477818E+03
    0.211872111002677610E+00    0.607948103699644804E+00    0.392418736944061756E+10   -0.127982118960266050E+03
    0.213958892917662846E+00    0.529133615508111887E+00    0.390250432520905924E+10   -0.127696353427481313E+03
    0.213958892917662846E+00    0.529133615508111887E+00    0.390250432520905924E+10   -0.127696353427481313E+03
    0.214603241782048704E+00    0.534018987324200722E+00    0.388871111866164064E+10   -0.128269449013438049E+03
    0.214177599020799081E+00    0.543882733407809127E+00    0.391000087147822571E+10   -0.128395572121461015E+03
    0.214737091048682105E+00    0.536368427636684686E+00    0.391092307848330069E+10   -0.127936256567411277E+03
    0.203367402378316797E+00    0.560335007926495265E+00    0.400795478164258814E+10   -0.128555178879587572E+03
    0.202165314193454182E+00    0.564494145316134066E+00    0.401424757981887865E+10   -0.128475815191287097E+03
    0.206954187610426110E+00    0.550262024384970516E+00    0.396788018374270678E+10   -0.127633992452826092E+03
    0.206954187610426110E+00    0.550262024384970516E+00    0.396788018374270678E+10   -0.127633992452826092E+03
    0.217686643111197620E+00    0.541753511155837586E+00    0.387376314053111935E+10   -0.128691226184985283E+03
    0.217595947810074297E+00    0.546199410760351611E+00    0.387376312800617218E+10   -0.127885727259373112E+03
    0.217595947810074297E+00    0.546199410760351611E+00    0.387376312800617218E+10   -0.127885727259373112E+03
    0.216897665056967948E+00    0.558518687770700240E+00    0.387978604171988821E+10   -0.128485872221970283E+03
    0.219358412697182925E+00    0.544202266468099438E+00    0.385417328454282379E+10   -0.128049401921488851E+03
    0.219485431423818211E+00    0.539401099418661545E+00    0.385474390150316381E+10   -0.128063582740775814E+03
    0.218406270171506545E+00    0.550511115338796486E+00    0.386413695442476606E+10   -0.128204971889458335E+03
    0.197691035940762372E+00    0.673031860675394000E+00    0.405881691617966700E+10   -0.128588097873578704E+03
    0.198671740577833544E+00    0.657321638946299913E+00    0.406125715235385084E+10   -0.128602898142014794E+03
    0.199180152505468167E+00    0.651506844636200455E+00    0.404809669496276760E+10   -0.128582126372518985E+03
    0.198976794083132014E+00    0.644255084328655414E+00    0.406129872108548450E+10   -0.128575088256407184E+03
    0.199013752971426205E+00    0.642999900254366707E+00    0.405458482164041567E+10   -0.128525050056999646E+03
    0.202379705297630386E+00    0.667872537228413776E+00    0.401330272011390543E+10   -0.128431772035193660E+03
    0.208570204838875173E+00    0.675174413382420013E+00    0.394361311627940893E+10   -0.128610169608082060E+03
    0.203118079796233086E+00    0.662312237066780440E+00    0.400230417724334288E+10   -0.128421580714976642E+03
    0.206141026810421291E+00    0.664287970991795262E+00    0.396754056798922920E+10   -0.128507645778406470E+03
    0.203818481521128636E+00    0.645782050484227099E+00    0.399428303049493933E+10   -0.128349741606976181E+03
    0.203316870642556824E+00    0.635105582704884597E+00    0.400274777278726673E+10   -0.128368580744406614E+03
    0.203263985961850857E+00    0.644214080186657156E+00    0.399962010475658035E+10   -0.128354980975946461E+03
    0.200763569574852974E+00    0.650650474017687941E+00    0.401915517849817848E+10   -0.128600375949356703E+03
    0.202832750939614670E+00    0.619936970992561953E+00    0.400936466630759335E+10   -0.128292113807738815E+03
    0.204405985216034813E+00    0.618203540073608337E+00    0.399312958902712584E+10   -0.128592858951720359E+03
    0.202957373422509024E+00    0.617041213607285144E+00    0.400764772389794111E+10   -0.128516109439504248E+03
    0.203988831278227256E+00    0.599364790896068200E+00    0.399901680791646338E+10   -0.128337487622791514E+03
    0.204935003536304061E+00    0.595195905112284152E+00    0.399471960977451420E+10   -0.128040226607869101E+03
    0.204931105880629127E+00    0.589256102754481148E+00    0.397919908880336142E+10   -0.128444431430641316E+03
    0.204257904534580204E+00    0.594980506600331083E+00    0.401101265028703165E+10   -0.128280703533129497E+03
    0.204472158672437565E+00    0.600341030526852393E+00    0.398430235204219818E+10   -0.128158994870868327E+03
    0.204851153093046856E+00    0.587534506063525086E+00    0.398799296150133610E+10   -0.127888938398342106E+03
    0.204851153093046856E+00    0.587534506063525086E+00    0.398799296150133610E+10   -0.127888938398342106E+03
    0.203305627085123675E+00    0.588061546206619212E+00    0.399903420464282131E+10   -0.128219859365450702E+03
    0.202938875904710769E+00    0.590137508662468946E+00    0.400843862034411383E+10   -0.128645009782709991E+03
    0.202727638353291717E+00    0.596194697078471947E+00    0.402180769860071135E+10   -0.128552435718729242E+03
    0.204507736924348371E+00    0.586010820827340240E+00    0.398392091784627914E+10   -0.128150714765586287E+03
    0.204507736924348371E+00    0.586010820827340240E+00    0.398392091784627914E+10   -0.128150714765586287E+03
    0.203125622989864030E+00    0.591476290609227462E+00    0.402074649164867783E+10   -0.128366280208033004E+03
    0.203310577172808649E+00    0.589262441956229566E+00    0.400211102885151100E+10   -0.128097874294105623E+03
    0.192170015245399894E+00    0.588534189034328747E+00    0.410938798686021519E+10   -0.128562985456256570E+03
    0.191832565722480752E+00    0.566880001930723409E+00    0.411549418020619011E+10   -0.128540515962614847E+03
    0.192009363466120409E+00    0.569974448313406157E+00    0.412100066853194952E+10   -0.128608230356802920E+03
    0.194368165467016463E+00    0.560604762487358244E+00    0.408170866930874825E+10   -0.128663119689255723E+03
    0.193663142883752082E+00    0.557802556457684062E+00    0.410723681801074553E+10   -0.128154052666310093E+03
    0.195811470182169767E+00    0.559650743502261960E+00    0.409850732695128107E+10   -0.128313506081049439E+03
    0.195856566238037599E+00    0.560137751723470245E+00    0.408732560090236378E+10   -0.127996331120924225E+03
    0.194659618227486120E+00    0.561565651521767961E+00    0.410024887481579018E+10   -0.128221653987342563E+03
    0.194577759515892568E+00    0.557689389586744966E+00    0.409528890902415514E+10   -0.128264137039560751E+03
    0.197268409013603041E+00    0.553011629450502085E+00    0.406822250121213579E+10   -0.128609633709276608E+03
    0.200143585850432015E+00    0.542808577152255722E+00    0.405439409191655922E+10   -0.127953336096997973E+03
    0.200143585850432015E+00    0.542808577152255722E+00    0.405439409191655922E+10   -0.127953336096997973E+03
    0.200650148382736149E+00    0.540846738867006849E+00    0.405126343388559294E+10   -0.128671821297623808E+03
    0.201229357237730888E+00    0.581667534185484669E+00    0.402814050115901613E+10   -0.127703899667658803E+03
    0.199841005109321901E+00    0.581557633857183731E+00    0.403665672159826517E+10   -0.128533465919028686E+03
    0.198350298408271342E+00    0.578620364097703899E+00    0.404877539331457376E+10   -0.128494406992122265E+03
    0.199342618069617505E+00    0.565618785839465232E+00    0.404976081328843355E+10   -0.128399607399098443E+03
    0.194531658971916432E+00    0.631751806804032867E+00    0.409078701632882309E+10   -0.128644789035240933E+03
    0.197933906701355300E+00    0.515964185286890142E+00    0.405431035193693161E+10   -0.128024466567410201E+03
    0.197933906701355300E+00    0.515964185286890142E+00    0.405431035193693161E+10   -0.128024466567410201E+03
    0.196004084629268827E+00    0.530329279129160724E+00    0.406849553926134348E+10   -0.128466842367694028E+03
    0.196044615846214632E+00    0.530376720709019978E+00    0.406684899492790937E+10   -0.128211653495484626E+03
    0.196044615846214632E+00    0.530376720709019978E+00    0.406684899492790937E+10   -0.128211653495484626E+03
    0.199305398412266743E+00    0.517773110602824715E+00    0.403671549348612547E+10   -0.128225192647327816E+03
    0.201251084909846445E+00    0.525601916800543023E+00    0.401509644819443941E+10   -0.128145161449504684E+03
    0.203247226658927693E+00    0.511137442432348266E+00    0.399827737608181143E+10   -0.128687203018632232E+03
    0.201478117892985364E+00    0.521504391678513812E+00    0.401774170207649279E+10   -0.128594727285168176E+03
    0.198507274009913526E+00    0.528659745743620846E+00    0.404543990920762205E+10   -0.128556678350703976E+03
    0.201389144434141132E+00    0.512695490091017447E+00    0.401268605163862991E+10   -0.128421622190725685E+03
    0.202500659760185220E+00    0.556826797506172255E+00    0.402074060989249516E+10   -0.128110620086566598E+03
    0.199678916538999995E+00    0.567873078793553532E+00    0.402766319307720041E+10   -0.128216266488272083E+03
    0.201728588884595550E+00    0.563573691908414887E+00    0.403379390289311457E+10   -0.127593744699771037E+03
    0.201728588884595550E+00    0.563573691908414887E+00    0.403379390289311457E+10   -0.127593744699771037E+03
    0.202320754499307698E+00    0.559901971491221673E+00    0.402109487349346876E+10   -0.128412625238159791E+03
    0.202185425584000489E+00    0.556035824601515571E+00    0.402036188004400635E+10   -0.128546584499382561E+03
    0.201625026219158954E+00    0.565719089410805509E+00    0.403790398672832012E+10   -0.127889426312282723E+03
    0.201625026219158954E+00    0.565719089410805509E+00    0.403790398672832012E+10   -0.127889426312282723E+03
