    0.330400159728193255E+00    0.662796421808167224E+00    0.107846114651550388E+11   -0.139337354220800137E+03
    0.334927938620712184E+00    0.712193432705509721E+00    0.108401280113591576E+11   -0.139031096945766137E+03
    0.316752123033379629E+00    0.801176188316928162E+00    0.110650340579235268E+11   -0.138940169193169709E+03
    0.385749555354202300E+00    0.679862091357449572E+00    0.101420402410065079E+11   -0.137974784704152881E+03
    0.360472703035561060E+00    0.593461515919642579E+00    0.103656623915621815E+11   -0.137564360866494781E+03
    0.359734265290696853E+00    0.587329152655456710E+00    0.103330827387820702E+11   -0.137524169872821290E+03
    0.372501683019470564E+00    0.717561371015902338E+00    0.102499967704638748E+11   -0.137265655019935366E+03
    0.354459033476810181E+00    0.603082309527913196E+00    0.106120999421957664E+11   -0.137240198689043098E+03
    0.352036429306590959E+00    0.584205889973718584E+00    0.104406736021629982E+11   -0.137064381988151297E+03
    0.283795788733438359E+00    0.583196435035144845E+00    0.117066261482886677E+11   -0.137019942613743609E+03
    0.394677400215213525E+00    0.677383774371572045E+00    0.100523066154712162E+11   -0.137000173392630813E+03
    0.360582403139353913E+00    0.722312638031496590E+00    0.103371349910217228E+11   -0.136929782835783726E+03
    0.386875448664123489E+00    0.724542006150347362E+00    0.100279086647801285E+11   -0.136924765352171875E+03
    0.323170498191733213E+00    0.594345539578339910E+00    0.109235335019093571E+11   -0.136904413194291521E+03
    0.291434646303774691E+00    0.549817264607415979E+00    0.114419263822511330E+11   -0.136871004984422711E+03
    0.290074747754683115E+00    0.633629942759863951E+00    0.115211097196575012E+11   -0.136688583233533222E+03
    0.309969559636424141E+00    0.670871674421116282E+00    0.112507093314478931E+11   -0.136404157875695432E+03
    0.318138536358061608E+00    0.707773018126898634E+00    0.111301592183013477E+11   -0.136357303602863027E+03
    0.371052483718441906E+00    0.692387824462873169E+00    0.103338717104282074E+11   -0.136338318747617137E+03
    0.329853083799753088E+00    0.707124034900697751E+00    0.107216111927795238E+11   -0.136335085304185071E+03
    0.372580599280973312E+00    0.633560834992771049E+00    0.103153468036164341E+11   -0.136290364086673918E+03
    0.296315096568165626E+00    0.670320832028512115E+00    0.114163290184672585E+11   -0.136284561810697483E+03
    0.302497612249359227E+00    0.622819060488794207E+00    0.114084276269692287E+11   -0.136134689258347066E+03
    0.357267349743843443E+00    0.618815527791337416E+00    0.105232476521375961E+11   -0.136044514437322334E+03
    0.371450483149948329E+00    0.629325614262889133E+00    0.103090192776371269E+11   -0.135988752180285815E+03
    0.330319210620874659E+00    0.591544756327365917E+00    0.108954530740049286E+11   -0.135982219606307353E+03
    0.352630958421963403E+00    0.606031356837315016E+00    0.106187830212846069E+11   -0.135970817590750016E+03
    0.327111729987234201E+00    0.766351154947555457E+00    0.108567451922798767E+11   -0.135952872514726693E+03
    0.315461511277070006E+00    0.694356497276654494E+00    0.111669986927346134E+11   -0.135950833706667822E+03
    0.382822856271839818E+00    0.652536002849927854E+00    0.100530354345790920E+11   -0.135942503903367282E+03
    0.365746299055659863E+00    0.631182276910758233E+00    0.102836446994456749E+11   -0.135933719040473761E+03
    0.349517008796947859E+00    0.680336399973267447E+00    0.105372492204104710E+11   -0.135928025595299829E+03
    0.334023942406284524E+00    0.659249334465133785E+00    0.109109228148078213E+11   -0.135905042502555432E+03
    0.318762979763937415E+00    0.695472404878314521E+00    0.109678998585215969E+11   -0.135904850134624155E+03
    0.328057990415968670E+00    0.729303206417759142E+00    0.108877742922733555E+11   -0.135885457028649171E+03
    0.349342728503551470E+00    0.601651015034336822E+00    0.104738523702542095E+11   -0.135852622863874103E+03
    0.332384232925899747E+00    0.695061880307957125E+00    0.108953195510923481E+11   -0.135751095478570818E+03
    0.347864849022755107E+00    0.706373420054934087E+00    0.105769131695266933E+11   -0.135733354035180611E+03
    0.370308048552616120E+00    0.606490299913309272E+00    0.103749139779177952E+11   -0.135671792861532822E+03
    0.385868174372853812E+00    0.756778711979304575E+00    0.101308961832414932E+11   -0.135648888388513825E+03
    0.326315436209352328E+00    0.524458402078881392E+00    0.109660889610045853E+11   -0.135627110305400834E+03
    0.335979144382863082E+00    0.565262224025104842E+00    0.107394145517381077E+11   -0.135595069443893323E+03
    0.339381094296606900E+00    0.581064731821863134E+00    0.106140537718445244E+11   -0.135546113112147623E+03
    0.328438786272114147E+00    0.679253588065009239E+00    0.108383032509173603E+11   -0.135540816552270684E+03
    0.368256337070000939E+00    0.655747539225455256E+00    0.102857107833092918E+11   -0.135538042034389235E+03
    0.291819079912354729E+00    0.653723102078483720E+00    0.114692830482483940E+11   -0.135534364627752211E+03
    0.342934149735818317E+00    0.670656483392885860E+00    0.106298353247268887E+11   -0.135519399994108966E+03
    0.316465144358254902E+00    0.515753548691650465E+00    0.111653352627382736E+11   -0.135438725710913332E+03
    0.319017644919352084E+00    0.723728895283040075E+00    0.110865015164796581E+11   -0.135417449891849373E+03
    0.332424565780522208E+00    0.726999507573399484E+00    0.108564162004185944E+11   -0.135403977477165256E+03
    0.329853052732093532E+00    0.715071515983709105E+00    0.110318743940505257E+11   -0.135375912561525183E+03
    0.317104813651504336E+00    0.623075969218158221E+00    0.109837074060271358E+11   -0.135363558478001778E+03
    0.295977303841261308E+00    0.623041995403143645E+00    0.114182189979715042E+11   -0.135354463462782405E+03
    0.302631196543631131E+00    0.755961322925372770E+00    0.113491212655263329E+11   -0.135346616614440023E+03
    0.317088505863930725E+00    0.619346641553395472E+00    0.111176779674328251E+11   -0.135339252460428412E+03
    0.321590258371078130E+00    0.753549622484392501E+00    0.110566074814488983E+11   -0.135335676216383433E+03
    0.323928905909678100E+00    0.665104234398119942E+00    0.108622975966612949E+11   -0.135328658761549377E+03
    0.368656587551950410E+00    0.663790868778304954E+00    0.102259766139161015E+11   -0.135287850814425695E+03
    0.296123900835905896E+00    0.590117735663511667E+00    0.114733899718761768E+11   -0.135268614900229466E+03
    0.357910170978102016E+00    0.596510743826172529E+00    0.105661054954297733E+11   -0.135261806763678067E+03
    0.320751824091380477E+00    0.755638568721705539E+00    0.110198335820045166E+11   -0.135205177593236954E+03
    0.382744529580319126E+00    0.718955072150837537E+00    0.100912822135455704E+11   -0.135192626727829747E+03
    0.357549010581111659E+00    0.603476534440204659E+00    0.103814035399344616E+11   -0.135183732710197546E+03
    0.332966223973348685E+00    0.575972934229717737E+00    0.109000503324662838E+11   -0.135167245857383591E+03
    0.342603957127446623E+00    0.558258325909768871E+00    0.106423050240646210E+11   -0.135162036086971682E+03
    0.359504298997703253E+00    0.585108506329248712E+00    0.104195605077993622E+11   -0.135161610778472067E+03
    0.386975165638626217E+00    0.749681585146188212E+00    0.101525591917998295E+11   -0.135152827856965473E+03
    0.372661967430935714E+00    0.669452127419082998E+00    0.102870553450477524E+11   -0.135125244819252714E+03
    0.351974084880491478E+00    0.677303224254055536E+00    0.105229966042536736E+11   -0.135115167195934589E+03
    0.320205694241093686E+00    0.707094002807259869E+00    0.109816780547766666E+11   -0.135103935987209496E+03
    0.323143747911270485E+00    0.752938325176106815E+00    0.109406089213398666E+11   -0.135089078724809326E+03
    0.307560303787334122E+00    0.720403604765586181E+00    0.112387297831829929E+11   -0.135078570531986600E+03
    0.385789290124758710E+00    0.683483219544996246E+00    0.101203944651033459E+11   -0.135065456091253338E+03
    0.361922190221197593E+00    0.718833803160148221E+00    0.105746716124533463E+11   -0.135063442642709845E+03
    0.302708912584325307E+00    0.593779006400961151E+00    0.112705599324982738E+11   -0.135042338473946415E+03
    0.363310669641303485E+00    0.681512941026698016E+00    0.104119287517123604E+11   -0.135024552134936926E+03
    0.377419377565317626E+00    0.711638221578677843E+00    0.101918761686683006E+11   -0.135009327019944919E+03
    0.339944058228921486E+00    0.545373286556259274E+00    0.106653481078504772E+11   -0.135006758355432851E+03
    0.369774019007279742E+00    0.634249593148911828E+00    0.102407744893561039E+11   -0.134995549017642190E+03
    0.373022163633061621E+00    0.622723247683792280E+00    0.101691110228567944E+11   -0.134989143390057052E+03
    0.330934572385721271E+00    0.682858675679248961E+00    0.107879215384365463E+11   -0.134955939444683452E+03
    0.346689161327457640E+00    0.591601821792481886E+00    0.105439300507110004E+11   -0.134933974970977602E+03
    0.347439724597280564E+00    0.567819956829868744E+00    0.106352554414996033E+11   -0.134898797782502356E+03
    0.360315616139043282E+00    0.639065983331402521E+00    0.104653216906395645E+11   -0.134854198310282925E+03
    0.317202249995479357E+00    0.742307685144364626E+00    0.110760590342124901E+11   -0.134850791766204509E+03
    0.357449446325526554E+00    0.637432197412376667E+00    0.104179288414455490E+11   -0.134843459527329571E+03
    0.339402642970921931E+00    0.691678032756630756E+00    0.106624977930683193E+11   -0.134818950739301442E+03
    0.316009159731046818E+00    0.617129994686141714E+00    0.111532054670948563E+11   -0.134800451393726178E+03
    0.351832452619054492E+00    0.674266748028252039E+00    0.105383486792905312E+11   -0.134769383707875591E+03
    0.318516726698777786E+00    0.610986618155314076E+00    0.109278281561834946E+11   -0.134766202631326394E+03
    0.359792565745488957E+00    0.589146981184976326E+00    0.103706965903890190E+11   -0.134752515519486394E+03
    0.325629500776095870E+00    0.612684676677780260E+00    0.110197624563530636E+11   -0.134745178462052536E+03
    0.329826045135835688E+00    0.731280016922276843E+00    0.109247100412067451E+11   -0.134729062322862546E+03
    0.355588706282439493E+00    0.605071576158151103E+00    0.104030582805006580E+11   -0.134716338303209028E+03
    0.355588706282439493E+00    0.605071576158151103E+00    0.104030582805006580E+11   -0.134716338303209028E+03
    0.296258259520267964E+00    0.654643089971020942E+00    0.113824522515010643E+11   -0.134688783771725582E+03
    0.344368806507773573E+00    0.690027090775442886E+00    0.107116926387380486E+11   -0.134655258496890895E+03
    0.357415213513650187E+00    0.649613354381173735E+00    0.104259309679701939E+11   -0.134649294846152372E+03
    0.357415213513650187E+00    0.649613354381173735E+00    0.104259309679701939E+11   -0.134649294846152372E+03
    0.379121944417915691E+00    0.674050063199747029E+00    0.101490929687980499E+11   -0.134630648063339748E+03
    0.334858828564935596E+00    0.747730550520756765E+00    0.108031779872884693E+11   -0.134598021465076215E+03
    0.367910505169683710E+00    0.717419127747184859E+00    0.102549725305979519E+11   -0.134585096396578308E+03
    0.373777826691820692E+00    0.624697609264096343E+00    0.102091547342038937E+11   -0.134566155645794709E+03
    0.319432061826584568E+00    0.742210420255160486E+00    0.110852904494751511E+11   -0.134557494101648160E+03
    0.348537368234092537E+00    0.699909709232400701E+00    0.105443983890536308E+11   -0.134557472741018273E+03
    0.320748131655203106E+00    0.656250633950568485E+00    0.110967647461271477E+11   -0.134536283890906645E+03
    0.304003386381283991E+00    0.584676916646674982E+00    0.112846441212932816E+11   -0.134530744828999161E+03
    0.366097236090795641E+00    0.626579582759569931E+00    0.103390170804970417E+11   -0.134511387193311805E+03
    0.322458630599375684E+00    0.700651247457695803E+00    0.109877367671055489E+11   -0.134510383766558562E+03
    0.335893155836478885E+00    0.781435286489379877E+00    0.108648389357011166E+11   -0.134501815018881985E+03
    0.303374041707454578E+00    0.546693649954328009E+00    0.113430394533169956E+11   -0.134497250873712460E+03
    0.325374928050544077E+00    0.640089339179537475E+00    0.109159342925970402E+11   -0.134454087578093379E+03
    0.325374928050544077E+00    0.640089339179537475E+00    0.109159342925970402E+11   -0.134454087578093379E+03
    0.375727857467866133E+00    0.647958803771777170E+00    0.102132501524379330E+11   -0.134453722170948510E+03
    0.356224031686630083E+00    0.585130137693504082E+00    0.103850428525064316E+11   -0.134430413625144752E+03
    0.395164895308516007E+00    0.740955222774090316E+00    0.997657279937145615E+10   -0.134421440322990804E+03
    0.366013046091899219E+00    0.666093921354921292E+00    0.102808577930901337E+11   -0.134421040565912477E+03
    0.351028293641799105E+00    0.626666528041592841E+00    0.105027580962571049E+11   -0.134418107438635275E+03
    0.307548023134167459E+00    0.629741887168414394E+00    0.112010381072361755E+11   -0.134410251502514313E+03
    0.307548023134167459E+00    0.629741887168414394E+00    0.112010381072361755E+11   -0.134410251502514313E+03
    0.335763164208410736E+00    0.663264661386257615E+00    0.107677025115987186E+11   -0.134408568449336144E+03
    0.335763164208410736E+00    0.663264661386257615E+00    0.107677025115987186E+11   -0.134408568449336144E+03
    0.309317674214610538E+00    0.648030047699119649E+00    0.112326744853910141E+11   -0.134397831185314033E+03
    0.309317674214610538E+00    0.648030047699119649E+00    0.112326744853910141E+11   -0.134397831185314033E+03
    0.387694049161391163E+00    0.741186949106802828E+00    0.101342046191936760E+11   -0.134389371396744110E+03
    0.347206636115649225E+00    0.718019009836595501E+00    0.106410280594128113E+11   -0.134382513106895829E+03
    0.325165558891969353E+00    0.745568333536466454E+00    0.109778284808657303E+11   -0.134364551750537032E+03
    0.325165558891969353E+00    0.745568333536466454E+00    0.109778284808657303E+11   -0.134364551750537032E+03
    0.350267094453598660E+00    0.624445387487067904E+00    0.105196850085308685E+11   -0.134349291172827179E+03
    0.333961421742560050E+00    0.765112679590737699E+00    0.107975186557149220E+11   -0.134338344696148425E+03
    0.316964827832181106E+00    0.598285644033104802E+00    0.109898658531053219E+11   -0.134324830848641170E+03
    0.316964827832181106E+00    0.598285644033104802E+00    0.109898658531053219E+11   -0.134324830848641170E+03
    0.333519047041467120E+00    0.754722795135780444E+00    0.108756340896008549E+11   -0.134316061771708149E+03
    0.300445903347897503E+00    0.649172604014614407E+00    0.113071201095752335E+11   -0.134267718479562404E+03
    0.372831761316354149E+00    0.612911972712968378E+00    0.102229715642607479E+11   -0.134256128764307618E+03
    0.355500445058947900E+00    0.577953817426365646E+00    0.104395526726890583E+11   -0.134246598906429085E+03
    0.367839183413842141E+00    0.635546200035452813E+00    0.102721417033575974E+11   -0.134240548946092645E+03
    0.367839183413842141E+00    0.635546200035452813E+00    0.102721417033575974E+11   -0.134240548946092645E+03
    0.313868956750118722E+00    0.636821446857410933E+00    0.111489295840320930E+11   -0.134234752483103250E+03
    0.338739760256620448E+00    0.719963308802071822E+00    0.107202216165411987E+11   -0.134195198681189083E+03
    0.320347892918491639E+00    0.697421184965003604E+00    0.110373007384661770E+11   -0.134186529194468108E+03
    0.320347892918491639E+00    0.697421184965003604E+00    0.110373007384661770E+11   -0.134186529194468108E+03
    0.362849518039288943E+00    0.667821302547634943E+00    0.103739467795339470E+11   -0.134163611408333566E+03
    0.330104405036309889E+00    0.643775200097069344E+00    0.108297629394526024E+11   -0.134161074787991566E+03
    0.324745698819008111E+00    0.690380440585940391E+00    0.110086616990175896E+11   -0.134157370653549492E+03
    0.324745698819008111E+00    0.690380440585940391E+00    0.110086616990175896E+11   -0.134157370653549492E+03
    0.309330375398008783E+00    0.624992910874635044E+00    0.111210856785749702E+11   -0.134153099326132036E+03
    0.363836087868567970E+00    0.624371207488522373E+00    0.103253079068381100E+11   -0.134149454203560282E+03
    0.334319424773616536E+00    0.725514192004496294E+00    0.107577277500186367E+11   -0.134147198808861646E+03
    0.340372291752923939E+00    0.741510952620698660E+00    0.107177638025077763E+11   -0.134113603801332175E+03
    0.340372291752923939E+00    0.741510952620698660E+00    0.107177638025077763E+11   -0.134113603801332175E+03
    0.323530589268871738E+00    0.689530249241478543E+00    0.109803798292404957E+11   -0.134111779061202213E+03
    0.317782779074317623E+00    0.639769178427759044E+00    0.110485842028559322E+11   -0.134104566102297440E+03
    0.342102042708058385E+00    0.682550475230760512E+00    0.105994627753851871E+11   -0.134092549860644226E+03
    0.337719457508216914E+00    0.818601661571339179E+00    0.108362184515841904E+11   -0.134056336776911564E+03
    0.317890050444837202E+00    0.674286320656543481E+00    0.109668862932248783E+11   -0.134053775026150390E+03
    0.315437648376435620E+00    0.634337083103000410E+00    0.111035464310944672E+11   -0.134047841696906033E+03
    0.315437648376435620E+00    0.634337083103000410E+00    0.111035464310944672E+11   -0.134047841696906033E+03
    0.307483154566254246E+00    0.614934854290584809E+00    0.112127576074406948E+11   -0.134016467947982221E+03
    0.307483154566254246E+00    0.614934854290584809E+00    0.112127576074406948E+11   -0.134016467947982221E+03
    0.350004643062024667E+00    0.576435761531984170E+00    0.105212273131724339E+11   -0.134013665843857552E+03
    0.344722260146389015E+00    0.769395798348373461E+00    0.106802702445575180E+11   -0.133992493576691288E+03
    0.366477793028647691E+00    0.587202803697399744E+00    0.103691412389290504E+11   -0.133987977472088232E+03
    0.366477793028647691E+00    0.587202803697399744E+00    0.103691412389290504E+11   -0.133987977472088232E+03
    0.373036904730154606E+00    0.676482342078267962E+00    0.102244853163703518E+11   -0.133977345240413229E+03
    0.349877157509592585E+00    0.702781255815123629E+00    0.105814281782098637E+11   -0.133947977039076477E+03
    0.357325058249657046E+00    0.579989257466227315E+00    0.104134315662947025E+11   -0.133947201064894983E+03
    0.342175223658077343E+00    0.687085583700506319E+00    0.106821244694797115E+11   -0.133920996048193331E+03
    0.342175223658077343E+00    0.687085583700506319E+00    0.106821244694797115E+11   -0.133920996048193331E+03
    0.316080688057886083E+00    0.747257752223408289E+00    0.111177874868729820E+11   -0.133911308643094344E+03
    0.317916141558970244E+00    0.719693872713339289E+00    0.110159448913710766E+11   -0.133908423162216650E+03
    0.367191270122488145E+00    0.676218477326710143E+00    0.103085710723044758E+11   -0.133889517941788426E+03
    0.381820892866211792E+00    0.683731230852240301E+00    0.101660732004031334E+11   -0.133873313734845908E+03
    0.351464218850190968E+00    0.679876457390731659E+00    0.104735854634657211E+11   -0.133846508946729244E+03
    0.351464218850190968E+00    0.679876457390731659E+00    0.104735854634657211E+11   -0.133846508946729244E+03
    0.317027738291783268E+00    0.740001516727478048E+00    0.110939129507774296E+11   -0.133842596515014094E+03
    0.317027738291783268E+00    0.740001516727478048E+00    0.110939129507774296E+11   -0.133842596515014094E+03
    0.328515348374000760E+00    0.762914633574547807E+00    0.108670069313824673E+11   -0.133841343912912180E+03
    0.328515348374000760E+00    0.762914633574547807E+00    0.108670069313824673E+11   -0.133841343912912180E+03
    0.322586382734048938E+00    0.698329493567086956E+00    0.110099536370943947E+11   -0.133833379230301205E+03
    0.342570442719680568E+00    0.625801940731490092E+00    0.106558784621789436E+11   -0.133827889992965964E+03
    0.341541592917691539E+00    0.677113953270517044E+00    0.106849385657094231E+11   -0.133814980186896150E+03
    0.341541592917691539E+00    0.677113953270517044E+00    0.106849385657094231E+11   -0.133814980186896150E+03
    0.328539592624436605E+00    0.635171660976316943E+00    0.108754845429840488E+11   -0.133795173291781992E+03
    0.328539592624436605E+00    0.635171660976316943E+00    0.108754845429840488E+11   -0.133795173291781992E+03
    0.317104003240255117E+00    0.609223193815520148E+00    0.109989452999894886E+11   -0.133782971334162767E+03
    0.317104003240255117E+00    0.609223193815520148E+00    0.109989452999894886E+11   -0.133782971334162767E+03
    0.320144447995091619E+00    0.767910061944279576E+00    0.110404964591083889E+11   -0.133782115009746917E+03
    0.320144447995091619E+00    0.767910061944279576E+00    0.110404964591083889E+11   -0.133782115009746917E+03
    0.329564350566964037E+00    0.719207914973347684E+00    0.109256865530267048E+11   -0.133767796950325078E+03
    0.319381242853194192E+00    0.695296309104335819E+00    0.110297706513960819E+11   -0.133764675448432740E+03
    0.319381242853194192E+00    0.695296309104335819E+00    0.110297706513960819E+11   -0.133764675448432740E+03
    0.323325834676773394E+00    0.649621893084617597E+00    0.109174609162336273E+11   -0.133764523672786254E+03
    0.323325834676773394E+00    0.649621893084617597E+00    0.109174609162336273E+11   -0.133764523672786254E+03
    0.319397848029677689E+00    0.638890453438136774E+00    0.109776637151873226E+11   -0.133756529734372236E+03
    0.319397848029677689E+00    0.638890453438136774E+00    0.109776637151873226E+11   -0.133756529734372236E+03
    0.323063459537910602E+00    0.726669614848390211E+00    0.109990680005823193E+11   -0.133750090003760590E+03
    0.342346910910289959E+00    0.682614850401597195E+00    0.107229591680903759E+11   -0.133744885540907347E+03
    0.350066937176859438E+00    0.673264767324520008E+00    0.105093590748631153E+11   -0.133742368994826279E+03
    0.350066937176859438E+00    0.673264767324520008E+00    0.105093590748631153E+11   -0.133742368994826279E+03
    0.350586580010885218E+00    0.603745947182654064E+00    0.105215514570239944E+11   -0.133741584223717041E+03
    0.333339535494101336E+00    0.682996081871742433E+00    0.107608339448404427E+11   -0.133731306291395839E+03
    0.333339535494101336E+00    0.682996081871742433E+00    0.107608339448404427E+11   -0.133731306291395839E+03
    0.326350759909571464E+00    0.701188374660123515E+00    0.108986158627824287E+11   -0.133713010065935492E+03
    0.326350759909571464E+00    0.701188374660123515E+00    0.108986158627824287E+11   -0.133713010065935492E+03
    0.343506056283001959E+00    0.682378501561910156E+00    0.106962747461456985E+11   -0.133709218625481753E+03
    0.353760127134737923E+00    0.595444209196958951E+00    0.105256855261323223E+11   -0.133697820026561430E+03
    0.328154690544925964E+00    0.594969757311631042E+00    0.108729052631964207E+11   -0.133692838295977396E+03
    0.328383567869513782E+00    0.682532087604856841E+00    0.108448938336141834E+11   -0.133678221472061693E+03
    0.318941674711547218E+00    0.696150226024926155E+00    0.109989642867135487E+11   -0.133677787987653176E+03
    0.317219210991459666E+00    0.622127636360698233E+00    0.111000287963792992E+11   -0.133677654713265895E+03
    0.332069380366697864E+00    0.643044950442208219E+00    0.108584683847338905E+11   -0.133663612178218216E+03
    0.318267907313461773E+00    0.692070781956919845E+00    0.109910807466625004E+11   -0.133654945860422629E+03
    0.318267907313461773E+00    0.692070781956919845E+00    0.109910807466625004E+11   -0.133654945860422629E+03
    0.333878431384730057E+00    0.662182080568136655E+00    0.108001478886243114E+11   -0.133637194539559204E+03
    0.314990895667656590E+00    0.584208707196257393E+00    0.110310361652210274E+11   -0.133634888947278881E+03
    0.344140939344270536E+00    0.648673003131962744E+00    0.106115629024127312E+11   -0.133631151663115872E+03
    0.344140939344270536E+00    0.648673003131962744E+00    0.106115629024127312E+11   -0.133631151663115872E+03
    0.329956005784592166E+00    0.710693351927760730E+00    0.108756153949859200E+11   -0.133627449560240592E+03
    0.319230448128902111E+00    0.697355146855208829E+00    0.110096980428426018E+11   -0.133620052060278226E+03
    0.335108907474427453E+00    0.669741336410595522E+00    0.108013117288601170E+11   -0.133620036033711926E+03
    0.354765443204215936E+00    0.559179602942823095E+00    0.105185531893605995E+11   -0.133612602626898848E+03
    0.354765443204215936E+00    0.559179602942823095E+00    0.105185531893605995E+11   -0.133612602626898848E+03
    0.337846215043617670E+00    0.686941875608575003E+00    0.108024220714489422E+11   -0.133592224057160479E+03
    0.337846215043617670E+00    0.686941875608575003E+00    0.108024220714489422E+11   -0.133592224057160479E+03
    0.331624036329722205E+00    0.595254245713102037E+00    0.108232671919635963E+11   -0.133591533078629936E+03
    0.341948605163625297E+00    0.733252788398740307E+00    0.107592287256152630E+11   -0.133533186039679720E+03
    0.324809048737544737E+00    0.695601596437146696E+00    0.109943485331795883E+11   -0.133525580768986146E+03
    0.318488903949363189E+00    0.639502039088799989E+00    0.110577631920416660E+11   -0.133518449426300435E+03
    0.318488903949363189E+00    0.639502039088799989E+00    0.110577631920416660E+11   -0.133518449426300435E+03
    0.371297686371935109E+00    0.603728848326044343E+00    0.103130249149672146E+11   -0.133514547148586701E+03
    0.371297686371935109E+00    0.603728848326044343E+00    0.103130249149672146E+11   -0.133514547148586701E+03
    0.328054384580616976E+00    0.654396344464771573E+00    0.108331229290489693E+11   -0.133509290693245958E+03
    0.328054384580616976E+00    0.654396344464771573E+00    0.108331229290489693E+11   -0.133509290693245958E+03
    0.334256470849309761E+00    0.789694055957617991E+00    0.108149031232041779E+11   -0.133503765822283157E+03
    0.329844690730073498E+00    0.715374116741429589E+00    0.109050158150095482E+11   -0.133498609150020286E+03
    0.335332190051975010E+00    0.774894253099237318E+00    0.108269325097896461E+11   -0.133497443210383949E+03
    0.335332190051975010E+00    0.774894253099237318E+00    0.108269325097896461E+11   -0.133497443210383949E+03
    0.322602979195649120E+00    0.701149625771975593E+00    0.109949477894857960E+11   -0.133484546951716709E+03
    0.322602979195649120E+00    0.701149625771975593E+00    0.109949477894857960E+11   -0.133484546951716709E+03
    0.344217251812026503E+00    0.686107511362369138E+00    0.106019998275086823E+11   -0.133479821058103994E+03
    0.344217251812026503E+00    0.686107511362369138E+00    0.106019998275086823E+11   -0.133479821058103994E+03
    0.360255898935071206E+00    0.651550253927535294E+00    0.103675813149307308E+11   -0.133471353628163229E+03
    0.360255898935071206E+00    0.651550253927535294E+00    0.103675813149307308E+11   -0.133471353628163229E+03
    0.347028156406660182E+00    0.610429503845255184E+00    0.105848552823687172E+11   -0.133469448748921934E+03
    0.358556176044582064E+00    0.652626864352040315E+00    0.104396247661404724E+11   -0.133454087998163885E+03
    0.336376209634248691E+00    0.688942051796576749E+00    0.107548979123046265E+11   -0.133450014616364228E+03
    0.351684714319712377E+00    0.668687839346562285E+00    0.105143132103735828E+11   -0.133449139792384017E+03
    0.340001314909671837E+00    0.676049727884153739E+00    0.107659420088077812E+11   -0.133448939958228266E+03
    0.375392315039819569E+00    0.684036611705726827E+00    0.102269342183046722E+11   -0.133445927141450369E+03
    0.332389441720130685E+00    0.776331981052745590E+00    0.108351510381132832E+11   -0.133439370236874765E+03
    0.332389441720130685E+00    0.776331981052745590E+00    0.108351510381132832E+11   -0.133439370236874765E+03
    0.314120025550391313E+00    0.584758547313231958E+00    0.110618869364449692E+11   -0.133434768786289112E+03
    0.314120025550391313E+00    0.584758547313231958E+00    0.110618869364449692E+11   -0.133434768786289112E+03
    0.337633059495071552E+00    0.691481315910326799E+00    0.107626811232021046E+11   -0.133431413359706312E+03
    0.321711497028900617E+00    0.671484018759594292E+00    0.109459452453735714E+11   -0.133427224742684160E+03
    0.321711497028900617E+00    0.671484018759594292E+00    0.109459452453735714E+11   -0.133427224742684160E+03
    0.324320593148288705E+00    0.642886590164097882E+00    0.109802995326507988E+11   -0.133426049745737373E+03
    0.324320593148288705E+00    0.642886590164097882E+00    0.109802995326507988E+11   -0.133426049745737373E+03
    0.326997713189820127E+00    0.652031486073411770E+00    0.108368283117546062E+11   -0.133424111595818800E+03
    0.326997713189820127E+00    0.652031486073411770E+00    0.108368283117546062E+11   -0.133424111595818800E+03
    0.344553102276066558E+00    0.659262142995828526E+00    0.106229207850281086E+11   -0.133419172656802004E+03
    0.344553102276066558E+00    0.659262142995828526E+00    0.106229207850281086E+11   -0.133419172656802004E+03
    0.356170909060450569E+00    0.545992575940674740E+00    0.104140679727925186E+11   -0.133416832175737966E+03
    0.369599123727362255E+00    0.665770754942155207E+00    0.102757163146534119E+11   -0.133394261644613835E+03
    0.348307636283962052E+00    0.678144207820201572E+00    0.105793834786166039E+11   -0.133388755251215855E+03
    0.367692750939042079E+00    0.677508689518507623E+00    0.103040147161114655E+11   -0.133362042336193326E+03
    0.342986094550368936E+00    0.571399743993696418E+00    0.106967266298333054E+11   -0.133350125730006425E+03
    0.342986094550368936E+00    0.571399743993696418E+00    0.106967266298333054E+11   -0.133350125730006425E+03
    0.366873799464456862E+00    0.645170173385556822E+00    0.103346025151366901E+11   -0.133348567885842101E+03
    0.354284707665412368E+00    0.620138647106182717E+00    0.104439407246626701E+11   -0.133347001693808551E+03
    0.341968446438126239E+00    0.717105361072107428E+00    0.106889340445811710E+11   -0.133346961991106809E+03
    0.366948126754065740E+00    0.639486385891750331E+00    0.103019485647207623E+11   -0.133338345963014348E+03
    0.323748525287753053E+00    0.647924601464131555E+00    0.109344108390137196E+11   -0.133336428198183114E+03
    0.323216466194038488E+00    0.719003681905821423E+00    0.109563176596037521E+11   -0.133334564973184229E+03
    0.357523389211699294E+00    0.645677719920218607E+00    0.104973049324257927E+11   -0.133333200203677791E+03
    0.339206023105607435E+00    0.691670847377885423E+00    0.107220231599566803E+11   -0.133329140477778139E+03
    0.338728636564828212E+00    0.605008236511013209E+00    0.106998582363420067E+11   -0.133327040844227895E+03
    0.359485775655583539E+00    0.687625691797290273E+00    0.104035072350529156E+11   -0.133296574091745526E+03
    0.322249799388393265E+00    0.680364942273733675E+00    0.109677130059603920E+11   -0.133292409495232789E+03
    0.328845321063761131E+00    0.764523118250364675E+00    0.108986953114870834E+11   -0.133280650306182366E+03
    0.328845321063761131E+00    0.764523118250364675E+00    0.108986953114870834E+11   -0.133280650306182366E+03
    0.333991595099571381E+00    0.707589241992858220E+00    0.107931905163572273E+11   -0.133274277119483514E+03
    0.348082555449014397E+00    0.611799036628099202E+00    0.105456044299297886E+11   -0.133270980347949319E+03
    0.356740031329146723E+00    0.585051838715912709E+00    0.104107793775604038E+11   -0.133265927133819787E+03
    0.325658003819474240E+00    0.759187592971354519E+00    0.109116182392729683E+11   -0.133264016461321546E+03
    0.326844429304729900E+00    0.683272709422686475E+00    0.109336527137542896E+11   -0.133259613111288672E+03
    0.329270266388574040E+00    0.634761841928291659E+00    0.109316785401365376E+11   -0.133258106850822116E+03
    0.327837401438689335E+00    0.689883153574530894E+00    0.109212038272458878E+11   -0.133251581501303491E+03
    0.333883266057197203E+00    0.664125554952930131E+00    0.108233995035296192E+11   -0.133250831566739208E+03
    0.328710912111906672E+00    0.693902407586218573E+00    0.108936032570229511E+11   -0.133248076639101015E+03
    0.328710912111906672E+00    0.693902407586218573E+00    0.108936032570229511E+11   -0.133248076639101015E+03
    0.340529437879593444E+00    0.758841813482490579E+00    0.107100314909878845E+11   -0.133244876722112366E+03
    0.343706849889943544E+00    0.758143968481856945E+00    0.106193554151085835E+11   -0.133243755703563437E+03
    0.342446266583244285E+00    0.725837802677553157E+00    0.107372008897224522E+11   -0.133240741354429417E+03
    0.333535353395445766E+00    0.654978952043451912E+00    0.108474067078122711E+11   -0.133240376951350527E+03
    0.333535353395445766E+00    0.654978952043451912E+00    0.108474067078122711E+11   -0.133240376951350527E+03
    0.337758285107837342E+00    0.756036750315782768E+00    0.107286423378282909E+11   -0.133239245131141132E+03
    0.337037977817214118E+00    0.710537386718627317E+00    0.107410698636440372E+11   -0.133227571198730800E+03
    0.328215420603781227E+00    0.685708047558774680E+00    0.109545269538145123E+11   -0.133219525736869116E+03
    0.328027049958612760E+00    0.693813714080008026E+00    0.109295208249585857E+11   -0.133214841533731658E+03
    0.340217870596865923E+00    0.708077144447381457E+00    0.107047929905236683E+11   -0.133210905058695460E+03
    0.341777679342928964E+00    0.622013187270177070E+00    0.106805475794032078E+11   -0.133208516817758380E+03
    0.337322337824475849E+00    0.749235551786579634E+00    0.107736884297837696E+11   -0.133204173168052364E+03
    0.323300503732068312E+00    0.718585701742657790E+00    0.109889232343048496E+11   -0.133203433409376032E+03
    0.330780661978792634E+00    0.712142244494003762E+00    0.108288493182168217E+11   -0.133200766091873106E+03
    0.324616826164812244E+00    0.676853054282302580E+00    0.109356416373243752E+11   -0.133198615781916374E+03
    0.316025148076499007E+00    0.607467017472343329E+00    0.110522419971176758E+11   -0.133191347452034563E+03
    0.329690826322296238E+00    0.766734157069727473E+00    0.108564287152526188E+11   -0.133182009518292659E+03
    0.332901530386580546E+00    0.751022138021950170E+00    0.108317506532421932E+11   -0.133181769876700287E+03
    0.325218594972139896E+00    0.685672076072666670E+00    0.109771742947574730E+11   -0.133180022122982450E+03
    0.343305933624537707E+00    0.722126454081124081E+00    0.106654137306248951E+11   -0.133165427906535371E+03
    0.329028992212137328E+00    0.663565704307709225E+00    0.108733622945215454E+11   -0.133164933640284715E+03
    0.326619763031946730E+00    0.614518277612909003E+00    0.109428753236217899E+11   -0.133152826992564485E+03
    0.336355368741344585E+00    0.742536069003536525E+00    0.107541457459395523E+11   -0.133148871359783300E+03
    0.357071450063015161E+00    0.551791859358669257E+00    0.104425172962034874E+11   -0.133148233050704562E+03
    0.341299812536819180E+00    0.636693727798823161E+00    0.106809088585996819E+11   -0.133143329146653258E+03
    0.355004994724938128E+00    0.611967736940560059E+00    0.104400978101511517E+11   -0.133127133766713541E+03
    0.329232037160405777E+00    0.705483530957023319E+00    0.109038152437907219E+11   -0.133121911059370973E+03
    0.339341315321838977E+00    0.751058856766102068E+00    0.107350791527814121E+11   -0.133113917664143031E+03
    0.325054246143615555E+00    0.660197457634419393E+00    0.109167862648921986E+11   -0.133112811887040664E+03
    0.325876366059561384E+00    0.644412814880832130E+00    0.109322697815699673E+11   -0.133112489213114429E+03
    0.322088465172831906E+00    0.645865934803598662E+00    0.109463478742969379E+11   -0.133111025330312145E+03
    0.327872978437265039E+00    0.674823127376743770E+00    0.108546933428279896E+11   -0.133110268746946986E+03
    0.340621083738937847E+00    0.752635424324026303E+00    0.107637548721321144E+11   -0.133109576187315952E+03
    0.339523098160878445E+00    0.661550238358582732E+00    0.107139368318124981E+11   -0.133101280672230700E+03
    0.328567697960430560E+00    0.686551244411727879E+00    0.109291704934485264E+11   -0.133096482952819883E+03
    0.340773837927123846E+00    0.750042784089208325E+00    0.107462351174024487E+11   -0.133089430867855327E+03
    0.336599242916048480E+00    0.682224634314971823E+00    0.107698008410408535E+11   -0.133087555370960274E+03
    0.344624319321052697E+00    0.563563793686254755E+00    0.106110881159889374E+11   -0.133084169136071864E+03
    0.375366161641240093E+00    0.688283183718725766E+00    0.102201158028310337E+11   -0.133073918249620363E+03
    0.335268898325450482E+00    0.646171437508574087E+00    0.107784589087267990E+11   -0.133066848999065513E+03
    0.329621000349128224E+00    0.607197485232237710E+00    0.108745160174969978E+11   -0.133064576688044809E+03
    0.323770616352183793E+00    0.722007482765121722E+00    0.109678313116616249E+11   -0.133063243730200128E+03
    0.328552459541503861E+00    0.662931397007724854E+00    0.109037205189981747E+11   -0.133058021586974633E+03
    0.330787757380368808E+00    0.747615067333933681E+00    0.108541195008659153E+11   -0.133046977415828735E+03
    0.323262794071209225E+00    0.653864762389002152E+00    0.109481471639482441E+11   -0.133046092290645760E+03
    0.328483461974612256E+00    0.670467720111476595E+00    0.108730791297009201E+11   -0.133039211159079883E+03
    0.327093343423089655E+00    0.604208393138794264E+00    0.108803975298727531E+11   -0.133016186344800985E+03
    0.337704539821261585E+00    0.743038580977513519E+00    0.107787546535816288E+11   -0.133012761275011684E+03
    0.345889584465722932E+00    0.721093174651617375E+00    0.106665264171110783E+11   -0.133005630340939774E+03
    0.323054220658832159E+00    0.649630267492407043E+00    0.109676719706427631E+11   -0.132994243271384960E+03
    0.322030214497439848E+00    0.602738850458274911E+00    0.109874160844654408E+11   -0.132989202836334670E+03
    0.328982500945396328E+00    0.671350964865899513E+00    0.108723488164241924E+11   -0.132984466439366486E+03
    0.326944336468875718E+00    0.629113665844531766E+00    0.109025800196587715E+11   -0.132984342474148491E+03
    0.329359636203981454E+00    0.635456953441162042E+00    0.109435129852799416E+11   -0.132976995927620578E+03
    0.380164361661765593E+00    0.699494103267781497E+00    0.101761408778318119E+11   -0.132975049618423839E+03
    0.337070486687095161E+00    0.626530290172917503E+00    0.107627325781537266E+11   -0.132971636600332403E+03
    0.335604779760511451E+00    0.776619302057554250E+00    0.108044827373554058E+11   -0.132970148926984734E+03
    0.343158547158551042E+00    0.672773638093385529E+00    0.106773378426380806E+11   -0.132946114716183530E+03
    0.344060855779149188E+00    0.711707020484675823E+00    0.106733438470648651E+11   -0.132944363354013149E+03
    0.361097031521278922E+00    0.672733826142415836E+00    0.103778367957974243E+11   -0.132938277727584222E+03
    0.334811469403854534E+00    0.638101177588730195E+00    0.107685132840386982E+11   -0.132931893707535892E+03
    0.337440167491220633E+00    0.714917742974916948E+00    0.107221093775241280E+11   -0.132925462317454105E+03
    0.332511808023590649E+00    0.647398016406093291E+00    0.108746203428231812E+11   -0.132920329518412245E+03
    0.337242515529757425E+00    0.678645015656265116E+00    0.107329277679841766E+11   -0.132898065088485367E+03
    0.337954347231631647E+00    0.742761849399835583E+00    0.107425703635844631E+11   -0.132894149536660308E+03
    0.330307534707750206E+00    0.727989264885941623E+00    0.108510792133772144E+11   -0.132891840895711255E+03
    0.347465066826543156E+00    0.553743490530413496E+00    0.105773515545749741E+11   -0.132889823484339587E+03
    0.341602158019157998E+00    0.737191072131890834E+00    0.107340221606626415E+11   -0.132888138261024892E+03
    0.335836515132390601E+00    0.632101503623026417E+00    0.107773038580715637E+11   -0.132879100236082536E+03
    0.348846066235049046E+00    0.563590551221189173E+00    0.105714962528309288E+11   -0.132878375687750662E+03
    0.327893447978886587E+00    0.623182586566521479E+00    0.109393110916139183E+11   -0.132876300852776410E+03
    0.330494102418674718E+00    0.660654613768784316E+00    0.108190850945911999E+11   -0.132876189269321031E+03
    0.330588162301477584E+00    0.686466096888276311E+00    0.108769203226714211E+11   -0.132870057938866836E+03
    0.344767001611941015E+00    0.720032420224496761E+00    0.106477430779353275E+11   -0.132869271777703574E+03
    0.351043395128603053E+00    0.717386491593597242E+00    0.105533229672449665E+11   -0.132866415126989693E+03
    0.357540520884964963E+00    0.639079317211614040E+00    0.104887663136994591E+11   -0.132864144829616862E+03
    0.333664676111555536E+00    0.637870119951786663E+00    0.108429910278557396E+11   -0.132850157242987109E+03
    0.333750963422147773E+00    0.704839553787561357E+00    0.108093021033620167E+11   -0.132759116088386946E+03
    0.342337910150294578E+00    0.663123799616583298E+00    0.106778621074739361E+11   -0.132552777318670906E+03
    0.339643232673251527E+00    0.653758553616528459E+00    0.107014927127497101E+11   -0.132798371941262758E+03
    0.339528919533594598E+00    0.666361716676245663E+00    0.107105740217833691E+11   -0.132753384572273205E+03
    0.337594172703170714E+00    0.675953528633094436E+00    0.107442406726176910E+11   -0.132629534254834567E+03
    0.340417706431702105E+00    0.671197726109484805E+00    0.107190718654883919E+11   -0.132153105830120865E+03
    0.340469733506323813E+00    0.669908789163969232E+00    0.106999077484023552E+11   -0.132635755473779795E+03
    0.337025632200718461E+00    0.787165787107070969E+00    0.108062467834561520E+11   -0.132774510975314342E+03
    0.343707337433005244E+00    0.769553464814300980E+00    0.107200616229009075E+11   -0.132660228192810109E+03
    0.342831010745581588E+00    0.774095980552761631E+00    0.107028542663604450E+11   -0.132485892817060119E+03
    0.338055440562492759E+00    0.751049474085432323E+00    0.107845452373606892E+11   -0.132803982606510658E+03
    0.339626665774800718E+00    0.740577531902069097E+00    0.107578224417840710E+11   -0.132593895040956625E+03
    0.336825054429438275E+00    0.745907265454038182E+00    0.107715934411948223E+11   -0.132629222286000811E+03
    0.345946535503454111E+00    0.729259103178334200E+00    0.106607584611413727E+11   -0.132614399652092345E+03
    0.343117256988170471E+00    0.737341760243337419E+00    0.106661398162116909E+11   -0.132732519759996308E+03
    0.346009492979694189E+00    0.739730802527130749E+00    0.106025267032362480E+11   -0.132803338113809417E+03
    0.346678053087727700E+00    0.738794342846924579E+00    0.106190585667728214E+11   -0.132574404959351796E+03
    0.346576680996748210E+00    0.730600437626772958E+00    0.106112759273822575E+11   -0.132374295076600049E+03
    0.345659208424742070E+00    0.716431799991978480E+00    0.106924490256256695E+11   -0.132073666278159806E+03
    0.345179576353566664E+00    0.713705583025213031E+00    0.106481598636519928E+11   -0.132626030284050671E+03
    0.348721698473390795E+00    0.720812658577557386E+00    0.106222031997368031E+11   -0.132677777251436311E+03
    0.346537748691091940E+00    0.713126090048774586E+00    0.106104561156869106E+11   -0.132329063535220655E+03
    0.340787979973199373E+00    0.713093089488447518E+00    0.107035057764891129E+11   -0.132372849007271526E+03
    0.340787979973199373E+00    0.713093089488447518E+00    0.107035057764891129E+11   -0.132372849007271526E+03
    0.342418434405379890E+00    0.712272153865713520E+00    0.106976717561731682E+11   -0.132351439921215757E+03
    0.342418434405379890E+00    0.712272153865713520E+00    0.106976717561731682E+11   -0.132351439921215757E+03
    0.342970365423680423E+00    0.721167942947616325E+00    0.107130480838440571E+11   -0.132579834423728187E+03
    0.341535021410585504E+00    0.728458268890593175E+00    0.106803578682313423E+11   -0.132424455058106275E+03
    0.340810642568049937E+00    0.731046222096910725E+00    0.107092001699384098E+11   -0.132743214066199528E+03
    0.335315231175368766E+00    0.703731508973064024E+00    0.107655910365932884E+11   -0.132581518539967988E+03
    0.338216151957451139E+00    0.698827448099414994E+00    0.107304054856249142E+11   -0.132787071847438369E+03
    0.336474408722365392E+00    0.700764494917518022E+00    0.107386351686620960E+11   -0.132815971283493980E+03
    0.339133600964995396E+00    0.727612081409764855E+00    0.107494436171586361E+11   -0.132383125936875814E+03
    0.342628321568856031E+00    0.716648580287417403E+00    0.106713159403176517E+11   -0.132431043518903095E+03
    0.341580610326968515E+00    0.731093675219476324E+00    0.106931088336335468E+11   -0.132455302334464193E+03
    0.330201334780352906E+00    0.665322532146415568E+00    0.108945425414648991E+11   -0.132598097059121869E+03
    0.329628703860482208E+00    0.627324910072108111E+00    0.108615828840487938E+11   -0.132777965013690562E+03
    0.330464886239813516E+00    0.654385113444247324E+00    0.108701750279182835E+11   -0.132703094089530794E+03
    0.330970852503136126E+00    0.652087873935764506E+00    0.108278297548730755E+11   -0.132784708294445721E+03
    0.331427756495157766E+00    0.650597984811378538E+00    0.108891599676242790E+11   -0.132576459121132586E+03
    0.330471575324071398E+00    0.649994126147880991E+00    0.108473734200757885E+11   -0.132706644776065900E+03
    0.329626601799310803E+00    0.663825662065345767E+00    0.108946125142138081E+11   -0.132672095101993250E+03
    0.331626948020192325E+00    0.663673241555324367E+00    0.108911573005469398E+11   -0.132621187896096842E+03
    0.329300445926096752E+00    0.650270862827149188E+00    0.108659743432603912E+11   -0.132712078241297831E+03
    0.331555332635853239E+00    0.650483013632243257E+00    0.108474785778849411E+11   -0.132794976755026084E+03
    0.332436420166921431E+00    0.668212938511532073E+00    0.108708447146311703E+11   -0.132701126784726966E+03
    0.329156237589780409E+00    0.659782079645953701E+00    0.108965619302172222E+11   -0.132843612005230284E+03
    0.336489141702492334E+00    0.638358944486130397E+00    0.107920637398028374E+11   -0.132498479729868649E+03
    0.342481683800100800E+00    0.620346656664334972E+00    0.106968495064850006E+11   -0.132277283507452182E+03
    0.343475160956137393E+00    0.621914351294206469E+00    0.106918156825464954E+11   -0.132634982610446855E+03
    0.339895298419767178E+00    0.624503415207534829E+00    0.107059302237600937E+11   -0.132402381396058956E+03
    0.339895298419767178E+00    0.624503415207534829E+00    0.107059302237600937E+11   -0.132402381396058956E+03
    0.334558625034424517E+00    0.638624034738107582E+00    0.107915988587970123E+11   -0.132494448853814703E+03
    0.336737265223558346E+00    0.628955298579427335E+00    0.108012642793899097E+11   -0.132743893349297650E+03
    0.350218962012047552E+00    0.591484661953163737E+00    0.105506319438070068E+11   -0.132340150505194316E+03
    0.350218962012047552E+00    0.591484661953163737E+00    0.105506319438070068E+11   -0.132340150505194316E+03
    0.348423354861752077E+00    0.602648809100312377E+00    0.105879901447336578E+11   -0.132785158535821324E+03
    0.356077934295906451E+00    0.617042466495959729E+00    0.104698510776867428E+11   -0.132495293083000746E+03
    0.349652645806534546E+00    0.609781571233099839E+00    0.105374203715649090E+11   -0.132555129758382975E+03
    0.356695930238717374E+00    0.600854659238283517E+00    0.104664045004074745E+11   -0.132093994853333243E+03
    0.350583722330147896E+00    0.588496458336189576E+00    0.105432522935983639E+11   -0.132544530028783015E+03
    0.354171118986105260E+00    0.597792554196347581E+00    0.105199613308303547E+11   -0.132022095741169835E+03
    0.354171118986105260E+00    0.597792554196347581E+00    0.105199613308303547E+11   -0.132022095741169835E+03
    0.356209493179506176E+00    0.561525652545871168E+00    0.104735964925280304E+11   -0.132710460065098232E+03
    0.355623755564877686E+00    0.563653710057991475E+00    0.104862772233800564E+11   -0.132402246970957549E+03
    0.353431953777922803E+00    0.562004206332289868E+00    0.105037236512652378E+11   -0.132743392302825612E+03
    0.349402408321323021E+00    0.572519968852226668E+00    0.106277441637973270E+11   -0.132540817682092552E+03
    0.345747821066165972E+00    0.564498187085661129E+00    0.106487806982085648E+11   -0.132480579627108455E+03
    0.343607977605927983E+00    0.632647140407637920E+00    0.106550489896110535E+11   -0.132567106427502353E+03
    0.342563714993979640E+00    0.632957035740478346E+00    0.106618625332553482E+11   -0.132561872743544882E+03
    0.346880466110472130E+00    0.640936691976429884E+00    0.106360426852234211E+11   -0.131947142663693569E+03
    0.346880466110472130E+00    0.640936691976429884E+00    0.106360426852234211E+11   -0.131947142663693569E+03
    0.344182314165572933E+00    0.630254986512833071E+00    0.106662548374700336E+11   -0.132567904885894762E+03
    0.341734375693216019E+00    0.645588077426630491E+00    0.106639565167494411E+11   -0.132564570801073671E+03
    0.342986200136544961E+00    0.638744360497300434E+00    0.106525360329931946E+11   -0.132596485468633603E+03
    0.340337394318740716E+00    0.597953058954661998E+00    0.107159674037746181E+11   -0.132404477142692400E+03
    0.339003444085585914E+00    0.611395837112816309E+00    0.107147355369524822E+11   -0.132832697391492786E+03
    0.338555875394185302E+00    0.598858437711172087E+00    0.107103337727099495E+11   -0.132406701792662602E+03
    0.345544705509653660E+00    0.666708728628005787E+00    0.106165156203138409E+11   -0.132465996662718283E+03
    0.342980851985542678E+00    0.633019650106909637E+00    0.106642834460154228E+11   -0.132270828889632838E+03
    0.341550894670703375E+00    0.613688965188284641E+00    0.106786907443064823E+11   -0.132838168822405123E+03
    0.353089452820385619E+00    0.664724115357167022E+00    0.104979182995562515E+11   -0.132848865104402961E+03
    0.345810178714240690E+00    0.665613369369786767E+00    0.106351221724978371E+11   -0.132411796268564785E+03
    0.344725982873548220E+00    0.654826373185590782E+00    0.106502880600928688E+11   -0.132570758548570097E+03
    0.359090450071663014E+00    0.706284879196946491E+00    0.104384118511423073E+11   -0.132763978750320803E+03
    0.364721344516909629E+00    0.694520892544289836E+00    0.103690398555969143E+11   -0.132303232796711313E+03
    0.364721344516909629E+00    0.694520892544289836E+00    0.103690398555969143E+11   -0.132303232796711313E+03
    0.389549160713620168E+00    0.719749908585265885E+00    0.100642363292652607E+11   -0.132584034685289367E+03
    0.361488025032574878E+00    0.679363099985465624E+00    0.104052843819733829E+11   -0.132748512327261096E+03
    0.356388702281515368E+00    0.704939581836343976E+00    0.104728944492853718E+11   -0.132541935631249686E+03
    0.364147179310877478E+00    0.696488219193497571E+00    0.103738162229329929E+11   -0.132412933573533508E+03
    0.367412421756911634E+00    0.656935509356394221E+00    0.103327215808739758E+11   -0.132591498559389322E+03
    0.361849210149439438E+00    0.654639918804559073E+00    0.103957848011922379E+11   -0.132150588441071875E+03
    0.361849210149439438E+00    0.654639918804559073E+00    0.103957848011922379E+11   -0.132150588441071875E+03
