    0.127568646622285231E+00    0.305025166074985421E+00    0.986400086787390137E+10   -0.135646915776730054E+03
    0.124224354944650936E+00    0.350659725153825264E+00    0.100248255415089111E+11   -0.134606136838613509E+03
    0.129367119803910247E+00    0.478902146229465586E+00    0.978153437996923065E+10   -0.134274282795999227E+03
    0.163156072519696271E+00    0.411520104230902461E+00    0.881439662419769478E+10   -0.133787249722341357E+03
    0.133317861817655620E+00    0.479279465160630025E+00    0.968600240849057007E+10   -0.133524569333120326E+03
    0.131633284307424187E+00    0.430536260639629020E+00    0.977932242376601791E+10   -0.133425803883410850E+03
    0.160072181818798842E+00    0.431207075533418305E+00    0.898875923142481041E+10   -0.133206335265154451E+03
    0.128460401275415609E+00    0.425242606193920736E+00    0.991263672222850227E+10   -0.133187882500119372E+03
    0.141210736694758032E+00    0.484250177442586249E+00    0.937260053826192856E+10   -0.132845618801907875E+03
    0.151720259897075327E+00    0.405607622183538297E+00    0.903772027098111725E+10   -0.132764242650310081E+03
    0.143049717949267019E+00    0.345078787004005960E+00    0.933290301192684555E+10   -0.132719071784901701E+03
    0.142581343146401140E+00    0.492825941434931636E+00    0.935443733375869751E+10   -0.132610947182862503E+03
    0.155919889035567416E+00    0.422480786727653879E+00    0.894058264087761116E+10   -0.132438860262795686E+03
    0.138560614390847020E+00    0.476891994269919905E+00    0.952135699715510368E+10   -0.132416597652023199E+03
    0.195330984291007037E+00    0.561990458520728708E+00    0.818304061790923309E+10   -0.132406751968247164E+03
    0.170351405047768412E+00    0.507403555967096409E+00    0.859285490145787430E+10   -0.132365438513398175E+03
    0.165982606760901430E+00    0.460751979602715522E+00    0.867937961161235809E+10   -0.132358737192194098E+03
    0.167669539368450388E+00    0.598124619511292366E+00    0.868902165644869614E+10   -0.132330587915628200E+03
    0.203760329671357210E+00    0.421926407810801152E+00    0.786896617395440292E+10   -0.132221933900962142E+03
    0.139151272231744672E+00    0.476278058114026237E+00    0.952000465661864090E+10   -0.132148482151567976E+03
    0.152405545397872516E+00    0.521554448020618011E+00    0.902212991974412918E+10   -0.132144464058471158E+03
    0.134604604755571317E+00    0.523178624172214057E+00    0.972964324334365463E+10   -0.132054699741308838E+03
    0.148823964565470090E+00    0.528015383632915558E+00    0.917234781043889427E+10   -0.132026959645067535E+03
    0.137762270732732423E+00    0.430391037444488589E+00    0.958862236711248779E+10   -0.132024443470130393E+03
    0.142589099643360695E+00    0.548507300976901035E+00    0.942007435176730347E+10   -0.131991215583926845E+03
    0.174375814545437879E+00    0.571056248914004527E+00    0.859726518388236237E+10   -0.131977695383070397E+03
    0.141674259908061095E+00    0.527585565904383103E+00    0.942851138366465759E+10   -0.131969434702996239E+03
    0.140382932937290539E+00    0.586217322197830626E+00    0.949489473754635620E+10   -0.131944165809422799E+03
    0.182679739313668987E+00    0.511664346825055460E+00    0.840829912128666401E+10   -0.131934596175411997E+03
    0.145969604603452374E+00    0.536838039314108784E+00    0.926350201284255219E+10   -0.131924867520415319E+03
    0.145322870588926956E+00    0.486059915964586864E+00    0.924855640023355484E+10   -0.131923086065793996E+03
    0.132447923534607798E+00    0.529605810770426899E+00    0.976061438182326889E+10   -0.131899618759874357E+03
    0.145414008133107786E+00    0.548821126336731524E+00    0.930000946169340134E+10   -0.131861143896227361E+03
    0.169143767922928762E+00    0.473098026802160732E+00    0.866043422761985779E+10   -0.131639596599721841E+03
    0.156180770083947207E+00    0.371087462199250595E+00    0.893251684468904495E+10   -0.131518932272204069E+03
    0.157587871576992833E+00    0.467519205604514099E+00    0.891381989149687958E+10   -0.131498968939072370E+03
    0.139133288890796430E+00    0.415234188330067866E+00    0.948802790148170471E+10   -0.131488256337315704E+03
    0.139384513448403080E+00    0.427193167561561893E+00    0.948980545591517830E+10   -0.131459114168227046E+03
    0.146126332718946372E+00    0.503646797416443803E+00    0.927868987593707657E+10   -0.131366063050110085E+03
    0.160507962038456686E+00    0.426984758656512753E+00    0.882705867261189270E+10   -0.131340441181990087E+03
    0.141833690197652268E+00    0.474913555833902379E+00    0.946887106527034378E+10   -0.131333002780600452E+03
    0.133565881691891819E+00    0.530822293663110401E+00    0.973170994835271072E+10   -0.131299627393646745E+03
    0.155039439260682588E+00    0.430003592185856931E+00    0.902092668543385315E+10   -0.131292968130065674E+03
    0.142751446992694042E+00    0.483098441109435228E+00    0.947504151508646393E+10   -0.131289256249704067E+03
    0.157765948847996440E+00    0.441518809898528986E+00    0.906103683687848282E+10   -0.131282169197749653E+03
    0.148286798568474043E+00    0.448061573037170646E+00    0.927104317049323082E+10   -0.131272091103142230E+03
    0.162694363487670246E+00    0.511759679996545813E+00    0.874889117734569168E+10   -0.131246116880767431E+03
    0.141613851612883562E+00    0.490393888405979084E+00    0.941080315664746475E+10   -0.131217646920505047E+03
    0.134527942068698891E+00    0.578101315742141963E+00    0.969931008091673088E+10   -0.131216175249005460E+03
    0.148434847444058271E+00    0.379467381257898140E+00    0.916936173466721725E+10   -0.131209378810265036E+03
    0.150470272033204455E+00    0.482319757506379787E+00    0.910690347574222565E+10   -0.131184960356524130E+03
    0.135387878113380711E+00    0.573919876068559986E+00    0.964450977295402908E+10   -0.131184244386965617E+03
    0.132449477871492638E+00    0.572713281311497013E+00    0.978228906917624283E+10   -0.131175593589659343E+03
    0.169963574402013817E+00    0.461386218164804518E+00    0.863099824100412369E+10   -0.131005817262453490E+03
    0.138459797843627219E+00    0.525236400077293553E+00    0.959380231354916763E+10   -0.130990707269298071E+03
    0.170063307122864354E+00    0.546814450525918261E+00    0.856189138911194515E+10   -0.130945183946117709E+03
    0.179403818824381944E+00    0.493235289455220993E+00    0.844487327516969204E+10   -0.130932244632897749E+03
    0.137325510742041135E+00    0.502131833017656959E+00    0.964458271578410149E+10   -0.130912496917904548E+03
    0.181994036627432854E+00    0.531284312421041349E+00    0.840894533317686939E+10   -0.130878920197114866E+03
    0.149259976897759217E+00    0.440079958156257334E+00    0.920619391568352318E+10   -0.130864614745210702E+03
    0.164852419694024949E+00    0.515307688101557915E+00    0.870681354586439896E+10   -0.130797320020374372E+03
    0.175324477144737478E+00    0.491274809034552007E+00    0.856570245709724331E+10   -0.130781157131939096E+03
    0.206801883862249070E+00    0.554550325574130198E+00    0.782081237387553787E+10   -0.130732466092819692E+03
    0.155808759142778031E+00    0.432819302609935619E+00    0.901656073421924210E+10   -0.130725064686476458E+03
    0.165046014183205636E+00    0.518959816624160908E+00    0.868609964069196320E+10   -0.130690331172086587E+03
    0.169580111707049674E+00    0.513524791804535141E+00    0.862403141831951904E+10   -0.130671275900349656E+03
    0.143123107219746526E+00    0.434142995025236900E+00    0.937346913540062523E+10   -0.130652991251280866E+03
    0.156470988409909140E+00    0.476507414524354189E+00    0.897970862410831642E+10   -0.130651187049382713E+03
    0.171771031785380501E+00    0.478157565593415157E+00    0.865981785347297287E+10   -0.130643125008463016E+03
    0.199240707864051958E+00    0.606280114448500385E+00    0.796852321617991734E+10   -0.130624265419408459E+03
    0.153807618953014730E+00    0.474282593510903183E+00    0.907719660155827713E+10   -0.130620504866514779E+03
    0.173462011167379526E+00    0.581498319706994948E+00    0.847906063611591434E+10   -0.130611691704572877E+03
    0.174776190708806595E+00    0.551648754999654045E+00    0.868378844527531242E+10   -0.130607384300234060E+03
    0.168230524143933302E+00    0.539680623625905298E+00    0.865772817185815239E+10   -0.130531673245680906E+03
    0.173412233605434424E+00    0.563516802568702957E+00    0.859584494819257355E+10   -0.130504290571587546E+03
    0.169228980899864018E+00    0.483909510883016480E+00    0.866853679618629074E+10   -0.130502502090537376E+03
    0.163688996370196960E+00    0.462857331049837839E+00    0.883052850085577393E+10   -0.130393348424577283E+03
    0.173600372149128795E+00    0.492806417686544762E+00    0.855204319296855259E+10   -0.130375135678357395E+03
    0.173640976219179261E+00    0.554578733373887189E+00    0.854546178602776146E+10   -0.130346591596851084E+03
    0.146052361716862700E+00    0.463246166492595535E+00    0.931224572381825638E+10   -0.130312167110551854E+03
    0.170695021874815500E+00    0.607558004376633320E+00    0.869107675514750671E+10   -0.130301963477067375E+03
    0.137667620611261254E+00    0.509159213785510545E+00    0.961803053961803627E+10   -0.130229341351578853E+03
    0.199736810170171364E+00    0.557041404607163670E+00    0.797633121845335960E+10   -0.130214715171520083E+03
    0.162773546028828875E+00    0.495941551941109893E+00    0.882956916792374420E+10   -0.130209097996189826E+03
    0.163963411768772771E+00    0.456946215189415028E+00    0.879255134618567657E+10   -0.130203837822267815E+03
    0.142880163674287325E+00    0.478609445489668772E+00    0.941897479821098709E+10   -0.130202102258321645E+03
    0.165562516664352455E+00    0.540128574494950442E+00    0.872440107777425385E+10   -0.130194034304764784E+03
    0.167757735723904344E+00    0.553778292756202717E+00    0.867623092658832359E+10   -0.130110821499148528E+03
    0.178149800874368880E+00    0.493922550744079203E+00    0.850744864510233021E+10   -0.130107277525548312E+03
    0.165940153116527156E+00    0.508461212511498672E+00    0.874384734132270050E+10   -0.130106192595738889E+03
    0.151640343619504958E+00    0.476218610165055622E+00    0.911731322290462875E+10   -0.130101545630602914E+03
    0.141641671494631416E+00    0.504334020419182849E+00    0.943990621268227577E+10   -0.130069041255792627E+03
    0.168410547212755279E+00    0.492003613399706552E+00    0.863522458240050888E+10   -0.130057960785483971E+03
    0.173058071675940200E+00    0.491342444537705703E+00    0.855462041307297516E+10   -0.130056688923275118E+03
    0.166673888122166436E+00    0.612472287290868778E+00    0.869560220129346466E+10   -0.130050845016233154E+03
    0.149704578075507744E+00    0.453128300157832342E+00    0.921634092383187485E+10   -0.130040617471004310E+03
    0.171048198210127567E+00    0.480092180643644895E+00    0.862755485859692574E+10   -0.129997205411500033E+03
    0.161595491939861446E+00    0.442722240576646442E+00    0.885056583461889267E+10   -0.129982745828644767E+03
    0.161398060585516728E+00    0.475739357133576846E+00    0.883677735282508850E+10   -0.129965278101135880E+03
    0.170756940915493372E+00    0.519241087336457241E+00    0.864344734504512596E+10   -0.129963789404768249E+03
    0.157184383933248462E+00    0.475216946362294834E+00    0.894943248955856705E+10   -0.129963231616867461E+03
    0.159313947575491444E+00    0.413834735129157139E+00    0.889587003914339256E+10   -0.129952722036673464E+03
    0.203217199293268203E+00    0.552534741787729544E+00    0.786475608847286797E+10   -0.129950441772536863E+03
    0.172674361258706305E+00    0.572254332469007920E+00    0.852645077494287109E+10   -0.129944251238052999E+03
    0.177402148462547982E+00    0.573653627715858150E+00    0.843923687493644333E+10   -0.129889668798018931E+03
    0.155726599734834881E+00    0.491911172494754467E+00    0.899962488540151215E+10   -0.129887839359491693E+03
    0.170888284162429155E+00    0.503145751725531554E+00    0.867885155480374908E+10   -0.129839365842679229E+03
    0.203956280717602356E+00    0.539623149507921340E+00    0.784765207317828560E+10   -0.129809708753046777E+03
    0.170765034735546273E+00    0.574923950388120275E+00    0.859861631164275742E+10   -0.129759953357612801E+03
    0.179190396639871186E+00    0.484080601485691986E+00    0.843145135105388355E+10   -0.129663549061815672E+03
    0.164738215281375056E+00    0.495813693388708288E+00    0.876907558317448997E+10   -0.129655356718344422E+03
    0.170613224991776058E+00    0.500734116634397708E+00    0.869416726294968033E+10   -0.129643725681299003E+03
    0.165135920146502357E+00    0.535907681768264865E+00    0.870234741081912231E+10   -0.129637686402572854E+03
    0.173573742502334649E+00    0.559969779712417903E+00    0.848804023662047195E+10   -0.129632384038332646E+03
    0.151258395941862189E+00    0.568460717629246659E+00    0.910854497999376488E+10   -0.129621238942831042E+03
    0.172822922475195540E+00    0.470108074244379281E+00    0.858674594094199944E+10   -0.129619186097949182E+03
    0.164764662251418281E+00    0.540983329715501782E+00    0.873630878488958740E+10   -0.129604218628358751E+03
    0.161526359184284790E+00    0.445491023121549645E+00    0.884525584077047729E+10   -0.129555875098565139E+03
    0.176399332978710077E+00    0.512569135483580851E+00    0.843089152636772251E+10   -0.129546677338597362E+03
    0.150481100506114740E+00    0.491299079549234463E+00    0.914484382611191940E+10   -0.129536959034989195E+03
    0.167420939627176385E+00    0.487657535400568776E+00    0.866778548736451149E+10   -0.129522386305291263E+03
    0.167973618337487973E+00    0.506114682603799437E+00    0.867233691544159126E+10   -0.129517576407949633E+03
    0.155211052097610103E+00    0.495442341604494629E+00    0.899881720880287743E+10   -0.129502537043761663E+03
    0.176605034474926481E+00    0.509449080603348037E+00    0.842486746471192551E+10   -0.129491322200181031E+03
    0.172421542463326194E+00    0.456301245130232402E+00    0.853525040488552380E+10   -0.129478678624077929E+03
    0.168816848210773085E+00    0.530505099839258421E+00    0.865086145143039322E+10   -0.129472480925262971E+03
    0.176215375666084473E+00    0.559525241956260189E+00    0.846274572217077255E+10   -0.129436435674605832E+03
    0.170163941378084410E+00    0.492063315053037797E+00    0.865684946117590332E+10   -0.129424348194429172E+03
    0.171379854918092850E+00    0.532163571997841700E+00    0.860541367924281120E+10   -0.129386753896060441E+03
    0.170426460958578052E+00    0.508437781502493635E+00    0.861399366396220589E+10   -0.129377497529339422E+03
    0.148513277291943357E+00    0.568743593774151179E+00    0.921547715991669464E+10   -0.129359174754767423E+03
    0.148507809266727658E+00    0.541745849553310066E+00    0.921431403434889984E+10   -0.129341717114953354E+03
    0.169843924140691105E+00    0.542956197470541468E+00    0.860406112127159882E+10   -0.129317599508326850E+03
    0.180745467075976218E+00    0.524659403779644151E+00    0.851817210527680302E+10   -0.129306835167472627E+03
    0.172330473598880818E+00    0.578587923370355028E+00    0.858172821711209011E+10   -0.129300264933844346E+03
    0.147206755177477389E+00    0.542799667091575344E+00    0.929198290549806023E+10   -0.129287873461246676E+03
    0.171580933528015178E+00    0.481726072344834222E+00    0.861298791347892761E+10   -0.129243078058785244E+03
    0.160644698993422264E+00    0.453762995816278547E+00    0.886592023387515450E+10   -0.129240412712815896E+03
    0.162569494381241686E+00    0.505984731187677284E+00    0.880477148132157326E+10   -0.129233475718626039E+03
    0.167684452098800563E+00    0.519997170306075063E+00    0.868532196059743881E+10   -0.129206118621649409E+03
    0.168387099030399778E+00    0.549628250358203729E+00    0.870896754431217957E+10   -0.129205878815789617E+03
    0.169409573892796150E+00    0.496091380243839808E+00    0.872385384632441330E+10   -0.129188018835717116E+03
    0.171574885546508821E+00    0.458630965642214505E+00    0.854670940769900131E+10   -0.129172723466836430E+03
    0.164532908546850043E+00    0.463248741009472553E+00    0.879606663834137726E+10   -0.129146842833213327E+03
    0.165563391025517453E+00    0.542799437445866673E+00    0.873991193394171715E+10   -0.129126580058265574E+03
    0.170318955305733460E+00    0.522859732468941019E+00    0.862372166165818596E+10   -0.129088195829285212E+03
    0.170318955305733460E+00    0.522859732468941019E+00    0.862372166165818596E+10   -0.129088195829285212E+03
    0.175431896492983852E+00    0.485544859008843588E+00    0.852898495493112659E+10   -0.129072466624891632E+03
    0.172151984572034011E+00    0.505853056081125629E+00    0.855647400151140213E+10   -0.129066705560296242E+03
    0.194209060562927027E+00    0.531341491092282681E+00    0.807276883203773499E+10   -0.129062259851876036E+03
    0.162822652139323287E+00    0.429372927350229361E+00    0.879043368689587402E+10   -0.129057561729003055E+03
    0.168392436338775431E+00    0.542024763858581338E+00    0.870096515271260834E+10   -0.129050550947556872E+03
    0.172501780522622272E+00    0.604388559221229471E+00    0.858284196909628868E+10   -0.129040523202829036E+03
    0.171924812711155672E+00    0.584329289396851692E+00    0.856306757329316425E+10   -0.129029460508817692E+03
    0.161120757664941383E+00    0.514596013844029088E+00    0.884850827939334869E+10   -0.129021800479696083E+03
    0.166799801617982607E+00    0.515321440433648803E+00    0.871600703891073227E+10   -0.129018338886233863E+03
    0.170642497638441082E+00    0.501161267813577282E+00    0.863538161985887909E+10   -0.129014824520692343E+03
    0.155004750548953130E+00    0.441017363931436535E+00    0.905540097073928070E+10   -0.128998194377248382E+03
    0.155623274063652756E+00    0.495905419729758989E+00    0.898692733074764061E+10   -0.128996330490570017E+03
    0.155623274063652756E+00    0.495905419729758989E+00    0.898692733074764061E+10   -0.128996330490570017E+03
    0.163594489352299310E+00    0.487232036524225975E+00    0.878591701140064621E+10   -0.128989795681964381E+03
    0.163995065292888542E+00    0.514822431062656349E+00    0.874459380144574738E+10   -0.128985485659699435E+03
    0.191529377652478405E+00    0.528052307253613407E+00    0.813927093472548580E+10   -0.128973951449035980E+03
    0.189667631530470226E+00    0.490471876822514474E+00    0.824042194629323769E+10   -0.128968749672884883E+03
    0.173848495341243248E+00    0.469429915721168101E+00    0.850678556988367844E+10   -0.128956593935792995E+03
    0.164795591618220688E+00    0.506251800000717012E+00    0.878415775652004623E+10   -0.128932806895451563E+03
    0.174766575086193338E+00    0.569213017803154031E+00    0.855811416210355186E+10   -0.128931142421728623E+03
    0.158600495961986776E+00    0.510624251566964560E+00    0.890485138909404945E+10   -0.128906060967207679E+03
    0.164863453677828231E+00    0.478355886386465201E+00    0.881795321986068344E+10   -0.128896241910819640E+03
    0.164863453677828231E+00    0.478355886386465201E+00    0.881795321986068344E+10   -0.128896241910819640E+03
    0.156464358453246299E+00    0.490367500958965863E+00    0.897768099286205101E+10   -0.128887594593137692E+03
    0.171351779452585867E+00    0.604732337984861701E+00    0.867570666197633362E+10   -0.128847806633312899E+03
    0.171351779452585867E+00    0.604732337984861701E+00    0.867570666197633362E+10   -0.128847806633312899E+03
    0.169107029117440355E+00    0.487596362805142292E+00    0.865535243852819633E+10   -0.128839990383926420E+03
    0.178918671580524657E+00    0.509978501940572926E+00    0.840726818738405895E+10   -0.128818383129898024E+03
    0.171515203553357809E+00    0.516792965461148057E+00    0.861258027747524261E+10   -0.128816465214907140E+03
    0.168892052219662914E+00    0.584123293709872371E+00    0.862170214553144455E+10   -0.128802467372250021E+03
    0.167979058037460049E+00    0.466467303372684938E+00    0.871932010454727936E+10   -0.128793119753558273E+03
    0.171504975932975368E+00    0.490182251523226142E+00    0.863671260709959030E+10   -0.128792015085927318E+03
    0.169471404576195195E+00    0.531395545341871056E+00    0.862624850240793610E+10   -0.128755304470466541E+03
    0.167759106693731508E+00    0.478880237598701797E+00    0.872267103702510071E+10   -0.128755038780138165E+03
    0.167759106693731508E+00    0.478880237598701797E+00    0.872267103702510071E+10   -0.128755038780138165E+03
    0.177264426256456498E+00    0.511412971058227583E+00    0.846142079990918350E+10   -0.128754609126608273E+03
    0.172314597224440091E+00    0.585594446319930739E+00    0.859282586602143288E+10   -0.128750202300014536E+03
    0.172314597224440091E+00    0.585594446319930739E+00    0.859282586602143288E+10   -0.128750202300014536E+03
    0.171445786755620527E+00    0.556606765907075030E+00    0.867764402665116882E+10   -0.128745880499753099E+03
    0.175684588941317887E+00    0.496975454781313886E+00    0.850644909067867470E+10   -0.128744676834708969E+03
    0.175684588941317887E+00    0.496975454781313886E+00    0.850644909067867470E+10   -0.128744676834708969E+03
    0.167008377571741473E+00    0.529270449707087920E+00    0.866983460689118385E+10   -0.128741010886713696E+03
    0.177474005398754464E+00    0.474320391384768669E+00    0.845767191336134434E+10   -0.128732198621737552E+03
    0.176277647988346609E+00    0.482372944808970416E+00    0.845968008791079330E+10   -0.128727817207863325E+03
    0.173112576603267621E+00    0.614381640060360112E+00    0.857848534447637081E+10   -0.128677436415614039E+03
    0.175372927060297279E+00    0.572031016661867397E+00    0.851872720086945438E+10   -0.128675650902687352E+03
    0.175372927060297279E+00    0.572031016661867397E+00    0.851872720086945438E+10   -0.128675650902687352E+03
    0.166080255396591048E+00    0.507393471385571004E+00    0.876582253523890305E+10   -0.128665894258041817E+03
    0.177689876182761497E+00    0.520243240606284019E+00    0.846615409874883747E+10   -0.128652658675899943E+03
    0.177689876182761497E+00    0.520243240606284019E+00    0.846615409874883747E+10   -0.128652658675899943E+03
    0.159523062332821708E+00    0.410291099208821564E+00    0.889638620952165222E+10   -0.128635506667222955E+03
    0.159523062332821708E+00    0.410291099208821564E+00    0.889638620952165222E+10   -0.128635506667222955E+03
    0.161769148075956687E+00    0.502635314469559447E+00    0.881077185187678528E+10   -0.128633166136434340E+03
    0.168238910224700167E+00    0.506110772521616070E+00    0.864177480013732529E+10   -0.128611578080150451E+03
    0.169470541707040068E+00    0.605624132535059090E+00    0.868060442072686768E+10   -0.128611523941035728E+03
    0.192271540301419908E+00    0.539989679689744762E+00    0.810799018216795158E+10   -0.128609345156665938E+03
    0.162049425874822295E+00    0.508092323993814432E+00    0.883493067964759445E+10   -0.128608124757756684E+03
    0.170792324688962549E+00    0.568050506499153229E+00    0.860641610687413788E+10   -0.128585636038059903E+03
    0.167236195165411106E+00    0.530202184445355940E+00    0.871496708563026047E+10   -0.128583795239397404E+03
    0.169583468204376309E+00    0.454138298216182790E+00    0.862726088334747124E+10   -0.128575338152047607E+03
    0.171254381729310845E+00    0.513926215523587970E+00    0.859926265060576057E+10   -0.128568416269763361E+03
    0.171083072426815308E+00    0.484941967185473999E+00    0.861324713530840302E+10   -0.128544410514552766E+03
    0.176298992500510010E+00    0.488300373972842650E+00    0.845646923304094410E+10   -0.128537868258778019E+03
    0.176117238140109322E+00    0.489786496479627687E+00    0.844113029339846516E+10   -0.128492432630141764E+03
    0.176117238140109322E+00    0.489786496479627687E+00    0.844113029339846516E+10   -0.128492432630141764E+03
    0.173061312820092628E+00    0.497644548888885652E+00    0.853932647577142048E+10   -0.128487448060516584E+03
    0.173061312820092628E+00    0.497644548888885652E+00    0.853932647577142048E+10   -0.128487448060516584E+03
    0.172291250969338200E+00    0.561172057592569828E+00    0.855797724413289833E+10   -0.128479766253322197E+03
    0.172291250969338200E+00    0.561172057592569828E+00    0.855797724413289833E+10   -0.128479766253322197E+03
    0.155481090934099647E+00    0.422867767345307399E+00    0.902559335501833725E+10   -0.128477054871211749E+03
    0.162829440918305618E+00    0.488435374289252877E+00    0.884527975341086578E+10   -0.128476857957157222E+03
    0.175162690834480106E+00    0.474748336106674884E+00    0.853120416406978130E+10   -0.128470745455691826E+03
    0.175162690834480106E+00    0.474748336106674884E+00    0.853120416406978130E+10   -0.128470745455691826E+03
    0.177090015633731779E+00    0.500211402200690713E+00    0.848458281969889832E+10   -0.128455549301758339E+03
    0.178057441767469016E+00    0.505751530893201462E+00    0.843137472322134209E+10   -0.128452163864001704E+03
    0.172821792861301671E+00    0.476283851356665622E+00    0.857130450772917843E+10   -0.128435688343077487E+03
    0.171312473129001469E+00    0.462966519874631999E+00    0.856804269732030392E+10   -0.128418961717558034E+03
    0.173055663990631658E+00    0.575290444144709312E+00    0.855994600766808987E+10   -0.128405846911801007E+03
    0.167735396700702172E+00    0.511346869091278577E+00    0.867365876547834969E+10   -0.128397511061906414E+03
    0.171489362904510945E+00    0.565386751559433520E+00    0.857975629557906437E+10   -0.128388798436127502E+03
    0.168813014518668258E+00    0.620401805124533468E+00    0.862303094948302460E+10   -0.128387870564488509E+03
    0.174457842213902342E+00    0.479069113357661891E+00    0.850533747695571804E+10   -0.128381681127454300E+03
    0.169389482993218848E+00    0.576756784620078733E+00    0.865810367966745949E+10   -0.128367829095190842E+03
    0.166823315672000982E+00    0.546821541060840133E+00    0.870490331283597374E+10   -0.128348851824824806E+03
    0.166823315672000982E+00    0.546821541060840133E+00    0.870490331283597374E+10   -0.128348851824824806E+03
    0.171874539497783335E+00    0.526835139229337557E+00    0.863222997159547424E+10   -0.128345046359320946E+03
    0.169505657081620187E+00    0.520944951561450154E+00    0.861655280452429199E+10   -0.128327460770509845E+03
    0.169041054862129114E+00    0.550158567258524300E+00    0.872108353543590736E+10   -0.128321379757323541E+03
    0.165075398705849585E+00    0.506161940576706826E+00    0.876945065940316391E+10   -0.128318091990539216E+03
    0.165504612872007739E+00    0.518853885425659911E+00    0.876001519037090111E+10   -0.128290515753487966E+03
    0.165504612872007739E+00    0.518853885425659911E+00    0.876001519037090111E+10   -0.128290515753487966E+03
    0.171110473294378757E+00    0.453866111375496928E+00    0.858500349338180065E+10   -0.128271945302417663E+03
    0.163031215027702736E+00    0.513233073466711431E+00    0.879662999854800034E+10   -0.128257095972012621E+03
    0.169856709034253317E+00    0.472390680554575226E+00    0.862988199211855125E+10   -0.128248812247056719E+03
    0.172100150293619414E+00    0.523659765990489134E+00    0.864913299860671997E+10   -0.128237603947978243E+03
    0.167365773022548403E+00    0.512987859468086782E+00    0.872730592869383812E+10   -0.128236990798225605E+03
    0.171266506739268382E+00    0.529827056102673666E+00    0.861792018607811356E+10   -0.128232067889136260E+03
    0.175588273111039694E+00    0.500722344044570278E+00    0.847997909688277721E+10   -0.128227557579652739E+03
    0.161792273972610173E+00    0.443548969595187970E+00    0.884815046445740891E+10   -0.128223083654367827E+03
    0.173217907238357005E+00    0.472556521486154679E+00    0.855145953555940056E+10   -0.128208134133946970E+03
    0.176006292746185511E+00    0.517259086357700681E+00    0.848866035538945293E+10   -0.128207727748601428E+03
    0.171521726566548072E+00    0.534504008619007820E+00    0.859319208978243637E+10   -0.128202794539635931E+03
    0.172314415758910544E+00    0.459291826469494069E+00    0.856091996229891491E+10   -0.128201666475574910E+03
    0.172314415758910544E+00    0.459291826469494069E+00    0.856091996229891491E+10   -0.128201666475574910E+03
    0.169875798645092335E+00    0.557818297445757949E+00    0.869374317205652237E+10   -0.128191637506336832E+03
    0.169875798645092335E+00    0.557818297445757949E+00    0.869374317205652237E+10   -0.128191637506336832E+03
    0.164805059309406920E+00    0.493401127623844360E+00    0.881523195088812256E+10   -0.128188942156334775E+03
    0.167688500401707019E+00    0.489598907121527205E+00    0.870506947494908905E+10   -0.128186601697130016E+03
    0.170810126798156769E+00    0.577207107353796545E+00    0.858118172548217869E+10   -0.128175839216576520E+03
    0.166667581856715874E+00    0.527471739850540189E+00    0.873732649586002922E+10   -0.128173185903193314E+03
    0.161710438869963780E+00    0.457477144129168067E+00    0.883996151474105835E+10   -0.128166427277572126E+03
    0.174860864053780207E+00    0.560230642163970671E+00    0.849388348834359932E+10   -0.128153768878109986E+03
    0.163263909415179043E+00    0.479629027045170631E+00    0.880313826761590576E+10   -0.128141631738954914E+03
    0.171018597452448851E+00    0.510185927508269188E+00    0.863904684176818466E+10   -0.128140644160347364E+03
    0.160642601097170101E+00    0.485152915148820085E+00    0.888087149544787598E+10   -0.128135785950036222E+03
    0.166153701026079681E+00    0.504516171065834129E+00    0.871663373299224854E+10   -0.128122472128640965E+03
    0.166153701026079681E+00    0.504516171065834129E+00    0.871663373299224854E+10   -0.128122472128640965E+03
    0.168288441191265431E+00    0.541806016312138539E+00    0.865119270036193848E+10   -0.128117118748065167E+03
    0.176737737836267783E+00    0.496200277267037748E+00    0.849841664538699245E+10   -0.128109681804082811E+03
    0.163632519667593596E+00    0.465374926866568117E+00    0.878205744111592484E+10   -0.128093451787569791E+03
    0.163913815836052357E+00    0.458083412930802680E+00    0.878546883337613678E+10   -0.128089608201736837E+03
    0.161271035923780448E+00    0.428806220152653239E+00    0.885114523335800171E+10   -0.128067260361349895E+03
    0.164691125332490224E+00    0.498996965822547267E+00    0.883401204659999847E+10   -0.128059556537928529E+03
    0.171212545548674544E+00    0.483423926608224974E+00    0.861657571301022911E+10   -0.128056969944405211E+03
    0.169102308846351801E+00    0.516500796144459429E+00    0.869252516085027885E+10   -0.128049371557665069E+03
    0.174075399578500489E+00    0.487009693293792623E+00    0.851894272689493561E+10   -0.128023022229585592E+03
    0.164548874857317451E+00    0.502957548682784861E+00    0.881669379516617966E+10   -0.128007593106463844E+03
    0.164548874857317451E+00    0.502957548682784861E+00    0.881669379516617966E+10   -0.128007593106463844E+03
    0.169505606029719369E+00    0.484987089074564892E+00    0.867778309363439941E+10   -0.128002744572148572E+03
    0.169618764882046857E+00    0.617496411699217873E+00    0.865572605091638184E+10   -0.128000533115776108E+03
    0.178190313817778556E+00    0.515469707483894979E+00    0.845234628556740761E+10   -0.127996546764734575E+03
    0.169715641033077680E+00    0.546647415475815635E+00    0.864235178846162415E+10   -0.127987749135229365E+03
    0.170627319780291720E+00    0.505245707262593768E+00    0.863969058822611618E+10   -0.127963624597376167E+03
    0.169219969572927176E+00    0.486132359448781415E+00    0.865612680661719322E+10   -0.127955233605601308E+03
    0.171649539734494760E+00    0.463872612915654514E+00    0.857696792451902866E+10   -0.127953539587593951E+03
    0.171649539734494760E+00    0.463872612915654514E+00    0.857696792451902866E+10   -0.127953539587593951E+03
    0.173458777540037246E+00    0.485395895246703901E+00    0.853324989723587894E+10   -0.127949266046670914E+03
    0.170587131638027883E+00    0.526484540951519975E+00    0.863635659234313965E+10   -0.127927877299515814E+03
    0.166547147524732986E+00    0.531043555915371002E+00    0.873891582984506607E+10   -0.127919939514054022E+03
    0.166244581370995570E+00    0.522013664739173322E+00    0.872748235534186554E+10   -0.127918544102031134E+03
    0.168170866248770978E+00    0.547807448535916564E+00    0.867053817657859802E+10   -0.127906119974067707E+03
    0.175068909587830057E+00    0.499931148871699094E+00    0.847854038622734165E+10   -0.127851533740327653E+03
    0.164285784648249833E+00    0.490540264630674017E+00    0.880573025024940491E+10   -0.127843219398263884E+03
    0.164511396085717909E+00    0.503790141359106158E+00    0.880998415588123131E+10   -0.127825135343878458E+03
    0.164511396085717909E+00    0.503790141359106158E+00    0.880998415588123131E+10   -0.127825135343878458E+03
    0.169472348883621504E+00    0.552168921745916919E+00    0.867838300764293861E+10   -0.127813814676828457E+03
    0.163801242824005877E+00    0.473613533420184751E+00    0.879739190648549843E+10   -0.127789026367093641E+03
    0.163801242824005877E+00    0.473613533420184751E+00    0.879739190648549843E+10   -0.127789026367093641E+03
    0.174324371804147893E+00    0.567814978280893001E+00    0.856150202090923786E+10   -0.127783848577969351E+03
    0.174324371804147893E+00    0.567814978280893001E+00    0.856150202090923786E+10   -0.127783848577969351E+03
    0.164055830629253246E+00    0.524972881024975635E+00    0.880180974263019371E+10   -0.127775463904360862E+03
    0.169253710404313445E+00    0.535174595833327160E+00    0.866649321197761154E+10   -0.127756651229648952E+03
    0.169253710404313445E+00    0.535174595833327160E+00    0.866649321197761154E+10   -0.127756651229648952E+03
    0.169193481800919004E+00    0.512209945658199217E+00    0.872956779616783524E+10   -0.127733364583415195E+03
    0.169193481800919004E+00    0.512209945658199217E+00    0.872956779616783524E+10   -0.127733364583415195E+03
    0.175875212741884723E+00    0.495470455124522147E+00    0.846158440433341789E+10   -0.127727306740977866E+03
    0.166884223801330112E+00    0.550713479147162843E+00    0.869903264946684265E+10   -0.127720284021340447E+03
    0.172763568830972269E+00    0.566191535464383833E+00    0.854798456039234734E+10   -0.127713820567210234E+03
    0.171367985331921102E+00    0.520660067885380329E+00    0.863383660868122864E+10   -0.127705882922500422E+03
    0.176492111677302554E+00    0.507187184106632216E+00    0.850300795239591503E+10   -0.127695760320771470E+03
    0.172485903433924725E+00    0.571483349591302314E+00    0.856098076716097546E+10   -0.127691353172650651E+03
    0.172485903433924725E+00    0.571483349591302314E+00    0.856098076716097546E+10   -0.127691353172650651E+03
    0.167824082049792683E+00    0.501531067875060188E+00    0.870752882542827606E+10   -0.127677595722133333E+03
    0.167824082049792683E+00    0.501531067875060188E+00    0.870752882542827606E+10   -0.127677595722133333E+03
    0.170014191825035632E+00    0.544482489247515744E+00    0.864213136285201263E+10   -0.127676007677065584E+03
    0.167544190976160301E+00    0.524874624463864237E+00    0.868424797942079735E+10   -0.127670061765189885E+03
    0.178146060036116549E+00    0.514743902762804240E+00    0.844821025215060806E+10   -0.127619075572184300E+03
    0.172711211037231804E+00    0.556057355833367239E+00    0.857392657353241634E+10   -0.127617897017733753E+03
    0.170103041536016214E+00    0.599691043114980005E+00    0.869941494016238594E+10   -0.127616053178803256E+03
    0.171210719043117354E+00    0.457189021540543195E+00    0.862888803303533554E+10   -0.127615166307697933E+03
    0.171210719043117354E+00    0.457189021540543195E+00    0.862888803303533554E+10   -0.127615166307697933E+03
    0.164800640043728519E+00    0.501017474077279701E+00    0.879478655279427147E+10   -0.127603162530705731E+03
    0.164800640043728519E+00    0.501017474077279701E+00    0.879478655279427147E+10   -0.127603162530705731E+03
    0.163548996362012089E+00    0.499335943170622798E+00    0.884118870093901062E+10   -0.127601220158491813E+03
    0.169835525732074999E+00    0.611785784656246889E+00    0.862769726601725006E+10   -0.127594523851261329E+03
    0.169835525732074999E+00    0.611785784656246889E+00    0.862769726601725006E+10   -0.127594523851261329E+03
    0.163452403334558460E+00    0.448703087494150665E+00    0.879620542226514435E+10   -0.127580967645562964E+03
    0.165172016699746904E+00    0.478624125958756252E+00    0.877083727732933807E+10   -0.127569700815115610E+03
    0.173276586146548284E+00    0.533009482765923082E+00    0.857716132747910023E+10   -0.127567446766071043E+03
    0.169988394443345653E+00    0.527027859130722476E+00    0.863351009177255630E+10   -0.127556583482570431E+03
    0.171731181857178949E+00    0.518773746650769141E+00    0.864388627576041412E+10   -0.127555023089394737E+03
    0.174872921904948964E+00    0.483687124157807347E+00    0.852369391476215172E+10   -0.127535222767865775E+03
    0.174872921904948964E+00    0.483687124157807347E+00    0.852369391476215172E+10   -0.127535222767865775E+03
    0.178541510956616745E+00    0.523663853620464081E+00    0.844345118168967342E+10   -0.127529337740924845E+03
    0.168211935716640226E+00    0.529059163833089485E+00    0.870847701834675217E+10   -0.127525022200060164E+03
    0.168211935716640226E+00    0.529059163833089485E+00    0.870847701834675217E+10   -0.127525022200060164E+03
    0.171749537954863696E+00    0.458436139742952165E+00    0.860990902420547485E+10   -0.127493857625121734E+03
    0.171749537954863696E+00    0.458436139742952165E+00    0.860990902420547485E+10   -0.127493857625121734E+03
    0.171399507991465472E+00    0.479222415014932679E+00    0.860263006216801834E+10   -0.127483968228316897E+03
    0.172219682938355212E+00    0.527071114975104393E+00    0.865035158021461487E+10   -0.127481310712965254E+03
    0.172219682938355212E+00    0.527071114975104393E+00    0.865035158021461487E+10   -0.127481310712965254E+03
    0.162289947461765449E+00    0.513835697845721029E+00    0.884444099389559555E+10   -0.127472653265123014E+03
    0.162289947461765449E+00    0.513835697845721029E+00    0.884444099389559555E+10   -0.127472653265123014E+03
    0.162724579909687528E+00    0.501789541647006843E+00    0.884676995671434784E+10   -0.127470804517100191E+03
    0.172850436853964368E+00    0.561298257436446235E+00    0.857113595687124825E+10   -0.127464845120318131E+03
    0.172850436853964368E+00    0.561298257436446235E+00    0.857113595687124825E+10   -0.127464845120318131E+03
    0.171127769854621470E+00    0.505857718257711753E+00    0.867409493599161720E+10   -0.127457909018264914E+03
    0.167081180856307326E+00    0.559444857441146581E+00    0.875115864855160904E+10   -0.127454967908447529E+03
    0.162861809780377315E+00    0.493663096306702798E+00    0.885821686781648636E+10   -0.127414672497160240E+03
    0.162861809780377315E+00    0.493663096306702798E+00    0.885821686781648636E+10   -0.127414672497160240E+03
    0.170714092804821860E+00    0.535391972523369120E+00    0.865729382593608475E+10   -0.127405065929383994E+03
    0.166979032375209835E+00    0.488856367302041406E+00    0.871000197321570587E+10   -0.127377144341529771E+03
    0.176343124785111827E+00    0.490891880055489338E+00    0.851607630537102985E+10   -0.127375779209724215E+03
    0.174587296657704255E+00    0.485653452942436559E+00    0.852517136311351109E+10   -0.127366163123127464E+03
    0.170302515439011148E+00    0.516415105609016933E+00    0.862896990760051727E+10   -0.127343193272650637E+03
    0.172684085593599934E+00    0.475407366021972422E+00    0.857628595084844780E+10   -0.127332003501270933E+03
    0.172684085593599934E+00    0.475407366021972422E+00    0.857628595084844780E+10   -0.127332003501270933E+03
    0.169563543921676940E+00    0.525655810984943628E+00    0.864390448939761162E+10   -0.127327103437339076E+03
    0.171406181344488484E+00    0.493237885427035394E+00    0.861103119271007538E+10   -0.127316299856314885E+03
    0.171406181344488484E+00    0.493237885427035394E+00    0.861103119271007538E+10   -0.127316299856314885E+03
    0.170106799604219538E+00    0.521325943827193328E+00    0.861250693967565727E+10   -0.127312393259068855E+03
    0.166924785113098273E+00    0.557890744396775773E+00    0.875235622766435623E+10   -0.127310399959151638E+03
    0.166410044678070745E+00    0.515801732997456241E+00    0.876763980077624893E+10   -0.127305322316960158E+03
    0.172020883953708625E+00    0.567152219123201462E+00    0.858001151115177727E+10   -0.127303931364076874E+03
    0.177766035815419776E+00    0.514454889846716057E+00    0.846310409349590302E+10   -0.127295084453295132E+03
    0.171320947572594195E+00    0.570874389066865717E+00    0.860855737298106194E+10   -0.127290138715441927E+03
    0.171015196469487096E+00    0.484969840636892968E+00    0.862003855552756500E+10   -0.127282554092565476E+03
    0.170201159601016283E+00    0.596156871177829117E+00    0.863722689036245728E+10   -0.127271227294636304E+03
    0.169434153352746253E+00    0.464264477173809809E+00    0.865312792952964401E+10   -0.127268540129717593E+03
    0.170336047068348484E+00    0.588031260238633280E+00    0.863297600286034775E+10   -0.127266299453276943E+03
    0.162977832692174807E+00    0.500679349574063792E+00    0.883178025945569611E+10   -0.127255689042579974E+03
    0.169160523438705301E+00    0.619284188713173478E+00    0.864280839776648712E+10   -0.127245164680981844E+03
    0.171271642185347961E+00    0.508638067919971348E+00    0.865621396952828598E+10   -0.127237008830566310E+03
    0.171271642185347961E+00    0.508638067919971348E+00    0.865621396952828598E+10   -0.127237008830566310E+03
    0.178578957726035270E+00    0.517342895170035177E+00    0.845286560842664146E+10   -0.127229610895903861E+03
    0.167854618791987320E+00    0.482302102249185793E+00    0.876574587749959183E+10   -0.127222190447229366E+03
    0.171662234842586692E+00    0.534652923126108348E+00    0.860112924254109955E+10   -0.127202015454752868E+03
    0.171991233224608742E+00    0.570101966856837450E+00    0.863893161516657257E+10   -0.127201508559973391E+03
    0.170651759875520503E+00    0.536095742976465672E+00    0.867513127820251083E+10   -0.127197731899124733E+03
    0.169916758506424126E+00    0.535027232013288057E+00    0.865373664804582214E+10   -0.127194830576260870E+03
    0.177116459581595997E+00    0.502111987641779223E+00    0.850144324817945385E+10   -0.127192691189331086E+03
    0.174503389950242699E+00    0.484331892905551342E+00    0.851608514482462978E+10   -0.127178534972399589E+03
    0.176294076889185192E+00    0.496886272958004582E+00    0.849038610674350643E+10   -0.127171023375475372E+03
    0.176294076889185192E+00    0.496886272958004582E+00    0.849038610674350643E+10   -0.127171023375475372E+03
    0.177204675740867901E+00    0.500726350647621388E+00    0.850498496922089100E+10   -0.127164529558517273E+03
    0.178042108335673688E+00    0.506777977756005527E+00    0.848241932786403465E+10   -0.127161401102098722E+03
    0.169250111182944363E+00    0.481228945834132560E+00    0.866716092862910080E+10   -0.127157882951261428E+03
    0.166188407346565259E+00    0.527322578680664122E+00    0.872623004993796539E+10   -0.127140463799590293E+03
    0.171110124132363206E+00    0.523079453420077556E+00    0.860715279045886993E+10   -0.127139647026896512E+03
    0.171110124132363206E+00    0.523079453420077556E+00    0.860715279045886993E+10   -0.127139647026896512E+03
    0.166575184950277760E+00    0.508448206488882448E+00    0.877822281486903381E+10   -0.127126711084600018E+03
    0.180566822313991182E+00    0.525456564893818978E+00    0.840814769748361206E+10   -0.127106341267335537E+03
    0.180566822313991182E+00    0.525456564893818978E+00    0.840814769748361206E+10   -0.127106341267335537E+03
    0.176822353978929703E+00    0.497759270991020131E+00    0.852322315809703636E+10   -0.127105967872983854E+03
    0.176822353978929703E+00    0.497759270991020131E+00    0.852322315809703636E+10   -0.127105967872983854E+03
    0.169289144859898932E+00    0.491724710592922776E+00    0.866202909658519745E+10   -0.127095557247895542E+03
    0.169242507124979680E+00    0.533845924354716672E+00    0.871598440884742928E+10   -0.127087935037501651E+03
    0.178207529609469950E+00    0.523157251028454340E+00    0.847290592976322460E+10   -0.127042002244211758E+03
    0.171152337362235951E+00    0.567450100491235787E+00    0.864532748660909081E+10   -0.127008557153406031E+03
    0.171152337362235951E+00    0.567450100491235787E+00    0.864532748660909081E+10   -0.127008557153406031E+03
    0.165504754644414276E+00    0.473220223788803906E+00    0.877063168091538239E+10   -0.127006389452265608E+03
    0.174352748892260906E+00    0.554015743803638827E+00    0.856190034034603882E+10   -0.126970597046628967E+03
    0.179627421957025579E+00    0.531936447008074964E+00    0.843031160134606743E+10   -0.126941805498936858E+03
    0.179627421957025579E+00    0.531936447008074964E+00    0.843031160134606743E+10   -0.126941805498936858E+03
    0.177196995628799259E+00    0.496630686439292646E+00    0.850478608472391129E+10   -0.126932858318454350E+03
    0.173397971921521454E+00    0.541234707010346483E+00    0.863805645985272598E+10   -0.126909207831463661E+03
    0.172405975456741911E+00    0.523280855365872100E+00    0.864070061920147705E+10   -0.126908381195462525E+03
    0.169331441553511264E+00    0.453105017830026213E+00    0.864633484029396820E+10   -0.126903670575847798E+03
    0.169331441553511264E+00    0.453105017830026213E+00    0.864633484029396820E+10   -0.126903670575847798E+03
    0.171571129801334987E+00    0.575945220614448417E+00    0.858464656981871319E+10   -0.126892134076590565E+03
    0.171571129801334987E+00    0.575945220614448417E+00    0.858464656981871319E+10   -0.126892134076590565E+03
    0.172596173389969743E+00    0.581531876017429283E+00    0.855357963533122253E+10   -0.126857358868689388E+03
    0.177734150676445768E+00    0.508037243711935815E+00    0.848134524720344067E+10   -0.126856841162211154E+03
    0.169844714825852117E+00    0.608917429847837255E+00    0.864269794042758179E+10   -0.126855113080514627E+03
    0.169844714825852117E+00    0.608917429847837255E+00    0.864269794042758179E+10   -0.126855113080514627E+03
    0.167759536617428429E+00    0.493458656898804193E+00    0.873229081049646378E+10   -0.126852316580852758E+03
    0.167759536617428429E+00    0.493458656898804193E+00    0.873229081049646378E+10   -0.126852316580852758E+03
    0.178684898962372329E+00    0.515977666584056749E+00    0.845951437452612686E+10   -0.126845772690804708E+03
    0.167799522143186719E+00    0.522178326351710353E+00    0.869686775043387604E+10   -0.126845533661128968E+03
    0.164387225917169727E+00    0.490173555129356231E+00    0.879782009169290924E+10   -0.126834649868204977E+03
    0.170594384252685083E+00    0.517946386230715206E+00    0.861762000165755844E+10   -0.126830634863138442E+03
    0.172441962257138814E+00    0.529964720209775919E+00    0.862009115182601357E+10   -0.126810227535224456E+03
    0.172315344975958323E+00    0.545263025757556363E+00    0.865733032532097244E+10   -0.126801547499205299E+03
    0.171235844928527614E+00    0.568334561105325875E+00    0.861794000202036667E+10   -0.126801014473240798E+03
    0.178473123894728747E+00    0.511208349400359197E+00    0.843917727054268742E+10   -0.126798531783800883E+03
    0.178473123894728747E+00    0.511208349400359197E+00    0.843917727054268742E+10   -0.126798531783800883E+03
    0.173728310007989328E+00    0.507166335547177383E+00    0.859123308545010757E+10   -0.126784554991286882E+03
    0.168233877985069030E+00    0.500176516272464511E+00    0.870384184602953720E+10   -0.126782465462418770E+03
    0.175778295324831857E+00    0.492927998978736071E+00    0.850972723469795227E+10   -0.126768939040748961E+03
    0.168318547985796207E+00    0.500108376249768227E+00    0.869922888511090088E+10   -0.126752739276980577E+03
    0.177137106758673502E+00    0.509936058358928079E+00    0.846788326679864311E+10   -0.126747001034380006E+03
    0.168517999410424335E+00    0.512106891226096650E+00    0.869256622505509186E+10   -0.126740261546733251E+03
    0.174280734183829472E+00    0.546034639865782268E+00    0.857069500580103016E+10   -0.126734199883754556E+03
    0.167255897585139590E+00    0.505250218427015341E+00    0.870797123238471603E+10   -0.126727401446952754E+03
    0.172994448704608061E+00    0.531055729447558633E+00    0.863839690795570946E+10   -0.126718579549499097E+03
    0.164176400741994633E+00    0.516486144485346799E+00    0.881579336587034225E+10   -0.126711955972940586E+03
    0.173577250906210151E+00    0.552664058518237411E+00    0.858562803061685085E+10   -0.126701135247897369E+03
    0.173577250906210151E+00    0.552664058518237411E+00    0.858562803061685085E+10   -0.126701135247897369E+03
    0.167606714179383387E+00    0.487710741785537749E+00    0.872020810434685135E+10   -0.126700821376158530E+03
    0.167606714179383387E+00    0.487710741785537749E+00    0.872020810434685135E+10   -0.126700821376158530E+03
    0.170922748280850856E+00    0.507026148038768554E+00    0.863349398253034592E+10   -0.126684039534664180E+03
    0.172250740560239313E+00    0.564275680497093646E+00    0.860525740084597397E+10   -0.126681675632446854E+03
    0.172945146718003429E+00    0.540424776916824001E+00    0.861625175729848480E+10   -0.126671221249920649E+03
    0.172945146718003429E+00    0.540424776916824001E+00    0.861625175729848480E+10   -0.126671221249920649E+03
    0.176554642470036605E+00    0.573169663817122199E+00    0.849787319009426022E+10   -0.126665858962625919E+03
    0.175924397615281392E+00    0.485512537285931245E+00    0.851922883511741066E+10   -0.126661361381732021E+03
    0.177398366720474654E+00    0.497115713650490676E+00    0.851591825622980309E+10   -0.126633953393925481E+03
    0.170204950503906854E+00    0.514430555815261314E+00    0.864024798069484711E+10   -0.126609158622101063E+03
    0.171911297451045109E+00    0.519000996225017275E+00    0.862035700920271683E+10   -0.126605110371704086E+03
    0.177490929597802605E+00    0.521878084084759664E+00    0.847326561991002846E+10   -0.126601305036850107E+03
    0.173070923403081334E+00    0.526603122491932751E+00    0.863504352284716797E+10   -0.126592976038078731E+03
    0.170887438232916106E+00    0.521571690315949965E+00    0.863192371220806313E+10   -0.126573175446275314E+03
    0.166961625621530191E+00    0.524959532430893105E+00    0.873070063868846130E+10   -0.126572381163061578E+03
    0.166961625621530191E+00    0.524959532430893105E+00    0.873070063868846130E+10   -0.126572381163061578E+03
    0.169119545454719605E+00    0.623762832289163072E+00    0.865807589982643127E+10   -0.126540480382333229E+03
    0.169119545454719605E+00    0.623762832289163072E+00    0.865807589982643127E+10   -0.126540480382333229E+03
    0.178306269959563279E+00    0.519874835961433135E+00    0.845629885267632008E+10   -0.126536056190116241E+03
    0.176263228553981299E+00    0.500162211859279893E+00    0.849528291576173401E+10   -0.126534289146428762E+03
    0.176604470279333625E+00    0.493783830824510162E+00    0.847698979989680576E+10   -0.126529908524911150E+03
    0.170943229739556557E+00    0.529883407583662702E+00    0.862085447192587662E+10   -0.126529796838991302E+03
    0.170943229739556557E+00    0.529883407583662702E+00    0.862085447192587662E+10   -0.126529796838991302E+03
    0.171022297603098006E+00    0.525795590892229825E+00    0.863174356442477417E+10   -0.126529427553437216E+03
    0.169529335123861591E+00    0.536764759357131638E+00    0.866544412350072861E+10   -0.126527188020239691E+03
    0.171306707107220735E+00    0.560538726506607077E+00    0.860927656313883591E+10   -0.126522054086273457E+03
    0.171516868482530394E+00    0.527967435484173464E+00    0.862954966728174973E+10   -0.126518653994657086E+03
    0.171904678476684808E+00    0.531439487636420793E+00    0.862412881164866638E+10   -0.126509341407236519E+03
    0.171904678476684808E+00    0.531439487636420793E+00    0.862412881164866638E+10   -0.126509341407236519E+03
    0.166636559567418741E+00    0.501518771463636881E+00    0.876968838049560928E+10   -0.126503526262147588E+03
    0.169168134079949406E+00    0.487501335572275707E+00    0.867060739800970840E+10   -0.126492573856008420E+03
    0.166568574173880518E+00    0.490613946122142153E+00    0.877792698328353691E+10   -0.126488051492769870E+03
    0.175814483630622242E+00    0.550977168756119795E+00    0.858638610590527916E+10   -0.126468118049638349E+03
    0.167049173491928132E+00    0.535122222794051083E+00    0.873264094921648407E+10   -0.126466639258675883E+03
    0.167049173491928132E+00    0.535122222794051083E+00    0.873264094921648407E+10   -0.126466639258675883E+03
    0.171852922114920009E+00    0.536436506661924994E+00    0.861621701101392365E+10   -0.126463219149005823E+03
    0.172502754232905231E+00    0.568133464353351769E+00    0.862807518742815018E+10   -0.126453453294717235E+03
    0.178906724241777115E+00    0.521478796412480960E+00    0.844960322894983768E+10   -0.126452571388573759E+03
    0.171410377774713463E+00    0.562122156477711243E+00    0.862608678720149803E+10   -0.126444900650199585E+03
    0.169113933717363746E+00    0.501286923400027007E+00    0.868817364861018372E+10   -0.126444619907652623E+03
    0.167585149581156501E+00    0.485074094696635427E+00    0.872673610037775230E+10   -0.126440126858839960E+03
    0.175866040352357422E+00    0.579300732289350861E+00    0.849252478585609722E+10   -0.126426275224636328E+03
    0.179460204561667003E+00    0.525552168953304033E+00    0.844344808099329376E+10   -0.126417689156252138E+03
    0.179460204561667003E+00    0.525552168953304033E+00    0.844344808099329376E+10   -0.126417689156252138E+03
    0.170844046168978247E+00    0.517749892565326775E+00    0.864001402004158783E+10   -0.126414690469873392E+03
    0.177813754833317850E+00    0.504421202748172703E+00    0.846419027177726650E+10   -0.126410404036693166E+03
    0.179700760020588768E+00    0.525095272373407695E+00    0.844266259433261108E+10   -0.126397404340471212E+03
    0.171946974019794696E+00    0.509335036734556823E+00    0.862314555462572479E+10   -0.126392160014215790E+03
    0.168299690303831462E+00    0.510828018244328774E+00    0.869469354081243515E+10   -0.126391796337655620E+03
    0.176133783999583293E+00    0.496074422040726049E+00    0.848570127750276279E+10   -0.126375466838823968E+03
    0.176133783999583293E+00    0.496074422040726049E+00    0.848570127750276279E+10   -0.126375466838823968E+03
    0.168275033186311707E+00    0.496353221785387433E+00    0.871046501097200584E+10   -0.126375091196210946E+03
    0.174485932054275983E+00    0.553735984660178815E+00    0.857510816073996544E+10   -0.126365844016720757E+03
    0.178010074291333587E+00    0.507658773168262911E+00    0.845808719688972950E+10   -0.126361003834588999E+03
    0.171867108135614566E+00    0.558513369979504404E+00    0.861094550569312096E+10   -0.126359003175279597E+03
    0.172381861401967595E+00    0.490308957153215985E+00    0.861994011106005859E+10   -0.126346017181488918E+03
    0.175459682228850777E+00    0.576053474064652349E+00    0.850564500222667313E+10   -0.126344676546442827E+03
    0.171034438635225328E+00    0.506994319758097944E+00    0.863976628481683350E+10   -0.126341419673335309E+03
    0.167110146338229959E+00    0.480828061122796413E+00    0.873676243722247314E+10   -0.126340690713923493E+03
    0.176606641096529182E+00    0.508233690174380470E+00    0.848540211349204731E+10   -0.126323763557387323E+03
    0.175374088398700889E+00    0.550797230556751671E+00    0.859336379551322556E+10   -0.126322182124250901E+03
    0.168487839069662915E+00    0.512056061738473289E+00    0.868756401830527878E+10   -0.126313179020965762E+03
    0.172283581086517701E+00    0.473307693765377735E+00    0.860685464338893509E+10   -0.126313106482128276E+03
    0.166714838217023709E+00    0.509128896182456714E+00    0.877154850140173912E+10   -0.126311435687919086E+03
    0.170896775542294710E+00    0.566146420320947641E+00    0.864262286013835526E+10   -0.126309335911471010E+03
    0.171923297741759379E+00    0.547824064604364835E+00    0.863209559280425262E+10   -0.126308638195785889E+03
    0.177276367828586578E+00    0.504666766493642172E+00    0.849982223068164825E+10   -0.126292998691557784E+03
    0.167065278796594219E+00    0.488765008592421779E+00    0.873323445232263947E+10   -0.126288690064230167E+03
    0.173475347004575092E+00    0.535041242812271278E+00    0.864243715387419128E+10   -0.126288072755277724E+03
    0.176223679424194812E+00    0.489641267876292474E+00    0.848353962968335533E+10   -0.126279204446218529E+03
    0.164784501709021758E+00    0.513749739647808568E+00    0.879888413179664040E+10   -0.126270332379995125E+03
    0.169396888490135983E+00    0.534198739088498797E+00    0.867492397245956802E+10   -0.126268678216874235E+03
    0.176398017394115925E+00    0.575881600309040564E+00    0.850547556825317955E+10   -0.126264361582240952E+03
    0.177336278339321807E+00    0.503606588734850646E+00    0.848421693363145828E+10   -0.126258158606684219E+03
    0.167026726837402328E+00    0.530581316412151338E+00    0.872110861494932938E+10   -0.126257126766209694E+03
    0.165495392553578535E+00    0.518389756351815834E+00    0.881615561943718719E+10   -0.126251678253581275E+03
    0.171514627811365894E+00    0.529762520048871366E+00    0.863314391622894669E+10   -0.126251401169754331E+03
    0.175744838466760089E+00    0.504126876553431913E+00    0.853028572868187237E+10   -0.126241518920926040E+03
    0.167138014831823806E+00    0.560533640122621080E+00    0.876369804243752670E+10   -0.126198160980142234E+03
    0.171973808049926458E+00    0.569191689957120772E+00    0.865252014809806824E+10   -0.126193392220392241E+03
    0.178774653217760315E+00    0.506062220007429175E+00    0.847545583629154682E+10   -0.126188269985046119E+03
    0.172369135922496364E+00    0.565372844727892954E+00    0.858820681626494408E+10   -0.126183415108424853E+03
    0.172573819899488667E+00    0.544544361687311351E+00    0.861718374362297058E+10   -0.126180535280909211E+03
    0.167121532715072824E+00    0.561210153682472068E+00    0.876449608072184372E+10   -0.126177653480846772E+03
    0.173413707704145797E+00    0.535197591416880059E+00    0.863290412485195732E+10   -0.126177033318700836E+03
    0.172105654036318945E+00    0.547229978838227993E+00    0.865667716604348373E+10   -0.126141537386897141E+03
    0.171463751282157628E+00    0.533199893656135515E+00    0.861758951215036011E+10   -0.126140485365289052E+03
    0.172091848427664895E+00    0.560269380845683784E+00    0.862197009914833260E+10   -0.126130529051077502E+03
    0.178427918126886409E+00    0.505074797055129920E+00    0.846678495674400997E+10   -0.126086807284198045E+03
    0.180451069641282658E+00    0.532461086939798989E+00    0.844538521136158562E+10   -0.126077456769600815E+03
    0.173335089941265286E+00    0.558055888632997821E+00    0.858083596808307266E+10   -0.126058034506637114E+03
    0.166743584168837333E+00    0.552274175813709078E+00    0.875443136971869278E+10   -0.126047198122953134E+03
    0.175202019199352632E+00    0.519058364750019763E+00    0.852344058053748417E+10   -0.126039601632975007E+03
    0.172082308595459477E+00    0.545513554054741334E+00    0.865151613553241158E+10   -0.126032983805659740E+03
    0.179157836728605913E+00    0.523516533824068375E+00    0.844549324675438118E+10   -0.126024527011686658E+03
    0.165387495589666922E+00    0.512011423646956843E+00    0.878107910059804153E+10   -0.126019524277634957E+03
    0.171818043470395754E+00    0.517403088120961030E+00    0.861798574148646164E+10   -0.126019296430518082E+03
    0.171450959959601967E+00    0.563113996321881416E+00    0.862830007610626411E+10   -0.126019147932895578E+03
    0.170006579174137029E+00    0.512940873630425287E+00    0.867471555679253006E+10   -0.126013692064078725E+03
    0.167097856318597221E+00    0.563378385656310599E+00    0.877418234047867012E+10   -0.126010831384092469E+03
    0.170843458604598430E+00    0.509010331030300023E+00    0.864658167174629211E+10   -0.125995294421068024E+03
    0.170753634531409709E+00    0.493026779334812204E+00    0.867278690637742233E+10   -0.125987996135834663E+03
    0.172452569621853902E+00    0.541040297549608695E+00    0.865406278207121277E+10   -0.125975762983825362E+03
    0.171526446894015805E+00    0.519698830584987448E+00    0.864541223803564453E+10   -0.125968316593044619E+03
    0.176251721707966436E+00    0.513482784411261051E+00    0.850697303911488438E+10   -0.125951664076501856E+03
    0.172791402052954568E+00    0.536239148979667846E+00    0.860926379117856789E+10   -0.125946986291134991E+03
    0.174609137646929841E+00    0.573301559443763153E+00    0.852315824826918793E+10   -0.125943582273159365E+03
    0.174137795569713372E+00    0.551960750438365011E+00    0.864630866958757782E+10   -0.125926779410589063E+03
    0.173576762922161038E+00    0.503855094493504296E+00    0.856686618948668861E+10   -0.125925413215241448E+03
    0.176899363009060340E+00    0.507009743756604792E+00    0.849687292577169704E+10   -0.125923588027318345E+03
    0.171514852940464507E+00    0.544720679427395993E+00    0.865217507958745575E+10   -0.125919813764001404E+03
    0.177776171037401398E+00    0.503795190585915265E+00    0.850985460738565731E+10   -0.125917840467052173E+03
    0.171656810380376390E+00    0.540271060844732531E+00    0.865090614922498703E+10   -0.125907673733232031E+03
    0.169949661468772523E+00    0.487851105800300999E+00    0.867417957190357590E+10   -0.125903914012771338E+03
    0.168710962885810223E+00    0.491943836097084031E+00    0.869419652462749100E+10   -0.125902249225186040E+03
    0.172196917546244666E+00    0.541132451353739441E+00    0.860966152497717667E+10   -0.125900172718833161E+03
    0.177091898682144588E+00    0.507965633774254854E+00    0.851497942092892075E+10   -0.125899175543999334E+03
    0.172531896710920202E+00    0.544009235360437771E+00    0.863100313754333496E+10   -0.125895157241996756E+03
    0.168850369507815623E+00    0.503086660166250255E+00    0.869163623889531326E+10   -0.125893990718049281E+03
    0.168838696222572499E+00    0.494667874769351812E+00    0.869254715794904327E+10   -0.125892006913403662E+03
    0.166091375463087554E+00    0.515945193701867311E+00    0.878918288694190216E+10   -0.125885733062737501E+03
    0.171095032464592234E+00    0.490358138994311687E+00    0.865559883676684189E+10   -0.125885336128492426E+03
    0.175983921708877666E+00    0.580038607115406890E+00    0.849274245706647110E+10   -0.125877341136091360E+03
    0.172885772478868438E+00    0.492400228980208965E+00    0.859249326335810471E+10   -0.125872325773155268E+03
    0.174323396323722457E+00    0.565083709728664729E+00    0.854193779960832024E+10   -0.125868813792588341E+03
    0.177486087879329013E+00    0.508011508012430113E+00    0.850893762561845875E+10   -0.125863119507237911E+03
    0.171157315283543554E+00    0.563095149395371308E+00    0.861953832327294922E+10   -0.125859743707585494E+03
    0.177274577922763854E+00    0.517578995118384455E+00    0.848271179386557007E+10   -0.125858497965850972E+03
    0.170534298927597389E+00    0.490968669156018223E+00    0.867299089062434006E+10   -0.125857471027361811E+03
    0.171099974021309109E+00    0.562300843735059175E+00    0.861913064644858742E+10   -0.125852490584947120E+03
    0.174516899114986690E+00    0.555872959452930360E+00    0.854676481807752514E+10   -0.125849061456516324E+03
    0.176108346435499719E+00    0.578883342476752105E+00    0.848880112379071140E+10   -0.125847517255244625E+03
    0.172000894644268987E+00    0.566895736142196682E+00    0.866254414434494019E+10   -0.125832496927315589E+03
    0.174928676996507881E+00    0.561869791441973021E+00    0.852895333730393219E+10   -0.125823649329725470E+03
    0.177207009861356068E+00    0.517253817889224976E+00    0.848427723781793880E+10   -0.125820359056772432E+03
    0.177301261355640394E+00    0.495410573145552036E+00    0.852245804994291592E+10   -0.125807248507753229E+03
    0.171976709158141783E+00    0.511344839026650178E+00    0.862529829230239487E+10   -0.125807106448998127E+03
    0.179760700770099646E+00    0.525781102319886173E+00    0.843718391358597946E+10   -0.125787018117202109E+03
    0.177102775625939513E+00    0.496622112966685236E+00    0.851822197667542458E+10   -0.125782631472696721E+03
    0.172008177461138306E+00    0.564661792711778077E+00    0.861395167884604454E+10   -0.125782360230384143E+03
    0.176377056993265224E+00    0.504348505221942744E+00    0.850722437633130264E+10   -0.125764284986416499E+03
    0.171953085918257420E+00    0.567077612092850458E+00    0.861228005070347977E+10   -0.125756742085762042E+03
    0.174672286861501574E+00    0.564273151652205485E+00    0.854739007207238865E+10   -0.125747933623437447E+03
    0.178339227146650736E+00    0.507552039834735069E+00    0.845323961597986317E+10   -0.125743802004260914E+03
    0.173599342242881927E+00    0.540889092101666691E+00    0.861816084926681519E+10   -0.125736729568021019E+03
    0.171592747741739382E+00    0.538268806818402723E+00    0.861858803920543289E+10   -0.125725312158515621E+03
    0.176721071931570495E+00    0.492729979461381973E+00    0.852700266742376137E+10   -0.125724202571909572E+03
    0.179821460118822329E+00    0.527918256427726718E+00    0.841962415684941483E+10   -0.125710090979454876E+03
    0.177748700174756302E+00    0.503168319697946842E+00    0.850959267508514595E+10   -0.125707369694055416E+03
    0.172251505791970155E+00    0.565660107065086848E+00    0.862089436701522827E+10   -0.125707334535529753E+03
    0.180363082355778581E+00    0.529046217551883302E+00    0.841814239235440826E+10   -0.125695852681164965E+03
    0.173257631449355243E+00    0.494678042934271645E+00    0.858128882664053345E+10   -0.125685185921568319E+03
    0.171941844402470428E+00    0.540703246811826688E+00    0.861909683459340858E+10   -0.125682721211148078E+03
    0.172569912366171807E+00    0.564751439865254667E+00    0.860605760719636154E+10   -0.125680588883166507E+03
    0.176700997015986072E+00    0.495989405371320302E+00    0.853238313252596283E+10   -0.125638141281819401E+03
    0.171993096117740774E+00    0.540058176288377823E+00    0.860594807302363586E+10   -0.125637979584173038E+03
    0.176100154611458115E+00    0.578260618754207201E+00    0.849744318196000767E+10   -0.125636143256345335E+03
    0.172014066528231147E+00    0.538132981257465559E+00    0.863434705671545219E+10   -0.125636110667836633E+03
    0.179935200714047394E+00    0.530401671296196753E+00    0.843863491676376057E+10   -0.125610277662330333E+03
    0.166801636418328458E+00    0.553321683034731393E+00    0.875460138772769356E+10   -0.125608082584169836E+03
    0.172756078352155701E+00    0.488669017730643418E+00    0.859478180299774933E+10   -0.125215510180840653E+03
    0.173524075916709986E+00    0.499724793907594389E+00    0.857825777480167389E+10   -0.125140793912987391E+03
    0.173252565607113940E+00    0.501678876917999617E+00    0.860443875900725365E+10   -0.125343436726646189E+03
    0.172931389860815382E+00    0.505067285359626084E+00    0.859070289113469315E+10   -0.125269277763265563E+03
    0.175991706124149438E+00    0.501361207886297677E+00    0.852377299749325371E+10   -0.125294442125511509E+03
    0.175987144863152423E+00    0.502672134469220211E+00    0.853505665687197018E+10   -0.124591884694080022E+03
    0.175987144863152423E+00    0.502672134469220211E+00    0.853505665687197018E+10   -0.124591884694080022E+03
    0.174949723498111331E+00    0.511405304630423885E+00    0.854027469739537048E+10   -0.125370325223129271E+03
    0.176959752782651303E+00    0.509682957246337054E+00    0.851426207152162552E+10   -0.124976896673577670E+03
    0.177302795513743561E+00    0.508452704519973153E+00    0.851552097986966419E+10   -0.125127159167308605E+03
    0.177302795513743561E+00    0.508452704519973153E+00    0.851552097986966419E+10   -0.125127159167308605E+03
    0.173731689084464791E+00    0.555017848614751230E+00    0.858369353201223183E+10   -0.124718458339377861E+03
    0.173731689084464791E+00    0.555017848614751230E+00    0.858369353201223183E+10   -0.124718458339377861E+03
    0.173993965439821152E+00    0.556491925059850345E+00    0.858825513934661865E+10   -0.124916116046196066E+03
    0.176962673420294370E+00    0.505569752166632469E+00    0.850590534131351566E+10   -0.124979072336387873E+03
    0.177968436051614776E+00    0.501089736484644277E+00    0.850087241638661575E+10   -0.124428939106848773E+03
    0.177968436051614776E+00    0.501089736484644277E+00    0.850087241638661575E+10   -0.124428939106848773E+03
    0.176989992115076544E+00    0.503349211286035825E+00    0.852843970618088150E+10   -0.125030959909069651E+03
    0.177462685047450497E+00    0.501420468536565522E+00    0.850990516139250183E+10   -0.125512068843947532E+03
    0.176425842748100858E+00    0.498944139774291529E+00    0.851851956729145336E+10   -0.125546759075967358E+03
    0.176175191871465964E+00    0.496394902493593193E+00    0.853393689865378761E+10   -0.124483341213455574E+03
    0.176175191871465964E+00    0.496394902493593193E+00    0.853393689865378761E+10   -0.124483341213455574E+03
    0.176858318602272413E+00    0.494741653058207831E+00    0.853201113219075871E+10   -0.125111649078423284E+03
    0.177396330196935292E+00    0.497058909670712978E+00    0.852710507578632832E+10   -0.125454355111515767E+03
    0.176049450730036749E+00    0.498770953751987989E+00    0.853273070015831375E+10   -0.125497184082215142E+03
    0.176094424519760984E+00    0.495109760296069012E+00    0.852171153513036346E+10   -0.124742240626480978E+03
    0.179964467277904605E+00    0.515357714269040201E+00    0.843129010492051888E+10   -0.125221443775051100E+03
    0.179605092393317400E+00    0.522445051021716012E+00    0.844499656494826126E+10   -0.124951233169471806E+03
    0.179236447020343526E+00    0.521551174474231161E+00    0.845902078567562962E+10   -0.124401347935566974E+03
    0.179236447020343526E+00    0.521551174474231161E+00    0.845902078567562962E+10   -0.124401347935566974E+03
    0.179272823644044454E+00    0.522655627072728279E+00    0.845870099610502815E+10   -0.125292275698578635E+03
    0.179572142316992533E+00    0.522256912870311396E+00    0.845153995430889702E+10   -0.125241999599325908E+03
    0.178652232094606678E+00    0.518121657347814235E+00    0.844010380834471893E+10   -0.125446033878880854E+03
    0.179688228389307703E+00    0.523761041762288215E+00    0.844968302801601219E+10   -0.124920769228635734E+03
    0.179387910181083632E+00    0.525106908071439449E+00    0.842159574922808075E+10   -0.125480931546838320E+03
    0.180086895631719146E+00    0.530208373112797560E+00    0.845265885441139030E+10   -0.125535153537282426E+03
    0.180483508545798366E+00    0.532317349401342454E+00    0.842977206529967213E+10   -0.124957259085315357E+03
    0.180478095820616025E+00    0.528230424885148153E+00    0.843647662584397507E+10   -0.125043631419067992E+03
    0.178504793777126414E+00    0.516365598191253383E+00    0.846062658336526203E+10   -0.125376223339185373E+03
    0.178861455349575482E+00    0.514210103942984276E+00    0.845939139140292358E+10   -0.125412887208942891E+03
    0.179033121731781597E+00    0.511078296984589286E+00    0.847504063944218636E+10   -0.124393496255919018E+03
    0.179033121731781597E+00    0.511078296984589286E+00    0.847504063944218636E+10   -0.124393496255919018E+03
    0.178379662984138376E+00    0.516499554825184504E+00    0.846370678941728783E+10   -0.125187362821421189E+03
    0.178979630404998979E+00    0.511096350654939968E+00    0.846468008792923355E+10   -0.124707133434634571E+03
    0.178979630404998979E+00    0.511096350654939968E+00    0.846468008792923355E+10   -0.124707133434634571E+03
    0.177596426474683600E+00    0.508715995773883378E+00    0.849526478339080334E+10   -0.124810616457603246E+03
    0.178023423724342822E+00    0.509506200150557476E+00    0.848670517928176689E+10   -0.124202212678689506E+03
    0.178023423724342822E+00    0.509506200150557476E+00    0.848670517928176689E+10   -0.124202212678689506E+03
    0.178023423724342822E+00    0.509506200150557476E+00    0.848670517928176689E+10   -0.124202212678689506E+03
    0.171985408311863319E+00    0.544315166016220431E+00    0.862540609581907654E+10   -0.125355543046464703E+03
    0.173235595645816282E+00    0.547692508257389576E+00    0.863103772427360153E+10   -0.125417544044166263E+03
    0.172387960772235949E+00    0.546427486480192570E+00    0.863090196255014801E+10   -0.124618148669905622E+03
    0.172387960772235949E+00    0.546427486480192570E+00    0.863090196255014801E+10   -0.124618148669905622E+03
    0.173349205720385591E+00    0.548302893874206276E+00    0.862736392287281990E+10   -0.125160371658941884E+03
    0.172163589027261726E+00    0.544200829433197697E+00    0.861509145696260452E+10   -0.125011967883717944E+03
    0.172163589027261726E+00    0.544200829433197697E+00    0.861509145696260452E+10   -0.125011967883717944E+03
    0.172514735608419373E+00    0.548796563721861475E+00    0.864191238780292702E+10   -0.124501153761499367E+03
    0.172514735608419373E+00    0.548796563721861475E+00    0.864191238780292702E+10   -0.124501153761499367E+03
    0.172514735608419373E+00    0.548796563721861475E+00    0.864191238780292702E+10   -0.124501153761499367E+03
    0.172527060929786091E+00    0.547484139738616093E+00    0.864491578120571136E+10   -0.125261743470572469E+03
    0.171298695065435297E+00    0.547180568514056276E+00    0.864814985414180756E+10   -0.125029939371449615E+03
    0.172251039406458473E+00    0.543739575329864167E+00    0.865434638622145081E+10   -0.125427680774012728E+03
    0.172615235959442392E+00    0.531288433527262072E+00    0.868311768263229370E+10   -0.124740897732808975E+03
    0.172615235959442392E+00    0.531288433527262072E+00    0.868311768263229370E+10   -0.124740897732808975E+03
    0.172376117982717486E+00    0.540084340673612218E+00    0.865362343728532982E+10   -0.124849573250721619E+03
    0.172376117982717486E+00    0.540084340673612218E+00    0.865362343728532982E+10   -0.124849573250721619E+03
    0.172933038853338161E+00    0.540866309806309786E+00    0.865877608716201782E+10   -0.125363537692165835E+03
    0.172677875790388236E+00    0.536614957354329292E+00    0.866106366483712578E+10   -0.124613204903824851E+03
    0.172677875790388236E+00    0.536614957354329292E+00    0.866106366483712578E+10   -0.124613204903824851E+03
    0.172004841865544267E+00    0.538298425676275727E+00    0.865652235768685532E+10   -0.125449581248262433E+03
    0.173247833496886716E+00    0.538714015889178555E+00    0.859971005255904007E+10   -0.124998121138687111E+03
    0.173247833496886716E+00    0.538714015889178555E+00    0.859971005255904007E+10   -0.124998121138687111E+03
    0.172648660845525992E+00    0.536615450153686169E+00    0.861280008612940979E+10   -0.125065186977980417E+03
    0.172811845445285273E+00    0.537136272182278773E+00    0.862989400332859039E+10   -0.125051876278559519E+03
    0.172956725506815040E+00    0.535903678606384659E+00    0.862168862459530067E+10   -0.125055915037296472E+03
    0.173626272837428319E+00    0.540873347171391572E+00    0.862646882745980644E+10   -0.125021313277843319E+03
    0.171965276890016505E+00    0.537312429527290192E+00    0.862105466023209953E+10   -0.125232835195298122E+03
    0.172094026020352647E+00    0.537906002037901843E+00    0.864043699911190796E+10   -0.125482733915583168E+03
    0.171618782811888665E+00    0.512711838310295320E+00    0.862831063374852753E+10   -0.125192495996951436E+03
    0.172303563297055123E+00    0.518674817020558621E+00    0.864165934819849014E+10   -0.124382733368819657E+03
    0.172303563297055123E+00    0.518674817020558621E+00    0.864165934819849014E+10   -0.124382733368819657E+03
    0.170941243833519357E+00    0.516922371711100226E+00    0.865501997401625061E+10   -0.125567442102062302E+03
    0.172794998363698160E+00    0.509947648797705710E+00    0.862686277383165359E+10   -0.125081662871630670E+03
    0.169677339911288361E+00    0.526813888571318500E+00    0.869124174645489502E+10   -0.124939705955912757E+03
    0.168620015218303887E+00    0.539018424684368114E+00    0.871690164182198143E+10   -0.125592081476645362E+03
    0.168843563587034201E+00    0.537577727312241294E+00    0.871409240113256645E+10   -0.125447708592755589E+03
    0.171516650255994940E+00    0.519552981879412457E+00    0.866886863548951721E+10   -0.124752949668156873E+03
    0.171516650255994940E+00    0.519552981879412457E+00    0.866886863548951721E+10   -0.124752949668156873E+03
    0.167977481944944884E+00    0.544276865120558284E+00    0.873273473210397148E+10   -0.125565427171667167E+03
    0.175787388030410996E+00    0.570672075246319466E+00    0.852862089306389427E+10   -0.125394403760081971E+03
    0.174824505801285779E+00    0.555567465626598533E+00    0.854677737651285267E+10   -0.125123553041827549E+03
    0.174726268020212905E+00    0.558825393156372030E+00    0.855409136200992107E+10   -0.125566699845797515E+03
    0.174833490556192572E+00    0.558484419879018645E+00    0.853373172855501652E+10   -0.125414178240551763E+03
    0.174650819490549308E+00    0.569685337108547074E+00    0.854864770031437206E+10   -0.125295854951396791E+03
    0.175109085412805676E+00    0.560491953316491376E+00    0.854982064276376343E+10   -0.125014854372100629E+03
    0.171938575135237720E+00    0.564029840631636858E+00    0.861859282644196701E+10   -0.125152408130693004E+03
    0.171904911051571296E+00    0.567520721401443495E+00    0.866195087849087906E+10   -0.124497319764019352E+03
    0.171904911051571296E+00    0.567520721401443495E+00    0.866195087849087906E+10   -0.124497319764019352E+03
    0.171904911051571296E+00    0.567520721401443495E+00    0.866195087849087906E+10   -0.124497319764019352E+03
    0.171847820959105391E+00    0.565861985486577623E+00    0.861900849891800117E+10   -0.125451901210653318E+03
    0.171937646985432291E+00    0.560907141474622506E+00    0.861985916343813705E+10   -0.125346731925038242E+03
    0.172038743048120724E+00    0.559845372363255933E+00    0.861346293227472687E+10   -0.125242204316193138E+03
    0.172361563966805131E+00    0.559118128596530539E+00    0.861791069668148804E+10   -0.124774797931943908E+03
    0.173037966869447946E+00    0.557880884675546085E+00    0.862538291239211655E+10   -0.124384391639148546E+03
    0.173037966869447946E+00    0.557880884675546085E+00    0.862538291239211655E+10   -0.124384391639148546E+03
    0.173037966869447946E+00    0.557880884675546085E+00    0.862538291239211655E+10   -0.124384391639148546E+03
    0.172783060358682738E+00    0.563024638591617332E+00    0.860636984986063766E+10   -0.124935630606438991E+03
    0.172372587947200756E+00    0.568349182856795920E+00    0.860488217687215042E+10   -0.125198912310740496E+03
    0.172757610047428234E+00    0.564913299982796602E+00    0.861101382160187721E+10   -0.125241688105625855E+03
    0.172946218664314172E+00    0.562633361159560863E+00    0.860794634987008667E+10   -0.125348594980246887E+03
