    0.133768584454700168E+01    0.389988207130336662E+00    0.872915664160494804E+08   -0.980854707742718972E+02
    0.129124296659376436E+01    0.418885189969351757E+00    0.906433583290072680E+08   -0.971408893908423181E+02
    0.144203736550562267E+01    0.462267436485589656E+00    0.870935953487041593E+08   -0.961787436509873430E+02
    0.139975554632183430E+01    0.377398571048349396E+00    0.873935377985132337E+08   -0.956135492739615955E+02
    0.147631748189954393E+01    0.360761930713609402E+00    0.851979609663305581E+08   -0.945148838453025348E+02
    0.133493677490515950E+01    0.477050177805619313E+00    0.887595705373203456E+08   -0.940156508546939165E+02
    0.140956760328859465E+01    0.391345594513683892E+00    0.856975330766021907E+08   -0.937105485551742277E+02
    0.142833256779472562E+01    0.515747513543903580E+00    0.865214708044430912E+08   -0.936550275249130522E+02
    0.145768336618146077E+01    0.497155399330825531E+00    0.862191870180867463E+08   -0.935815661145569209E+02
    0.135311892633757291E+01    0.407545723187761055E+00    0.886185402273927629E+08   -0.935506041141155293E+02
    0.139229253333252379E+01    0.457605496529168931E+00    0.865542652821188271E+08   -0.935277807194745918E+02
    0.136842283842470436E+01    0.449993536630316271E+00    0.880907663616719395E+08   -0.933594792099588915E+02
    0.141819874864694206E+01    0.388354648389110935E+00    0.861932880075284243E+08   -0.931115097452332066E+02
    0.144804909179179719E+01    0.450572320308612717E+00    0.857466055852176249E+08   -0.930800186716103326E+02
    0.144272848427548084E+01    0.460604931652870420E+00    0.861476915853985399E+08   -0.930138400896477435E+02
    0.132548450533675299E+01    0.478849360320445783E+00    0.895000687236239612E+08   -0.928871756717909562E+02
    0.143259684192177650E+01    0.349665467011011089E+00    0.857331589406173676E+08   -0.928774232992767566E+02
    0.146385705209824679E+01    0.446113302363713160E+00    0.856568472471413016E+08   -0.927033788090462707E+02
    0.135560675097842864E+01    0.373618850454697338E+00    0.881787388807689250E+08   -0.926882187688017751E+02
    0.142511935265435907E+01    0.422761641541045563E+00    0.857756803420864195E+08   -0.926744225701522453E+02
    0.134568789683055434E+01    0.426294897661374961E+00    0.879734127138098180E+08   -0.926206950726402738E+02
    0.141278050321380300E+01    0.521553221567669922E+00    0.865932469396113902E+08   -0.926093694425620271E+02
    0.139566877994386673E+01    0.522288755343950584E+00    0.868386677489736974E+08   -0.925649185677756776E+02
    0.141712832842290415E+01    0.395291878792418672E+00    0.864035900096844584E+08   -0.925645003225596383E+02
    0.142862874634699377E+01    0.349001266903901097E+00    0.859155497074590623E+08   -0.924884764437013018E+02
    0.137690631374075645E+01    0.410905433090855254E+00    0.871761378484247029E+08   -0.924849967484738471E+02
    0.143851847870239835E+01    0.457480982429176564E+00    0.857747386507981420E+08   -0.924765302749523528E+02
    0.131663652996611402E+01    0.473373616561293176E+00    0.891996550054537654E+08   -0.924760294079649157E+02
    0.139909458566074862E+01    0.408921206415319816E+00    0.869581686872145236E+08   -0.924154600334482410E+02
    0.130762422959219493E+01    0.425063254033414495E+00    0.890595251811863482E+08   -0.924064940240918702E+02
    0.138051582923140304E+01    0.454971450839867231E+00    0.871390803981519938E+08   -0.923823465266763151E+02
    0.134344854322067375E+01    0.392495985467215647E+00    0.876788930319814384E+08   -0.923735405996780798E+02
    0.139969802129041532E+01    0.412967461718910300E+00    0.865805820244143903E+08   -0.923449927554974295E+02
    0.144161655226469687E+01    0.422862173589441781E+00    0.861969666662251949E+08   -0.923369150029086967E+02
    0.135743300756924157E+01    0.298703201786379324E+00    0.878024601243825704E+08   -0.923262168964032810E+02
    0.136526454715029222E+01    0.477614056611649573E+00    0.881036300221083760E+08   -0.923103509143729752E+02
    0.140160950584086863E+01    0.459419281040393201E+00    0.870636516312332153E+08   -0.922089895153037560E+02
    0.127832354453027919E+01    0.420878545450307229E+00    0.902338968126446903E+08   -0.921714520192414568E+02
    0.135484401972359736E+01    0.491852053363825092E+00    0.880421637607353777E+08   -0.921611544245942582E+02
    0.138162421532295099E+01    0.449417396412364667E+00    0.881781807180011272E+08   -0.920713925283340586E+02
    0.133817380421330268E+01    0.410598330539869494E+00    0.889915699167465568E+08   -0.920639794283589765E+02
    0.141303846953220269E+01    0.451368837322625893E+00    0.869986490163454860E+08   -0.920381126084192829E+02
    0.142884615985534458E+01    0.440497415392256286E+00    0.861396025483409613E+08   -0.920328502100082915E+02
    0.137931509456071422E+01    0.477698648946351057E+00    0.867876300299666971E+08   -0.919823414501035188E+02
    0.133630742229165711E+01    0.420461240069178288E+00    0.881243660882737041E+08   -0.919619765851739572E+02
    0.129716497011883103E+01    0.384381251752756725E+00    0.905185965137278140E+08   -0.919444592297565180E+02
    0.137342373969512366E+01    0.461841067975752750E+00    0.877547919472355545E+08   -0.918183012879169667E+02
    0.141494400238844698E+01    0.388876698907690610E+00    0.861974998097876012E+08   -0.917977649589976181E+02
    0.139213529053353779E+01    0.503218056658191415E+00    0.877502452227609456E+08   -0.917808964419593849E+02
    0.134677250490028388E+01    0.325867880707660262E+00    0.881191551778016090E+08   -0.917357776377462244E+02
    0.136813371145502938E+01    0.419673650336127579E+00    0.870559793076988161E+08   -0.917326062546649155E+02
    0.136062327034547970E+01    0.385171723633346730E+00    0.872321728717229962E+08   -0.916939957616033894E+02
    0.136482442855412245E+01    0.386912598515467110E+00    0.873014824706941098E+08   -0.916869260442210958E+02
    0.136916217253156636E+01    0.329555928735379311E+00    0.877644637849405557E+08   -0.916748283155972388E+02
    0.134006003024175380E+01    0.342520306727198687E+00    0.884213202310848087E+08   -0.916480837376113584E+02
    0.131962216694935397E+01    0.456680255795639312E+00    0.892015920576820076E+08   -0.916350217254524750E+02
    0.135166161726446865E+01    0.427421849456127489E+00    0.881308795401682407E+08   -0.916311166926109877E+02
    0.136948100549627982E+01    0.358166160452766391E+00    0.875392660725550354E+08   -0.916155368995026862E+02
    0.137089300447564177E+01    0.475727357546631424E+00    0.884342569156934619E+08   -0.915983008475709539E+02
    0.132025495953111038E+01    0.417380436518419273E+00    0.892950974498136044E+08   -0.915913057955403076E+02
    0.134568787300786341E+01    0.443356691226552968E+00    0.875845338671796322E+08   -0.915797250929040274E+02
    0.141279617631054610E+01    0.494845524934852676E+00    0.864733684266084731E+08   -0.915789268140287618E+02
    0.137571492373892657E+01    0.317113548950063162E+00    0.877859515178207159E+08   -0.915749440907168264E+02
    0.140714346250662037E+01    0.405121986604143558E+00    0.866037374502471387E+08   -0.915517338049086788E+02
    0.139597192100745704E+01    0.412601490019145700E+00    0.866503852992304415E+08   -0.915354901954363243E+02
    0.136585232529919742E+01    0.431289856374112546E+00    0.876066918079933524E+08   -0.915343700900525050E+02
    0.139605705154499837E+01    0.479732796584919186E+00    0.873738178650054038E+08   -0.914127921365295606E+02
    0.134517066908910965E+01    0.335026348786261252E+00    0.880212477822635174E+08   -0.913993014461697015E+02
    0.135046871049965000E+01    0.426646076973192123E+00    0.888023576146748066E+08   -0.913976686181144231E+02
    0.136347998552549976E+01    0.359868415502802463E+00    0.875192771422410607E+08   -0.913798708328891536E+02
    0.140630376792802636E+01    0.412732141970778343E+00    0.869483138905704021E+08   -0.913738592304011519E+02
    0.131692330759535259E+01    0.477568165408699841E+00    0.895526136965627670E+08   -0.913710392015878483E+02
    0.131692330759535259E+01    0.477568165408699841E+00    0.895526136965627670E+08   -0.913710392015878483E+02
    0.133159123513078015E+01    0.446037973551176137E+00    0.885370311599044800E+08   -0.913669443975112046E+02
    0.134735635475844551E+01    0.378001631664609761E+00    0.876939581437908709E+08   -0.913410936549634869E+02
    0.142214637742784022E+01    0.490178301366487545E+00    0.865704773043129146E+08   -0.913156630675022427E+02
    0.142214637742784022E+01    0.490178301366487545E+00    0.865704773043129146E+08   -0.913156630675022427E+02
    0.139691681783142285E+01    0.475397652391006176E+00    0.872952584593548179E+08   -0.913139668240927165E+02
    0.135738626664125905E+01    0.394063945373536839E+00    0.879580109862359464E+08   -0.912945003566592845E+02
    0.139600430246605645E+01    0.427685532275548397E+00    0.870225544559073001E+08   -0.912880780232378015E+02
    0.139600430246605645E+01    0.427685532275548397E+00    0.870225544559073001E+08   -0.912880780232378015E+02
    0.140145632380177454E+01    0.464925032224529744E+00    0.868035600437899232E+08   -0.912552136270036272E+02
    0.141415605212708839E+01    0.496018353941652279E+00    0.867959167362070829E+08   -0.912492881011570205E+02
    0.140901281539753831E+01    0.355345775836619637E+00    0.862085943503272831E+08   -0.912468846873055952E+02
    0.140901281539753831E+01    0.355345775836619637E+00    0.862085943503272831E+08   -0.912468846873055952E+02
    0.140702548222842716E+01    0.474740110472954058E+00    0.867546440886408687E+08   -0.912378369719601352E+02
    0.133347849498274384E+01    0.410970182772148362E+00    0.884205005278373659E+08   -0.912281911337350380E+02
    0.138495684907420280E+01    0.431100836345940763E+00    0.875156409407601357E+08   -0.911966755018201241E+02
    0.137044250378186061E+01    0.320306799513334184E+00    0.880350161141650379E+08   -0.911928198861333925E+02
    0.138739761327039091E+01    0.445208540864395985E+00    0.874789548479470015E+08   -0.911728980096142578E+02
    0.137548329253429791E+01    0.424685623809370583E+00    0.875393550752991885E+08   -0.911511816537282726E+02
    0.138022149176839770E+01    0.491705376719938414E+00    0.872267661106713712E+08   -0.911297534462077863E+02
    0.134466708662335166E+01    0.404432234405891933E+00    0.880446848483591825E+08   -0.911203685659628491E+02
    0.134433298814179181E+01    0.467381427737233679E+00    0.879641498700572550E+08   -0.911006916721337916E+02
    0.139874125901516377E+01    0.436891600463837904E+00    0.875157846765044928E+08   -0.910921149522962850E+02
    0.136031269358935458E+01    0.402737329556524415E+00    0.886141621413703710E+08   -0.910864747554576013E+02
    0.136330534611624343E+01    0.418317660406529512E+00    0.886083804683422893E+08   -0.910844210976808597E+02
    0.136767172199594866E+01    0.424152351988304588E+00    0.877652166819547564E+08   -0.910610857450296720E+02
    0.136767172199594866E+01    0.424152351988304588E+00    0.877652166819547564E+08   -0.910610857450296720E+02
    0.134507224558115079E+01    0.426246227059314364E+00    0.883850275857371092E+08   -0.910364528481996444E+02
    0.133814952670117826E+01    0.441269785674954562E+00    0.876854791935830116E+08   -0.910150543396295291E+02
    0.134939322338909773E+01    0.416224877292187045E+00    0.885071777454295903E+08   -0.910028333784377423E+02
    0.137368542334162091E+01    0.388806398895347627E+00    0.881155768112679422E+08   -0.910025800725587430E+02
    0.139312983375736033E+01    0.457632260074820607E+00    0.870579881136840880E+08   -0.909908845451785453E+02
    0.139312983375736033E+01    0.457632260074820607E+00    0.870579881136840880E+08   -0.909908845451785453E+02
    0.133634276770145166E+01    0.448756992588261738E+00    0.878206648564629704E+08   -0.909882564134597658E+02
    0.133634276770145166E+01    0.448756992588261738E+00    0.878206648564629704E+08   -0.909882564134597658E+02
    0.134568809391535504E+01    0.407481367788610882E+00    0.888319450231929719E+08   -0.909856830666419398E+02
    0.138452107410711189E+01    0.530943220652162040E+00    0.874605513627776653E+08   -0.909817750720963261E+02
    0.135427810582659602E+01    0.384045783716789657E+00    0.877606523182242960E+08   -0.909779402300398772E+02
    0.133530658571122784E+01    0.419979029334236031E+00    0.892825881190410256E+08   -0.909573088798014595E+02
    0.136449605998114265E+01    0.436940756648613871E+00    0.879256809996101856E+08   -0.909283977071475675E+02
    0.139361061877517578E+01    0.430025598456623470E+00    0.871936162567405999E+08   -0.909208479238502036E+02
    0.134359370169691794E+01    0.352759479705127887E+00    0.887516668039373010E+08   -0.909195788786933292E+02
    0.136990659459290409E+01    0.411026361233899351E+00    0.875229363651546687E+08   -0.909193436385296536E+02
    0.136990659459290409E+01    0.411026361233899351E+00    0.875229363651546687E+08   -0.909193436385296536E+02
    0.137752140122726607E+01    0.425475248986913357E+00    0.878338664851486683E+08   -0.909031130832175052E+02
    0.135950637100012028E+01    0.381418055443429438E+00    0.874867908815353811E+08   -0.908985822666014087E+02
    0.135371032678166103E+01    0.512943514693906977E+00    0.881625592307133526E+08   -0.908938029802926906E+02
    0.138855707820764906E+01    0.438001003731848471E+00    0.869793239578142166E+08   -0.908763598384879003E+02
    0.136053148729845375E+01    0.421313955881856828E+00    0.873944824953729808E+08   -0.908571736673678458E+02
    0.134183623383309625E+01    0.397356170964755506E+00    0.888654363529988527E+08   -0.908236914234888815E+02
    0.134183623383309625E+01    0.397356170964755506E+00    0.888654363529988527E+08   -0.908236914234888815E+02
    0.134866168280757703E+01    0.475618129527418887E+00    0.885068887634595335E+08   -0.908112937094436319E+02
    0.135458055153446533E+01    0.411701723266638453E+00    0.879642992344782054E+08   -0.908050029732534227E+02
    0.139140737151599003E+01    0.386697694618376886E+00    0.874961223918209970E+08   -0.907802294538592633E+02
    0.140831624336176664E+01    0.446505539401309548E+00    0.869163467364661098E+08   -0.907796105750981042E+02
    0.133626202368456437E+01    0.350462456658537036E+00    0.879517636950061023E+08   -0.907577090162046858E+02
    0.127691123736291501E+01    0.338840249462171172E+00    0.900928032606325746E+08   -0.907256891884731260E+02
    0.127691123736291501E+01    0.338840249462171172E+00    0.900928032606325746E+08   -0.907256891884731260E+02
    0.133629734954355195E+01    0.418091073749875974E+00    0.890532149826371074E+08   -0.907251367391669419E+02
    0.137930435375256377E+01    0.376106687771214254E+00    0.875751068126016557E+08   -0.907118355476386569E+02
    0.131495501028285156E+01    0.431970557508048358E+00    0.892159858361668736E+08   -0.906899401047458582E+02
    0.131495501028285156E+01    0.431970557508048358E+00    0.892159858361668736E+08   -0.906899401047458582E+02
    0.139430061960672358E+01    0.406552645491078835E+00    0.872214796864414513E+08   -0.906894550380191049E+02
    0.138374858791056221E+01    0.364717842139279824E+00    0.874874716315047443E+08   -0.906673949051010908E+02
    0.138374858791056221E+01    0.364717842139279824E+00    0.874874716315047443E+08   -0.906673949051010908E+02
    0.135264829325734159E+01    0.316879080345643160E+00    0.879653922463813573E+08   -0.906578552706301650E+02
    0.134308527177420212E+01    0.425781935515592735E+00    0.889435471357198656E+08   -0.906562101873885524E+02
    0.134308527177420212E+01    0.425781935515592735E+00    0.889435471357198656E+08   -0.906562101873885524E+02
    0.137747408595019660E+01    0.466064100280686233E+00    0.873061786039103270E+08   -0.906470964612524028E+02
    0.133248145976946430E+01    0.374668677217332657E+00    0.889515704615277201E+08   -0.906292698918948645E+02
    0.133248145976946430E+01    0.374668677217332657E+00    0.889515704615277201E+08   -0.906292698918948645E+02
    0.137615045583011919E+01    0.469513169684116605E+00    0.870342406947572827E+08   -0.906287479666020630E+02
    0.133409003329324927E+01    0.381249484898090074E+00    0.890988727937837690E+08   -0.906223916066250723E+02
    0.133940601850002317E+01    0.443132046364333121E+00    0.888923671830548644E+08   -0.906128039018815059E+02
    0.133940601850002317E+01    0.443132046364333121E+00    0.888923671830548644E+08   -0.906128039018815059E+02
    0.134723830694676106E+01    0.456890535955734478E+00    0.880975550068825185E+08   -0.906127610827131065E+02
    0.134723830694676106E+01    0.456890535955734478E+00    0.880975550068825185E+08   -0.906127610827131065E+02
    0.135539544998015904E+01    0.416292997096149975E+00    0.881550321508005112E+08   -0.906043479305440940E+02
    0.135133691359718977E+01    0.473486652442652201E+00    0.882640113348249197E+08   -0.905964504074937906E+02
    0.135559817084522982E+01    0.403340981544516808E+00    0.889109391026485711E+08   -0.905963039264350414E+02
    0.135559817084522982E+01    0.403340981544516808E+00    0.889109391026485711E+08   -0.905963039264350414E+02
    0.136702072109779493E+01    0.375517427763536915E+00    0.884605960134803355E+08   -0.905890779363156611E+02
    0.136702072109779493E+01    0.375517427763536915E+00    0.884605960134803355E+08   -0.905890779363156611E+02
    0.141511751450334233E+01    0.496394221762383125E+00    0.868041944729497135E+08   -0.905872256679796521E+02
    0.139429007986392484E+01    0.440223092517548764E+00    0.874782723510241956E+08   -0.905847837904252060E+02
    0.137896147220906196E+01    0.425974215529675959E+00    0.875962514122304916E+08   -0.905841767678748795E+02
    0.133386050367853248E+01    0.436173309338560244E+00    0.889704200315028131E+08   -0.905812920046134309E+02
    0.134711401823615140E+01    0.438330593199724561E+00    0.885817236580912471E+08   -0.905537087906419487E+02
    0.140271691174421487E+01    0.446728664874619597E+00    0.871617871382755935E+08   -0.905497840741727202E+02
    0.135397408676495012E+01    0.426804829562456689E+00    0.876652528150184453E+08   -0.905478061652164428E+02
    0.138214902502290959E+01    0.388550354807673415E+00    0.874012255647338033E+08   -0.905285528084158670E+02
    0.138214902502290959E+01    0.388550354807673415E+00    0.874012255647338033E+08   -0.905285528084158670E+02
    0.136629334850948481E+01    0.365206347132918552E+00    0.881542754374386519E+08   -0.905132332464480669E+02
    0.134752329650349290E+01    0.368851184463959925E+00    0.888600372968763113E+08   -0.904917259251313624E+02
    0.134432980273193681E+01    0.439935991022180062E+00    0.886563035753678381E+08   -0.904913688302024468E+02
    0.139560585792638081E+01    0.468290812784889710E+00    0.873269799695489854E+08   -0.904851865329660683E+02
    0.136790077964680878E+01    0.382081615606233882E+00    0.884610381870778501E+08   -0.904838672641153465E+02
    0.136790077964680878E+01    0.382081615606233882E+00    0.884610381870778501E+08   -0.904838672641153465E+02
    0.135061992733993286E+01    0.410300505646929992E+00    0.880764188653908968E+08   -0.904748166847895163E+02
    0.136672865192944526E+01    0.348746732132926951E+00    0.881029703925547898E+08   -0.904506820627312038E+02
    0.136672865192944526E+01    0.348746732132926951E+00    0.881029703925547898E+08   -0.904506820627312038E+02
    0.138422805024769069E+01    0.444524236934789485E+00    0.870959102826700062E+08   -0.904452314482135478E+02
    0.134052415622666699E+01    0.420818556153504275E+00    0.884563851743976176E+08   -0.904442217848548324E+02
    0.136171269195816436E+01    0.386188690026061821E+00    0.883770660426285565E+08   -0.904413611141767859E+02
    0.134528873667883375E+01    0.335108209589826345E+00    0.884711179972292632E+08   -0.904391899653663245E+02
    0.135041421142793583E+01    0.397867231072943639E+00    0.882516695632549822E+08   -0.904343322175759141E+02
    0.136756244656033332E+01    0.391746159184618747E+00    0.880709644742619842E+08   -0.904226741559655522E+02
    0.135466811293379497E+01    0.358256736906900741E+00    0.878452613042782247E+08   -0.904203922109828397E+02
    0.139305921544048306E+01    0.373410366096351254E+00    0.869668553854518235E+08   -0.904029302533024293E+02
    0.135378256004653563E+01    0.426295811431391058E+00    0.882412802411263883E+08   -0.904015020307465420E+02
    0.133185890130041451E+01    0.382976056919876129E+00    0.879336268784853816E+08   -0.903780574844942066E+02
    0.135841258139950116E+01    0.478244713409072375E+00    0.883419546784106195E+08   -0.903697572971462080E+02
    0.138737277804610226E+01    0.461835892353095190E+00    0.870098046659457088E+08   -0.903629371269533408E+02
    0.138737277804610226E+01    0.461835892353095190E+00    0.870098046659457088E+08   -0.903629371269533408E+02
    0.137513982986476457E+01    0.443942816141911223E+00    0.872375308794921041E+08   -0.903411466487774817E+02
    0.137513982986476457E+01    0.443942816141911223E+00    0.872375308794921041E+08   -0.903411466487774817E+02
    0.135510196123872784E+01    0.427607710845014921E+00    0.881082287679297328E+08   -0.903354998714889632E+02
    0.135510196123872784E+01    0.427607710845014921E+00    0.881082287679297328E+08   -0.903354998714889632E+02
    0.139375371361540545E+01    0.388378518864946898E+00    0.870785186617320478E+08   -0.903154101208601787E+02
    0.136422634678204391E+01    0.412561408767688320E+00    0.873000854406130016E+08   -0.903114299838650965E+02
    0.135130496755319141E+01    0.444382411462749261E+00    0.885781118535807729E+08   -0.903113541825660491E+02
    0.134292312388049706E+01    0.471252631645382891E+00    0.882764599814133793E+08   -0.903008500458179384E+02
    0.138557145837370843E+01    0.393677250010691537E+00    0.871426157557938099E+08   -0.902868685083353455E+02
    0.138557145837370843E+01    0.393677250010691537E+00    0.871426157557938099E+08   -0.902868685083353455E+02
    0.133293684850848604E+01    0.457643493963873382E+00    0.883247833488057852E+08   -0.902206139382447247E+02
    0.133666618068728327E+01    0.358033680370247964E+00    0.890808219217106104E+08   -0.902202392778375497E+02
    0.133666618068728327E+01    0.358033680370247964E+00    0.890808219217106104E+08   -0.902202392778375497E+02
    0.136763975358743450E+01    0.372313976967213023E+00    0.881922087260952592E+08   -0.902169815027420441E+02
    0.132289700122016707E+01    0.370048282268921724E+00    0.891955490036486089E+08   -0.902004117346657068E+02
    0.134833438051035936E+01    0.284452652968356645E+00    0.882190992616593540E+08   -0.901963688805494996E+02
    0.137636312130692273E+01    0.440802269738750141E+00    0.875926044592788219E+08   -0.901880889388504983E+02
    0.136387689009138113E+01    0.426627601991109273E+00    0.874235847141694725E+08   -0.901853884621851591E+02
    0.136387689009138113E+01    0.426627601991109273E+00    0.874235847141694725E+08   -0.901853884621851591E+02
    0.138961629174603618E+01    0.462064513010830069E+00    0.875180482920409441E+08   -0.901834119837336061E+02
    0.130387999983892211E+01    0.406512520082184636E+00    0.894112461390106082E+08   -0.901802355858369964E+02
    0.130387999983892211E+01    0.406512520082184636E+00    0.894112461390106082E+08   -0.901802355858369964E+02
    0.133883061113275059E+01    0.455822463408011913E+00    0.881659715144620538E+08   -0.901792448194710516E+02
    0.137627738451273385E+01    0.455330433936182999E+00    0.880757054906005263E+08   -0.901778463396561847E+02
    0.137627738451273385E+01    0.455330433936182999E+00    0.880757054906005263E+08   -0.901778463396561847E+02
    0.135843633277296161E+01    0.422285928656325638E+00    0.874997789240199178E+08   -0.901762656903312916E+02
    0.135843633277296161E+01    0.422285928656325638E+00    0.874997789240199178E+08   -0.901762656903312916E+02
    0.137406592823156770E+01    0.458831807165662298E+00    0.881693049010746628E+08   -0.901729231399978630E+02
    0.134701345014098028E+01    0.435692068015679723E+00    0.884487627638127208E+08   -0.901303207016899250E+02
    0.133967896195097391E+01    0.411960720822509785E+00    0.877367423396439403E+08   -0.901293291081200891E+02
    0.128535053577517311E+01    0.322037561054589361E+00    0.901189841275017262E+08   -0.901256538885987055E+02
    0.132958360887670435E+01    0.437248814322741097E+00    0.882358718898803890E+08   -0.901218974873645067E+02
    0.138667948342319236E+01    0.428227037162525193E+00    0.873526444147449881E+08   -0.900934554887443824E+02
    0.138851248924258974E+01    0.430819183021913688E+00    0.875108889424263239E+08   -0.900834639186174968E+02
    0.133383936078023546E+01    0.364389748179682726E+00    0.883268575906531513E+08   -0.900762207410288056E+02
    0.133383936078023546E+01    0.364389748179682726E+00    0.883268575906531513E+08   -0.900762207410288056E+02
    0.137967737227891840E+01    0.361416273449048475E+00    0.872886710815033764E+08   -0.900704427111809025E+02
    0.138099285953073214E+01    0.429763671135066971E+00    0.872130883019456565E+08   -0.900701757500877989E+02
    0.133112834051361384E+01    0.425774189676557668E+00    0.884421492501907796E+08   -0.900692690484431466E+02
    0.137787090738818807E+01    0.366557443215477008E+00    0.873092503966004550E+08   -0.900661599672289270E+02
    0.137787090738818807E+01    0.366557443215477008E+00    0.873092503966004550E+08   -0.900661599672289270E+02
    0.132979464483906540E+01    0.359201742649519318E+00    0.889190006948601902E+08   -0.900605278471250017E+02
    0.138921971300257274E+01    0.381163116890608222E+00    0.873518856688305736E+08   -0.900470720217286669E+02
    0.135291074640277498E+01    0.428273945992634353E+00    0.880301068349723220E+08   -0.900391934074657740E+02
    0.135291074640277498E+01    0.428273945992634353E+00    0.880301068349723220E+08   -0.900391934074657740E+02
    0.132926804462574899E+01    0.363836916655031928E+00    0.884967802281111926E+08   -0.900269070186436693E+02
    0.129217380347757094E+01    0.344594471829385185E+00    0.898571625127379000E+08   -0.900268674842098591E+02
    0.133108895188714893E+01    0.413882469174334133E+00    0.887745223775426000E+08   -0.900117708373518752E+02
    0.133108895188714893E+01    0.413882469174334133E+00    0.887745223775426000E+08   -0.900117708373518752E+02
    0.135508592455442267E+01    0.327157549448243046E+00    0.883421080596052408E+08   -0.900109923947603647E+02
    0.130703251622746164E+01    0.371335579710640573E+00    0.896585012317842543E+08   -0.900036693602681339E+02
    0.132938537670834012E+01    0.367019869049904912E+00    0.888457359080910683E+08   -0.899944121961342489E+02
    0.133238954910522112E+01    0.345313215694346809E+00    0.882272174609335065E+08   -0.899929161372111537E+02
    0.133238954910522112E+01    0.345313215694346809E+00    0.882272174609335065E+08   -0.899929161372111537E+02
    0.135102483449745514E+01    0.353518066740083015E+00    0.878877738608512133E+08   -0.899880486625180112E+02
    0.133393963781719904E+01    0.357671693719987971E+00    0.885895409218559712E+08   -0.899807329348279836E+02
    0.131377368487855928E+01    0.380788307475567578E+00    0.893890740150555372E+08   -0.899713290050323451E+02
    0.136484826272836646E+01    0.394494395962041722E+00    0.876550069816749841E+08   -0.899700633178244971E+02
    0.138096908872534363E+01    0.396622677733356355E+00    0.873776371281674504E+08   -0.899584464544401357E+02
    0.134292954680580801E+01    0.326168705153570215E+00    0.884442086564167142E+08   -0.899556135101776988E+02
    0.134292954680580801E+01    0.326168705153570215E+00    0.884442086564167142E+08   -0.899556135101776988E+02
    0.129533868996034052E+01    0.421965343045568986E+00    0.894602415801620483E+08   -0.899528438205066578E+02
    0.135166496268287251E+01    0.423268013557029477E+00    0.889414155304974616E+08   -0.899503121412552531E+02
    0.136779117301710462E+01    0.378571231700741251E+00    0.875118142247962654E+08   -0.899470661461689076E+02
    0.136779117301710462E+01    0.378571231700741251E+00    0.875118142247962654E+08   -0.899470661461689076E+02
    0.135106280525523981E+01    0.340238234076416290E+00    0.877742158619800210E+08   -0.899246626953606807E+02
    0.138338883702421844E+01    0.367704249613218792E+00    0.870350597301043570E+08   -0.899159779094297562E+02
    0.137774199361409067E+01    0.414006090118492764E+00    0.878379154018420875E+08   -0.898995141816511989E+02
    0.129852869037455432E+01    0.424197657952280593E+00    0.894267864349496365E+08   -0.898869540531081697E+02
    0.137086729900061965E+01    0.380601907080095003E+00    0.876442311347586811E+08   -0.898809509407332712E+02
    0.135029524877724749E+01    0.328582508282799779E+00    0.881291262406862974E+08   -0.898791853062800783E+02
    0.133306571844748456E+01    0.410357307265449833E+00    0.888169229336855263E+08   -0.898761158906091850E+02
    0.136831252273606929E+01    0.370003276189194708E+00    0.876646733333859295E+08   -0.898687053019848463E+02
    0.133015738483541535E+01    0.363050100520208474E+00    0.889436808350921124E+08   -0.898660781536502782E+02
    0.133037198303377124E+01    0.397264197312123812E+00    0.889159350811899602E+08   -0.898617260411392635E+02
    0.134012579915685381E+01    0.374845400171606613E+00    0.879074440817344934E+08   -0.898571480372162910E+02
    0.131812443437470828E+01    0.372576898939904311E+00    0.892123487455064356E+08   -0.898526070587667505E+02
    0.131812443437470828E+01    0.372576898939904311E+00    0.892123487455064356E+08   -0.898526070587667505E+02
    0.133935308152426824E+01    0.390512173141257080E+00    0.888105396767789871E+08   -0.898509212921543536E+02
    0.137031072401917320E+01    0.374952582817538627E+00    0.875066278594891876E+08   -0.898478310700819378E+02
    0.134906279465392909E+01    0.368346774153353707E+00    0.884444680014784634E+08   -0.898417999404701106E+02
    0.130144826591674723E+01    0.415111755278683603E+00    0.894592549411106408E+08   -0.898229597537685152E+02
    0.134414800723757200E+01    0.347241055110146135E+00    0.880150088200948834E+08   -0.898133119359670786E+02
    0.134535743217082304E+01    0.361483708649734226E+00    0.880918276772741973E+08   -0.898132075791053950E+02
    0.134354755277877524E+01    0.326507591135774433E+00    0.884234980942560136E+08   -0.898069118011285354E+02
    0.134354755277877524E+01    0.326507591135774433E+00    0.884234980942560136E+08   -0.898069118011285354E+02
    0.135733469266219742E+01    0.332003357493269036E+00    0.878963069446934164E+08   -0.897982491436752639E+02
    0.134070290279720061E+01    0.388849959067867346E+00    0.888113525114271343E+08   -0.897923497654459624E+02
    0.135268000192167936E+01    0.431322425810964916E+00    0.881465667545617521E+08   -0.897913643628677960E+02
    0.131905237712158940E+01    0.353904381461383366E+00    0.887552173091600984E+08   -0.897826879334107844E+02
    0.131905237712158940E+01    0.353904381461383366E+00    0.887552173091600984E+08   -0.897826879334107844E+02
    0.134468460679356605E+01    0.456367078991599229E+00    0.885569329453087449E+08   -0.897758191805308741E+02
    0.136967848096849565E+01    0.341261217578379572E+00    0.876499779189260900E+08   -0.897722586122559534E+02
    0.135544573476607755E+01    0.350399238181713812E+00    0.878028520513670444E+08   -0.897703452895064800E+02
    0.133871208719072499E+01    0.374489539743800393E+00    0.881094202321748137E+08   -0.897595074458793505E+02
    0.132381345028600816E+01    0.429848840205412586E+00    0.889362163890535384E+08   -0.897584926850598777E+02
    0.132666081370877786E+01    0.428122483175423341E+00    0.888721515194046646E+08   -0.897573666112723600E+02
    0.134474720814854165E+01    0.380910777244878318E+00    0.886712535498632938E+08   -0.897373698579413031E+02
    0.135576015844844000E+01    0.345973668556178282E+00    0.877916523889309466E+08   -0.897329492301215481E+02
    0.133657022386976077E+01    0.326852800744054761E+00    0.880747706568146795E+08   -0.897289868245587172E+02
    0.136054808320962839E+01    0.381335915657869506E+00    0.884221510571763515E+08   -0.897217629717186185E+02
    0.135100898529171909E+01    0.324837814360591892E+00    0.884299779282261431E+08   -0.897158809209540351E+02
    0.136064284780933642E+01    0.407679288420130348E+00    0.881910800891029388E+08   -0.896956987805246087E+02
    0.132814791071136984E+01    0.320532251279121994E+00    0.884805998824038208E+08   -0.896904393338705006E+02
    0.135336320780455766E+01    0.408037571234308061E+00    0.880952392162222862E+08   -0.896878705804051179E+02
    0.130175258947080752E+01    0.361475054470172807E+00    0.897361735976475924E+08   -0.896852725174921801E+02
    0.134714072537422069E+01    0.369487138987027564E+00    0.882745976547845304E+08   -0.896787166599414007E+02
    0.138060640549234703E+01    0.369572196216454429E+00    0.874925793582186401E+08   -0.896766691577256836E+02
    0.134254664505731847E+01    0.336661407042006644E+00    0.880529787466583252E+08   -0.896688487668532161E+02
    0.136340070513582434E+01    0.346072636877888584E+00    0.877794864757529199E+08   -0.896630562835496931E+02
    0.135977609343377193E+01    0.373972354374100036E+00    0.883815871251630187E+08   -0.896597897476131891E+02
    0.139171245573841684E+01    0.375192145409894096E+00    0.874638806432015896E+08   -0.896575565500754976E+02
    0.130216732039363658E+01    0.395881278641516232E+00    0.894902342976820171E+08   -0.896558060153097642E+02
    0.135511883936055688E+01    0.398726190496926591E+00    0.880533447879928499E+08   -0.896530517015442285E+02
    0.134731776054013141E+01    0.374925982457343210E+00    0.880803599192229360E+08   -0.896513398737201044E+02
    0.136535411990449629E+01    0.400737018794925959E+00    0.881205844633988589E+08   -0.896500113986830058E+02
    0.135706588818617946E+01    0.368067199186212335E+00    0.878252685397305489E+08   -0.896472017323618218E+02
    0.134009163599448278E+01    0.360223577763733260E+00    0.880499869119273871E+08   -0.896443479825526879E+02
    0.134208576381610367E+01    0.422901754545639719E+00    0.885833438166072965E+08   -0.896382488344832495E+02
    0.135203695669209467E+01    0.389189592100807502E+00    0.880664993621258140E+08   -0.896378727697823763E+02
    0.129299416472399242E+01    0.407283298930412485E+00    0.895858257383630127E+08   -0.896215805441224234E+02
    0.136382948199551635E+01    0.330546300985574248E+00    0.879178968401079923E+08   -0.896087777838360466E+02
    0.135416336024044059E+01    0.408162181519379885E+00    0.882073877883757055E+08   -0.896037622754700465E+02
    0.128737163383145914E+01    0.430941123957509831E+00    0.895617666169584394E+08   -0.895938134657813805E+02
    0.132325368224415141E+01    0.372520789133272245E+00    0.891662120235694647E+08   -0.895882915445507138E+02
    0.137309022566563810E+01    0.389172017198911036E+00    0.876791030899590552E+08   -0.895693602240663580E+02
    0.135036118727334875E+01    0.338240902558297307E+00    0.878960208634286076E+08   -0.895579070607315941E+02
    0.135411134469394057E+01    0.393839169343777940E+00    0.881863502457254529E+08   -0.895557524867188306E+02
    0.138056319918919068E+01    0.379770029746399729E+00    0.875916941898891628E+08   -0.895476106213997980E+02
    0.133892297709936647E+01    0.358482732466550047E+00    0.886237628940398842E+08   -0.895456333982883166E+02
    0.134839014178267069E+01    0.390742704795556506E+00    0.878884889124117345E+08   -0.895395114607574101E+02
    0.133222835151643704E+01    0.353607232740998256E+00    0.883904912362465262E+08   -0.895360212896989083E+02
    0.136230673900995436E+01    0.374785125843860811E+00    0.882032529258189797E+08   -0.895303583417697553E+02
    0.131961002755828360E+01    0.375533338333722710E+00    0.894754735836403668E+08   -0.895195255467026243E+02
    0.135324023845329933E+01    0.388578511413273375E+00    0.876730388304740489E+08   -0.895160534412266031E+02
    0.131989996725615732E+01    0.384244149169521876E+00    0.892933808963700533E+08   -0.895158053044011410E+02
    0.133800469467012206E+01    0.353133131237653330E+00    0.887391167394684255E+08   -0.895133956831790982E+02
    0.131669204257770223E+01    0.353005274366651633E+00    0.887671613393252194E+08   -0.895097022593905933E+02
    0.135453189679311081E+01    0.352535283821637790E+00    0.883788544100895673E+08   -0.895063436634375194E+02
    0.137102985885099615E+01    0.381380006817108708E+00    0.874410561262197793E+08   -0.894973231650236585E+02
    0.136925503801986093E+01    0.371300535882175708E+00    0.878817566434071362E+08   -0.894962420922543629E+02
    0.133989528424128501E+01    0.356741348101321520E+00    0.880394859439330250E+08   -0.894934959970719319E+02
    0.135158395344359628E+01    0.401452506536653431E+00    0.881314221243796498E+08   -0.894893601146325750E+02
    0.133984691845490178E+01    0.365316209602841724E+00    0.888966103417950571E+08   -0.894874409803806969E+02
    0.133990177737990646E+01    0.350313611740018516E+00    0.884314582366171777E+08   -0.894851821986857061E+02
    0.132786695117428133E+01    0.407865061929978623E+00    0.884992107046881020E+08   -0.894797185330109102E+02
    0.132013387664647719E+01    0.387935224610185259E+00    0.887808731661456823E+08   -0.894733241703688122E+02
    0.137404017606873219E+01    0.367993586186099009E+00    0.877404905284572691E+08   -0.894690714482455718E+02
    0.135322648858636208E+01    0.429164823899050418E+00    0.882588405812143385E+08   -0.894652831419251982E+02
    0.131616296765174723E+01    0.386710721341522401E+00    0.890313557735682726E+08   -0.894642762217553695E+02
    0.136038761112483675E+01    0.370546997808220979E+00    0.877102631206964850E+08   -0.894567708302223394E+02
    0.133135820546831107E+01    0.365109257124778708E+00    0.887028448064587712E+08   -0.894415009845275648E+02
    0.134930227563199345E+01    0.387191686791119594E+00    0.878111244090406299E+08   -0.894371992779771432E+02
    0.135606193607358971E+01    0.384659450214801524E+00    0.878837204258726239E+08   -0.894361940951926044E+02
    0.134194938454281987E+01    0.374479037284691785E+00    0.881152957539892495E+08   -0.894308320721469556E+02
    0.134222935081877504E+01    0.358721880243670910E+00    0.886580287648880184E+08   -0.894294378548134148E+02
    0.132792650723974992E+01    0.393286575958802231E+00    0.889176625823869407E+08   -0.894187696955269331E+02
    0.133975228881499953E+01    0.379147758481227726E+00    0.888873261966641396E+08   -0.894075682046815530E+02
    0.130353077566198294E+01    0.364934768857978042E+00    0.896701297942533195E+08   -0.894039619534195396E+02
    0.133190164855572335E+01    0.359775555877227760E+00    0.887516643384942561E+08   -0.894019604334973792E+02
    0.133271166170756827E+01    0.400077625255052638E+00    0.888096486525118649E+08   -0.894002232776323353E+02
    0.134228305427751504E+01    0.356106230770043553E+00    0.885004201141775399E+08   -0.893999889916094901E+02
    0.133525007356768666E+01    0.343731363072393492E+00    0.881574137720042765E+08   -0.893920485132379952E+02
    0.130084377854571787E+01    0.356046440663471131E+00    0.896484610736829340E+08   -0.893816009411972203E+02
    0.133954357402397295E+01    0.360565501008572653E+00    0.885325578184781671E+08   -0.889742340455078988E+02
    0.134255282876749193E+01    0.383504474284730890E+00    0.887301571344755590E+08   -0.892937042961830230E+02
    0.133932776206432602E+01    0.381395276302143316E+00    0.887889313427930921E+08   -0.890189392095347927E+02
    0.132983721739608907E+01    0.373164812874309249E+00    0.885813645860774517E+08   -0.893488869688077898E+02
    0.133274622656058117E+01    0.374853569777297224E+00    0.888248437096467018E+08   -0.888862676755547625E+02
    0.133567130241873189E+01    0.377230234985464818E+00    0.886305346356021166E+08   -0.884982191456064697E+02
    0.133567130241873189E+01    0.377230234985464818E+00    0.886305346356021166E+08   -0.884982191456064697E+02
    0.133835969110704367E+01    0.366096101867372070E+00    0.887786415121874809E+08   -0.892966562911309438E+02
    0.134332320742708156E+01    0.371508139900688761E+00    0.886800438951878101E+08   -0.888836368148311493E+02
    0.133588822795496776E+01    0.355373291915048739E+00    0.886363834887160659E+08   -0.890071141938025789E+02
    0.133457669155691483E+01    0.351266515903056131E+00    0.885559525349712372E+08   -0.888505614583491905E+02
    0.133457669155691483E+01    0.351266515903056131E+00    0.885559525349712372E+08   -0.888505614583491905E+02
    0.132326926875434370E+01    0.348678822054921511E+00    0.886347669908272326E+08   -0.893783372203952808E+02
    0.133060763144769956E+01    0.355160672299527747E+00    0.886630578367984593E+08   -0.890558010079690234E+02
    0.132950611366814764E+01    0.352708879691505217E+00    0.887979554037213475E+08   -0.887244556122383727E+02
    0.132528257717580233E+01    0.350125645552594733E+00    0.887440130243598819E+08   -0.891996877421211423E+02
    0.132918166115240832E+01    0.360334718087472083E+00    0.886945734232647419E+08   -0.890810258938442132E+02
    0.132288959618019253E+01    0.359624597381802857E+00    0.885764535354158580E+08   -0.892050927728467684E+02
    0.133285283076065642E+01    0.343304222277144078E+00    0.885233016930625737E+08   -0.886372974126260118E+02
    0.133285283076065642E+01    0.343304222277144078E+00    0.885233016930625737E+08   -0.886372974126260118E+02
    0.132330570564124117E+01    0.361030794016482304E+00    0.886724286144880652E+08   -0.889308644067260161E+02
    0.132719493180789638E+01    0.329386720298931124E+00    0.884566459812730849E+08   -0.891632163928474597E+02
    0.132398621393695359E+01    0.332752564783834970E+00    0.885143768683184981E+08   -0.893461352883385871E+02
    0.133195312968106072E+01    0.347211317056467905E+00    0.887314321943862587E+08   -0.891661863080952628E+02
    0.133211777188317049E+01    0.352710167266369723E+00    0.887808238828235269E+08   -0.891542356145965584E+02
    0.131163197127908382E+01    0.355682176448517851E+00    0.894709793689789176E+08   -0.889185287295811975E+02
    0.131163197127908382E+01    0.355682176448517851E+00    0.894709793689789176E+08   -0.889185287295811975E+02
    0.131266953600306313E+01    0.356394388308460819E+00    0.895985362042869329E+08   -0.893085563334578865E+02
    0.131715753718996553E+01    0.361113050834291016E+00    0.893750010653122067E+08   -0.887631994631470320E+02
    0.131715753718996553E+01    0.361113050834291016E+00    0.893750010653122067E+08   -0.887631994631470320E+02
    0.131516728798187343E+01    0.382293726816767432E+00    0.893830594903016984E+08   -0.891855124856671182E+02
    0.131369539141268232E+01    0.368800168643495851E+00    0.893486804714482427E+08   -0.891730488270248713E+02
    0.130313204532479920E+01    0.354044973655142314E+00    0.896818751877171993E+08   -0.889940161072819080E+02
    0.134332823307638960E+01    0.388908307324008717E+00    0.877931441085654944E+08   -0.890497413724718996E+02
    0.134349419284905269E+01    0.386767757994379124E+00    0.878707266828587949E+08   -0.891207921154914686E+02
    0.133891035506495459E+01    0.390531336971228882E+00    0.877707296070397943E+08   -0.892203631522993135E+02
    0.135478793973095235E+01    0.385588564635119369E+00    0.877483851770503521E+08   -0.890253071965347544E+02
    0.132840069998888355E+01    0.374002935978410278E+00    0.889160294764406979E+08   -0.893672209158726361E+02
    0.132709459758245174E+01    0.371338720959675683E+00    0.889259066136850715E+08   -0.890867751201408566E+02
    0.132021028433422494E+01    0.373805606438891047E+00    0.889224828081048429E+08   -0.891922615055535175E+02
    0.131663205516367232E+01    0.382313959486864974E+00    0.888645797752082050E+08   -0.891020683390706552E+02
    0.132942198271355783E+01    0.379002429109815964E+00    0.890420885957105756E+08   -0.892424158965573469E+02
    0.132618127072510195E+01    0.381830781847527945E+00    0.888479602773933858E+08   -0.888552768338679471E+02
    0.132308203613633069E+01    0.371408727156786966E+00    0.889450815597873479E+08   -0.887885534038534132E+02
    0.131690964607747496E+01    0.397591362919451186E+00    0.886782273997120261E+08   -0.890769058701100107E+02
    0.132240516460713597E+01    0.397097457420496625E+00    0.887442987019931525E+08   -0.891727973142523922E+02
    0.132114606282366620E+01    0.379353563677062411E+00    0.887871211821021289E+08   -0.889568833756421498E+02
    0.131288916794348287E+01    0.377717874675919774E+00    0.890179911927983016E+08   -0.890484514702953618E+02
    0.132258150108458539E+01    0.374404039016376089E+00    0.890845655638554096E+08   -0.889766310710941468E+02
    0.131930497402571079E+01    0.375408081479086775E+00    0.890121250795569122E+08   -0.889702862903487812E+02
    0.132314893668406786E+01    0.387639722772849638E+00    0.887206813638358414E+08   -0.890477683563555900E+02
    0.135152825469993387E+01    0.414455540829290925E+00    0.882574999869998395E+08   -0.892817296654433932E+02
    0.137549208309943727E+01    0.430619934904562740E+00    0.880285729853732288E+08   -0.892433062316551116E+02
    0.134726145925982066E+01    0.383989123781773856E+00    0.880315274522834122E+08   -0.892988121665554218E+02
    0.135348476032146703E+01    0.389696868864724877E+00    0.878940936657340527E+08   -0.890982195581937191E+02
    0.135241907503488878E+01    0.403749147081269300E+00    0.881072939618471861E+08   -0.889135004999016729E+02
    0.135241907503488878E+01    0.403749147081269300E+00    0.881072939618471861E+08   -0.889135004999016729E+02
    0.135415233340963992E+01    0.367477708080514276E+00    0.879361513913921416E+08   -0.892642925869285477E+02
    0.136920981858757607E+01    0.367914835035342946E+00    0.879342512381475419E+08   -0.893782952924989473E+02
    0.134557487907446061E+01    0.376432637320336383E+00    0.881327615480187833E+08   -0.891372764976798351E+02
    0.134500093495103168E+01    0.375416258015890847E+00    0.880384782081108391E+08   -0.889328112191750790E+02
    0.134309408610393755E+01    0.367101542536561354E+00    0.881188176965950429E+08   -0.891993672782586202E+02
    0.135822711197378410E+01    0.361660464948943883E+00    0.881905207608191073E+08   -0.893657499867282041E+02
    0.135298492524065983E+01    0.372559130492858159E+00    0.880794935093866885E+08   -0.891999137263466650E+02
    0.135008737660963773E+01    0.371403976218969589E+00    0.880167656609879434E+08   -0.891929679815043812E+02
    0.134844088558125574E+01    0.367951923411544257E+00    0.879705463358254731E+08   -0.893023017963288197E+02
    0.135450768194507076E+01    0.376641277106852357E+00    0.878866376135692447E+08   -0.891467249742746048E+02
    0.135546614933114373E+01    0.377629080704842579E+00    0.878260964242742658E+08   -0.890545236773898097E+02
    0.134924040109693033E+01    0.348062814873816961E+00    0.883679560196449906E+08   -0.893463493594334750E+02
    0.134904394497561841E+01    0.349448149858799795E+00    0.884983609095942974E+08   -0.889515608985195030E+02
    0.134598825972839564E+01    0.348274392857060633E+00    0.885796249953052104E+08   -0.891449692622317116E+02
    0.134603651145941905E+01    0.346762164870748180E+00    0.885049996883119643E+08   -0.890056654719037112E+02
    0.134671780026549714E+01    0.348999769406315608E+00    0.885603078801658750E+08   -0.889602816411390620E+02
    0.134671780026549714E+01    0.348999769406315608E+00    0.885603078801658750E+08   -0.889602816411390620E+02
    0.134215458722965275E+01    0.355620620004506449E+00    0.885661501830498278E+08   -0.890727924781645441E+02
    0.134357029621609714E+01    0.335087439310655100E+00    0.884365885878787935E+08   -0.889042948636983681E+02
    0.133713582177798695E+01    0.333960020778548028E+00    0.884927545265926868E+08   -0.887445948372267281E+02
    0.134504067404081806E+01    0.335636029253707946E+00    0.884657700774164200E+08   -0.885713889753303079E+02
    0.134504067404081806E+01    0.335636029253707946E+00    0.884657700774164200E+08   -0.885713889753303079E+02
    0.133673561652348361E+01    0.360732668037734072E+00    0.882412489721787870E+08   -0.892222341634861209E+02
    0.134067752823750763E+01    0.355417328714423775E+00    0.881324866396515071E+08   -0.888455738969400954E+02
    0.133688263376090344E+01    0.371574249916442056E+00    0.882664573646084517E+08   -0.887710837167713009E+02
    0.134196856342857718E+01    0.363316467107207330E+00    0.882314190645433068E+08   -0.893046913142160150E+02
    0.134349783256012145E+01    0.348595996021838772E+00    0.881637693883262277E+08   -0.891135758175233264E+02
    0.136408910700349462E+01    0.350937968616282348E+00    0.876350109963018000E+08   -0.892737291988643307E+02
    0.137316079458389817E+01    0.363968109276841645E+00    0.877015347101570070E+08   -0.893685556134070396E+02
    0.136389503928134159E+01    0.328316307426783638E+00    0.876732754030450881E+08   -0.892030510702158068E+02
    0.135425620002459879E+01    0.350002231849904533E+00    0.877206135201063156E+08   -0.892295428466550504E+02
    0.136133645456955277E+01    0.364604017785808310E+00    0.877751338894555122E+08   -0.889102657151624953E+02
    0.135460236767219055E+01    0.340459611005783813E+00    0.877369437499053180E+08   -0.891584953226485197E+02
    0.135186870476958099E+01    0.337385613135300133E+00    0.878230186392442286E+08   -0.890510829616614217E+02
    0.134957455317874264E+01    0.315269352560001437E+00    0.880484505742104203E+08   -0.887081569671775299E+02
    0.135468139674683030E+01    0.295043579466412353E+00    0.880748827965184748E+08   -0.891872511658730502E+02
    0.135676832633073374E+01    0.328601082331356764E+00    0.878619282145130038E+08   -0.887000919968090216E+02
    0.135676832633073374E+01    0.328601082331356764E+00    0.878619282145130038E+08   -0.887000919968090216E+02
    0.136154151238621002E+01    0.320288275463569860E+00    0.877644354115507752E+08   -0.890396026982640194E+02
    0.135397961057119876E+01    0.317463741267147270E+00    0.879250762014688998E+08   -0.890595957242178713E+02
    0.135159580323269402E+01    0.322310314990870594E+00    0.879498336552068591E+08   -0.892658321009831752E+02
    0.133892673838957932E+01    0.330387648198712469E+00    0.881616070916286409E+08   -0.885316634564819509E+02
    0.133892673838957932E+01    0.330387648198712469E+00    0.881616070916286409E+08   -0.885316634564819509E+02
    0.134053776533373892E+01    0.339186755614097279E+00    0.880784435439635217E+08   -0.892176755800598329E+02
    0.134472548251851332E+01    0.338582188713756338E+00    0.881082559683960080E+08   -0.891830572170171081E+02
    0.134733268487197066E+01    0.331696441986409241E+00    0.883707562363924980E+08   -0.885542262791596784E+02
