    0.678290214817908854E+00    0.474394978208199092E+00    0.614864151580765486E+09   -0.138137056807304646E+03
    0.679442252755738885E+00    0.441988014313068334E+00    0.611723468365557194E+09   -0.137766421850041581E+03
    0.722577450865051651E+00    0.455780209802830072E+00    0.591735582470856428E+09   -0.137604937250958955E+03
    0.695381047481720138E+00    0.533765311939092157E+00    0.592141666067739725E+09   -0.137346238512552958E+03
    0.747490293084283275E+00    0.567020365780592783E+00    0.578031079148494244E+09   -0.137266190405749199E+03
    0.670373987486120648E+00    0.491867898507615919E+00    0.614308933849877357E+09   -0.137061278473255129E+03
    0.734101284722832759E+00    0.501913322295150621E+00    0.578242747883303881E+09   -0.137016490903612919E+03
    0.748173443888403678E+00    0.483084472068073367E+00    0.578237314185868621E+09   -0.136929862579347741E+03
    0.688076645549501653E+00    0.554952497772596587E+00    0.597326039657709122E+09   -0.136905403501224725E+03
    0.751536386226293152E+00    0.435264293480486231E+00    0.575133059572791934E+09   -0.136852322566125082E+03
    0.656261505229925102E+00    0.600946226808359185E+00    0.611983585341202497E+09   -0.136596312182502373E+03
    0.690467389840891288E+00    0.410803317934210099E+00    0.592744247067689180E+09   -0.136526634600821183E+03
    0.663342696852031288E+00    0.509513282712759974E+00    0.605950343940503120E+09   -0.136456316026622289E+03
    0.618996261167105488E+00    0.430455896775203684E+00    0.622302180869724870E+09   -0.136374320266065240E+03
    0.597367780709463392E+00    0.408380057478620273E+00    0.637892588084175110E+09   -0.136257378589439895E+03
    0.654603662834340794E+00    0.529255222770588674E+00    0.620702058490608335E+09   -0.136183581511368430E+03
    0.661627093191657911E+00    0.399147619397183462E+00    0.611756465690954447E+09   -0.136104611289567799E+03
    0.722947650154498911E+00    0.491921872310822295E+00    0.583358471079518080E+09   -0.136100762960027566E+03
    0.741243256444583776E+00    0.516485588975328369E+00    0.581343596872353792E+09   -0.136078264957172308E+03
    0.740218848254181605E+00    0.524610558744601718E+00    0.582836867116689920E+09   -0.136029185457477467E+03
    0.675878332953300243E+00    0.388467627740725518E+00    0.601522900843950987E+09   -0.136004715723602914E+03
    0.711452017989713692E+00    0.429867048223364634E+00    0.587574567627799511E+09   -0.135948252986917765E+03
    0.697682300083397156E+00    0.465450700564906228E+00    0.593872093455721378E+09   -0.135893899497183696E+03
    0.723591448793020620E+00    0.452219352866594093E+00    0.584122440793846011E+09   -0.135848664314894222E+03
    0.679854788228547502E+00    0.421197642121491356E+00    0.605992662462135792E+09   -0.135805336336592575E+03
    0.750538097932888393E+00    0.471555114005944631E+00    0.580509336288466692E+09   -0.135789204559322116E+03
    0.706478726640280996E+00    0.391268909396966791E+00    0.588423429994066238E+09   -0.135773704693069135E+03
    0.717453698975306753E+00    0.596485349783691277E+00    0.596632347415021300E+09   -0.135533321298204385E+03
    0.631808222723224566E+00    0.491083884198857845E+00    0.624928637617256284E+09   -0.135515722306083063E+03
    0.680474983588571947E+00    0.518991360691440917E+00    0.600093025016701460E+09   -0.135452067459546839E+03
    0.680127974536396174E+00    0.465819886949214279E+00    0.609578988253557205E+09   -0.135405067405279055E+03
    0.678426351206190770E+00    0.407175730181348783E+00    0.607478316902009487E+09   -0.135371585626034715E+03
    0.666225934828913569E+00    0.415697211188648552E+00    0.615240344467426300E+09   -0.135363026772909166E+03
    0.674488319507836276E+00    0.514969208837118941E+00    0.602925943269348383E+09   -0.135240435986213726E+03
    0.726925467328359387E+00    0.406597632365157224E+00    0.584435388210145235E+09   -0.135235074360277736E+03
    0.704727680661860867E+00    0.484380314702079318E+00    0.589587723165714979E+09   -0.135130189062115335E+03
    0.704054694940132619E+00    0.453256980798069975E+00    0.588716527156216860E+09   -0.135108445576006744E+03
    0.633809579612301222E+00    0.509209628232213163E+00    0.620745807143148899E+09   -0.135104254713464115E+03
    0.694465039003941520E+00    0.501418444809074160E+00    0.604341425729332447E+09   -0.135077898900837170E+03
    0.678285535137836515E+00    0.496177278330552696E+00    0.605692267940338492E+09   -0.134987217593787932E+03
    0.691552764661872654E+00    0.519871129938431764E+00    0.607504684625703454E+09   -0.134978099756488263E+03
    0.699443392751025184E+00    0.412908064189736024E+00    0.594574934412195563E+09   -0.134943908617303862E+03
    0.713935005931415678E+00    0.492026576284098738E+00    0.590343263282271862E+09   -0.134903010407363951E+03
    0.713837513245699773E+00    0.454013913543040104E+00    0.590405381699257851E+09   -0.134855886225118695E+03
    0.694563882320007431E+00    0.444979050219572514E+00    0.595252366823064804E+09   -0.134846523780942732E+03
    0.716158321875789317E+00    0.483556392871927088E+00    0.596098933482298851E+09   -0.134833537677913313E+03
    0.659836119745311755E+00    0.458738837284535350E+00    0.608428443971083879E+09   -0.134766562364482752E+03
    0.705531086068468483E+00    0.494389018492750409E+00    0.596158083305734158E+09   -0.134732416651541428E+03
    0.654153102917153784E+00    0.567277897130544773E+00    0.619695302235256433E+09   -0.134704434389316759E+03
    0.709575435631813023E+00    0.488051973178716736E+00    0.592058918968124628E+09   -0.134698639457305376E+03
    0.629519702885174004E+00    0.470498863095212272E+00    0.630873866149997473E+09   -0.134684280919710062E+03
    0.652874817168660915E+00    0.421629157700206036E+00    0.619371623179673791E+09   -0.134669324183742390E+03
    0.716237967958547994E+00    0.550288825374609658E+00    0.588683476518557072E+09   -0.134667878505834153E+03
    0.651365864297671182E+00    0.431225746926958919E+00    0.618679270523229599E+09   -0.134644464166754005E+03
    0.655026774644740351E+00    0.528694533500397412E+00    0.617819321960317612E+09   -0.134640653109336085E+03
    0.684740472166895708E+00    0.456761066817886530E+00    0.597558237552308202E+09   -0.134630947392864670E+03
    0.636855973313315560E+00    0.436909646693685261E+00    0.624187696522533894E+09   -0.134622220238495913E+03
    0.712887259605548329E+00    0.557953489062668950E+00    0.591842358401931524E+09   -0.134620334014400441E+03
    0.650842683606689065E+00    0.487779776430700807E+00    0.617138644784857154E+09   -0.134613077937803297E+03
    0.627192272314222365E+00    0.472923908123476622E+00    0.625947383261074305E+09   -0.134593748168809014E+03
    0.689005170903344455E+00    0.469557374845965825E+00    0.608239722877627134E+09   -0.134565311422222180E+03
    0.643214896288614835E+00    0.514979351946340813E+00    0.619905123532124996E+09   -0.134535602608471550E+03
    0.647638640812895461E+00    0.433233717206507052E+00    0.619505873902940750E+09   -0.134459044983551848E+03
    0.675977983732098053E+00    0.438007059300119295E+00    0.599590121152838469E+09   -0.134433396564603783E+03
    0.680843528518442431E+00    0.471855282791915798E+00    0.603944893591847062E+09   -0.134427287308565070E+03
    0.643503711591362548E+00    0.477573790488619920E+00    0.623971122895071983E+09   -0.134421895892967484E+03
    0.717867242679938622E+00    0.533250973122491700E+00    0.593612557201281428E+09   -0.134399976482260200E+03
    0.650271142016503378E+00    0.493811309273882060E+00    0.613329136456851482E+09   -0.134340506985447462E+03
    0.626349618076925130E+00    0.473998535800369325E+00    0.626298340782604218E+09   -0.134316425327678758E+03
    0.679611825543557924E+00    0.357694869303450957E+00    0.606162224095440626E+09   -0.134257709888729323E+03
    0.686522426492631177E+00    0.432843143932007735E+00    0.602876804550072670E+09   -0.134256567764189441E+03
    0.641090585444180738E+00    0.423077566216656820E+00    0.624171232395231009E+09   -0.134252426957407067E+03
    0.646535228725985345E+00    0.377425993282841432E+00    0.623452084926180363E+09   -0.134224687250242340E+03
    0.689188535269001701E+00    0.484431275256278937E+00    0.601993024209242105E+09   -0.134214115673010383E+03
    0.689783224276896867E+00    0.355326190786175999E+00    0.597746103124266148E+09   -0.134201974468312159E+03
    0.648610473586071268E+00    0.499596664014061886E+00    0.617345703746644020E+09   -0.134189122359013140E+03
    0.666078916667615761E+00    0.559239069887201623E+00    0.613491942736861944E+09   -0.134175171052311470E+03
    0.713261419799787966E+00    0.462212714302625116E+00    0.589904218932435274E+09   -0.134085226271364462E+03
    0.715646671185343752E+00    0.538965263758226953E+00    0.588260505225590110E+09   -0.134076448599442529E+03
    0.715646671185343752E+00    0.538965263758226953E+00    0.588260505225590110E+09   -0.134076448599442529E+03
    0.689527212375546039E+00    0.458349718304853937E+00    0.597024981504547834E+09   -0.134065122009119534E+03
    0.689527212375546039E+00    0.458349718304853937E+00    0.597024981504547834E+09   -0.134065122009119534E+03
    0.691911467208145892E+00    0.489055837725302922E+00    0.598641654746610880E+09   -0.134056349015131218E+03
    0.645070118279291949E+00    0.364151799728746894E+00    0.619184195630359650E+09   -0.134051932400877206E+03
    0.632853359877205923E+00    0.373496033334333788E+00    0.623460693112542868E+09   -0.134043706465596529E+03
    0.709729834990919906E+00    0.529473993543581045E+00    0.596290438730751753E+09   -0.134003670856596585E+03
    0.661643044624836585E+00    0.450774226300698189E+00    0.610813568332599640E+09   -0.134001155899283333E+03
    0.642424298355712353E+00    0.420843478961678841E+00    0.621230872743660450E+09   -0.133951525702520172E+03
    0.642424298355712353E+00    0.420843478961678841E+00    0.621230872743660450E+09   -0.133951525702520172E+03
    0.651567783641011200E+00    0.549555830778803767E+00    0.618026964901250243E+09   -0.133928795083293210E+03
    0.692077443520934144E+00    0.437892201911632029E+00    0.600687950835034132E+09   -0.133914631614458301E+03
    0.653774489555140281E+00    0.511903014951450075E+00    0.615803004911552191E+09   -0.133910212438817837E+03
    0.723204974055219219E+00    0.491976360504756016E+00    0.588500926809609771E+09   -0.133887247032183609E+03
    0.647157961275433347E+00    0.443734411836054221E+00    0.616763986265055180E+09   -0.133878613410753474E+03
    0.662567203539427885E+00    0.491520554222592665E+00    0.609479146836866140E+09   -0.133843354077902717E+03
    0.653506350431390715E+00    0.520933610911296086E+00    0.618064183792206526E+09   -0.133830322826257543E+03
    0.620388039401356783E+00    0.487401417215933108E+00    0.630556127265877724E+09   -0.133789729019741316E+03
    0.620388039401356783E+00    0.487401417215933108E+00    0.630556127265877724E+09   -0.133789729019741316E+03
    0.698190992782912967E+00    0.537125712308215597E+00    0.594794960166875362E+09   -0.133783567930581796E+03
    0.694742143397440226E+00    0.516252533250876056E+00    0.594447553531439781E+09   -0.133780496965285181E+03
    0.708385641657396592E+00    0.414567664289236859E+00    0.593174802461696744E+09   -0.133778850443117733E+03
    0.717278092871643236E+00    0.573109986164382690E+00    0.594439361242871523E+09   -0.133760982043196520E+03
    0.699382077182650108E+00    0.434523237559691466E+00    0.598258709150228977E+09   -0.133750359795808777E+03
    0.699382077182650108E+00    0.434523237559691466E+00    0.598258709150228977E+09   -0.133750359795808777E+03
    0.714737206371289902E+00    0.488317251194539281E+00    0.590071066736120224E+09   -0.133720889446057100E+03
    0.714737206371289902E+00    0.488317251194539281E+00    0.590071066736120224E+09   -0.133720889446057100E+03
    0.707737849679884401E+00    0.493080752148102874E+00    0.594773522973177314E+09   -0.133713333708906134E+03
    0.703592289048640018E+00    0.478707456948384902E+00    0.597679232077239871E+09   -0.133707066658423884E+03
    0.703592289048640018E+00    0.478707456948384902E+00    0.597679232077239871E+09   -0.133707066658423884E+03
    0.703639873916613312E+00    0.473648352504319803E+00    0.591709925121012449E+09   -0.133700203191798977E+03
    0.662596439215358046E+00    0.464969328070662158E+00    0.615486992752979517E+09   -0.133692523324051251E+03
    0.664358913821531893E+00    0.525559348635905366E+00    0.611388483856907129E+09   -0.133685093574670560E+03
    0.706104913137582946E+00    0.527049610897925902E+00    0.591348487129464388E+09   -0.133681812483277980E+03
    0.665440446303135369E+00    0.502226473259298700E+00    0.609756397518456697E+09   -0.133676512653803655E+03
    0.703584876533670966E+00    0.510962386725207551E+00    0.596480348062700152E+09   -0.133674273702095689E+03
    0.703584876533670966E+00    0.510962386725207551E+00    0.596480348062700152E+09   -0.133674273702095689E+03
    0.619901154347997974E+00    0.481760051619300356E+00    0.626290255427849650E+09   -0.133656515909309348E+03
    0.619901154347997974E+00    0.481760051619300356E+00    0.626290255427849650E+09   -0.133656515909309348E+03
    0.712900325998792606E+00    0.426375159176117791E+00    0.591987046769716978E+09   -0.133651806350080506E+03
    0.698499274156438199E+00    0.502441365452119371E+00    0.593871199108601093E+09   -0.133650470225005279E+03
    0.659627864649235174E+00    0.410558102485463650E+00    0.614617963229700804E+09   -0.133646285996409205E+03
    0.686571972022371191E+00    0.466592893349016435E+00    0.601397565499801636E+09   -0.133631174780867809E+03
    0.656384058327475928E+00    0.479845383192248676E+00    0.616508939944434404E+09   -0.133613969573067124E+03
    0.641642785785589864E+00    0.521324062046275571E+00    0.617947228552327633E+09   -0.133599147703298911E+03
    0.641642785785589864E+00    0.521324062046275571E+00    0.617947228552327633E+09   -0.133599147703298911E+03
    0.661877008978920101E+00    0.513333120730694148E+00    0.613094687567218542E+09   -0.133594663238606216E+03
    0.661877008978920101E+00    0.513333120730694148E+00    0.613094687567218542E+09   -0.133594663238606216E+03
    0.691362333005408947E+00    0.429240566165290716E+00    0.595202814299161911E+09   -0.133580106421460897E+03
    0.691362333005408947E+00    0.429240566165290716E+00    0.595202814299161911E+09   -0.133580106421460897E+03
    0.683625235848289714E+00    0.563716499121181158E+00    0.605550865961670756E+09   -0.133566503682996427E+03
    0.677037814066447252E+00    0.431841981449071710E+00    0.602086441813855886E+09   -0.133553589389135198E+03
    0.670754578220981057E+00    0.470669626617425507E+00    0.611375196677893639E+09   -0.133538935077209857E+03
    0.687933184202838555E+00    0.478372535018902312E+00    0.599419729840230465E+09   -0.133536229438884305E+03
    0.711187941109364230E+00    0.486784411271251827E+00    0.595972171720336676E+09   -0.133535108649926656E+03
    0.667435780175125837E+00    0.491988145449969494E+00    0.609196136635862827E+09   -0.133534225021249995E+03
    0.680055224269579095E+00    0.410424681829464788E+00    0.604334828550437093E+09   -0.133522982277587317E+03
    0.665771307772374699E+00    0.539849551325936261E+00    0.608027149677045345E+09   -0.133515339187819194E+03
    0.663302126284043725E+00    0.436944622506207025E+00    0.607234455194351077E+09   -0.133497064539180371E+03
    0.681704560842223528E+00    0.533747754482883252E+00    0.606054784821762800E+09   -0.133493645055433262E+03
    0.681704560842223528E+00    0.533747754482883252E+00    0.606054784821762800E+09   -0.133493645055433262E+03
    0.680405716975134744E+00    0.506698017960315994E+00    0.602995147591135621E+09   -0.133489165674445104E+03
    0.680405716975134744E+00    0.506698017960315994E+00    0.602995147591135621E+09   -0.133489165674445104E+03
    0.684393029968541899E+00    0.461863422097421150E+00    0.601654509630748987E+09   -0.133483280162951303E+03
    0.684393029968541899E+00    0.461863422097421150E+00    0.601654509630748987E+09   -0.133483280162951303E+03
    0.661000210327053028E+00    0.378293641255433855E+00    0.614169067770159245E+09   -0.133477796849443024E+03
    0.642416352907991817E+00    0.442890226424960787E+00    0.624405381571681619E+09   -0.133473685615609384E+03
    0.642416352907991817E+00    0.442890226424960787E+00    0.624405381571681619E+09   -0.133473685615609384E+03
    0.673764491411049882E+00    0.473393648932775690E+00    0.607042506269551992E+09   -0.133463214199178083E+03
    0.664149182899307022E+00    0.552095660244049213E+00    0.612122850618659735E+09   -0.133460068244908598E+03
    0.658835601176754437E+00    0.414329819998073390E+00    0.617096319110314369E+09   -0.133451981606814087E+03
    0.658835601176754437E+00    0.414329819998073390E+00    0.617096319110314369E+09   -0.133451981606814087E+03
    0.679734919182448216E+00    0.419619442937062104E+00    0.603090710755305529E+09   -0.133400118602955843E+03
    0.683384072442651536E+00    0.512710438561828852E+00    0.603348985062545061E+09   -0.133373186760197939E+03
    0.663406496749425756E+00    0.519854892876681518E+00    0.610790564930799961E+09   -0.133371170304860840E+03
    0.663406496749425756E+00    0.519854892876681518E+00    0.610790564930799961E+09   -0.133371170304860840E+03
    0.639427355176218848E+00    0.440778170451958218E+00    0.623517112109240055E+09   -0.133361034273022000E+03
    0.639427355176218848E+00    0.440778170451958218E+00    0.623517112109240055E+09   -0.133361034273022000E+03
    0.715087143522721402E+00    0.496080282302514775E+00    0.592628216656364202E+09   -0.133357461167032511E+03
    0.715087143522721402E+00    0.496080282302514775E+00    0.592628216656364202E+09   -0.133357461167032511E+03
    0.680055755897937209E+00    0.495956212046873901E+00    0.608095643727582932E+09   -0.133349708622739854E+03
    0.668161428533285862E+00    0.506621111261694068E+00    0.609218805370240808E+09   -0.133346573858804902E+03
    0.668161428533285862E+00    0.506621111261694068E+00    0.609218805370240808E+09   -0.133346573858804902E+03
    0.672698974889360812E+00    0.522826226550952455E+00    0.602749588062204123E+09   -0.133332504416597885E+03
    0.672698974889360812E+00    0.522826226550952455E+00    0.602749588062204123E+09   -0.133332504416597885E+03
    0.684017720623399716E+00    0.494585036134500555E+00    0.601584276018695116E+09   -0.133331008524226831E+03
    0.708498319276063104E+00    0.460535052953259694E+00    0.591906007357511997E+09   -0.133330037759562629E+03
    0.708498319276063104E+00    0.460535052953259694E+00    0.591906007357511997E+09   -0.133330037759562629E+03
    0.666498069955025252E+00    0.469744574913715240E+00    0.603816952259821892E+09   -0.133325306456353388E+03
    0.711327204114034717E+00    0.478649498576240617E+00    0.595555837889018059E+09   -0.133313421551149446E+03
    0.711327204114034717E+00    0.478649498576240617E+00    0.595555837889018059E+09   -0.133313421551149446E+03
    0.687961105929602024E+00    0.491449503866254744E+00    0.597431361058783412E+09   -0.133301965806411914E+03
    0.687961105929602024E+00    0.491449503866254744E+00    0.597431361058783412E+09   -0.133301965806411914E+03
    0.710973815655996932E+00    0.509584779354867123E+00    0.594508721031156659E+09   -0.133299174085993940E+03
    0.710973815655996932E+00    0.509584779354867123E+00    0.594508721031156659E+09   -0.133299174085993940E+03
    0.652014160344800975E+00    0.444819267051133949E+00    0.610507667836029410E+09   -0.133298169986285188E+03
    0.683750137439606775E+00    0.536736080134021520E+00    0.604588447814277649E+09   -0.133294258804665731E+03
    0.672523098940736364E+00    0.476319803171636025E+00    0.603166131932730198E+09   -0.133291335038984300E+03
    0.636782309153962944E+00    0.444214551290153636E+00    0.624563069414627075E+09   -0.133273376867850573E+03
    0.636782309153962944E+00    0.444214551290153636E+00    0.624563069414627075E+09   -0.133273376867850573E+03
    0.664735475686880073E+00    0.379796319825363327E+00    0.611134991934679985E+09   -0.133267204843395120E+03
    0.660566118141682979E+00    0.394550492573104705E+00    0.616401764802784443E+09   -0.133260698241095952E+03
    0.660566118141682979E+00    0.394550492573104705E+00    0.616401764802784443E+09   -0.133260698241095952E+03
    0.661210194388363259E+00    0.435795659329441420E+00    0.607764795119351387E+09   -0.133251730761388956E+03
    0.667911768604671385E+00    0.408713757107912912E+00    0.608560924881470084E+09   -0.133248202361181768E+03
    0.676999926702391730E+00    0.429971762228785082E+00    0.604278967323720932E+09   -0.133244043537171706E+03
    0.650263724955961853E+00    0.480836470203804822E+00    0.612443619636031866E+09   -0.133189026407249969E+03
    0.668593895014341189E+00    0.423066828662005179E+00    0.607844717507594466E+09   -0.133167440239696077E+03
    0.642501114459223310E+00    0.480987663002853338E+00    0.617770389123791814E+09   -0.133161792914451013E+03
    0.698120358786363582E+00    0.541850149696932348E+00    0.595457113779328823E+09   -0.133161651973854191E+03
    0.699719853008337722E+00    0.393767552919825903E+00    0.596245849244026899E+09   -0.133157818723202013E+03
    0.715217250728148568E+00    0.454706563969866195E+00    0.593056555225516558E+09   -0.133144930505190530E+03
    0.713834220687550092E+00    0.493813218094462769E+00    0.591487233765097141E+09   -0.133136681551911408E+03
    0.713834220687550092E+00    0.493813218094462769E+00    0.591487233765097141E+09   -0.133136681551911408E+03
    0.680613324436333711E+00    0.486829695515854866E+00    0.601762790196516871E+09   -0.133133393350764749E+03
    0.680613324436333711E+00    0.486829695515854866E+00    0.601762790196516871E+09   -0.133133393350764749E+03
    0.659563609190851330E+00    0.430907025852146575E+00    0.613237358166337013E+09   -0.133126763408461670E+03
    0.659563609190851330E+00    0.430907025852146575E+00    0.613237358166337013E+09   -0.133126763408461670E+03
    0.658425856594249348E+00    0.486422345515551413E+00    0.612369030955568790E+09   -0.133121230633913342E+03
    0.686044697726846731E+00    0.561616374439079635E+00    0.604490990420953512E+09   -0.133106226556370046E+03
    0.652302817344534991E+00    0.399722456849042729E+00    0.619391924031666636E+09   -0.133099483762405100E+03
    0.652302817344534991E+00    0.399722456849042729E+00    0.619391924031666636E+09   -0.133099483762405100E+03
    0.668362795320072478E+00    0.389093686750726420E+00    0.607919511773258448E+09   -0.133061382095735610E+03
    0.668362795320072478E+00    0.389093686750726420E+00    0.607919511773258448E+09   -0.133061382095735610E+03
    0.651736528687785310E+00    0.426117033539330947E+00    0.610314695098290205E+09   -0.133045344166694946E+03
    0.651736528687785310E+00    0.426117033539330947E+00    0.610314695098290205E+09   -0.133045344166694946E+03
    0.676131058600330626E+00    0.514590784145561031E+00    0.607228791139348030E+09   -0.133039539272768991E+03
    0.626374778919498776E+00    0.449033248736620649E+00    0.625538138717979670E+09   -0.133035647370715708E+03
    0.626374778919498776E+00    0.449033248736620649E+00    0.625538138717979670E+09   -0.133035647370715708E+03
    0.674730084926298823E+00    0.457098901762433840E+00    0.609510690763897419E+09   -0.133022220005708618E+03
    0.674730084926298823E+00    0.457098901762433840E+00    0.609510690763897419E+09   -0.133022220005708618E+03
    0.664220905519073979E+00    0.519153480536163059E+00    0.610013068749450445E+09   -0.133021669450770048E+03
    0.664220905519073979E+00    0.519153480536163059E+00    0.610013068749450445E+09   -0.133021669450770048E+03
    0.710351003425345962E+00    0.474268013794583609E+00    0.595098375879256010E+09   -0.133004230246069739E+03
    0.710351003425345962E+00    0.474268013794583609E+00    0.595098375879256010E+09   -0.133004230246069739E+03
    0.684775897544065537E+00    0.456366451233936488E+00    0.603741912527291775E+09   -0.132993088030994528E+03
    0.684775897544065537E+00    0.456366451233936488E+00    0.603741912527291775E+09   -0.132993088030994528E+03
    0.701969407511505827E+00    0.545341638417117025E+00    0.597005465566798687E+09   -0.132983675152453827E+03
    0.670001724325330561E+00    0.499565565355553076E+00    0.605543386098057985E+09   -0.132983258777874880E+03
    0.662950724618809439E+00    0.515714299323239089E+00    0.611204136615745783E+09   -0.132978557201585943E+03
    0.681047953218374635E+00    0.510997794321909282E+00    0.606374122231277943E+09   -0.132971266432921198E+03
    0.697004280399313947E+00    0.390055758103063255E+00    0.599168778638507485E+09   -0.132962481963353099E+03
    0.662636341755843183E+00    0.462979820017775268E+00    0.615271199604676127E+09   -0.132950975895327417E+03
    0.666905780649830526E+00    0.537274750897227094E+00    0.611499054613598585E+09   -0.132931397370289801E+03
    0.639608618980562538E+00    0.428224097286737049E+00    0.623336501474249363E+09   -0.132927771892058985E+03
    0.697140820271661799E+00    0.403590692866885092E+00    0.599094620566182375E+09   -0.132924797405490807E+03
    0.697140820271661799E+00    0.403590692866885092E+00    0.599094620566182375E+09   -0.132924797405490807E+03
    0.652572278856674903E+00    0.433721807519258817E+00    0.613473354434912801E+09   -0.132919062635876003E+03
    0.656248154483085711E+00    0.471493114847923778E+00    0.615140191888633490E+09   -0.132917873635118184E+03
    0.656248154483085711E+00    0.471493114847923778E+00    0.615140191888633490E+09   -0.132917873635118184E+03
    0.651469616026774778E+00    0.448475798032013984E+00    0.618403236186236858E+09   -0.132915301886215843E+03
    0.676130805624145292E+00    0.406538937366276443E+00    0.603623959938562870E+09   -0.132900982763462764E+03
    0.655779377988017664E+00    0.360708715587239936E+00    0.613730190497414231E+09   -0.132898004921736003E+03
    0.667801315687378549E+00    0.499010038702893510E+00    0.611633535794115305E+09   -0.132893494699370081E+03
    0.695721007629010457E+00    0.480980971216688147E+00    0.596452705546236634E+09   -0.132887388640292443E+03
    0.666401605392729746E+00    0.423206625412518633E+00    0.611197020361606956E+09   -0.132880694137665785E+03
    0.666401605392729746E+00    0.423206625412518633E+00    0.611197020361606956E+09   -0.132880694137665785E+03
    0.667460169593174224E+00    0.465163660138294688E+00    0.610643698057666540E+09   -0.132877064406967492E+03
    0.677522959986370799E+00    0.525323093426194987E+00    0.606554643807559013E+09   -0.132860895473422687E+03
    0.679463651953104208E+00    0.472091912779120548E+00    0.601404877526909828E+09   -0.132851647883010287E+03
    0.696731081246524830E+00    0.490926310256012854E+00    0.597583882849043369E+09   -0.132841095016640821E+03
    0.710793222578798067E+00    0.445634358718812962E+00    0.590470843120072484E+09   -0.132826911044829188E+03
    0.643236153578678471E+00    0.439744613616323221E+00    0.618933777095223784E+09   -0.132825434399878361E+03
    0.680859424369028909E+00    0.428928881012073049E+00    0.600446807035692692E+09   -0.132822253829907282E+03
    0.702234541369690879E+00    0.395395575395820487E+00    0.595957035988029838E+09   -0.132802234030751265E+03
    0.681658530515405925E+00    0.498942603964504627E+00    0.602912743798144937E+09   -0.132794726463426002E+03
    0.671612477771437621E+00    0.393306351503317941E+00    0.607379027122928739E+09   -0.132782059501154208E+03
    0.671612477771437621E+00    0.393306351503317941E+00    0.607379027122928739E+09   -0.132782059501154208E+03
    0.662380331161574465E+00    0.487001873882075387E+00    0.611515792321476817E+09   -0.132775874907440027E+03
    0.634634555993984550E+00    0.412199231779871056E+00    0.622595421368911862E+09   -0.132775502739588433E+03
    0.650989692260144692E+00    0.298781382417672603E+00    0.612884405756324768E+09   -0.132761933155561508E+03
    0.650989692260144692E+00    0.298781382417672603E+00    0.612884405756324768E+09   -0.132761933155561508E+03
    0.677281294153735502E+00    0.361773124990287798E+00    0.606763140941046953E+09   -0.132736809868182604E+03
    0.677281294153735502E+00    0.361773124990287798E+00    0.606763140941046953E+09   -0.132736809868182604E+03
    0.674625358572108258E+00    0.382183479644522706E+00    0.607148296682531476E+09   -0.132726188068661713E+03
    0.674625358572108258E+00    0.382183479644522706E+00    0.607148296682531476E+09   -0.132726188068661713E+03
    0.678669277888633737E+00    0.492487274250200002E+00    0.604802635398722410E+09   -0.132711126604714650E+03
    0.678669277888633737E+00    0.492487274250200002E+00    0.604802635398722410E+09   -0.132711126604714650E+03
    0.688011928663024186E+00    0.451010385072741826E+00    0.600272014565281153E+09   -0.132699941176954212E+03
    0.688011928663024186E+00    0.451010385072741826E+00    0.600272014565281153E+09   -0.132699941176954212E+03
    0.668564047352292468E+00    0.541427625785363631E+00    0.609730352407044530E+09   -0.132691472323200912E+03
    0.657141138415777815E+00    0.475679160077653762E+00    0.615405342265527487E+09   -0.132690353367229079E+03
    0.674551923075815019E+00    0.485714627480389183E+00    0.608552933189108849E+09   -0.132681039369486427E+03
    0.661277362483078224E+00    0.488768737834814004E+00    0.609771586594232798E+09   -0.132678532097805061E+03
    0.675531444671537362E+00    0.443037223933126612E+00    0.606174740116988897E+09   -0.132678019287675085E+03
    0.696226092489452553E+00    0.473074227889965115E+00    0.597582223879275918E+09   -0.132673917496734475E+03
    0.679390967156939696E+00    0.443325617259990423E+00    0.605018363585400224E+09   -0.132673656460819501E+03
    0.679390967156939696E+00    0.443325617259990423E+00    0.605018363585400224E+09   -0.132673656460819501E+03
    0.694354073867737287E+00    0.423382472246432329E+00    0.600158719861248732E+09   -0.132669636918203594E+03
    0.694354073867737287E+00    0.423382472246432329E+00    0.600158719861248732E+09   -0.132669636918203594E+03
    0.697457894519331489E+00    0.484944557579238378E+00    0.597888988730179667E+09   -0.132652772832226503E+03
    0.670158523817992235E+00    0.392453407855237302E+00    0.607040407260091662E+09   -0.132631705805180246E+03
    0.704468421026204328E+00    0.457936855480436833E+00    0.594651741614798546E+09   -0.132623710271289696E+03
    0.664573448198591210E+00    0.461101831148356567E+00    0.613951985037021160E+09   -0.132621428634989087E+03
    0.664573448198591210E+00    0.461101831148356567E+00    0.613951985037021160E+09   -0.132621428634989087E+03
    0.673041840487702325E+00    0.412080820607236831E+00    0.603264569688686728E+09   -0.132611516689201466E+03
    0.682604371523328313E+00    0.476822968262807123E+00    0.604991574728601933E+09   -0.132607132176012044E+03
    0.661727019850254505E+00    0.465615284753550185E+00    0.610820343140303731E+09   -0.132607086770704086E+03
    0.668044394813058884E+00    0.450392063608752835E+00    0.610147476660164356E+09   -0.132589173527282696E+03
    0.656464302942488587E+00    0.441946884011914065E+00    0.617973702059208155E+09   -0.132585489816234031E+03
    0.648142732577311143E+00    0.422144651952752525E+00    0.614098130676857710E+09   -0.132578302184476428E+03
    0.648142732577311143E+00    0.422144651952752525E+00    0.614098130676857710E+09   -0.132578302184476428E+03
    0.671552930041792617E+00    0.463507646767386206E+00    0.607662207464978456E+09   -0.132572609014407959E+03
    0.681819231661644820E+00    0.427094993015133539E+00    0.604508001648180485E+09   -0.132549558913996862E+03
    0.654872571696450967E+00    0.439577388006551217E+00    0.609322611093147755E+09   -0.132527849406356466E+03
    0.654872571696450967E+00    0.439577388006551217E+00    0.609322611093147755E+09   -0.132527849406356466E+03
    0.667814212020476861E+00    0.460558639655204161E+00    0.607191943732458115E+09   -0.132523084508027523E+03
    0.667814212020476861E+00    0.460558639655204161E+00    0.607191943732458115E+09   -0.132523084508027523E+03
    0.650495140423269724E+00    0.413950202221844421E+00    0.614409992490016222E+09   -0.132522831370355220E+03
    0.669751332873576466E+00    0.431328481594391633E+00    0.608252395297906041E+09   -0.132518637580131951E+03
    0.655141966041079105E+00    0.481954829563777665E+00    0.611597956156047940E+09   -0.132518616371921439E+03
    0.673292302165830692E+00    0.415992820094388094E+00    0.603696541166575909E+09   -0.132506214084800803E+03
    0.673292302165830692E+00    0.415992820094388094E+00    0.603696541166575909E+09   -0.132506214084800803E+03
    0.673338346329234394E+00    0.496708313750129804E+00    0.607067880617866755E+09   -0.132488956664441332E+03
    0.675717587558085309E+00    0.467411020576175673E+00    0.608556824327358484E+09   -0.132485041951357346E+03
    0.670484922897760405E+00    0.371172376538851267E+00    0.605846396629205108E+09   -0.132480458810110349E+03
    0.670484922897760405E+00    0.371172376538851267E+00    0.605846396629205108E+09   -0.132480458810110349E+03
    0.673335150670691385E+00    0.488935389324762326E+00    0.609956710928898096E+09   -0.132472357985895144E+03
    0.674593149084617649E+00    0.371964083853892902E+00    0.607372949859814048E+09   -0.132466260490439879E+03
    0.668835632522787882E+00    0.473582612149836990E+00    0.608637497126476049E+09   -0.132462504112885199E+03
    0.677914778645359317E+00    0.404159258026066226E+00    0.602286467499501944E+09   -0.132461929806528190E+03
    0.692477515341504812E+00    0.469083066259850412E+00    0.596770637040086269E+09   -0.132457810659270194E+03
    0.687761795380460672E+00    0.478065411022523534E+00    0.604443488704050064E+09   -0.132452650331313322E+03
    0.687761795380460672E+00    0.478065411022523534E+00    0.604443488704050064E+09   -0.132452650331313322E+03
    0.688299751383246061E+00    0.478756416091352222E+00    0.604683810560535789E+09   -0.132448310943104502E+03
    0.676635827765064812E+00    0.460569319124450871E+00    0.608952897631802559E+09   -0.132443202711574571E+03
    0.659398508505674164E+00    0.400427333071093017E+00    0.614839127395880222E+09   -0.132438481991709722E+03
    0.694493458591360802E+00    0.373291723350009264E+00    0.597288091702223301E+09   -0.132407170627321591E+03
    0.654677252188317738E+00    0.403588417621502771E+00    0.613895263462977529E+09   -0.132401341492371046E+03
    0.662242702626844926E+00    0.506500182000985788E+00    0.611665142706426024E+09   -0.132400818054104917E+03
    0.673933346189525384E+00    0.495338745320395901E+00    0.609124394682650089E+09   -0.132400302310299224E+03
    0.675093133540245915E+00    0.486594974978267203E+00    0.607552089142837524E+09   -0.132391507968607954E+03
    0.685033635242016992E+00    0.504475613505201537E+00    0.601823088586060524E+09   -0.132384122229197430E+03
    0.697777944483039980E+00    0.430478816677506870E+00    0.599016663791595936E+09   -0.132383720737410158E+03
    0.655167769478532835E+00    0.464202944077253932E+00    0.613146778734962225E+09   -0.132371025957536858E+03
    0.655747029210655197E+00    0.440984360359886196E+00    0.615052002992936254E+09   -0.132367197794282674E+03
    0.674429826552545242E+00    0.467999868901554095E+00    0.606472847965002179E+09   -0.132361949483422734E+03
    0.665670105288294955E+00    0.487597835998069939E+00    0.612004553570254326E+09   -0.132359452418303079E+03
    0.654750986638446886E+00    0.499464315417469606E+00    0.616331549010934949E+09   -0.132358693894141084E+03
    0.654295538924228093E+00    0.276795245536742840E+00    0.609473075619843721E+09   -0.132350464221709473E+03
    0.670394355530453345E+00    0.442518387535210778E+00    0.607948132285268664E+09   -0.132345505368498465E+03
    0.674904686437877599E+00    0.467238259967144742E+00    0.605809558362620592E+09   -0.132340679208261747E+03
    0.668419089986116655E+00    0.373934459062112978E+00    0.609344956642868996E+09   -0.132335751725264998E+03
    0.630252035860895621E+00    0.452199361977772440E+00    0.626032281615917325E+09   -0.132332648860086522E+03
    0.630252035860895621E+00    0.452199361977772440E+00    0.626032281615917325E+09   -0.132332648860086522E+03
    0.677640239225733021E+00    0.490647056974921725E+00    0.607262555915489554E+09   -0.132326777014166169E+03
    0.690991314095175224E+00    0.375250565933459512E+00    0.598885762871982932E+09   -0.132325996525140113E+03
    0.653146868745511977E+00    0.480182790612825983E+00    0.613644474721593618E+09   -0.132309414222881912E+03
    0.653146868745511977E+00    0.480182790612825983E+00    0.613644474721593618E+09   -0.132309414222881912E+03
    0.682948507019165763E+00    0.434374204921999407E+00    0.599845929935568333E+09   -0.132300081756999191E+03
    0.676453894741882555E+00    0.436869440448809598E+00    0.605778500274087191E+09   -0.132288658666922032E+03
    0.681460855058572235E+00    0.451961265157319048E+00    0.604304055740234137E+09   -0.132286799828473988E+03
    0.665363627041125838E+00    0.411758198143330034E+00    0.611903779321510196E+09   -0.132283196836887413E+03
    0.667792869891321694E+00    0.434943524253997182E+00    0.606707271656429648E+09   -0.132278973455602085E+03
    0.664015598153496756E+00    0.482285788103817836E+00    0.610727468769346237E+09   -0.132277641997374928E+03
    0.669361903816652060E+00    0.423728777951879465E+00    0.602998220191220999E+09   -0.132274777615442503E+03
    0.655773304371849552E+00    0.439091937880411010E+00    0.613500981699454904E+09   -0.132262115636939257E+03
    0.673904251596306847E+00    0.454811140294410166E+00    0.606523002794748902E+09   -0.132255435422297580E+03
    0.653911076957802262E+00    0.466064297810728334E+00    0.613690940325630188E+09   -0.132250386913598703E+03
    0.655908992252000833E+00    0.470613713409107959E+00    0.612614106475188255E+09   -0.132224066725798224E+03
    0.675933793283347906E+00    0.501133853857423262E+00    0.603993875163826942E+09   -0.132222958103969574E+03
    0.654836732547990574E+00    0.406975779138864624E+00    0.612289427845945001E+09   -0.132216377755528924E+03
    0.654836732547990574E+00    0.406975779138864624E+00    0.612289427845945001E+09   -0.132216377755528924E+03
    0.650321003099225137E+00    0.406426331945993979E+00    0.617496848005233407E+09   -0.132210400927176238E+03
    0.652558207331290441E+00    0.472993701380943321E+00    0.613493154092899561E+09   -0.132210292552748371E+03
    0.666796030912587767E+00    0.386533574868565211E+00    0.607124971124713421E+09   -0.132209279562379066E+03
    0.677443841246357592E+00    0.483154471872639490E+00    0.604717873388853312E+09   -0.132200955954226686E+03
    0.642509767534475307E+00    0.460469699188138293E+00    0.619319620154167175E+09   -0.132193884629149437E+03
    0.683311359212557257E+00    0.405057380670685419E+00    0.601244024406485558E+09   -0.132192845261595892E+03
    0.678979686301081520E+00    0.444037665571691775E+00    0.606937788309175014E+09   -0.132189483755552089E+03
    0.677811315597794506E+00    0.482578058018424016E+00    0.603951467518542290E+09   -0.132182231937238100E+03
    0.661902134924617580E+00    0.463679676100070992E+00    0.609839407492919803E+09   -0.132171104453490955E+03
    0.678454478179491893E+00    0.499545610321245448E+00    0.606565609828132153E+09   -0.132167250283986391E+03
    0.655650047318474982E+00    0.389177201579141041E+00    0.617302682625085711E+09   -0.132158453672805649E+03
    0.679647075468188588E+00    0.451050321595481307E+00    0.606563519419526339E+09   -0.132154009323682317E+03
    0.677990814301817513E+00    0.480210939498386224E+00    0.604605438607924938E+09   -0.132131985697633468E+03
    0.669648774947074976E+00    0.504945901400686736E+00    0.606450516048432946E+09   -0.132131705268268604E+03
    0.658423682083611461E+00    0.470849082173218747E+00    0.613337450104214907E+09   -0.132125860803952577E+03
    0.650847366180813625E+00    0.414296038983856363E+00    0.615208939637856483E+09   -0.132121770384789983E+03
    0.680620312688191564E+00    0.416971667552243019E+00    0.601015715351474643E+09   -0.132119171520766315E+03
    0.670122103580754414E+00    0.385449061940384752E+00    0.607903827916622162E+09   -0.132117294738565874E+03
    0.685708673123680112E+00    0.440226849140760379E+00    0.601737168679064870E+09   -0.132115332892000993E+03
    0.651332496682815676E+00    0.468080247040610686E+00    0.615724177536342025E+09   -0.132114549624733513E+03
    0.669659192352901833E+00    0.436731235870686518E+00    0.609662680368996620E+09   -0.132112099040065061E+03
    0.669360687296287171E+00    0.453568310301227129E+00    0.607211788252194405E+09   -0.132111084108317982E+03
    0.677815360859286398E+00    0.490941878747241489E+00    0.603823740269743800E+09   -0.132108010510968938E+03
    0.654623022084771744E+00    0.440497479266975134E+00    0.613949158826756120E+09   -0.132107509688444082E+03
    0.676279891000149513E+00    0.478661759264459974E+00    0.605722986701734066E+09   -0.132107174130949687E+03
    0.671282162945057270E+00    0.362641472671182186E+00    0.605891330646162391E+09   -0.132096665758113176E+03
    0.683110350006035705E+00    0.414682231637449661E+00    0.599791258426904321E+09   -0.132090541428048994E+03
    0.660441758032071835E+00    0.441668579384845827E+00    0.610065370818714976E+09   -0.132083346934669635E+03
    0.656240139418470148E+00    0.469443635892385913E+00    0.615510746387715816E+09   -0.132077404423497171E+03
    0.681604731898794114E+00    0.443706324304267596E+00    0.606136004235646725E+09   -0.132049635805135750E+03
    0.673136393054787230E+00    0.443880568370227380E+00    0.604448757860607028E+09   -0.132046987698800137E+03
    0.663776459320035817E+00    0.452661784162522451E+00    0.609374768545760632E+09   -0.132038261011444774E+03
    0.677372901449971643E+00    0.408289998669925325E+00    0.601447996990619183E+09   -0.132031192560775651E+03
    0.686375726690942267E+00    0.385245663116053905E+00    0.600270932068110347E+09   -0.132028886040845634E+03
    0.673394535119146043E+00    0.490533925790435532E+00    0.604664720608274698E+09   -0.132016096539360689E+03
    0.652911120109503029E+00    0.448427969198323950E+00    0.614592222887164593E+09   -0.132015394342853426E+03
    0.668468531077131667E+00    0.483838193505818026E+00    0.607913530019667625E+09   -0.132015150872586730E+03
    0.662737944618769448E+00    0.474375187408844212E+00    0.612430726946175575E+09   -0.131998999635799862E+03
    0.657397806234458093E+00    0.456657207182198377E+00    0.612103208308805943E+09   -0.131998580932676930E+03
    0.663472765199500047E+00    0.408566594474287115E+00    0.611005684014635801E+09   -0.131997019828549242E+03
    0.664776293407387642E+00    0.415788554797874355E+00    0.609378809191614985E+09   -0.131994068572361300E+03
    0.659471963867579336E+00    0.396846154002577833E+00    0.613793785918535709E+09   -0.131987075267510249E+03
    0.654898429611422195E+00    0.353027976355015483E+00    0.615366539952155709E+09   -0.131985504004887730E+03
    0.674981349662970853E+00    0.485094843623842920E+00    0.604465908779871821E+09   -0.131985146621221588E+03
    0.650484171107344578E+00    0.394875185984325583E+00    0.619067759598244905E+09   -0.131980429237930309E+03
    0.683862263806674919E+00    0.453897233314963344E+00    0.604045351694681644E+09   -0.131975605600511983E+03
    0.684472189384046859E+00    0.434795581974867673E+00    0.599531004025614023E+09   -0.131975373866685004E+03
    0.664333995258083121E+00    0.399688866282563282E+00    0.608930179234285355E+09   -0.131965793805944600E+03
    0.665050897439161459E+00    0.375113411427578924E+00    0.608693175886719704E+09   -0.131964063023637522E+03
    0.683055426260576914E+00    0.454010296148521064E+00    0.602999948372427583E+09   -0.131959467659907205E+03
    0.652346218528656929E+00    0.406209428506887349E+00    0.614747037446523905E+09   -0.131953357357352843E+03
    0.687008243892308079E+00    0.451748735665365331E+00    0.599246155765928030E+09   -0.131946281270260044E+03
    0.679975709888739011E+00    0.426304827600587188E+00    0.603557173110431194E+09   -0.131942515640429264E+03
    0.682637744088408271E+00    0.422973721047677387E+00    0.602770542588317990E+09   -0.131603943789600919E+03
    0.680859546081335809E+00    0.427060153049204416E+00    0.604025149464986086E+09   -0.131878516054387461E+03
    0.675812970829863691E+00    0.434691490618225984E+00    0.605650642132738113E+09   -0.131642464024305212E+03
    0.673381730261636169E+00    0.455120604645715687E+00    0.606056472856006861E+09   -0.131551346580990355E+03
    0.670875021193117704E+00    0.447330043652577558E+00    0.606078135963665962E+09   -0.131600597145035636E+03
    0.670110021620537344E+00    0.450215720470524161E+00    0.606592568468230009E+09   -0.131700123201908980E+03
    0.667508219038184025E+00    0.446794143818369349E+00    0.607115008998618364E+09   -0.131607604496121184E+03
    0.669950446790949394E+00    0.438639359343726554E+00    0.607852489582280397E+09   -0.131576889478031205E+03
    0.669566620295549586E+00    0.451202467134624641E+00    0.605996703611845970E+09   -0.131806674059007833E+03
    0.667436379156627790E+00    0.422349586637039920E+00    0.609454251677914739E+09   -0.131834786426075823E+03
    0.667334281340028812E+00    0.421647661952142982E+00    0.610398927136175394E+09   -0.131423277054588652E+03
    0.667334281340028812E+00    0.421647661952142982E+00    0.610398927136175394E+09   -0.131423277054588652E+03
    0.666710433463814867E+00    0.416197854245542231E+00    0.611118360199996114E+09   -0.131859525668878604E+03
    0.663530116313357010E+00    0.413769554764304104E+00    0.610679117379135728E+09   -0.131211115588278631E+03
    0.665284679378479238E+00    0.425898719811890203E+00    0.610690706426941752E+09   -0.131464102175430867E+03
    0.662102491989242314E+00    0.415742555275691927E+00    0.609255411148119926E+09   -0.131533539580448547E+03
    0.664494245019234264E+00    0.419635563043986082E+00    0.609046533406335711E+09   -0.131846973221398315E+03
    0.655271742973823179E+00    0.419842845310871127E+00    0.614477671889366031E+09   -0.131945038048821687E+03
    0.657266511740196568E+00    0.413570707600225518E+00    0.613284320776635885E+09   -0.131944651878891136E+03
    0.655893017762947395E+00    0.412213983185381494E+00    0.615579571395348549E+09   -0.131484209564780343E+03
    0.658799230483856357E+00    0.420237022755872047E+00    0.613128649872906208E+09   -0.131612261712003090E+03
    0.660733138951772436E+00    0.418691106774836896E+00    0.611619289640349627E+09   -0.131888064610388028E+03
    0.653342103707983290E+00    0.413254688904514111E+00    0.613361113398106098E+09   -0.131558369943691275E+03
    0.655281289758214869E+00    0.406294580526019189E+00    0.613804392545036793E+09   -0.131239205417359244E+03
    0.661362261941763285E+00    0.406305412830604951E+00    0.613281714413840055E+09   -0.131772486370145202E+03
    0.657708341404831476E+00    0.405499316663991749E+00    0.613790325659225225E+09   -0.131830168028675644E+03
    0.662105208962636027E+00    0.420415965521069523E+00    0.611987969977631807E+09   -0.131784789776120476E+03
    0.660577805471559532E+00    0.422741788050643663E+00    0.611483012755681753E+09   -0.131812398828005144E+03
    0.656346238403858306E+00    0.416877643350607840E+00    0.614785356395325661E+09   -0.131487506572831478E+03
    0.674863232115540224E+00    0.438323802585205868E+00    0.606029656791458130E+09   -0.131909289225499663E+03
    0.667532938111545349E+00    0.443282079020857367E+00    0.609336534335375547E+09   -0.131641241204015529E+03
    0.656257311532467580E+00    0.400325596988910348E+00    0.615763429827350140E+09   -0.131904323700866144E+03
    0.652223507579940298E+00    0.395241672473250816E+00    0.616640753736171007E+09   -0.131736811980420470E+03
    0.657347453628247980E+00    0.415666167151405475E+00    0.611304522062597513E+09   -0.131699217845785597E+03
    0.654564811825533166E+00    0.409593402213818791E+00    0.616545797340190649E+09   -0.131631720052469234E+03
    0.654942669910839492E+00    0.394690416874661665E+00    0.616275500270053267E+09   -0.131750474129570307E+03
    0.660896728521848553E+00    0.405056573649147822E+00    0.612201856922514677E+09   -0.131838299254776359E+03
    0.673650328637455109E+00    0.458612471102739505E+00    0.605749238811793685E+09   -0.131640485712734346E+03
    0.670771294415874575E+00    0.462448852412718381E+00    0.605584542825233102E+09   -0.131611838267763972E+03
    0.672436780105682419E+00    0.476290757263024389E+00    0.605611462991236687E+09   -0.131578708548701798E+03
    0.664855107015589586E+00    0.432557146359723532E+00    0.609920980466123819E+09   -0.131543861379021166E+03
    0.660251306125731574E+00    0.428887938794639823E+00    0.608938427598998547E+09   -0.131798841653715471E+03
    0.661604251408876354E+00    0.430440354968679273E+00    0.611637297829544306E+09   -0.131685926485524192E+03
    0.663100551238252622E+00    0.429441624372092434E+00    0.611074798543708086E+09   -0.131469653843843503E+03
    0.661648153703150887E+00    0.424482626197971058E+00    0.609820889664417744E+09   -0.131512510758204598E+03
    0.661536663117983093E+00    0.440092537371622683E+00    0.608646061809097290E+09   -0.131639369298442944E+03
    0.660411276601466812E+00    0.430918635583136478E+00    0.609540047388391018E+09   -0.131657129448440458E+03
    0.657776959683882723E+00    0.446842857845330954E+00    0.612237851213538170E+09   -0.131907740314926514E+03
    0.654091375943102626E+00    0.443370243198216940E+00    0.612155816020744085E+09   -0.131849095773468889E+03
    0.662426077844500250E+00    0.453134026661203393E+00    0.611880123994813561E+09   -0.131509360377435883E+03
    0.663142495225956252E+00    0.455265558671218429E+00    0.611585116761830926E+09   -0.131883045239635891E+03
    0.657312427453312642E+00    0.446432621055400602E+00    0.613624359027828813E+09   -0.131881865862245036E+03
    0.655351043657236731E+00    0.480608149301943399E+00    0.613279895734226346E+09   -0.131739080157049642E+03
    0.655363065397780553E+00    0.469300503719127349E+00    0.612634746728777766E+09   -0.131910657229797692E+03
    0.655043804919057782E+00    0.474430709351194579E+00    0.611457572359294415E+09   -0.131550444212077082E+03
    0.655043804919057782E+00    0.474430709351194579E+00    0.611457572359294415E+09   -0.131550444212077082E+03
    0.651793839939539432E+00    0.478365288565150593E+00    0.614558062088580966E+09   -0.131821309180629299E+03
    0.655944183763543132E+00    0.456540100685099759E+00    0.613940351375690699E+09   -0.131590273691055359E+03
    0.652421044465219757E+00    0.453687890914288516E+00    0.614411131407831073E+09   -0.131659287383629646E+03
    0.652537301214324406E+00    0.444781167631770558E+00    0.615923191711624146E+09   -0.131929705839137569E+03
    0.653127196414363120E+00    0.458996257449559408E+00    0.613709833402519345E+09   -0.131477541852433774E+03
    0.653127196414363120E+00    0.458996257449559408E+00    0.613709833402519345E+09   -0.131477541852433774E+03
    0.653248446583538978E+00    0.462485688697668706E+00    0.614596063728975534E+09   -0.131683556292165974E+03
    0.671564573554221500E+00    0.367813055981402570E+00    0.609248964789039135E+09   -0.131268497053491018E+03
    0.667428631205840506E+00    0.382260214251415320E+00    0.608473300542715549E+09   -0.131330606237313248E+03
    0.665613902850784700E+00    0.373362062962872443E+00    0.608690098397770762E+09   -0.131620753537038269E+03
    0.666335830247451910E+00    0.382926698608098803E+00    0.610337484731576920E+09   -0.131423312752991535E+03
    0.665610300661842236E+00    0.387181245791888173E+00    0.608936016165916800E+09   -0.131501194591177523E+03
    0.672536740326084126E+00    0.366163447415168264E+00    0.609254576290767908E+09   -0.131934897808912581E+03
    0.666519612593547084E+00    0.388559661992013972E+00    0.611015839925014019E+09   -0.131768725244874958E+03
    0.672326515726722973E+00    0.374755788196949879E+00    0.610611485072333574E+09   -0.131433598610141843E+03
    0.666256706760370299E+00    0.406000559511882742E+00    0.607216963736343026E+09   -0.131152773069657883E+03
    0.668782921930646590E+00    0.410628457873320585E+00    0.608369547199447393E+09   -0.131717883779956679E+03
    0.666016623506639815E+00    0.399356422314834703E+00    0.610044905420178533E+09   -0.131633636852939901E+03
    0.667739613675071508E+00    0.399148224589414014E+00    0.606111705311111450E+09   -0.131695388641921909E+03
    0.672223591719637747E+00    0.403272537029625511E+00    0.603883731701399446E+09   -0.131801293389967270E+03
    0.679339581079893895E+00    0.398363461502187377E+00    0.601733986369315863E+09   -0.131661205246616134E+03
    0.688249150186657110E+00    0.380286539521172529E+00    0.600127306106749535E+09   -0.131593459657528655E+03
    0.651743205615168297E+00    0.353123360311357715E+00    0.613990819456030726E+09   -0.131178225803151406E+03
    0.651743205615168297E+00    0.353123360311357715E+00    0.613990819456030726E+09   -0.131178225803151406E+03
    0.654444895374475810E+00    0.360688407526101429E+00    0.616017057430067182E+09   -0.131731805240816186E+03
    0.651940066109196970E+00    0.368748850329602362E+00    0.616663771912649393E+09   -0.131764800127550785E+03
    0.650746971783069172E+00    0.364575201796334625E+00    0.615123388128590345E+09   -0.130936296325057924E+03
    0.650746971783069172E+00    0.364575201796334625E+00    0.615123388128590345E+09   -0.130936296325057924E+03
    0.658665185453150226E+00    0.395715206570113054E+00    0.614259142272933483E+09   -0.131398198632586684E+03
    0.658665185453150226E+00    0.395715206570113054E+00    0.614259142272933483E+09   -0.131398198632586684E+03
    0.658654621579999988E+00    0.389248020392917837E+00    0.612766813379311800E+09   -0.131350971902381502E+03
    0.657982655399523497E+00    0.397831877125852884E+00    0.614138972009850621E+09   -0.131322278353909553E+03
    0.657982655399523497E+00    0.397831877125852884E+00    0.614138972009850621E+09   -0.131322278353909553E+03
    0.650120403149307191E+00    0.397066404522124827E+00    0.617209993593993187E+09   -0.131682478511989359E+03
    0.650117031192118167E+00    0.404620601875354424E+00    0.616809731827254534E+09   -0.131733923964569641E+03
    0.649855998804879542E+00    0.405247895167642369E+00    0.616108011130176067E+09   -0.131620480573167242E+03
    0.654719020313228373E+00    0.395463672958726420E+00    0.614966183478049278E+09   -0.131948340932469705E+03
    0.649396825912578857E+00    0.408524516029689977E+00    0.616823300148893237E+09   -0.131425815530840566E+03
    0.656765704550774543E+00    0.387805687518046227E+00    0.614782795641513824E+09   -0.131607234769395689E+03
