    0.335782715240375840E+00    0.602309240504318666E+00    0.653810363734586239E+10   -0.113336649801341849E+03
    0.335927321859985140E+00    0.559030931897098071E+00    0.643974680227090645E+10   -0.113294602387820873E+03
    0.279121263679284581E+00    0.616832369563764971E+00    0.702078045487661934E+10   -0.112855227814191522E+03
    0.314264790906792824E+00    0.772561666782250356E+00    0.666774548703001690E+10   -0.112629111274101604E+03
    0.340218752297461791E+00    0.584588711398525973E+00    0.647197048523030853E+10   -0.112437388186679271E+03
    0.312809109803947993E+00    0.641772906412123589E+00    0.673334273029783249E+10   -0.112367281547391940E+03
    0.330836912961292806E+00    0.593835186898763467E+00    0.652865394743220615E+10   -0.112095854272643891E+03
    0.332966586502743522E+00    0.609972327003074355E+00    0.648334181090865421E+10   -0.111986470691339946E+03
    0.302548048462647878E+00    0.612469743932509303E+00    0.688271899454677582E+10   -0.111944717879718340E+03
    0.283729829612787920E+00    0.546232346321396278E+00    0.704190898751337147E+10   -0.111900564979163178E+03
    0.273660311027705772E+00    0.704641666202077133E+00    0.711507369466382790E+10   -0.111619043814539651E+03
    0.293450442115231636E+00    0.690762534457096677E+00    0.688309768945452118E+10   -0.111427468291807173E+03
    0.332593470989290152E+00    0.585307448966849719E+00    0.646868518518292046E+10   -0.111311839429571819E+03
    0.334233578508976115E+00    0.619537828044848027E+00    0.641125830934587002E+10   -0.111309486276319163E+03
    0.275618752319401472E+00    0.613222824074448170E+00    0.709129473428847218E+10   -0.111277515921404870E+03
    0.256008894052649483E+00    0.686890014733025467E+00    0.736583024796727085E+10   -0.111211020564902910E+03
    0.309223751646793610E+00    0.613245057357616474E+00    0.671022659630297756E+10   -0.111155964740311106E+03
    0.276737898007609950E+00    0.634210542436479230E+00    0.703932643683892727E+10   -0.111115138325877069E+03
    0.295335017417846735E+00    0.567522387168555298E+00    0.678346952134378147E+10   -0.111082344623944152E+03
    0.306641210687991050E+00    0.714556578357486316E+00    0.667295971061181164E+10   -0.111040851350705907E+03
    0.365568978686331203E+00    0.722942317716071869E+00    0.618205230751550484E+10   -0.110938319807424236E+03
    0.298961355447049937E+00    0.566105862168228668E+00    0.677305961467676258E+10   -0.110930417992135403E+03
    0.284505573541625811E+00    0.657433119578207936E+00    0.695384077845438385E+10   -0.110904038812743224E+03
    0.290602226237415329E+00    0.551171009128690770E+00    0.693963398021605396E+10   -0.110838822710309046E+03
    0.317093047543987816E+00    0.578386396388765434E+00    0.659649197013420582E+10   -0.110825823270287287E+03
    0.276317787247219171E+00    0.679009760361783066E+00    0.706946240953953648E+10   -0.110824435154972292E+03
    0.301150913375281992E+00    0.640813007411423996E+00    0.675649960507105732E+10   -0.110757191333131630E+03
    0.275912315110166173E+00    0.618775960990303631E+00    0.703121067117344856E+10   -0.110630810325877562E+03
    0.345280947105015057E+00    0.673074041675087997E+00    0.635031763819527721E+10   -0.110611024187920947E+03
    0.295633482155537641E+00    0.721426077294943013E+00    0.687270996205985928E+10   -0.110607133413737785E+03
    0.272221666381876726E+00    0.529425857115768395E+00    0.716462150662647820E+10   -0.110600739700379634E+03
    0.324711888218864209E+00    0.712072582621022576E+00    0.656419182165304375E+10   -0.110598633808197107E+03
    0.307942555584354904E+00    0.651526702316711948E+00    0.672318204007049656E+10   -0.110596807295355532E+03
    0.275924256275921653E+00    0.650040896086888864E+00    0.708124956243236923E+10   -0.110592332625279056E+03
    0.338561637890937461E+00    0.631590445558581237E+00    0.638509179687005138E+10   -0.110569033511350170E+03
    0.272989830048683602E+00    0.685217344763326963E+00    0.713504078688647938E+10   -0.110532510273464126E+03
    0.261430553649734498E+00    0.553439203863238305E+00    0.718610975495677567E+10   -0.110515238332295112E+03
    0.332641599252093134E+00    0.699875721225545533E+00    0.643341648274962425E+10   -0.110500246695654923E+03
    0.275947484929672360E+00    0.607429619399104226E+00    0.712290695346693802E+10   -0.110477027879689103E+03
    0.268041160190598260E+00    0.648529910731017623E+00    0.720586407931682491E+10   -0.110463368640693204E+03
    0.291439032491446814E+00    0.670611419146903032E+00    0.689843718052367306E+10   -0.110460046772545041E+03
    0.276651553513848847E+00    0.675933896171990511E+00    0.707422939686079979E+10   -0.110444926440824446E+03
    0.272331975387601510E+00    0.534972831601718823E+00    0.719013096439049911E+10   -0.110399011141608952E+03
    0.298103481734394049E+00    0.649422075721624026E+00    0.678372791709825420E+10   -0.110355522251343615E+03
    0.282356216011771188E+00    0.596744647653508764E+00    0.701756130954322433E+10   -0.110337529111750555E+03
    0.277597294825576824E+00    0.640806754197525308E+00    0.705457192226201344E+10   -0.110333909756842871E+03
    0.297279293258243371E+00    0.623255194074710417E+00    0.684960033731137753E+10   -0.110256737544696961E+03
    0.287743181122552150E+00    0.603443993970088854E+00    0.701119693188798904E+10   -0.110210176331504357E+03
    0.280530010075347669E+00    0.554707793617099654E+00    0.702233411930093288E+10   -0.110207209324988867E+03
    0.289000400262201196E+00    0.513101347231616600E+00    0.698221100327644348E+10   -0.110200736408627932E+03
    0.295261254866333811E+00    0.642291760899610154E+00    0.686695475358498096E+10   -0.110198623533168657E+03
    0.352063736056178134E+00    0.607498395599829877E+00    0.628493589460471916E+10   -0.110182819152956483E+03
    0.286897315002895337E+00    0.709646788990783151E+00    0.698430279626487923E+10   -0.110178934841621953E+03
    0.311762628947055087E+00    0.697492208857964258E+00    0.664273589920784760E+10   -0.110147624274171335E+03
    0.324636780319933649E+00    0.690595590066145348E+00    0.651271285956010818E+10   -0.110145640317750477E+03
    0.338841681949347995E+00    0.654303218906594708E+00    0.646335930779763317E+10   -0.110137677380806991E+03
    0.285681183199652466E+00    0.586025153915027630E+00    0.689555971348888016E+10   -0.110133578274742320E+03
    0.329953492512394919E+00    0.585308936296101479E+00    0.647006605512541485E+10   -0.110086616699906699E+03
    0.305290761947295208E+00    0.644142665584970686E+00    0.674238621986427116E+10   -0.110082190994415839E+03
    0.272448147124587647E+00    0.504463019715011285E+00    0.718224764647375202E+10   -0.110052155409719830E+03
    0.281155333806994367E+00    0.621362664891409011E+00    0.705587418219534588E+10   -0.110042751820250970E+03
    0.282927156626272935E+00    0.508941285548553779E+00    0.694910588574851799E+10   -0.109994703492291237E+03
    0.318251095860079436E+00    0.666198968580317796E+00    0.666326758089743423E+10   -0.109962666484161844E+03
    0.338054107112840341E+00    0.656276226521391948E+00    0.646490375473264313E+10   -0.109957554607328660E+03
    0.324756241192123651E+00    0.651529984058843326E+00    0.660665914065296650E+10   -0.109949862207904516E+03
    0.276185595870092282E+00    0.713158683488009260E+00    0.711822851959238052E+10   -0.109944379983128684E+03
    0.292430140282109563E+00    0.679168633449783954E+00    0.691196228998327065E+10   -0.109929318179163872E+03
    0.287830958349530985E+00    0.652833228325027548E+00    0.692661073694747066E+10   -0.109905073154523052E+03
    0.280945117404112821E+00    0.613017211116357430E+00    0.696206512969774437E+10   -0.109817355115306043E+03
    0.280945117404112821E+00    0.613017211116357430E+00    0.696206512969774437E+10   -0.109817355115306043E+03
    0.305861177819130803E+00    0.659100976840448993E+00    0.669488142766011238E+10   -0.109805465642061733E+03
    0.338371252799739730E+00    0.583617615025218583E+00    0.640068105208918858E+10   -0.109805189121394363E+03
    0.280948828267421458E+00    0.660945056504459671E+00    0.707969796389922142E+10   -0.109795523850319299E+03
    0.286202946600244368E+00    0.691879799144484053E+00    0.695613750505073833E+10   -0.109761276354753321E+03
    0.313620968960915514E+00    0.683483053712413025E+00    0.663899961551143456E+10   -0.109760660255078207E+03
    0.262160075392637471E+00    0.464147130099137328E+00    0.724372421700446224E+10   -0.109760499818593857E+03
    0.276419802988436825E+00    0.690143458043078084E+00    0.712418223190495586E+10   -0.109756910463524633E+03
    0.276045677574552062E+00    0.576003693158035901E+00    0.711573867393430710E+10   -0.109755118727031643E+03
    0.269144766359572574E+00    0.695483546990345758E+00    0.719940784206569767E+10   -0.109734585202000829E+03
    0.304516821629943202E+00    0.639823863284423311E+00    0.670457159133245087E+10   -0.109718172926963973E+03
    0.333365997262605906E+00    0.601331105328437587E+00    0.647668518327978897E+10   -0.109714286678171504E+03
    0.318558457518277327E+00    0.649572992194599408E+00    0.656107299344096756E+10   -0.109710760507942780E+03
    0.301200431714779726E+00    0.659367758601380416E+00    0.679330950087601089E+10   -0.109682092821846595E+03
    0.301200431714779726E+00    0.659367758601380416E+00    0.679330950087601089E+10   -0.109682092821846595E+03
    0.292672790333791955E+00    0.722210501147861450E+00    0.690338222485194874E+10   -0.109679647612513804E+03
    0.347385428198511093E+00    0.671530192594794073E+00    0.633363683001568127E+10   -0.109671380726494121E+03
    0.328573075777979062E+00    0.640283496094916416E+00    0.649541201654990959E+10   -0.109666131526772503E+03
    0.277192554412852177E+00    0.677201945202686062E+00    0.709918928835256481E+10   -0.109617608219933786E+03
    0.316966301086277047E+00    0.688950523171214968E+00    0.667376551322076225E+10   -0.109602798314467265E+03
    0.292130999198741081E+00    0.626812067405088769E+00    0.683273015912470055E+10   -0.109598036554266798E+03
    0.304188842969689233E+00    0.691986755539243603E+00    0.677277720812452793E+10   -0.109594581982701143E+03
    0.324811983087400780E+00    0.715810190041475281E+00    0.659991913462128448E+10   -0.109582125694200585E+03
    0.324811983087400780E+00    0.715810190041475281E+00    0.659991913462128448E+10   -0.109582125694200585E+03
    0.334439409258549925E+00    0.596430728757500361E+00    0.642767341228378677E+10   -0.109556847016153739E+03
    0.268028842710986592E+00    0.715534935955641771E+00    0.718972785082834148E+10   -0.109543908559547020E+03
    0.268028842710986592E+00    0.715534935955641771E+00    0.718972785082834148E+10   -0.109543908559547020E+03
    0.282400944546787103E+00    0.668441908531251627E+00    0.702932211688268280E+10   -0.109475231018170717E+03
    0.333766220254150370E+00    0.632891859980492910E+00    0.644907497926041126E+10   -0.109469100219348036E+03
    0.307023363869339316E+00    0.584562551505500849E+00    0.674034788183881187E+10   -0.109398486332712849E+03
    0.307023363869339316E+00    0.584562551505500849E+00    0.674034788183881187E+10   -0.109398486332712849E+03
    0.297818882751443248E+00    0.667530173870559906E+00    0.684685708792183304E+10   -0.109382143982903131E+03
    0.260345993741477988E+00    0.669793534286817760E+00    0.726568321891718102E+10   -0.109374447610140919E+03
    0.271126412173658959E+00    0.522376211661955026E+00    0.716635511966412449E+10   -0.109374201829942550E+03
    0.271126412173658959E+00    0.522376211661955026E+00    0.716635511966412449E+10   -0.109374201829942550E+03
    0.271739767623658979E+00    0.676187690019462551E+00    0.713163134032863903E+10   -0.109366516342540706E+03
    0.291933104751181338E+00    0.642073954607591091E+00    0.688548076333578110E+10   -0.109347110270475397E+03
    0.291933104751181338E+00    0.642073954607591091E+00    0.688548076333578110E+10   -0.109347110270475397E+03
    0.285091764517770518E+00    0.681872215180078456E+00    0.694855103230478001E+10   -0.109334624556842172E+03
    0.285091764517770518E+00    0.681872215180078456E+00    0.694855103230478001E+10   -0.109334624556842172E+03
    0.327275787141041274E+00    0.640829822127207294E+00    0.649325307014119339E+10   -0.109311101239918287E+03
    0.327275787141041274E+00    0.640829822127207294E+00    0.649325307014119339E+10   -0.109311101239918287E+03
    0.281132622616327654E+00    0.572926056703956021E+00    0.700791469283375740E+10   -0.109291177346580014E+03
    0.287706452710318028E+00    0.615276252199876694E+00    0.694163212014387894E+10   -0.109283456035173828E+03
    0.287706452710318028E+00    0.615276252199876694E+00    0.694163212014387894E+10   -0.109283456035173828E+03
    0.315844841653736774E+00    0.615420690459941966E+00    0.664366802052865791E+10   -0.109252008696895501E+03
    0.285418470183591566E+00    0.575990017369779395E+00    0.700702018765861511E+10   -0.109249231761859320E+03
    0.285418470183591566E+00    0.575990017369779395E+00    0.700702018765861511E+10   -0.109249231761859320E+03
    0.292318639653603551E+00    0.600826734569855248E+00    0.685632102851157856E+10   -0.109246419333327566E+03
    0.292318639653603551E+00    0.600826734569855248E+00    0.685632102851157856E+10   -0.109246419333327566E+03
    0.330174710892057965E+00    0.601706811834958444E+00    0.650612215368979454E+10   -0.109212030785703519E+03
    0.345450153122581372E+00    0.631977985421769972E+00    0.641211565455626583E+10   -0.109200930748295804E+03
    0.345450153122581372E+00    0.631977985421769972E+00    0.641211565455626583E+10   -0.109200930748295804E+03
    0.285458285177765003E+00    0.628649556676384336E+00    0.694873220268024921E+10   -0.109194224257991067E+03
    0.332602393176951672E+00    0.643423691386054486E+00    0.644901023879047394E+10   -0.109166135017297592E+03
    0.332602393176951672E+00    0.643423691386054486E+00    0.644901023879047394E+10   -0.109166135017297592E+03
    0.280367128124848597E+00    0.652533974865395550E+00    0.700300475670845413E+10   -0.109155572813017329E+03
    0.309085370635105272E+00    0.629161247572863402E+00    0.675216922133309078E+10   -0.109153008165149544E+03
    0.330549639759515124E+00    0.579698210512187728E+00    0.652368001241046524E+10   -0.109131652633680844E+03
    0.279073186446705979E+00    0.607569952247368761E+00    0.706086744000228214E+10   -0.109123157986859567E+03
    0.289635253282280569E+00    0.655542488482407038E+00    0.693046305772463417E+10   -0.109120270136954417E+03
    0.289635253282280569E+00    0.655542488482407038E+00    0.693046305772463417E+10   -0.109120270136954417E+03
    0.276340217222347417E+00    0.617846020281401564E+00    0.710192477029408455E+10   -0.109114768741064893E+03
    0.276340217222347417E+00    0.617846020281401564E+00    0.710192477029408455E+10   -0.109114768741064893E+03
    0.289832332180383678E+00    0.734547866578040498E+00    0.695014231785758114E+10   -0.109096823109730735E+03
    0.287849763856227459E+00    0.590469945500213811E+00    0.694697128537537479E+10   -0.109095727725082526E+03
    0.287849763856227459E+00    0.590469945500213811E+00    0.694697128537537479E+10   -0.109095727725082526E+03
    0.271342305533968264E+00    0.467495473021235952E+00    0.715733528768441677E+10   -0.109089082670910628E+03
    0.296556496866914154E+00    0.588722044589024662E+00    0.681310523974713516E+10   -0.109087594207381926E+03
    0.296556496866914154E+00    0.588722044589024662E+00    0.681310523974713516E+10   -0.109087594207381926E+03
    0.316200017003787082E+00    0.697183725791338915E+00    0.663849146300288010E+10   -0.109086499885401480E+03
    0.279847226055977505E+00    0.560468879069409454E+00    0.703524324286836624E+10   -0.109078151497767251E+03
    0.293976907290275036E+00    0.573140343464311641E+00    0.685203391778590012E+10   -0.109027289786995624E+03
    0.293976907290275036E+00    0.573140343464311641E+00    0.685203391778590012E+10   -0.109027289786995624E+03
    0.288724229499861929E+00    0.651017205372092178E+00    0.695623301577530861E+10   -0.109023206915799378E+03
    0.288724229499861929E+00    0.651017205372092178E+00    0.695623301577530861E+10   -0.109023206915799378E+03
    0.292584719520540992E+00    0.579901403385537861E+00    0.690869754696498203E+10   -0.109013546114031641E+03
    0.292584719520540992E+00    0.579901403385537861E+00    0.690869754696498203E+10   -0.109013546114031641E+03
    0.263307843720715473E+00    0.633494390621711645E+00    0.721601189907773590E+10   -0.109010442974800497E+03
    0.312078753676007625E+00    0.673456690635347854E+00    0.667978504151862526E+10   -0.108998532784809129E+03
    0.314533480842189517E+00    0.662186220823874905E+00    0.661342765159747696E+10   -0.108990706414350129E+03
    0.319641277871121843E+00    0.656250713503542471E+00    0.664309437265338135E+10   -0.108960985367615393E+03
    0.280461146373196302E+00    0.568231956637676561E+00    0.706125895833007050E+10   -0.108959618421456369E+03
    0.271838185089758044E+00    0.682468523935405358E+00    0.711311042699607277E+10   -0.108956141672926833E+03
    0.315173629562092938E+00    0.672405073797568420E+00    0.663112444879079342E+10   -0.108956058346529886E+03
    0.305309577825636946E+00    0.601695226864890742E+00    0.670580116308817482E+10   -0.108955094510289200E+03
    0.275833525463709928E+00    0.711955174322092432E+00    0.710108302420869923E+10   -0.108947352788524981E+03
    0.275833525463709928E+00    0.711955174322092432E+00    0.710108302420869923E+10   -0.108947352788524981E+03
    0.301346088793622180E+00    0.604389904598880534E+00    0.684569718536031723E+10   -0.108946762933952812E+03
    0.301902134844009740E+00    0.741728614385266383E+00    0.686605813669050026E+10   -0.108942018962596023E+03
    0.301902134844009740E+00    0.741728614385266383E+00    0.686605813669050026E+10   -0.108942018962596023E+03
    0.359285600584780374E+00    0.623202641572500937E+00    0.626848441048553085E+10   -0.108930306324060481E+03
    0.359285600584780374E+00    0.623202641572500937E+00    0.626848441048553085E+10   -0.108930306324060481E+03
    0.301579325720192248E+00    0.664799871156009914E+00    0.676964940511629963E+10   -0.108907757375411165E+03
    0.301579325720192248E+00    0.664799871156009914E+00    0.676964940511629963E+10   -0.108907757375411165E+03
    0.291727016296044361E+00    0.569634333255963909E+00    0.695598450506434155E+10   -0.108905417577841689E+03
    0.280737104679352090E+00    0.700082923088380937E+00    0.704509793899514961E+10   -0.108900576150190290E+03
    0.280737104679352090E+00    0.700082923088380937E+00    0.704509793899514961E+10   -0.108900576150190290E+03
    0.284797701392904778E+00    0.658891273008697098E+00    0.701251059754691124E+10   -0.108895681287384718E+03
    0.326791646316361983E+00    0.599120414217630071E+00    0.651922541709716797E+10   -0.108894476441861400E+03
    0.326791646316361983E+00    0.599120414217630071E+00    0.651922541709716797E+10   -0.108894476441861400E+03
    0.302071750305811182E+00    0.601257620708427254E+00    0.678514274577144337E+10   -0.108885457248381670E+03
    0.302071750305811182E+00    0.601257620708427254E+00    0.678514274577144337E+10   -0.108885457248381670E+03
    0.317473985163086891E+00    0.596182637468952947E+00    0.660824299077923489E+10   -0.108876473735114018E+03
    0.298782203666431045E+00    0.636805853845904934E+00    0.683367624873622608E+10   -0.108872047499221722E+03
    0.302483268132987260E+00    0.668353011612808245E+00    0.679672661637229252E+10   -0.108861361466904313E+03
    0.302483268132987260E+00    0.668353011612808245E+00    0.679672661637229252E+10   -0.108861361466904313E+03
    0.300057088142432871E+00    0.578856312772730419E+00    0.676330075504635048E+10   -0.108857444377465796E+03
    0.280861922489433924E+00    0.620004727858525229E+00    0.700068702941257954E+10   -0.108857369706162288E+03
    0.280861922489433924E+00    0.620004727858525229E+00    0.700068702941257954E+10   -0.108857369706162288E+03
    0.289182310430088130E+00    0.655451206460273994E+00    0.694826892587118626E+10   -0.108840461081016940E+03
    0.277282268747092941E+00    0.657297007227029439E+00    0.706550880168622494E+10   -0.108837486036966951E+03
    0.277282268747092941E+00    0.657297007227029439E+00    0.706550880168622494E+10   -0.108837486036966951E+03
    0.300222387348309527E+00    0.588151235524453142E+00    0.682010559076916981E+10   -0.108820702131865630E+03
    0.304190969676796097E+00    0.553405134073017280E+00    0.677288461430208302E+10   -0.108817386270997787E+03
    0.304190969676796097E+00    0.553405134073017280E+00    0.677288461430208302E+10   -0.108817386270997787E+03
    0.280741381735020834E+00    0.604080258638340695E+00    0.700514904101801109E+10   -0.108770307522012928E+03
    0.283827878210523799E+00    0.677379124878846994E+00    0.695714473095608521E+10   -0.108758711387486159E+03
    0.283827878210523799E+00    0.677379124878846994E+00    0.695714473095608521E+10   -0.108758711387486159E+03
    0.301060604423679101E+00    0.582821597593465413E+00    0.674813937121167374E+10   -0.108753380162994972E+03
    0.299956788165001265E+00    0.704609486566599941E+00    0.682758232505086422E+10   -0.108745235990060365E+03
    0.297470129658520044E+00    0.660336066373998776E+00    0.684585370109850788E+10   -0.108732464478236281E+03
    0.298684334389034190E+00    0.663510090498935057E+00    0.680426813154937744E+10   -0.108728680140777854E+03
    0.316898627782730091E+00    0.664439102714137420E+00    0.667573163868658733E+10   -0.108723144898472384E+03
    0.309363743717487871E+00    0.680113592033901426E+00    0.675409823166341877E+10   -0.108721534914234525E+03
    0.309363743717487871E+00    0.680113592033901426E+00    0.675409823166341877E+10   -0.108721534914234525E+03
    0.292729907988258875E+00    0.719485970400368657E+00    0.686816895008820915E+10   -0.108721022696907340E+03
    0.299126019680994282E+00    0.651874310984243976E+00    0.681674909647784901E+10   -0.108719419692969836E+03
    0.326630418771961473E+00    0.703803961195621497E+00    0.652055279407827282E+10   -0.108713356589014580E+03
    0.297494357710124835E+00    0.676854484581872029E+00    0.682989498040632439E+10   -0.108712421036668758E+03
    0.297494357710124835E+00    0.676854484581872029E+00    0.682989498040632439E+10   -0.108712421036668758E+03
    0.316561428110549437E+00    0.579741408331905461E+00    0.662625923006751537E+10   -0.108696049631129256E+03
    0.333911886486741027E+00    0.609584952916893741E+00    0.647669335122983837E+10   -0.108694342585522293E+03
    0.333911886486741027E+00    0.609584952916893741E+00    0.647669335122983837E+10   -0.108694342585522293E+03
    0.297921043701209975E+00    0.583115622990737492E+00    0.686296969436049843E+10   -0.108685429130053933E+03
    0.309438087760797731E+00    0.694003142090981129E+00    0.673757342028577328E+10   -0.108680116761468668E+03
    0.313691884283128830E+00    0.599732822455864678E+00    0.664002448328670216E+10   -0.108679389922660732E+03
    0.313691884283128830E+00    0.599732822455864678E+00    0.664002448328670216E+10   -0.108679389922660732E+03
    0.286751021641666826E+00    0.665251457004886859E+00    0.692580040107989311E+10   -0.108676924988474340E+03
    0.312098315616755995E+00    0.664074034800938406E+00    0.666053445460525703E+10   -0.108674370013526541E+03
    0.299769269932860349E+00    0.626352266476322583E+00    0.686810856750942230E+10   -0.108661715211379402E+03
    0.299769269932860349E+00    0.626352266476322583E+00    0.686810856750942230E+10   -0.108661715211379402E+03
    0.317783308501816297E+00    0.589771972708575731E+00    0.660767513188938427E+10   -0.108653288781098439E+03
    0.318976602721771196E+00    0.604963325628789406E+00    0.661970343779559422E+10   -0.108650341700297986E+03
    0.318976602721771196E+00    0.604963325628789406E+00    0.661970343779559422E+10   -0.108650341700297986E+03
    0.324478161903955675E+00    0.618046686558317404E+00    0.652805218949086857E+10   -0.108641470290589339E+03
    0.289072647111785708E+00    0.649772330519027719E+00    0.697545116182693100E+10   -0.108632281541949226E+03
    0.289072647111785708E+00    0.649772330519027719E+00    0.697545116182693100E+10   -0.108632281541949226E+03
    0.303727502006783334E+00    0.638763288000923524E+00    0.679551070341932297E+10   -0.108631330323507513E+03
    0.303727502006783334E+00    0.638763288000923524E+00    0.679551070341932297E+10   -0.108631330323507513E+03
    0.314524428068203299E+00    0.597330124150072805E+00    0.663348479621437740E+10   -0.108630008497352094E+03
    0.314524428068203299E+00    0.597330124150072805E+00    0.663348479621437740E+10   -0.108630008497352094E+03
    0.280870757104901392E+00    0.653499065397260992E+00    0.698230123668823624E+10   -0.108629963143294333E+03
    0.276917548578915373E+00    0.659192133530643432E+00    0.707764437538481617E+10   -0.108617178053200377E+03
    0.281923111103882851E+00    0.582664681606100743E+00    0.703635272171483135E+10   -0.108594748484618762E+03
    0.281923111103882851E+00    0.582664681606100743E+00    0.703635272171483135E+10   -0.108594748484618762E+03
    0.294455824205867023E+00    0.585510528749749071E+00    0.690200113784037113E+10   -0.108580848862287013E+03
    0.314031436543751818E+00    0.622160112820429489E+00    0.662427262718149757E+10   -0.108580304635469673E+03
    0.314031436543751818E+00    0.622160112820429489E+00    0.662427262718149757E+10   -0.108580304635469673E+03
    0.313824281978254793E+00    0.636742458776746290E+00    0.668358478075458813E+10   -0.108575148009314574E+03
    0.280374716903175170E+00    0.624192265266270141E+00    0.704453336748993301E+10   -0.108569999311363148E+03
    0.291710817590085270E+00    0.654414886332075341E+00    0.694527287212268066E+10   -0.108569405129091436E+03
    0.291710817590085270E+00    0.654414886332075341E+00    0.694527287212268066E+10   -0.108569405129091436E+03
    0.292663686579770044E+00    0.686093160217300380E+00    0.691011478947055531E+10   -0.108569196110410331E+03
    0.315799862976195334E+00    0.649108298726613242E+00    0.666536509348620319E+10   -0.108555986603893928E+03
    0.298293713981176822E+00    0.658412776494614604E+00    0.685068636788381004E+10   -0.108546427989713990E+03
    0.282913482040323905E+00    0.655042956627589490E+00    0.700439389184621620E+10   -0.108544763735099991E+03
    0.310460401428380772E+00    0.649807711949128119E+00    0.673770450030294323E+10   -0.108544277446007158E+03
    0.310460401428380772E+00    0.649807711949128119E+00    0.673770450030294323E+10   -0.108544277446007158E+03
    0.320671749528446959E+00    0.587547561007731645E+00    0.659305008450362301E+10   -0.108535786892269499E+03
    0.295799185597689918E+00    0.683366440595467139E+00    0.690100768163272285E+10   -0.108526012203851138E+03
    0.307318531269440309E+00    0.690134066888179021E+00    0.677153104053170109E+10   -0.108523096398149988E+03
    0.294608318655780355E+00    0.581243041381409142E+00    0.691132823815354538E+10   -0.108512635446906600E+03
    0.296768569844221453E+00    0.589996355470280065E+00    0.686409226690593719E+10   -0.108508847000136257E+03
    0.296768569844221453E+00    0.589996355470280065E+00    0.686409226690593719E+10   -0.108508847000136257E+03
    0.297977433002703185E+00    0.673951802795905053E+00    0.679983497797581196E+10   -0.108506382747465949E+03
    0.307744272025622989E+00    0.670084262602017589E+00    0.677164594052240181E+10   -0.108504972177441005E+03
    0.310647616187814557E+00    0.662887590315593300E+00    0.668369724505488110E+10   -0.108494746049887482E+03
    0.310647616187814557E+00    0.662887590315593300E+00    0.668369724505488110E+10   -0.108494746049887482E+03
    0.278679828854649703E+00    0.682494074009065699E+00    0.704273693098601246E+10   -0.108483448858952073E+03
    0.294255375598005242E+00    0.694005289649513912E+00    0.687042902433286095E+10   -0.108477810072875556E+03
    0.283205755971442596E+00    0.589342377526582695E+00    0.700678211475614548E+10   -0.108475858974390306E+03
    0.310007944172788596E+00    0.619577955772951938E+00    0.668194250466064644E+10   -0.108475321285503426E+03
    0.300713891908577502E+00    0.674443702313343607E+00    0.685620337316215420E+10   -0.108471964209348201E+03
    0.291776939526224743E+00    0.673971684347762334E+00    0.688389194332421303E+10   -0.108470367266952138E+03
    0.297679585562543203E+00    0.593721900502202971E+00    0.680470621749446297E+10   -0.108461934838281579E+03
    0.297679585562543203E+00    0.593721900502202971E+00    0.680470621749446297E+10   -0.108461934838281579E+03
    0.317425047435459462E+00    0.646435764162491822E+00    0.666298418130774498E+10   -0.108457285619962249E+03
    0.306308257866881095E+00    0.638347798365646923E+00    0.678991425945043659E+10   -0.108455376425115219E+03
    0.292497958894129662E+00    0.627054152399491471E+00    0.688676188408864880E+10   -0.108452628248671346E+03
    0.279785996656635116E+00    0.646042973529979747E+00    0.700675214142706966E+10   -0.108442135118788400E+03
    0.279785996656635116E+00    0.646042973529979747E+00    0.700675214142706966E+10   -0.108442135118788400E+03
    0.301089003422760182E+00    0.585368729480201466E+00    0.676313506819745922E+10   -0.108422298314302608E+03
    0.295104621489475971E+00    0.575924247133832168E+00    0.689031343909094906E+10   -0.108421434949845008E+03
    0.289266063387257299E+00    0.712255860811110253E+00    0.692568290922987270E+10   -0.108409054963702729E+03
    0.283583256446107768E+00    0.739155497779846016E+00    0.700831232079808426E+10   -0.108398555322976677E+03
    0.283939054379092892E+00    0.683838536287384002E+00    0.700712250183497906E+10   -0.108388851683114652E+03
    0.293292057317790789E+00    0.593253263256400487E+00    0.690493991801370430E+10   -0.108387201298382635E+03
    0.293292057317790789E+00    0.593253263256400487E+00    0.690493991801370430E+10   -0.108387201298382635E+03
    0.306996796138949091E+00    0.628788071817073302E+00    0.670534222615120602E+10   -0.108378627941883792E+03
    0.303290329460560670E+00    0.595062788580207780E+00    0.673936215121396160E+10   -0.108367764084673695E+03
    0.295763039209667455E+00    0.622724896174622344E+00    0.686871390553809357E+10   -0.108366479611252430E+03
    0.303344354800865301E+00    0.632856187721246854E+00    0.675290221513573551E+10   -0.108365588385706701E+03
    0.325843407490855108E+00    0.591245561399656339E+00    0.652359723589620304E+10   -0.108364701778915148E+03
    0.284576699413936651E+00    0.629570040858695279E+00    0.696202954902541924E+10   -0.108364675931411028E+03
    0.323896081336873698E+00    0.606032341716446155E+00    0.654333993534668255E+10   -0.108360242283253029E+03
    0.283728850742406391E+00    0.613723834310416549E+00    0.701529987334262371E+10   -0.108346648082935474E+03
    0.301679343336433536E+00    0.652374953148221692E+00    0.678611249032420635E+10   -0.108345047848286612E+03
    0.282231232588382619E+00    0.628624843631476082E+00    0.701685484376010036E+10   -0.108340768058388491E+03
    0.301207549652076412E+00    0.660705600889881950E+00    0.681442950387604713E+10   -0.108339633429198017E+03
    0.306155654558764534E+00    0.618843436931467039E+00    0.675805546351326466E+10   -0.108327408452423384E+03
    0.291509191212819430E+00    0.651350227172374119E+00    0.691295472362002277E+10   -0.108300867917584270E+03
    0.292927748692125844E+00    0.629249730625808468E+00    0.689326364686393547E+10   -0.108296180210765471E+03
    0.281758568581884472E+00    0.568370324506755509E+00    0.701291104810647678E+10   -0.108291234172071597E+03
    0.297421797477253724E+00    0.691033362349212865E+00    0.681043185324497128E+10   -0.108290767691997729E+03
    0.292677854555032202E+00    0.655015431840251239E+00    0.688377702592194176E+10   -0.108280980776576911E+03
    0.328829831541584627E+00    0.601417580388819317E+00    0.651671857873259258E+10   -0.108279193055553122E+03
    0.309484848323926198E+00    0.704403718501822595E+00    0.674310458832258415E+10   -0.108276601537006954E+03
    0.330414884512337859E+00    0.595793767552464715E+00    0.648063196307492447E+10   -0.108267689078493348E+03
    0.319429862857530722E+00    0.604308086321804439E+00    0.661823746107544422E+10   -0.108260963630735205E+03
    0.298935216181767938E+00    0.670939909779962207E+00    0.681279011066298199E+10   -0.108252553947711533E+03
    0.289355748291583337E+00    0.665117526607815535E+00    0.692249343408591270E+10   -0.108250298691911382E+03
    0.315412533376508319E+00    0.591236492490548216E+00    0.661714300569570255E+10   -0.108248805129804254E+03
    0.295557095838235473E+00    0.565777050197763032E+00    0.682024588710598087E+10   -0.108247137862665554E+03
    0.296879311352176323E+00    0.673330153342906357E+00    0.681609406034919071E+10   -0.108242018183119114E+03
    0.295180029536531385E+00    0.688143521064585428E+00    0.684153953204336548E+10   -0.108235998325877659E+03
    0.301134863160840482E+00    0.605006405531270275E+00    0.676568297991857052E+10   -0.108230953034622814E+03
    0.287517903158129251E+00    0.591581475329041595E+00    0.696074330305924606E+10   -0.108223676960016860E+03
    0.290036019401874179E+00    0.603261909878563429E+00    0.694268732251482868E+10   -0.108223557318837351E+03
    0.301002143644458597E+00    0.647030043176847869E+00    0.682504380746042538E+10   -0.108222436957043968E+03
    0.287151055157258361E+00    0.650896498527490763E+00    0.695020325512216473E+10   -0.108221761360705869E+03
    0.300504660656268352E+00    0.568760875515444297E+00    0.682430518863559532E+10   -0.108220754895638891E+03
    0.296655401006498787E+00    0.596501597786666338E+00    0.684659921112853050E+10   -0.108220028371691939E+03
    0.285906313141034540E+00    0.660265842820219717E+00    0.695889364320011616E+10   -0.108219339534567240E+03
    0.301611936363202215E+00    0.644281273844724112E+00    0.680015634309180450E+10   -0.108216438104781417E+03
    0.291833901458108003E+00    0.648551112591970735E+00    0.689459291410388660E+10   -0.108208788433147404E+03
    0.291817545048512095E+00    0.647610335035766482E+00    0.692790762579825592E+10   -0.108172842134265281E+03
    0.299122273789311000E+00    0.579878387857540645E+00    0.681493227781861496E+10   -0.108165485882578452E+03
    0.299575365733593724E+00    0.628522161314272410E+00    0.679022692026630402E+10   -0.108161853960068655E+03
    0.304211359673960235E+00    0.664793404341876837E+00    0.680028819339621735E+10   -0.108159531382697651E+03
    0.283675164793195433E+00    0.579951112715120232E+00    0.699846601812196636E+10   -0.108149293740850993E+03
    0.321408660425266834E+00    0.704738655543543757E+00    0.657085794305153179E+10   -0.108131853725106481E+03
    0.296596978073168482E+00    0.644636811320786762E+00    0.686529430982411003E+10   -0.108129236051079147E+03
    0.323765150360840304E+00    0.673779206337981051E+00    0.657474271241104794E+10   -0.108124585278178770E+03
    0.315795162306017341E+00    0.666579648919547907E+00    0.663941295669151497E+10   -0.108115116630101483E+03
    0.295338764552164901E+00    0.589409355045788175E+00    0.685222484849502850E+10   -0.108114416855455346E+03
    0.304214321030425006E+00    0.634737170860208977E+00    0.679847423299932766E+10   -0.108109609803199660E+03
    0.289755527065792273E+00    0.667721149465830166E+00    0.693102779098907566E+10   -0.108098046681263540E+03
    0.312897809192405785E+00    0.701810356465680130E+00    0.665753662117755508E+10   -0.108094002637069593E+03
    0.298800596508729810E+00    0.686365877428119830E+00    0.683376349465568352E+10   -0.108091024417064460E+03
    0.293872083396813644E+00    0.650852142832841096E+00    0.690209825415414429E+10   -0.108089586618205786E+03
    0.300373922236013446E+00    0.586291568596577051E+00    0.678579638044950581E+10   -0.108086600216819079E+03
    0.305095184978922296E+00    0.678280198784493749E+00    0.674011966487433147E+10   -0.108081697199162150E+03
    0.311394618880407259E+00    0.657781459828845172E+00    0.668147011280959511E+10   -0.108076710646560343E+03
    0.332779161533962475E+00    0.653613194841511813E+00    0.651846362826665974E+10   -0.108076367886008896E+03
    0.296943312371968970E+00    0.559159394744668248E+00    0.685397884653738499E+10   -0.108059603100644267E+03
    0.307519858445472694E+00    0.641680891891894589E+00    0.676754003067223167E+10   -0.108056144796178501E+03
    0.289362136630385847E+00    0.653110114071630221E+00    0.692510442709559822E+10   -0.108048448684981679E+03
    0.307482394723478436E+00    0.606175030332176235E+00    0.673627541585322952E+10   -0.108047080584789541E+03
    0.301831317343211114E+00    0.603858295307706072E+00    0.679057185685315704E+10   -0.108040309908894955E+03
    0.301208013295526766E+00    0.641018367810875844E+00    0.680341052850697899E+10   -0.108036153205826650E+03
    0.306420465034255074E+00    0.655748430419828665E+00    0.672681060326253796E+10   -0.108033419537957698E+03
    0.295399951074957867E+00    0.699055263692924811E+00    0.684813249553412151E+10   -0.108028611365572203E+03
    0.289848789385584615E+00    0.636079680649237034E+00    0.691884528774855900E+10   -0.108028495188562985E+03
    0.287881341645456756E+00    0.593174486886224983E+00    0.692769273756725121E+10   -0.108025440289789259E+03
    0.288663012363583493E+00    0.595582444742447592E+00    0.694220147529310513E+10   -0.108025245640432871E+03
    0.296089023809316565E+00    0.584991093987664357E+00    0.683344197998568439E+10   -0.108022626424933890E+03
    0.301145173059279125E+00    0.651626439256459022E+00    0.682458432699183846E+10   -0.108021441233097818E+03
    0.299205621188154747E+00    0.670276634796316273E+00    0.681878735185184765E+10   -0.108020106184461412E+03
    0.295356802062877177E+00    0.570995853252490804E+00    0.689739530512221336E+10   -0.108017927325944967E+03
    0.291045988014305868E+00    0.700257519221647584E+00    0.692311188377122021E+10   -0.108017746453019612E+03
    0.301533231292475279E+00    0.568641529857584871E+00    0.677528812646857738E+10   -0.108009589753532254E+03
    0.303517566802528449E+00    0.593681146727330855E+00    0.674600839546751308E+10   -0.108008674451193656E+03
    0.327043946354191595E+00    0.697719229114490247E+00    0.651844306104226875E+10   -0.107991324015816701E+03
    0.299437703370325048E+00    0.611919823766243098E+00    0.679526337424862576E+10   -0.107977531217040990E+03
    0.304879869791866875E+00    0.653835748616417689E+00    0.674031093547171497E+10   -0.107975385135006931E+03
    0.295048467034703665E+00    0.656840489507038328E+00    0.686957621325325966E+10   -0.107969618893018890E+03
    0.308005389324092271E+00    0.650548608457741651E+00    0.671702231984687233E+10   -0.107968024918703705E+03
    0.291876893704885676E+00    0.605134323467433788E+00    0.689398740621349239E+10   -0.107961778990063976E+03
    0.297463092677990815E+00    0.566837357334566860E+00    0.684107444950547600E+10   -0.107948452514269121E+03
    0.299363385349087185E+00    0.584645148585718033E+00    0.685080979964279270E+10   -0.107835724062838352E+03
    0.293943570662480669E+00    0.572360329326812689E+00    0.687314524610694599E+10   -0.107815055628305899E+03
    0.297440867513089902E+00    0.563992263804566463E+00    0.682847881916370106E+10   -0.107824155904275869E+03
    0.295051229567217743E+00    0.572124405345938669E+00    0.687104165074951267E+10   -0.107937935353962558E+03
    0.295136775033686738E+00    0.588773700887228912E+00    0.687513551731334972E+10   -0.107814424824029217E+03
    0.297986367879311098E+00    0.594654951096210027E+00    0.684814088464590168E+10   -0.107683104425344112E+03
    0.311572488489183952E+00    0.558010135752599723E+00    0.670713871664797401E+10   -0.107645503892369675E+03
    0.310362391753847555E+00    0.576255630699282761E+00    0.670780838966937923E+10   -0.107494256857682231E+03
    0.303273953887712111E+00    0.587455904273790352E+00    0.677143424396704388E+10   -0.107868953581945590E+03
    0.300156414812518701E+00    0.583827747827021071E+00    0.680965321047011566E+10   -0.107777034437351503E+03
    0.305030679408090921E+00    0.589231066949489346E+00    0.675632896044485092E+10   -0.107465557206001307E+03
    0.311089648775542460E+00    0.580125393068861683E+00    0.670411957519173241E+10   -0.107552544642877820E+03
    0.304517047562759546E+00    0.578605795242705057E+00    0.677105759291685295E+10   -0.107883975548619944E+03
    0.309422912516651716E+00    0.555034922449896939E+00    0.672347165392885399E+10   -0.107720520880241338E+03
    0.305986851258334525E+00    0.587209221110992274E+00    0.675862705834392834E+10   -0.107629280646963039E+03
    0.304469483575983635E+00    0.559810945240284852E+00    0.676027502326241112E+10   -0.107519633680247878E+03
    0.306957734091117485E+00    0.609298080075175719E+00    0.673123688042574215E+10   -0.107531230050682666E+03
    0.310354327624562110E+00    0.600116435549242766E+00    0.669783054996402645E+10   -0.107731911376238173E+03
    0.305872133186569195E+00    0.613258717575940082E+00    0.674231898989949894E+10   -0.107600947319417187E+03
    0.308610482171337908E+00    0.610897021645479654E+00    0.672799348252359200E+10   -0.107436415876970813E+03
    0.308610482171337908E+00    0.610897021645479654E+00    0.672799348252359200E+10   -0.107436415876970813E+03
    0.302919463171310466E+00    0.612532281716557492E+00    0.680953348542717171E+10   -0.107591380301998299E+03
    0.303843987021351625E+00    0.600544960756508317E+00    0.676023773306824780E+10   -0.107785001450477125E+03
    0.301955061661990320E+00    0.623297911906636415E+00    0.678633199050575447E+10   -0.107759793564018992E+03
    0.300482440242477666E+00    0.614004298475173016E+00    0.681603691139375591E+10   -0.107900073527792856E+03
    0.300946565585341441E+00    0.624132366913601189E+00    0.681344587221135139E+10   -0.107890745184591466E+03
    0.310195507827647821E+00    0.666983420584568165E+00    0.674094830007892609E+10   -0.107847612891293409E+03
    0.311946087232490676E+00    0.674461256799345321E+00    0.669825171854367256E+10   -0.107809240280030139E+03
    0.310862707717551867E+00    0.669986610242343517E+00    0.669908127825445366E+10   -0.107465847138657551E+03
    0.311677599316708520E+00    0.662958050276236222E+00    0.669666216771943569E+10   -0.107648192782006163E+03
    0.308079662309326763E+00    0.653872974531591211E+00    0.672862911719455814E+10   -0.107541961403668438E+03
    0.304975669062205690E+00    0.659764680271546666E+00    0.675525438530421066E+10   -0.107778149088862648E+03
    0.308703902994752477E+00    0.634396549731356174E+00    0.672433313241183090E+10   -0.107530964719120050E+03
    0.309584450843555736E+00    0.653595007018292762E+00    0.669289003165373611E+10   -0.107804390030602605E+03
    0.302576469472506493E+00    0.659272242801986152E+00    0.678422309048471069E+10   -0.107735068217657286E+03
    0.306538508878292759E+00    0.647798003573008430E+00    0.677993838164640427E+10   -0.107824007342599742E+03
    0.302715599098664023E+00    0.629426748789043700E+00    0.678702208591652393E+10   -0.107619678839192133E+03
    0.306333047205874009E+00    0.659545583027064453E+00    0.674765225298187160E+10   -0.107490098358781140E+03
    0.313160417426822602E+00    0.657128176722835633E+00    0.670167286329312706E+10   -0.107657553193959330E+03
    0.311462913641334216E+00    0.659932474951343551E+00    0.670861010825136471E+10   -0.107689681840298022E+03
    0.308892704932397344E+00    0.654527079549502844E+00    0.674974507488629723E+10   -0.107564592725128747E+03
    0.310309225791212617E+00    0.662800417837479117E+00    0.670326483283942699E+10   -0.107745407935164792E+03
    0.296801329441619133E+00    0.663789021831957982E+00    0.684032181696549320E+10   -0.107878253500302620E+03
    0.296061189412535564E+00    0.681148600596731768E+00    0.687473564187940502E+10   -0.107844830948483676E+03
    0.293899551280731697E+00    0.666921311483406498E+00    0.687021570611312389E+10   -0.107918397551260483E+03
    0.299562840983143341E+00    0.670923877283165382E+00    0.681421608686761856E+10   -0.107915261705494530E+03
    0.301077723676839659E+00    0.685305038435124914E+00    0.679920043623814583E+10   -0.107738193920174581E+03
    0.296271285756340430E+00    0.696384510222188169E+00    0.685320799149898529E+10   -0.107851428909900164E+03
    0.303070117711250309E+00    0.685253690340863031E+00    0.680280252252410507E+10   -0.107927948818352235E+03
    0.304949524011491724E+00    0.682580497622913285E+00    0.675090907417867947E+10   -0.107931041086675407E+03
    0.303563021156152690E+00    0.697857956741774643E+00    0.677710762626266861E+10   -0.107718617627642232E+03
    0.337376464598761860E+00    0.592083224428989752E+00    0.644073396466364670E+10   -0.107462217603592848E+03
    0.347319920786798075E+00    0.632807401719084339E+00    0.639026997804269695E+10   -0.107637808900078767E+03
    0.328605907336098513E+00    0.613074575072964478E+00    0.654206300629284382E+10   -0.107730071864408870E+03
    0.326294957128268170E+00    0.632633209265510033E+00    0.655588206362633514E+10   -0.107267048898539031E+03
    0.326294957128268170E+00    0.632633209265510033E+00    0.655588206362633514E+10   -0.107267048898539031E+03
    0.329529220447926596E+00    0.596210231792413836E+00    0.651875869490224934E+10   -0.107156775352190394E+03
    0.323499144658220716E+00    0.621067806698036406E+00    0.657792410728164387E+10   -0.107210731030017627E+03
    0.311983123685421693E+00    0.658450822313280781E+00    0.667362653634754086E+10   -0.107880661860249631E+03
    0.317698013670314638E+00    0.652076729136329192E+00    0.664707352221497726E+10   -0.107872715295698754E+03
    0.319793244369556251E+00    0.649981957544449429E+00    0.662514517449818325E+10   -0.107824342110818662E+03
    0.321627150190250233E+00    0.646336298709758950E+00    0.661472586057847977E+10   -0.107469185328785898E+03
    0.316679060787885491E+00    0.641275454368351205E+00    0.663836680272457314E+10   -0.107424684303647808E+03
    0.316679060787885491E+00    0.641275454368351205E+00    0.663836680272457314E+10   -0.107424684303647808E+03
    0.314850881361335433E+00    0.648841882157464411E+00    0.664988184641823292E+10   -0.107923803017828234E+03
    0.314711902733113169E+00    0.659145769262805103E+00    0.664719763119666195E+10   -0.107668966262695818E+03
    0.314012901614128759E+00    0.662099477003463832E+00    0.664962969816593266E+10   -0.107882891036689486E+03
    0.316504683283440891E+00    0.645162449272842053E+00    0.663172289415531254E+10   -0.107728312395537813E+03
    0.319372964521060287E+00    0.611908730693409453E+00    0.664398900079328346E+10   -0.107007208264973542E+03
    0.319372964521060287E+00    0.611908730693409453E+00    0.664398900079328346E+10   -0.107007208264973542E+03
    0.312158058317249298E+00    0.623007731371805207E+00    0.669978447071167755E+10   -0.107931734412520271E+03
    0.315885665565758034E+00    0.624619144599389386E+00    0.667300763980998611E+10   -0.107007076094753131E+03
    0.315885665565758034E+00    0.624619144599389386E+00    0.667300763980998611E+10   -0.107007076094753131E+03
    0.315018307577561774E+00    0.609860170425681858E+00    0.664779583156456470E+10   -0.107554298386486892E+03
    0.313269454117758916E+00    0.631126802771595052E+00    0.666510520965125751E+10   -0.107936902922794147E+03
    0.313541173924120231E+00    0.632516751671195365E+00    0.669662786044582653E+10   -0.107709672882758241E+03
    0.310786381007958412E+00    0.626419390103112761E+00    0.669784811276564121E+10   -0.107912480199942578E+03
    0.310964925162748373E+00    0.624820327306522927E+00    0.672446927398700905E+10   -0.107459419406876108E+03
    0.316834895279737738E+00    0.622724829905669353E+00    0.665970975532302094E+10   -0.107201266119289443E+03
    0.316834895279737738E+00    0.622724829905669353E+00    0.665970975532302094E+10   -0.107201266119289443E+03
