    0.295483270893408312E+00    0.459171407120674502E+00    0.233841256188876438E+10   -0.239111431132114376E+03
    0.285040743288792031E+00    0.522202231804673289E+00    0.231621914836902571E+10   -0.238907901770070225E+03
    0.361532588658734999E+00    0.496549053398084084E+00    0.208739013764703703E+10   -0.238175879261760684E+03
    0.334681690360009776E+00    0.431366429008079422E+00    0.218377987361621618E+10   -0.237266153937162869E+03
    0.284312638358049263E+00    0.405564244130033558E+00    0.233697560321512604E+10   -0.237132946319568049E+03
    0.330302517117080530E+00    0.452548721065248571E+00    0.216958422492239475E+10   -0.235560429944118738E+03
    0.274410325312870518E+00    0.511062503489601028E+00    0.241745355966729593E+10   -0.235560373110280295E+03
    0.275170063135202314E+00    0.546432199254866191E+00    0.240811960365094137E+10   -0.235504708565774024E+03
    0.288351879714938863E+00    0.549049008935531546E+00    0.234896142377135992E+10   -0.235036647537777782E+03
    0.341854222630096349E+00    0.497667521574658878E+00    0.215239855711575508E+10   -0.234969251616591464E+03
    0.324467120551294119E+00    0.563611755633496969E+00    0.224592197500684118E+10   -0.234916151795077610E+03
    0.288142316003277887E+00    0.579691461553373699E+00    0.236334971372935104E+10   -0.234848240137758467E+03
    0.277970992661938365E+00    0.485189467629453475E+00    0.239862221482659197E+10   -0.234696037966151636E+03
    0.343062629914118067E+00    0.503911111313190219E+00    0.215967930292945337E+10   -0.234646349364558432E+03
    0.291756772202346359E+00    0.562000674039319748E+00    0.233441237673281240E+10   -0.234578362567501728E+03
    0.333632761624547969E+00    0.512768293325882141E+00    0.219416934609699249E+10   -0.234571024991600268E+03
    0.313976997565334315E+00    0.495591606361564629E+00    0.222061665097573757E+10   -0.234494811748636380E+03
    0.279358414310300618E+00    0.456810146077369694E+00    0.238458248051526737E+10   -0.234417365354082193E+03
    0.317311745989014848E+00    0.603882030449621965E+00    0.228262781820876551E+10   -0.234399400725063231E+03
    0.308999485044545164E+00    0.520092293610122880E+00    0.227368687289940357E+10   -0.234327724788226135E+03
    0.271067085007024589E+00    0.493527404588334662E+00    0.240439409167485714E+10   -0.234194745283127730E+03
    0.309706529702061917E+00    0.439857837523016215E+00    0.225514329667124701E+10   -0.234120030226444840E+03
    0.367176146671314374E+00    0.546104318128479704E+00    0.210310341587344360E+10   -0.233994786890014382E+03
    0.267780689359292667E+00    0.453028810920329761E+00    0.242642188121078682E+10   -0.233988724287902073E+03
    0.292058196448212903E+00    0.489415646024081497E+00    0.233675738978180790E+10   -0.233859058922687581E+03
    0.317882032293750061E+00    0.483257160487136517E+00    0.226995185065094995E+10   -0.233827485441558565E+03
    0.291386557737710661E+00    0.568415711444455241E+00    0.233291034678860378E+10   -0.233818804663988203E+03
    0.340546159524255487E+00    0.499434509908599722E+00    0.216246120556516981E+10   -0.233805904307681715E+03
    0.277639340780414079E+00    0.480805172141845816E+00    0.238587424908232689E+10   -0.233794137801031184E+03
    0.314911980422637905E+00    0.462845130138070715E+00    0.224045237743758106E+10   -0.233788364464471243E+03
    0.303485710328209812E+00    0.475080890750188445E+00    0.228787255619376326E+10   -0.233721414606890562E+03
    0.333393501887989163E+00    0.557048592312463953E+00    0.220394271530053711E+10   -0.233614951461509349E+03
    0.351914900705824818E+00    0.511245696914519598E+00    0.213293004675862694E+10   -0.233596982829844308E+03
    0.281564018590780729E+00    0.502084233939147140E+00    0.237760222367462730E+10   -0.233570032244149502E+03
    0.317688706277263810E+00    0.466522491729026711E+00    0.222100370225181818E+10   -0.233560840469323040E+03
    0.277380745011078622E+00    0.508383401422349834E+00    0.239037723957537556E+10   -0.233521681306115852E+03
    0.292888971259209319E+00    0.581964431158949580E+00    0.234431893593523216E+10   -0.233507782422302739E+03
    0.327083154094284179E+00    0.488571613981530817E+00    0.221850989885622025E+10   -0.233484603478393126E+03
    0.314481135364801101E+00    0.557400980467807727E+00    0.225093579631428003E+10   -0.233421471255198270E+03
    0.304261147297207324E+00    0.561633796034088917E+00    0.231388872341155005E+10   -0.233388977547778097E+03
    0.334126275342707613E+00    0.520229739452709339E+00    0.216841629488215876E+10   -0.233369058282320736E+03
    0.314823013579678956E+00    0.543382852136208072E+00    0.224495911995181704E+10   -0.233368915802425079E+03
    0.308210153691080624E+00    0.454390448052297558E+00    0.224704657058184814E+10   -0.233368886719784825E+03
    0.336343462920708935E+00    0.498333583789033696E+00    0.218149905935240936E+10   -0.233358396323036828E+03
    0.284587476130791661E+00    0.544613695836137168E+00    0.236304308970376348E+10   -0.233350017107129844E+03
    0.318158141545806628E+00    0.501580866765358735E+00    0.221829653882206631E+10   -0.233345404755595723E+03
    0.289817127280895870E+00    0.510275066736456395E+00    0.234032312987994671E+10   -0.233294350525011140E+03
    0.292238625764350668E+00    0.626156306634118920E+00    0.233018799116957951E+10   -0.233266048307491928E+03
    0.277817316015622595E+00    0.487549084419214296E+00    0.238714537667503262E+10   -0.233263767231034450E+03
    0.296348282717259492E+00    0.545358274517207420E+00    0.230888606099497318E+10   -0.233257263031921241E+03
    0.287527779187691956E+00    0.565253811326256184E+00    0.236026542149802876E+10   -0.233218673765966059E+03
    0.306985474835228922E+00    0.459082285622923081E+00    0.225667704272634745E+10   -0.233125983968061803E+03
    0.301822131182434117E+00    0.546685323410285307E+00    0.232339865173766994E+10   -0.233069547140618965E+03
    0.351179843094687638E+00    0.561916724533787715E+00    0.215501884358782673E+10   -0.233056123650434188E+03
    0.295213151939656471E+00    0.501584610256674779E+00    0.229590735981812000E+10   -0.233019669696925689E+03
    0.290988523588745940E+00    0.456409031833924672E+00    0.232550465678852844E+10   -0.233002953078951805E+03
    0.290338632452276979E+00    0.479410341271934826E+00    0.234426561513456726E+10   -0.232984192024314211E+03
    0.298318628782017592E+00    0.483940466037315886E+00    0.232126741808413792E+10   -0.232974988893122401E+03
    0.296465751585095028E+00    0.477109111350728199E+00    0.231723309576984978E+10   -0.232927165367920963E+03
    0.338977927978531546E+00    0.463699123034862382E+00    0.218249629335530949E+10   -0.232919380150929214E+03
    0.352697086936386295E+00    0.518687388200259392E+00    0.212302003368609715E+10   -0.232883941634650199E+03
    0.315481645979088565E+00    0.604261236000485980E+00    0.225759280000721979E+10   -0.232834404242930731E+03
    0.294783984349441475E+00    0.462931646672863906E+00    0.230135708914396429E+10   -0.232816429309024585E+03
    0.282732613900086360E+00    0.507842543728880713E+00    0.236818100821320295E+10   -0.232803740641463094E+03
    0.370048607515897354E+00    0.580523804262183418E+00    0.209173977495523119E+10   -0.232801975522255759E+03
    0.287153608829288476E+00    0.463899781259467403E+00    0.233265678888756275E+10   -0.232718291252726942E+03
    0.291774716410669765E+00    0.448363155823027881E+00    0.234170068827538729E+10   -0.232715671278665098E+03
    0.299632579759566420E+00    0.429044025250496119E+00    0.229706871078288651E+10   -0.232698473950664265E+03
    0.314891466344541182E+00    0.560017630984798842E+00    0.225379305912689018E+10   -0.232695936510520880E+03
    0.300375085175639323E+00    0.490358358221689272E+00    0.227722549137784147E+10   -0.232695126165250059E+03
    0.290376628647914525E+00    0.517852680133707111E+00    0.234062808501349449E+10   -0.232688240055087647E+03
    0.302226827709325796E+00    0.553052723757055276E+00    0.227532615979555702E+10   -0.232670445807723070E+03
    0.326429759674395414E+00    0.488187547147553857E+00    0.222155114712887001E+10   -0.232641901020635146E+03
    0.298379162223724514E+00    0.564370068559711058E+00    0.230228664703286552E+10   -0.232637946374265709E+03
    0.321412643564577993E+00    0.570725085703125856E+00    0.221375005388705349E+10   -0.232620585413134052E+03
    0.291393506704985705E+00    0.570386271321419613E+00    0.234366609798933506E+10   -0.232585312886499992E+03
    0.325193571532530312E+00    0.590159258330466230E+00    0.224578714318911314E+10   -0.232570164088394051E+03
    0.299320595722835869E+00    0.545191040150747597E+00    0.230432866466554070E+10   -0.232532609581583301E+03
    0.343543882424827529E+00    0.506302751885847613E+00    0.214757289276716185E+10   -0.232532056724411774E+03
    0.328605294171432250E+00    0.477320619357840314E+00    0.221412615199057627E+10   -0.232457966080005122E+03
    0.328605294171432250E+00    0.477320619357840314E+00    0.221412615199057627E+10   -0.232457966080005122E+03
    0.359114111717797169E+00    0.480429584452412684E+00    0.210863046741568327E+10   -0.232450007141500237E+03
    0.359114111717797169E+00    0.480429584452412684E+00    0.210863046741568327E+10   -0.232450007141500237E+03
    0.309924619918517663E+00    0.496114776784189360E+00    0.224555081021146250E+10   -0.232448315115959872E+03
    0.306726237980740501E+00    0.568832845836356071E+00    0.226572250043967056E+10   -0.232442299462649657E+03
    0.334125809692334075E+00    0.513766732568051054E+00    0.217539870511996508E+10   -0.232428251478678817E+03
    0.309327470152611694E+00    0.573113832626056308E+00    0.226439754308033609E+10   -0.232420904416180463E+03
    0.306402646510775423E+00    0.493566766441865923E+00    0.227579416495815945E+10   -0.232416952720867954E+03
    0.303601203272464759E+00    0.463252561849786915E+00    0.227494232841854382E+10   -0.232396685197230141E+03
    0.321360245239756759E+00    0.447318915638890147E+00    0.220733088340447903E+10   -0.232338293413073131E+03
    0.321360245239756759E+00    0.447318915638890147E+00    0.220733088340447903E+10   -0.232338293413073131E+03
    0.330011996393777762E+00    0.546575250120948652E+00    0.219792459051853895E+10   -0.232323871233715920E+03
    0.304706470479612745E+00    0.454077132403366335E+00    0.228820334224540663E+10   -0.232314758765488023E+03
    0.304706470479612745E+00    0.454077132403366335E+00    0.228820334224540663E+10   -0.232314758765488023E+03
    0.317987419974874119E+00    0.461309202240233418E+00    0.222195118734551907E+10   -0.232310849952411473E+03
    0.296738087159580000E+00    0.510792942995980326E+00    0.230907613341955566E+10   -0.232286188142644079E+03
    0.304715746671342436E+00    0.542422969621386031E+00    0.229747563016885567E+10   -0.232258169369183690E+03
    0.291833415045705202E+00    0.447488975453397941E+00    0.231937583060104322E+10   -0.232162629953949590E+03
    0.291833415045705202E+00    0.447488975453397941E+00    0.231937583060104322E+10   -0.232162629953949590E+03
    0.306643270849801863E+00    0.521911281582676523E+00    0.227763107469599867E+10   -0.232154874255611674E+03
    0.306643270849801863E+00    0.521911281582676523E+00    0.227763107469599867E+10   -0.232154874255611674E+03
    0.319070645932594099E+00    0.470970178856420674E+00    0.222864818931236887E+10   -0.232152641397587132E+03
    0.319070645932594099E+00    0.470970178856420674E+00    0.222864818931236887E+10   -0.232152641397587132E+03
    0.333598074185587845E+00    0.484467760827902438E+00    0.220007095370153046E+10   -0.232127047221309965E+03
    0.304218381015718242E+00    0.439964126527991439E+00    0.228015820205467224E+10   -0.232117680700533242E+03
    0.304201667988335256E+00    0.493332643032598384E+00    0.229661949372411156E+10   -0.232102361452718128E+03
    0.319773195710642222E+00    0.560488520763875897E+00    0.221765532340899372E+10   -0.232065160034339129E+03
    0.340404655646388277E+00    0.524128404296465789E+00    0.217741348941234827E+10   -0.232063988873615131E+03
    0.340202174875531338E+00    0.562759176769024094E+00    0.218332114189839554E+10   -0.232055967204665905E+03
    0.342289193614555454E+00    0.566152883079219293E+00    0.217479018582786751E+10   -0.232033626276066286E+03
    0.322708256124239590E+00    0.470267654504684884E+00    0.222881743188803244E+10   -0.232021302703700144E+03
    0.333842726409702861E+00    0.510343445356085113E+00    0.218017848703225994E+10   -0.232000829993266279E+03
    0.297871561829144260E+00    0.551754769061105321E+00    0.229502063861553192E+10   -0.231989942184166154E+03
    0.335927592173769607E+00    0.544056687149964802E+00    0.217551017644972229E+10   -0.231988196087625028E+03
    0.311839320630980243E+00    0.561958700601474348E+00    0.226780536442823410E+10   -0.231973786954679611E+03
    0.336575953708540376E+00    0.503139264738605263E+00    0.216295202790757275E+10   -0.231972734718860664E+03
    0.325350511700327805E+00    0.464498819064120383E+00    0.220111564849687052E+10   -0.231966258670322759E+03
    0.326351405001421957E+00    0.545114975892760256E+00    0.220973291951742697E+10   -0.231962958052714612E+03
    0.326351405001421957E+00    0.545114975892760256E+00    0.220973291951742697E+10   -0.231962958052714612E+03
    0.293739910438093221E+00    0.486663851365500832E+00    0.231332334919694901E+10   -0.231923360627173878E+03
    0.304617612343195121E+00    0.507820939895688994E+00    0.227449138030745506E+10   -0.231910262897275288E+03
    0.315148326423744130E+00    0.561124443555122809E+00    0.224620679957171440E+10   -0.231901120161016905E+03
    0.294196639066855559E+00    0.517394088989567180E+00    0.233521817334620619E+10   -0.231893172500909031E+03
    0.291292214254762316E+00    0.558368383916201694E+00    0.233863802027226591E+10   -0.231892492057930212E+03
    0.291292214254762316E+00    0.558368383916201694E+00    0.233863802027226591E+10   -0.231892492057930212E+03
    0.337018676859270561E+00    0.553841507061612504E+00    0.219186709094223309E+10   -0.231873260584600160E+03
    0.320987067353965150E+00    0.547758216577340917E+00    0.221672510028504324E+10   -0.231863867775205392E+03
    0.304159842047195872E+00    0.483991991894383133E+00    0.227626105680148840E+10   -0.231828198246694342E+03
    0.307089256847766057E+00    0.491607578966153369E+00    0.227317675018219900E+10   -0.231803027166670660E+03
    0.307089256847766057E+00    0.491607578966153369E+00    0.227317675018219900E+10   -0.231803027166670660E+03
    0.312682917702743091E+00    0.547031850856896540E+00    0.223900348455462122E+10   -0.231778028371165419E+03
    0.312682917702743091E+00    0.547031850856896540E+00    0.223900348455462122E+10   -0.231778028371165419E+03
    0.297867495356780143E+00    0.595036491651528721E+00    0.230981958598205662E+10   -0.231775263907452057E+03
    0.296896948569985331E+00    0.462912215176455533E+00    0.230591349414246225E+10   -0.231769463978701538E+03
    0.296896948569985331E+00    0.462912215176455533E+00    0.230591349414246225E+10   -0.231769463978701538E+03
    0.326376350394433135E+00    0.494912017507974866E+00    0.219820755739501429E+10   -0.231761120255992523E+03
    0.326376350394433135E+00    0.494912017507974866E+00    0.219820755739501429E+10   -0.231761120255992523E+03
    0.301238480014306476E+00    0.525793263782738052E+00    0.229024893595571089E+10   -0.231755839631694585E+03
    0.321868830854172450E+00    0.519368932815364559E+00    0.222740858844236422E+10   -0.231737873400722350E+03
    0.298529984778150237E+00    0.591584772866475816E+00    0.231195911170497799E+10   -0.231731242458028504E+03
    0.301994279586807246E+00    0.462408210385961027E+00    0.228417578399172544E+10   -0.231720917101973669E+03
    0.301994279586807246E+00    0.462408210385961027E+00    0.228417578399172544E+10   -0.231720917101973669E+03
    0.324846883934244601E+00    0.441866582285118881E+00    0.220938479834516239E+10   -0.231710526664912436E+03
    0.324846883934244601E+00    0.441866582285118881E+00    0.220938479834516239E+10   -0.231710526664912436E+03
    0.311439247999535540E+00    0.475807680016956169E+00    0.227410901678077984E+10   -0.231690178254378537E+03
    0.321754302454768215E+00    0.466740693334861234E+00    0.222101668782089233E+10   -0.231686124083001744E+03
    0.321754302454768215E+00    0.466740693334861234E+00    0.222101668782089233E+10   -0.231686124083001744E+03
    0.305046581844561959E+00    0.562857224577415494E+00    0.228453492618419266E+10   -0.231685573123267034E+03
    0.330371193992419487E+00    0.512899480050954537E+00    0.220869762757027817E+10   -0.231677095013172021E+03
    0.330371193992419487E+00    0.512899480050954537E+00    0.220869762757027817E+10   -0.231677095013172021E+03
    0.327081436272252668E+00    0.521777465517939021E+00    0.219829931398069668E+10   -0.231656639705563151E+03
    0.322878826942500918E+00    0.548372246376763073E+00    0.222335544924645329E+10   -0.231655651979642641E+03
    0.332909622566133545E+00    0.456861569800864231E+00    0.219222572183210516E+10   -0.231647593991538713E+03
    0.290202781211382765E+00    0.481302793228850945E+00    0.233181548740890646E+10   -0.231592953057783916E+03
    0.290202781211382765E+00    0.481302793228850945E+00    0.233181548740890646E+10   -0.231592953057783916E+03
    0.297785746768240323E+00    0.442041622452753913E+00    0.229397671011169100E+10   -0.231589988766499829E+03
    0.302913985257203311E+00    0.538550614276388728E+00    0.229327015785495853E+10   -0.231569588005853063E+03
    0.293983481172642946E+00    0.425780478268727336E+00    0.231867651257756567E+10   -0.231562725400445743E+03
    0.293983481172642946E+00    0.425780478268727336E+00    0.231867651257756567E+10   -0.231562725400445743E+03
    0.300997889835559751E+00    0.505718078780015290E+00    0.228521614041056156E+10   -0.231561782945090727E+03
    0.300997889835559751E+00    0.505718078780015290E+00    0.228521614041056156E+10   -0.231561782945090727E+03
    0.297665718702878168E+00    0.536856975757444843E+00    0.232020773158284712E+10   -0.231561717113837801E+03
    0.297665718702878168E+00    0.536856975757444843E+00    0.232020773158284712E+10   -0.231561717113837801E+03
    0.315833271246155511E+00    0.540610155643847179E+00    0.223895040690758848E+10   -0.231543324282455217E+03
    0.315833271246155511E+00    0.540610155643847179E+00    0.223895040690758848E+10   -0.231543324282455217E+03
    0.324207202685253770E+00    0.543870248144681767E+00    0.222192465022810793E+10   -0.231541232558647806E+03
    0.312966179655247645E+00    0.476872269613206612E+00    0.225294401510268116E+10   -0.231528442105758671E+03
    0.326348337929263543E+00    0.476967488640111625E+00    0.221618287963036966E+10   -0.231524611826436001E+03
    0.335150878093838311E+00    0.561846802818052993E+00    0.219767642165896893E+10   -0.231522500298456151E+03
    0.307669664860152903E+00    0.454028064256611685E+00    0.225930415558472157E+10   -0.231516602053449020E+03
    0.307669664860152903E+00    0.454028064256611685E+00    0.225930415558472157E+10   -0.231516602053449020E+03
    0.312125291474989353E+00    0.535246036418142168E+00    0.225001154165267515E+10   -0.231503648790369397E+03
    0.310568918324306165E+00    0.479563656851812681E+00    0.224924424785844469E+10   -0.231487069829520976E+03
    0.299516623831292239E+00    0.473070070831431266E+00    0.229835974508587503E+10   -0.231486564883498289E+03
    0.291506962410968851E+00    0.439034435858442151E+00    0.232758037702295208E+10   -0.231471225118044572E+03
    0.300783087241920877E+00    0.523285802352610574E+00    0.230772677335381603E+10   -0.231467560917986702E+03
    0.300783087241920877E+00    0.523285802352610574E+00    0.230772677335381603E+10   -0.231467560917986702E+03
    0.287845066724723764E+00    0.430573288070243976E+00    0.233887902357813978E+10   -0.231443507679484412E+03
    0.287845066724723764E+00    0.430573288070243976E+00    0.233887902357813978E+10   -0.231443507679484412E+03
    0.301217719379730520E+00    0.615450842322140090E+00    0.229251351154799271E+10   -0.231437556970236244E+03
    0.314363465939717646E+00    0.463428090399633064E+00    0.223553406201972675E+10   -0.231435376127724425E+03
    0.314363465939717646E+00    0.463428090399633064E+00    0.223553406201972675E+10   -0.231435376127724425E+03
    0.332745959139191749E+00    0.536170983350253039E+00    0.219411975400582886E+10   -0.231428616402776782E+03
    0.332745959139191749E+00    0.536170983350253039E+00    0.219411975400582886E+10   -0.231428616402776782E+03
    0.322450569058978731E+00    0.450580759992973867E+00    0.220455616647203922E+10   -0.231405711362437813E+03
    0.331492209117221992E+00    0.528866756039905184E+00    0.218768121299622536E+10   -0.231390224290903859E+03
    0.328379829994079664E+00    0.504246027553584497E+00    0.221057672894995213E+10   -0.231377361333630148E+03
    0.328379829994079664E+00    0.504246027553584497E+00    0.221057672894995213E+10   -0.231377361333630148E+03
    0.311025827074471295E+00    0.470384650212306354E+00    0.227195062060725260E+10   -0.231374640992718383E+03
    0.311025827074471295E+00    0.470384650212306354E+00    0.227195062060725260E+10   -0.231374640992718383E+03
    0.306397049771485463E+00    0.472483816644089671E+00    0.227426634375008726E+10   -0.231372145551837434E+03
    0.306397049771485463E+00    0.472483816644089671E+00    0.227426634375008726E+10   -0.231372145551837434E+03
    0.295343490586520985E+00    0.486752565350794697E+00    0.231466497696886873E+10   -0.231368177463331648E+03
    0.295343490586520985E+00    0.486752565350794697E+00    0.231466497696886873E+10   -0.231368177463331648E+03
    0.308473981508850248E+00    0.488651936390301245E+00    0.225785400629506779E+10   -0.231366437332417775E+03
    0.306261593147287181E+00    0.508905353483974920E+00    0.227099581116153574E+10   -0.231347500613573573E+03
    0.306261593147287181E+00    0.508905353483974920E+00    0.227099581116153574E+10   -0.231347500613573573E+03
    0.305835152732223392E+00    0.519742723115449223E+00    0.228050069908679152E+10   -0.231338471054350919E+03
    0.305835152732223392E+00    0.519742723115449223E+00    0.228050069908679152E+10   -0.231338471054350919E+03
    0.346900217838971681E+00    0.489453499558866412E+00    0.213578184074265432E+10   -0.231323657275052739E+03
    0.317861143247209987E+00    0.482138343822418491E+00    0.224123926350925732E+10   -0.231303215651453968E+03
    0.317861143247209987E+00    0.482138343822418491E+00    0.224123926350925732E+10   -0.231303215651453968E+03
    0.307991133186213906E+00    0.474899782109375224E+00    0.226561013556468487E+10   -0.231297216272012861E+03
    0.307991133186213906E+00    0.474899782109375224E+00    0.226561013556468487E+10   -0.231297216272012861E+03
    0.297861843168705231E+00    0.506968747814342535E+00    0.231769656970660877E+10   -0.231291858241270319E+03
    0.297861843168705231E+00    0.506968747814342535E+00    0.231769656970660877E+10   -0.231291858241270319E+03
    0.345611045534296113E+00    0.506412297302610170E+00    0.215534796640457058E+10   -0.231288678610185769E+03
    0.337556269090499239E+00    0.545346109863551476E+00    0.219378440435884285E+10   -0.231278464798289122E+03
    0.307149276008089056E+00    0.460828658451323037E+00    0.227719402726546335E+10   -0.231276089098496726E+03
    0.307149276008089056E+00    0.460828658451323037E+00    0.227719402726546335E+10   -0.231276089098496726E+03
    0.309786293112748412E+00    0.484087297472532541E+00    0.227093051729223061E+10   -0.231268339029535440E+03
    0.330514118736746465E+00    0.472075451606468022E+00    0.222082113970251322E+10   -0.231265869740147650E+03
    0.314690674206145105E+00    0.465239559054328566E+00    0.226285110384796810E+10   -0.231264848839749050E+03
    0.304204588822735045E+00    0.503264247168432988E+00    0.229742945738348579E+10   -0.231255299964142182E+03
    0.304204588822735045E+00    0.503264247168432988E+00    0.229742945738348579E+10   -0.231255299964142182E+03
    0.318955899469769488E+00    0.554686478149125861E+00    0.224423074555907869E+10   -0.231234424104509458E+03
    0.318955899469769488E+00    0.554686478149125861E+00    0.224423074555907869E+10   -0.231234424104509458E+03
    0.343138107517734992E+00    0.582331052597655940E+00    0.215862807198155022E+10   -0.231222172309034278E+03
    0.333776530862729237E+00    0.485201765165408361E+00    0.219413827261387873E+10   -0.231220582524432189E+03
    0.314492570806673533E+00    0.461113640889736942E+00    0.223455208783378553E+10   -0.231215313715992068E+03
    0.314492570806673533E+00    0.461113640889736942E+00    0.223455208783378553E+10   -0.231215313715992068E+03
    0.303897358501919790E+00    0.505381891506351266E+00    0.227777910374708462E+10   -0.231214829996103106E+03
    0.308879721423947595E+00    0.462896346346969523E+00    0.227771270873749113E+10   -0.231213176812855210E+03
    0.308879721423947595E+00    0.462896346346969523E+00    0.227771270873749113E+10   -0.231213176812855210E+03
    0.327885047154551690E+00    0.511545178725494765E+00    0.222179697960465097E+10   -0.231212531203503545E+03
    0.340083471303837703E+00    0.547050685143801729E+00    0.217546731009027815E+10   -0.231189993690850798E+03
    0.340083471303837703E+00    0.547050685143801729E+00    0.217546731009027815E+10   -0.231189993690850798E+03
    0.330961858596732161E+00    0.450762842588254387E+00    0.220165331086920118E+10   -0.231185406507661014E+03
    0.330961858596732161E+00    0.450762842588254387E+00    0.220165331086920118E+10   -0.231185406507661014E+03
    0.318571633692380951E+00    0.523566456537288616E+00    0.222891178484429932E+10   -0.231181321654916871E+03
    0.296489151765782055E+00    0.468054588357988521E+00    0.231265505819245100E+10   -0.231170047403380750E+03
    0.296945974537581370E+00    0.441095807175038601E+00    0.230394504638661623E+10   -0.231166085886164012E+03
    0.335809447549655748E+00    0.509090552672892827E+00    0.217263637480630398E+10   -0.231164464422116367E+03
    0.319607492262484083E+00    0.462122722161993238E+00    0.222525482688192654E+10   -0.231157927028522806E+03
    0.319607492262484083E+00    0.462122722161993238E+00    0.222525482688192654E+10   -0.231157927028522806E+03
    0.336058049400344394E+00    0.536883760785077158E+00    0.217128041731583261E+10   -0.231152216284187261E+03
    0.329151366376207677E+00    0.497235650000549256E+00    0.219590202863757610E+10   -0.231151510604028545E+03
    0.327666216117821096E+00    0.546078120743596074E+00    0.219542676148152924E+10   -0.231135693925732369E+03
    0.338744139998042204E+00    0.473901598601095486E+00    0.216196867747733402E+10   -0.231128235876117230E+03
    0.330751140836473556E+00    0.531504804533186714E+00    0.221224075070899391E+10   -0.231091446415118071E+03
    0.330751140836473556E+00    0.531504804533186714E+00    0.221224075070899391E+10   -0.231091446415118071E+03
    0.321786539099988445E+00    0.531195111447903656E+00    0.221838346905450249E+10   -0.231090301850377813E+03
    0.308155622917526184E+00    0.527699494502568811E+00    0.227748848298332930E+10   -0.231085085290583578E+03
    0.308155622917526184E+00    0.527699494502568811E+00    0.227748848298332930E+10   -0.231085085290583578E+03
    0.315463999040868581E+00    0.509451605520121475E+00    0.223513942855798864E+10   -0.231080688565185426E+03
    0.315463999040868581E+00    0.509451605520121475E+00    0.223513942855798864E+10   -0.231080688565185426E+03
    0.317840554221171523E+00    0.586282419007586597E+00    0.223933485441798210E+10   -0.231079043258182708E+03
    0.317840554221171523E+00    0.586282419007586597E+00    0.223933485441798210E+10   -0.231079043258182708E+03
    0.310288912071739587E+00    0.477029439610724637E+00    0.225595968972749329E+10   -0.231077433164925992E+03
    0.317210965626258667E+00    0.455731032829984173E+00    0.225138423466054201E+10   -0.231067874491533729E+03
    0.333268361693571047E+00    0.469192426432163856E+00    0.218191068828177738E+10   -0.231066776615277035E+03
    0.328172079896915159E+00    0.561071796312401005E+00    0.220291997464799833E+10   -0.231057995193662151E+03
    0.328172079896915159E+00    0.561071796312401005E+00    0.220291997464799833E+10   -0.231057995193662151E+03
    0.301124749584670892E+00    0.539607155778165648E+00    0.228965090552738714E+10   -0.231056093216774769E+03
    0.324679418843339729E+00    0.509484542751224012E+00    0.220482366593424129E+10   -0.231053847206443209E+03
    0.324679418843339729E+00    0.509484542751224012E+00    0.220482366593424129E+10   -0.231053847206443209E+03
    0.323168534490737402E+00    0.522454002817960728E+00    0.221408856052725506E+10   -0.231040346647187590E+03
    0.323168534490737402E+00    0.522454002817960728E+00    0.221408856052725506E+10   -0.231040346647187590E+03
    0.316728419063516398E+00    0.498350489394901786E+00    0.223053483280801392E+10   -0.231037766820726461E+03
    0.316728419063516398E+00    0.498350489394901786E+00    0.223053483280801392E+10   -0.231037766820726461E+03
    0.315820515863034612E+00    0.508620959895367264E+00    0.225271972802781487E+10   -0.231034978483919105E+03
    0.333696563165057691E+00    0.532315686847944392E+00    0.217859495357592201E+10   -0.231027229618239375E+03
    0.317490429864553114E+00    0.487656420751264363E+00    0.223286397821535778E+10   -0.230994212998686862E+03
    0.315778220629136686E+00    0.576848712559240084E+00    0.224367471248827124E+10   -0.230993984267641508E+03
    0.318602821219502397E+00    0.445944795879656297E+00    0.223786260684244204E+10   -0.230993727352160278E+03
    0.318602821219502397E+00    0.445944795879656297E+00    0.223786260684244204E+10   -0.230993727352160278E+03
    0.324352221928043527E+00    0.562586919675496233E+00    0.220696235980994606E+10   -0.230969184524356479E+03
    0.324352221928043527E+00    0.562586919675496233E+00    0.220696235980994606E+10   -0.230969184524356479E+03
    0.320303843946992073E+00    0.549792502538927863E+00    0.222344985061419249E+10   -0.230964453471464452E+03
    0.327395946788206771E+00    0.500848395446825023E+00    0.220707262329186106E+10   -0.230948018488018050E+03
    0.318531643536621334E+00    0.484183540424474756E+00    0.225079294466876793E+10   -0.230943098398183679E+03
    0.303127710069411027E+00    0.513621918399383759E+00    0.229625322989207888E+10   -0.230941440858482338E+03
    0.303127710069411027E+00    0.513621918399383759E+00    0.229625322989207888E+10   -0.230941440858482338E+03
    0.312413202732769402E+00    0.482162092339834203E+00    0.226743939273806906E+10   -0.230919865123929327E+03
    0.330241686340707719E+00    0.547254596970381257E+00    0.219606825239291334E+10   -0.230907412963275021E+03
    0.327032306041294241E+00    0.560177737896349726E+00    0.221021435840964890E+10   -0.230901309157430148E+03
    0.327032306041294241E+00    0.560177737896349726E+00    0.221021435840964890E+10   -0.230901309157430148E+03
    0.313614004435166349E+00    0.522173754160595749E+00    0.226245814896831322E+10   -0.230899367288911833E+03
    0.309610909897270581E+00    0.518223654887652430E+00    0.226591613710047102E+10   -0.230894490836834763E+03
    0.307425350255742524E+00    0.467203173483543566E+00    0.226370628169327211E+10   -0.230878990675086470E+03
    0.307425350255742524E+00    0.467203173483543566E+00    0.226370628169327211E+10   -0.230878990675086470E+03
    0.308185253551943372E+00    0.476275467715453260E+00    0.227951671614490223E+10   -0.230877216012235749E+03
    0.303686569782767424E+00    0.507692935420676505E+00    0.228903595854954243E+10   -0.230867981640736843E+03
    0.328117714625812129E+00    0.496361100967984470E+00    0.219724027340890741E+10   -0.230857364284363257E+03
    0.314700425608863910E+00    0.481800865446066595E+00    0.225484795054131174E+10   -0.230832939746526137E+03
    0.317397808763850597E+00    0.457781974698967531E+00    0.225547973287732267E+10   -0.230832023305572250E+03
    0.295006755175073687E+00    0.433277020982092864E+00    0.231469766905825996E+10   -0.230827769915774809E+03
    0.319030292886873734E+00    0.524557533722854075E+00    0.222656591135170650E+10   -0.230827500991062152E+03
    0.324364013726146705E+00    0.498950813969809559E+00    0.221287426629856205E+10   -0.230819200052008000E+03
    0.324364013726146705E+00    0.498950813969809559E+00    0.221287426629856205E+10   -0.230819200052008000E+03
    0.335449292387319076E+00    0.525090270922927260E+00    0.218600544445140505E+10   -0.230815081945040532E+03
    0.318684901735916626E+00    0.489280588472137623E+00    0.224317884200277472E+10   -0.230802008846245258E+03
    0.316719729943665040E+00    0.495998767996120193E+00    0.223869119673248482E+10   -0.230800850442277607E+03
    0.332529227265290828E+00    0.445532723101425887E+00    0.220610263308626032E+10   -0.230797008602247502E+03
    0.329681075437195437E+00    0.510445030055123539E+00    0.219363220744780064E+10   -0.230788334188008776E+03
    0.307251222557682169E+00    0.532145590105576716E+00    0.227651260939375734E+10   -0.230788324870136648E+03
    0.307251222557682169E+00    0.532145590105576716E+00    0.227651260939375734E+10   -0.230788324870136648E+03
    0.326296267804653151E+00    0.500054085648411473E+00    0.221460851275106573E+10   -0.230785177692637035E+03
    0.341577296650326212E+00    0.568291436025427643E+00    0.216780827272284651E+10   -0.230781897899641990E+03
    0.341577296650326212E+00    0.568291436025427643E+00    0.216780827272284651E+10   -0.230781897899641990E+03
    0.342523867211906030E+00    0.573272103488770668E+00    0.215539120845404959E+10   -0.230767158987747450E+03
    0.324861584921844526E+00    0.551491314182221970E+00    0.220707372895331526E+10   -0.230764537406553814E+03
    0.305175196179852559E+00    0.504992558094174981E+00    0.227916225021702814E+10   -0.230754762804684532E+03
    0.301474423815227044E+00    0.530304315001568938E+00    0.229665471719858599E+10   -0.230746589963107652E+03
    0.334365039407769127E+00    0.543962875079120778E+00    0.220199810043985939E+10   -0.230723048844046957E+03
    0.334365039407769127E+00    0.543962875079120778E+00    0.220199810043985939E+10   -0.230723048844046957E+03
    0.340314360014490058E+00    0.508423991388681884E+00    0.217706774891363096E+10   -0.230722307121949598E+03
    0.323511330701561184E+00    0.502509014350245309E+00    0.221122067658459806E+10   -0.230707269263152796E+03
    0.323511330701561184E+00    0.502509014350245309E+00    0.221122067658459806E+10   -0.230707269263152796E+03
    0.317561679326505919E+00    0.560252671131912905E+00    0.224404108813586950E+10   -0.230703108986678586E+03
    0.295484294702238748E+00    0.436867031126201510E+00    0.231376610847272158E+10   -0.230702089366126955E+03
    0.323124344299019095E+00    0.544644468700564488E+00    0.222188916404518032E+10   -0.230691654866277304E+03
    0.300763506330536390E+00    0.440528177497617079E+00    0.229517184364401674E+10   -0.230669311415800792E+03
    0.332603766262600686E+00    0.534705784635365333E+00    0.219320100284173679E+10   -0.230641285765232453E+03
    0.339300563428725888E+00    0.556566477129919690E+00    0.217848517720604134E+10   -0.230636199220750427E+03
    0.339300563428725888E+00    0.556566477129919690E+00    0.217848517720604134E+10   -0.230636199220750427E+03
    0.334370337036172249E+00    0.529497838402846810E+00    0.218441745605618572E+10   -0.230632116090761741E+03
    0.305541821979608552E+00    0.498135173765120953E+00    0.228809908740352345E+10   -0.230598889321735641E+03
    0.305541821979608552E+00    0.498135173765120953E+00    0.228809908740352345E+10   -0.230598889321735641E+03
    0.329591131026898465E+00    0.519494155260280976E+00    0.219771839751642561E+10   -0.230596424467482677E+03
    0.318626390926949943E+00    0.454610403317312617E+00    0.223906024873754263E+10   -0.230596017766687510E+03
    0.336473729605904492E+00    0.552257323495839003E+00    0.217332838744212818E+10   -0.230584032512338808E+03
    0.336473729605904492E+00    0.552257323495839003E+00    0.217332838744212818E+10   -0.230584032512338808E+03
    0.315849751490075603E+00    0.500388664038489139E+00    0.223720645124770784E+10   -0.230568139810165690E+03
    0.310790108081353378E+00    0.506477387812845237E+00    0.227594306314962530E+10   -0.230567059401484698E+03
    0.348721562831331156E+00    0.509763813659278142E+00    0.215436503161102581E+10   -0.230560917805939255E+03
    0.342888612373365487E+00    0.513796337378835233E+00    0.216475230503053713E+10   -0.230559468347632219E+03
    0.324657064655298533E+00    0.478943989269698278E+00    0.221181956716231251E+10   -0.230557757029170546E+03
    0.323298904726977643E+00    0.535928738953515449E+00    0.222800931213558912E+10   -0.230553850619830826E+03
    0.331802205011326901E+00    0.509546629999857004E+00    0.218684977395837164E+10   -0.230546995128362539E+03
    0.324920693208937794E+00    0.495588006468008047E+00    0.221288420372423887E+10   -0.230537853521861649E+03
    0.315351648971471388E+00    0.449732381893635846E+00    0.224002965572564459E+10   -0.230522813957044207E+03
    0.310899752912456973E+00    0.436187903797984333E+00    0.226343573758185863E+10   -0.230514677119747660E+03
    0.317223876517574499E+00    0.566998312979915653E+00    0.225824950035334063E+10   -0.230507757419859445E+03
    0.303758138720597148E+00    0.500921227628989385E+00    0.229372493994333220E+10   -0.230487657839463935E+03
    0.327376901145622345E+00    0.517496988600790075E+00    0.220367220279440498E+10   -0.230485615491241049E+03
    0.324736049126352455E+00    0.527257383399375001E+00    0.222441758994530010E+10   -0.230485055832800640E+03
    0.341677178306213858E+00    0.569188318374568070E+00    0.216738241230550718E+10   -0.230473463878317943E+03
    0.319308405883492297E+00    0.517079047137940506E+00    0.223275050255596781E+10   -0.230472655177417067E+03
    0.313653428694697534E+00    0.565992951777726461E+00    0.225518488775390959E+10   -0.230463731844668416E+03
    0.332699538309013221E+00    0.512440236815457695E+00    0.218392855542830276E+10   -0.230457335897054776E+03
    0.329671595287857944E+00    0.557148384201937574E+00    0.221022363557713079E+10   -0.230455919105285574E+03
    0.321934376693742141E+00    0.489492594119756319E+00    0.222460153787176323E+10   -0.230451561838774865E+03
    0.331633151349736477E+00    0.466203014198004695E+00    0.220137197009479523E+10   -0.230444746183030730E+03
    0.317343280395235960E+00    0.570071533005329201E+00    0.224637368340135050E+10   -0.230440457633554047E+03
    0.310434249256145600E+00    0.472011322216413731E+00    0.225304446400042915E+10   -0.230437849746693075E+03
    0.338887128755225864E+00    0.503811016767528486E+00    0.218075653151079416E+10   -0.230432465411371709E+03
    0.320123005704468389E+00    0.492313165989274992E+00    0.222160555041124296E+10   -0.230427955676073253E+03
    0.318279859689797995E+00    0.481693519082167398E+00    0.223230001989452457E+10   -0.230417401157444829E+03
    0.332048737216776468E+00    0.458225239131646589E+00    0.219698051170061684E+10   -0.230413873470465205E+03
    0.316335547581201748E+00    0.506797746295648111E+00    0.225578662925983906E+10   -0.230404990336657420E+03
    0.316335547581201748E+00    0.506797746295648111E+00    0.225578662925983906E+10   -0.230404990336657420E+03
    0.333050701633584634E+00    0.551237851177805993E+00    0.218782153620200109E+10   -0.230403722603869738E+03
    0.307165268792272517E+00    0.476262114032202533E+00    0.228677180332817364E+10   -0.230403084275952835E+03
    0.314979305662031750E+00    0.491696437482335824E+00    0.224988073827750492E+10   -0.230399530870485989E+03
    0.321295317275615000E+00    0.530134143080140063E+00    0.223344703513003683E+10   -0.230390123574028024E+03
    0.310351169004581096E+00    0.470108699195181501E+00    0.226004066138667774E+10   -0.230369341567875409E+03
    0.322951248029806848E+00    0.543107032872917728E+00    0.221989489551255035E+10   -0.230364050594239359E+03
    0.316093421920221329E+00    0.559520791549342533E+00    0.224743297092121696E+10   -0.230357844240686120E+03
    0.326446665329568619E+00    0.511791611218603393E+00    0.221995766022095633E+10   -0.230348243272490464E+03
    0.337194259615156200E+00    0.553533222960592042E+00    0.218119218760816908E+10   -0.230337082851336163E+03
    0.343689093713394400E+00    0.497842251633549893E+00    0.215581716757416487E+10   -0.230326367781874495E+03
    0.332299772980897856E+00    0.452688693507244722E+00    0.220184402906129408E+10   -0.230326002499517983E+03
    0.307784697665663520E+00    0.470043698088160156E+00    0.228305917137465143E+10   -0.230324426345417464E+03
    0.314773976564325098E+00    0.446284811751773702E+00    0.225752100146530533E+10   -0.230319107274843276E+03
    0.321519421863601329E+00    0.487074425950201118E+00    0.223493424408281279E+10   -0.230313546344011002E+03
    0.324479501269027526E+00    0.502782888493253921E+00    0.221838703673439074E+10   -0.230313026013759611E+03
    0.323874665999938027E+00    0.471375626462997133E+00    0.221543837742949915E+10   -0.230312605062165460E+03
    0.336077007309945941E+00    0.496549028443434182E+00    0.218656506168561029E+10   -0.230312084267311974E+03
    0.335720208391563635E+00    0.523359034619616637E+00    0.217883638923543549E+10   -0.230311106506807221E+03
    0.320505672688494836E+00    0.512102251188542468E+00    0.223398935229554176E+10   -0.230307736639986786E+03
    0.328327986388417925E+00    0.511467273170925552E+00    0.220188725195405006E+10   -0.230306202763961807E+03
    0.342740804262317789E+00    0.519081834434729217E+00    0.216360960778464556E+10   -0.230294210399417949E+03
    0.338120328688437111E+00    0.564890898431444910E+00    0.217220975150498438E+10   -0.230293525774744779E+03
    0.327028002182023492E+00    0.493317499671459103E+00    0.220774164521659708E+10   -0.230291994805644038E+03
    0.311981199464096415E+00    0.441749592466702978E+00    0.225098289885537529E+10   -0.230290758515105182E+03
    0.319945912033779867E+00    0.474918780713643685E+00    0.222703919668940020E+10   -0.230282467600560295E+03
    0.362209960820301824E+00    0.541833418330252670E+00    0.211168999464021873E+10   -0.230280629287594138E+03
    0.341063914996536710E+00    0.554639589241158859E+00    0.216873374265113926E+10   -0.230274204292866699E+03
    0.309203320799649461E+00    0.448630909737442352E+00    0.227261551512770271E+10   -0.230272689869063868E+03
    0.330406334551945180E+00    0.477571863642259231E+00    0.219826033693901205E+10   -0.230269650018240213E+03
    0.338444810220337566E+00    0.561262264726041238E+00    0.216898873401721859E+10   -0.230267185925223430E+03
    0.326072657868494431E+00    0.546455616143832756E+00    0.220397418915309477E+10   -0.230266365292736310E+03
    0.311449233638208700E+00    0.429002146024245690E+00    0.226622817111892891E+10   -0.230252193517611317E+03
    0.328059129474309541E+00    0.450771577734261797E+00    0.221263883048056459E+10   -0.230232263981694018E+03
    0.308463550155216204E+00    0.490250269601382627E+00    0.227560538566381216E+10   -0.230210327943320181E+03
    0.323737010011775517E+00    0.534491701734200575E+00    0.221951494820442963E+10   -0.230197199674009141E+03
    0.316259741157597973E+00    0.508516088932942978E+00    0.223897487212376308E+10   -0.230178383482551567E+03
    0.309782872658461217E+00    0.508877689998961102E+00    0.227545962521308994E+10   -0.230174982529964950E+03
    0.331113825646834836E+00    0.453316126103363359E+00    0.220889146317723036E+10   -0.230167940724516399E+03
    0.330938592078219962E+00    0.480419875915764294E+00    0.219752789240703249E+10   -0.230160659536279297E+03
    0.318674388490356841E+00    0.471368226589616413E+00    0.223046335281604815E+10   -0.230151998182258467E+03
    0.322471134208779597E+00    0.492886094309731959E+00    0.223000059983508396E+10   -0.230148132840545202E+03
    0.324448740328115437E+00    0.490525935448689054E+00    0.222435022459296751E+10   -0.230138840856756417E+03
    0.327301363985173455E+00    0.510312151993371543E+00    0.221705705105048752E+10   -0.230131158851824296E+03
    0.340906369240600471E+00    0.572799988156852180E+00    0.217491813694913292E+10   -0.230122074454365872E+03
    0.338222139910576369E+00    0.545051438156180623E+00    0.217731028903748894E+10   -0.230121779195933811E+03
    0.321857420422463236E+00    0.473612282471506774E+00    0.222389053854790592E+10   -0.230119561602735615E+03
    0.326053403089282823E+00    0.497420404280301653E+00    0.221534920099446011E+10   -0.230114714725156773E+03
    0.310148088113453124E+00    0.488736710521152418E+00    0.227614262987254047E+10   -0.230107461057542167E+03
    0.336824117882966068E+00    0.520675120894772192E+00    0.217693358947112799E+10   -0.230103327869366893E+03
    0.333761245864451550E+00    0.476116062555828279E+00    0.219318545222392750E+10   -0.230090208618697602E+03
    0.329784727862224292E+00    0.505075258079564549E+00    0.221111166964388084E+10   -0.230086279912286869E+03
    0.320684292147672134E+00    0.534485810539287343E+00    0.223693135597022343E+10   -0.230085458826792518E+03
    0.319800515923308493E+00    0.481725309557292647E+00    0.222644538871759462E+10   -0.230048531107373435E+03
    0.314761006344522198E+00    0.463236393986461437E+00    0.224412688527505445E+10   -0.230032795662006663E+03
    0.336667199802795580E+00    0.516491998345141923E+00    0.218143249400505304E+10   -0.230027063370920985E+03
    0.324065351372459176E+00    0.464892160868807025E+00    0.221806756337045813E+10   -0.230019263408823292E+03
    0.318086509377303206E+00    0.492999904896855412E+00    0.223918338911977482E+10   -0.230017871241055559E+03
    0.318042687612688446E+00    0.482820854048833681E+00    0.223295018112365723E+10   -0.229983679543642495E+03
    0.320120705735746747E+00    0.469862059201002324E+00    0.222443636709877491E+10   -0.229974192946206102E+03
    0.359035366511631371E+00    0.530290962955501044E+00    0.212452886341213369E+10   -0.229969973816383657E+03
    0.337342105100581824E+00    0.512065061483577111E+00    0.218186521187628412E+10   -0.229968160573789419E+03
    0.326354866524105613E+00    0.492877919394816288E+00    0.220773873515550470E+10   -0.229945194675186599E+03
    0.316510601478454279E+00    0.499291124861574787E+00    0.224275194530239201E+10   -0.229934722395092308E+03
    0.334613723872725033E+00    0.541955301554812863E+00    0.218279246023465776E+10   -0.229927006757127856E+03
    0.319582684770870151E+00    0.481596694198231035E+00    0.222862097675651026E+10   -0.229905826579507163E+03
    0.316062840440116566E+00    0.453846460595437762E+00    0.224558741933165884E+10   -0.229897214544827364E+03
    0.320777204253535675E+00    0.526455454536149503E+00    0.223558942485936117E+10   -0.229896511331712901E+03
    0.322918211307739900E+00    0.485670480028385754E+00    0.222521529095511580E+10   -0.229883486108745529E+03
    0.331208383800580763E+00    0.500227017434420773E+00    0.220260723248690653E+10   -0.229882885275525041E+03
    0.327632174339182847E+00    0.492888310358225112E+00    0.221030161332836103E+10   -0.229868195831950686E+03
    0.318319211598937335E+00    0.465783734665109250E+00    0.223124402540442371E+10   -0.229867857662842539E+03
    0.322503012113681486E+00    0.490684703074006023E+00    0.221835798633467817E+10   -0.229857700526389294E+03
    0.320155814919009296E+00    0.486906601818603235E+00    0.223985098868979502E+10   -0.229854004338722007E+03
    0.323618744857507579E+00    0.481056898720657600E+00    0.221738313394337463E+10   -0.229851863170865215E+03
    0.329747798642451184E+00    0.600126482624606439E+00    0.220456435136071205E+10   -0.229847321825978071E+03
    0.316290312220685266E+00    0.512516264422291812E+00    0.225105931758518600E+10   -0.229839949306032310E+03
    0.307942913683432018E+00    0.485503613656138810E+00    0.227345817743725157E+10   -0.229832153520150626E+03
    0.335331200390949713E+00    0.507815323108440353E+00    0.219183731371060514E+10   -0.229824819658533073E+03
    0.322451306923633274E+00    0.512036413070934060E+00    0.222625589055853367E+10   -0.229823088206612795E+03
    0.336148949008365949E+00    0.487034874841739907E+00    0.218328239480269432E+10   -0.229821212254944584E+03
    0.321090893046155401E+00    0.504323005992242557E+00    0.222693342216254807E+10   -0.229819744386866375E+03
    0.323885143166377010E+00    0.538212452504218675E+00    0.221855668112487602E+10   -0.229814573981368426E+03
    0.331232236006300307E+00    0.496052354640362125E+00    0.220051767331128168E+10   -0.229791683389134732E+03
    0.334784781274200527E+00    0.550287602625536110E+00    0.218389073849414349E+10   -0.229788947109894593E+03
    0.329577424180029166E+00    0.562248060781032066E+00    0.220321107898459435E+10   -0.229780929615515021E+03
    0.325616072999979855E+00    0.492235431167033610E+00    0.221254545049043083E+10   -0.229780271423728664E+03
    0.321616297431399689E+00    0.493702108036124798E+00    0.222312023140778971E+10   -0.229774798933573237E+03
    0.306652549677654651E+00    0.432917446197134126E+00    0.227959784666010666E+10   -0.229774622619984143E+03
    0.340692187269644509E+00    0.568254431641328495E+00    0.216908554934779263E+10   -0.229774358187458063E+03
    0.320127017924970336E+00    0.488530843572261730E+00    0.222892101757866716E+10   -0.229766204743220641E+03
    0.326175176236177478E+00    0.475451709801850697E+00    0.221260000953779650E+10   -0.229760929457029363E+03
    0.326753482807358997E+00    0.497286022523415028E+00    0.221547444994013691E+10   -0.229743176318422400E+03
    0.329811927246216385E+00    0.452069456027912153E+00    0.220115022204927492E+10   -0.229715883234561375E+03
    0.321957487682625665E+00    0.514551936460952319E+00    0.222348807038384819E+10   -0.229714503360202997E+03
    0.329525281034457052E+00    0.495610613284217294E+00    0.220595488373787689E+10   -0.229714068451688661E+03
    0.320877752994481236E+00    0.520354197912025640E+00    0.223443108328629827E+10   -0.229711437467201762E+03
    0.318472696181651971E+00    0.473438641705081764E+00    0.224251485832467556E+10   -0.229709395415657525E+03
    0.321421723363126854E+00    0.481330137504976108E+00    0.222757403229449272E+10   -0.229706979571405157E+03
    0.333311378410496906E+00    0.441798305957947335E+00    0.219375587434622622E+10   -0.229704110540573652E+03
    0.325616337590050653E+00    0.495873866499550786E+00    0.221651725498505592E+10   -0.229701946960091789E+03
    0.336047353849387609E+00    0.553600790335046611E+00    0.218686209015611553E+10   -0.229700252741590361E+03
    0.326688306427931618E+00    0.500040111441348856E+00    0.221421261879013491E+10   -0.229696028326135036E+03
    0.302805217463091192E+00    0.442847320824830248E+00    0.229215920559742832E+10   -0.229695047922407952E+03
    0.328788825479558622E+00    0.497587769711088868E+00    0.220860077325119257E+10   -0.229692817686206155E+03
    0.319457160187721856E+00    0.488261321841104490E+00    0.223212773100670242E+10   -0.229683858405695730E+03
    0.323168449574530614E+00    0.501248382989631480E+00    0.222306879081200361E+10   -0.229682909813519046E+03
    0.319304578826232310E+00    0.527698447913680369E+00    0.223845038848697233E+10   -0.229673494166337321E+03
    0.319947617424604758E+00    0.517986800329740760E+00    0.223675845267236280E+10   -0.229663256749865724E+03
    0.326867617311440317E+00    0.496084574736194384E+00    0.221786053069298553E+10   -0.229652816415607958E+03
    0.320257963355332242E+00    0.486890897491814911E+00    0.223895718784235620E+10   -0.229651035644098130E+03
    0.332242150047855678E+00    0.492100194052234485E+00    0.219593278060358286E+10   -0.229646618349293078E+03
    0.332316922233659884E+00    0.454772297335676257E+00    0.219410475444654036E+10   -0.229635700169948421E+03
    0.324537475416166510E+00    0.478885386203312891E+00    0.221272303105215883E+10   -0.229629352929735148E+03
    0.318747132370434172E+00    0.472743113990672370E+00    0.223501974094717216E+10   -0.229624676174484904E+03
    0.324013208929293084E+00    0.537619985353131824E+00    0.221626386087276459E+10   -0.229620535013122719E+03
    0.328360075113139915E+00    0.529778427484293601E+00    0.220193785141651821E+10   -0.229613877900405328E+03
    0.334555185412845735E+00    0.534508252295166741E+00    0.218304580693850088E+10   -0.229604689729803397E+03
    0.318493525464014715E+00    0.474272707756941969E+00    0.224198868356669760E+10   -0.229600568986120237E+03
    0.329800094419093026E+00    0.519884289084819429E+00    0.220196193233215046E+10   -0.229591095261753679E+03
    0.361098335079264032E+00    0.530587066768442028E+00    0.211509838378655577E+10   -0.229587562674402960E+03
    0.328956845867864056E+00    0.471640128976320128E+00    0.220681068206158590E+10   -0.229586181944113605E+03
    0.328535152793350660E+00    0.529711341457325346E+00    0.221131241823056555E+10   -0.229585649792108285E+03
    0.332125368487174721E+00    0.491200450013135281E+00    0.219270696576618910E+10   -0.229584625159351731E+03
    0.330077404995051837E+00    0.526039778775281519E+00    0.220621079416708946E+10   -0.229574355285006732E+03
    0.308511338409298563E+00    0.476557797454928433E+00    0.227693377992482948E+10   -0.229573962742168987E+03
    0.332792220724609622E+00    0.475883834200006461E+00    0.219065890379551077E+10   -0.229569684528792436E+03
    0.330409230573690371E+00    0.519819792474525144E+00    0.220780404378037739E+10   -0.229567355663014496E+03
    0.328933410618476807E+00    0.563623861703899109E+00    0.220600530624329615E+10   -0.229562775207399511E+03
    0.327015511408861870E+00    0.489377264529977651E+00    0.221072789070262241E+10   -0.229535324214726870E+03
    0.339006359804739921E+00    0.547396462276976692E+00    0.217913902159973145E+10   -0.229517406061606721E+03
    0.318756888847907760E+00    0.461790944588367225E+00    0.223933393212616444E+10   -0.229517075574372200E+03
    0.325865908538210902E+00    0.540306860094336372E+00    0.221565453275492573E+10   -0.229516478949672319E+03
    0.323816228242927662E+00    0.516787767566830425E+00    0.222438798152230835E+10   -0.229507800997104880E+03
    0.361832238490942093E+00    0.544848079407344699E+00    0.211361103778640175E+10   -0.229493067121416573E+03
    0.308967619389410086E+00    0.434122056747305862E+00    0.227089009293796444E+10   -0.229475882918324515E+03
    0.347942689343653355E+00    0.515076334975583805E+00    0.215396004742850018E+10   -0.227977274304684386E+03
    0.347942689343653355E+00    0.515076334975583805E+00    0.215396004742850018E+10   -0.227977274304684386E+03
    0.347942689343653355E+00    0.515076334975583805E+00    0.215396004742850018E+10   -0.227977274304684386E+03
    0.350441043905886596E+00    0.534324943583438738E+00    0.214692886630376673E+10   -0.228737936972594866E+03
    0.350441043905886596E+00    0.534324943583438738E+00    0.214692886630376673E+10   -0.228737936972594866E+03
    0.343712325242255645E+00    0.519048700437796384E+00    0.216624195699294376E+10   -0.229057994747368070E+03
    0.340712916093392049E+00    0.566477565290506746E+00    0.216802256838027620E+10   -0.229392038843188743E+03
    0.341413801428639196E+00    0.580340012200311506E+00    0.217236479152997494E+10   -0.229024921760056657E+03
    0.338443686859294934E+00    0.571708415617901977E+00    0.218206534704823112E+10   -0.229152737303979166E+03
    0.338498826176705014E+00    0.546413814182038493E+00    0.217853541959564590E+10   -0.228807569819149819E+03
    0.338312143166823898E+00    0.546656264899842981E+00    0.218023572931218815E+10   -0.229426214544859988E+03
    0.336831553059708799E+00    0.547365901957867607E+00    0.218148151797568750E+10   -0.229351184018710569E+03
    0.336064341222331253E+00    0.529390348153821577E+00    0.218308914658162928E+10   -0.229116836935467944E+03
    0.336472868128581293E+00    0.554317382540510550E+00    0.218409533093888807E+10   -0.229202955068787276E+03
    0.336203695840448735E+00    0.558354901165811768E+00    0.218810756178972530E+10   -0.228994079048227093E+03
    0.334697295305572851E+00    0.550210244842293861E+00    0.220392373352051592E+10   -0.229142093534148302E+03
    0.333239789847883938E+00    0.473864814058176265E+00    0.219586516690711546E+10   -0.229007262220600410E+03
    0.330163715513506040E+00    0.471860627828490919E+00    0.220209057407032537E+10   -0.229218527596573040E+03
    0.330135732963328654E+00    0.475186592999623514E+00    0.220079813977037382E+10   -0.229269169877684163E+03
    0.333360561346468354E+00    0.469430970238146728E+00    0.219305647680414486E+10   -0.228907906436625126E+03
    0.331171107642752649E+00    0.465297622302202285E+00    0.219790617493745279E+10   -0.229408250682240180E+03
    0.331987163772332783E+00    0.474436033420476022E+00    0.219342819770629454E+10   -0.229152324451605949E+03
    0.331713809387289948E+00    0.494564812654035180E+00    0.220395112877779436E+10   -0.229315529215067642E+03
    0.331417826468658139E+00    0.493444873898088332E+00    0.219574585845949984E+10   -0.228886745763119535E+03
    0.330018789480454378E+00    0.486681415599486300E+00    0.220557667053714848E+10   -0.229337455009324685E+03
    0.330813149363602899E+00    0.495466720161843455E+00    0.220741516645182705E+10   -0.229031605320939150E+03
    0.328686751051687209E+00    0.484997511195189190E+00    0.220747768384949255E+10   -0.229406009955686045E+03
    0.328240228670041767E+00    0.501639693009497734E+00    0.220549995203583622E+10   -0.229292240508401790E+03
    0.329025496671627227E+00    0.499286474878148923E+00    0.220461415014374399E+10   -0.229054356633364478E+03
    0.328064542650020496E+00    0.493730292093081502E+00    0.221019059090978909E+10   -0.229021191647268097E+03
    0.337055419447811977E+00    0.490542114031949694E+00    0.218769957332523680E+10   -0.229278256183150859E+03
    0.332753921226843496E+00    0.500591506819503707E+00    0.219541766037578821E+10   -0.228915287315050733E+03
    0.334245750292206434E+00    0.495484024392458977E+00    0.219541437545173073E+10   -0.228607403190484376E+03
    0.334245463160087963E+00    0.497297197974964078E+00    0.219240144604446888E+10   -0.228956239459513455E+03
    0.334417227703249498E+00    0.488345231350361786E+00    0.218852966014259863E+10   -0.228790211538165522E+03
    0.334900905659052783E+00    0.477925761969661522E+00    0.218698545013811445E+10   -0.228562107156875356E+03
    0.338051768090447124E+00    0.513039684239604554E+00    0.218226913941770172E+10   -0.228530554354557864E+03
    0.338216091657885631E+00    0.501934018611544630E+00    0.218649140401836014E+10   -0.228547432204890185E+03
    0.336694385792169704E+00    0.511357882086450388E+00    0.218450112599149275E+10   -0.228735758767941320E+03
    0.338954332852195339E+00    0.507115446846951201E+00    0.218129222246378851E+10   -0.228893922895835118E+03
    0.330216588486779372E+00    0.508032454629063324E+00    0.220541798225868416E+10   -0.229286597347622802E+03
    0.328260381669985002E+00    0.501060212752644674E+00    0.221613696149245310E+10   -0.229330680770118477E+03
    0.325964003588574025E+00    0.514520384352984195E+00    0.221941768232114410E+10   -0.229086832464182862E+03
    0.327618978918924442E+00    0.539850470082409828E+00    0.221110221318792391E+10   -0.229140403921721486E+03
    0.326228221701005960E+00    0.478222150662748646E+00    0.220994020142194605E+10   -0.229401268169192122E+03
    0.324622229913895666E+00    0.495777964540224048E+00    0.221709340060173655E+10   -0.229149721190573445E+03
    0.326763311391586653E+00    0.518455831792676847E+00    0.221130583133959675E+10   -0.229027158463142968E+03
    0.330461164329769741E+00    0.526678333636958484E+00    0.221308057634622908E+10   -0.229401035795250152E+03
    0.330486825473793489E+00    0.526945608745496230E+00    0.221628574549273872E+10   -0.228546066963154544E+03
    0.330823537604737261E+00    0.527806457405082696E+00    0.221601418904674673E+10   -0.228542289085938648E+03
    0.331778722452050534E+00    0.532861516451408335E+00    0.221108921070183086E+10   -0.229275106343105023E+03
    0.330236193913370168E+00    0.522861959790279940E+00    0.220703302277205181E+10   -0.229444515692350990E+03
    0.329751115805465789E+00    0.542163049149369414E+00    0.220283129861993265E+10   -0.229018462362300198E+03
    0.332915842140333151E+00    0.527018078324870132E+00    0.219277274816492319E+10   -0.228842601832484434E+03
    0.331351386096603084E+00    0.524778163782237073E+00    0.220386780341898251E+10   -0.228851648482838357E+03
    0.329868189055727123E+00    0.520478023368198706E+00    0.220175133326267099E+10   -0.229036028572755697E+03
    0.332702327273977694E+00    0.521477720347938600E+00    0.219403583136073828E+10   -0.229098711044337051E+03
    0.332947802535985382E+00    0.519815230979530085E+00    0.219511349850626993E+10   -0.229098710072489268E+03
    0.319185158797546942E+00    0.485232334975208346E+00    0.224074642577801275E+10   -0.229026874670350196E+03
    0.318852152374246689E+00    0.487099984442689760E+00    0.223970162061316872E+10   -0.229390350010658722E+03
    0.320018780347117615E+00    0.482197178911214053E+00    0.223772708119690800E+10   -0.229336992827661902E+03
    0.319144323693328680E+00    0.482969468681053726E+00    0.223951522906266165E+10   -0.229348182954061116E+03
    0.319519319848622196E+00    0.493255242790322512E+00    0.223803084259266520E+10   -0.229236141126658026E+03
    0.318487827469985552E+00    0.482499792752907553E+00    0.224136329445793867E+10   -0.229251882569868542E+03
    0.314834925023495860E+00    0.505741069097204843E+00    0.225119381543556356E+10   -0.229280253481899024E+03
    0.317922228959196418E+00    0.506482537056871962E+00    0.224503059681071568E+10   -0.229088837280826738E+03
    0.322954227652465509E+00    0.516052460275886915E+00    0.222738292737034321E+10   -0.229419475549160097E+03
    0.323056171127124869E+00    0.509919437799817743E+00    0.221980314889070940E+10   -0.229317478829144193E+03
    0.310054450055723407E+00    0.435467284960594725E+00    0.226684615906081200E+10   -0.228943779056734712E+03
    0.314277195051535452E+00    0.439425567610708612E+00    0.225500315653188372E+10   -0.229365997476222361E+03
    0.314222948870908514E+00    0.438597242852335256E+00    0.225521757065238190E+10   -0.229167120256364910E+03
    0.320223886259722201E+00    0.468789813843448755E+00    0.223634605007537651E+10   -0.229041023325677997E+03
    0.317734963845587026E+00    0.460069587249732237E+00    0.224027309016871834E+10   -0.229419387535627749E+03
    0.318452399765243033E+00    0.465962229217415924E+00    0.224153929959715462E+10   -0.229266107589736862E+03
    0.318575597999090243E+00    0.465813000174271963E+00    0.224082585039735031E+10   -0.229270914763788596E+03
    0.320631952533129039E+00    0.472248657234462854E+00    0.223909408924618435E+10   -0.229186188631206676E+03
    0.329254910287120950E+00    0.447590882219211394E+00    0.221235449626920605E+10   -0.229339204730813805E+03
    0.328552363208211462E+00    0.450235324379750779E+00    0.221062274741730070E+10   -0.228900037599698237E+03
    0.326559403693309880E+00    0.454136414978954406E+00    0.221899256282237530E+10   -0.229382379441437223E+03
    0.326140028162876960E+00    0.456441941838583887E+00    0.221854925683880138E+10   -0.229146629543319051E+03
    0.327987139857091936E+00    0.451140870483246914E+00    0.221546730951433754E+10   -0.228021186918198765E+03
    0.327987139857091936E+00    0.451140870483246914E+00    0.221546730951433754E+10   -0.228021186918198765E+03
    0.327987139857091936E+00    0.451140870483246914E+00    0.221546730951433754E+10   -0.228021186918198765E+03
