    0.452358879412838144E+00    0.541810258273137890E+00    0.606587148129899740E+09   -0.125036871443351586E+03
    0.446805607308981168E+00    0.528507686768392659E+00    0.605644028410138845E+09   -0.124550052764399354E+03
    0.411987226888920366E+00    0.517673344214617970E+00    0.637576836942086935E+09   -0.123936312901797521E+03
    0.444734413326281552E+00    0.464894788481222676E+00    0.615525158591365099E+09   -0.123560349799289668E+03
    0.439341389520182646E+00    0.457381390612169980E+00    0.607562466792565584E+09   -0.123148406842646466E+03
    0.485824546091895237E+00    0.551447579826046308E+00    0.579661421126653433E+09   -0.123069737295409780E+03
    0.479209067220840557E+00    0.508553117842991398E+00    0.603008639910645247E+09   -0.123019257399248701E+03
    0.460301025450823798E+00    0.428098434792223870E+00    0.596095696777845383E+09   -0.122868290703526668E+03
    0.502863060910776261E+00    0.464527002764846486E+00    0.577120535329923868E+09   -0.122838791933592304E+03
    0.488703467294001492E+00    0.406009807862194094E+00    0.584252968836230278E+09   -0.122517647026849573E+03
    0.443223967886311299E+00    0.482746507047568940E+00    0.607099863017546654E+09   -0.122469894183522442E+03
    0.471513033876738763E+00    0.585882381752863779E+00    0.605283373415934801E+09   -0.122416507389720351E+03
    0.425124930966600645E+00    0.478842767217919629E+00    0.621686183896526575E+09   -0.122358103415444830E+03
    0.412761006922678697E+00    0.544022590305923259E+00    0.632152197890076399E+09   -0.122319602444662024E+03
    0.488956730207189549E+00    0.530321422177440382E+00    0.585718036997512579E+09   -0.122289788163900795E+03
    0.471062253222189031E+00    0.515953940706282310E+00    0.595576609306862354E+09   -0.121969687416709093E+03
    0.463304251078256457E+00    0.383408377680765966E+00    0.591607172884240866E+09   -0.121948148406116559E+03
    0.445933343607255672E+00    0.521808737921817922E+00    0.609297373561039448E+09   -0.121925963802243217E+03
    0.412131082913628655E+00    0.538396152687132812E+00    0.627578179580918193E+09   -0.121802403593398310E+03
    0.432184641101296396E+00    0.558223808299976199E+00    0.619083735965880036E+09   -0.121787286894100390E+03
    0.444508439426666235E+00    0.526014479456724970E+00    0.612610545538231850E+09   -0.121695211103731594E+03
    0.435577321345696766E+00    0.333441294719229120E+00    0.618900779145613790E+09   -0.121664939940423324E+03
    0.450979147830745164E+00    0.450105319807310167E+00    0.613098913517859459E+09   -0.121635469968024353E+03
    0.457840953838814402E+00    0.487195886724416383E+00    0.598116213578591704E+09   -0.121548710063798652E+03
    0.465650456333051632E+00    0.500791547982686325E+00    0.599598382612514257E+09   -0.121528228833269367E+03
    0.448403836354838381E+00    0.486526973267054075E+00    0.604446511297786713E+09   -0.121289356528403260E+03
    0.464887742511846336E+00    0.504929519578618979E+00    0.593809405627141118E+09   -0.121260688108887791E+03
    0.467348036743064743E+00    0.455995754354734828E+00    0.593640145793043494E+09   -0.121260284234296250E+03
    0.437268619999751140E+00    0.439843821467224672E+00    0.612991069968784213E+09   -0.121180216444777813E+03
    0.429335778061624707E+00    0.568562101038098788E+00    0.619858672542772174E+09   -0.121178572739919559E+03
    0.492415152871298278E+00    0.494633355817999387E+00    0.581747362568210125E+09   -0.121129318921378641E+03
    0.468720649356895447E+00    0.492482685514662677E+00    0.597026744520025730E+09   -0.121110090941031402E+03
    0.486855546873644407E+00    0.563287300005292479E+00    0.592979605797443628E+09   -0.121039278698187985E+03
    0.466014099746958121E+00    0.421182275220072455E+00    0.592373174022999763E+09   -0.120998345646000161E+03
    0.460118881623911513E+00    0.495972655186021072E+00    0.607191886200476766E+09   -0.120974486212058920E+03
    0.454128093693071777E+00    0.497159242658302247E+00    0.606818114102319598E+09   -0.120966657844933451E+03
    0.483136868856647306E+00    0.386276555192914373E+00    0.589003188501057386E+09   -0.120938607820664274E+03
    0.409646072859384869E+00    0.433059500906992412E+00    0.634063010760857105E+09   -0.120924258797629804E+03
    0.438652109993563744E+00    0.437958299667851492E+00    0.621312372087251544E+09   -0.120904866274047805E+03
    0.439705649428798084E+00    0.386655869703499633E+00    0.610605994783950090E+09   -0.120893178621290303E+03
    0.425049047737243890E+00    0.508951669121998407E+00    0.624519729818950415E+09   -0.120885880375174381E+03
    0.502452944831235260E+00    0.410750304202657901E+00    0.575018100408622742E+09   -0.120880662527546875E+03
    0.453405096386939321E+00    0.543677611427682450E+00    0.609349303262775183E+09   -0.120865893401334418E+03
    0.468749761337683535E+00    0.489449148072838014E+00    0.592209878448853731E+09   -0.120810681755340056E+03
    0.505681650043739994E+00    0.455579415319187220E+00    0.573548605152975082E+09   -0.120759619737640264E+03
    0.442559913417689410E+00    0.481990121361127066E+00    0.606530537422940731E+09   -0.120679913887717873E+03
    0.423374371384908188E+00    0.454620701633084323E+00    0.622630927344538212E+09   -0.120629331912648439E+03
    0.418879294002385827E+00    0.473365134176987112E+00    0.627440685561606884E+09   -0.120627925880860076E+03
    0.458134911550489743E+00    0.436871103240136449E+00    0.606229784078919172E+09   -0.120552695649061704E+03
    0.421870107427912977E+00    0.432406778849225404E+00    0.629583060131633520E+09   -0.120517788111927814E+03
    0.426833342977763319E+00    0.499888249127151241E+00    0.623102654064016104E+09   -0.120491934328013599E+03
    0.431507656152575247E+00    0.491916107484442477E+00    0.624687158831673980E+09   -0.120484400768321365E+03
    0.472916535251743819E+00    0.481203775163823622E+00    0.589386332313506842E+09   -0.120454091775436382E+03
    0.479869791595164130E+00    0.559231720345625405E+00    0.591149888708750963E+09   -0.120413452996170292E+03
    0.426359627941105213E+00    0.442028397793642114E+00    0.626303777928372383E+09   -0.120361367696376817E+03
    0.445288090637016853E+00    0.464204603227230450E+00    0.608992828402291298E+09   -0.120341192523509221E+03
    0.423747760327043088E+00    0.507140178618767479E+00    0.624144632271401525E+09   -0.120315118965283716E+03
    0.472846432559855590E+00    0.502709078610275029E+00    0.599792287191745281E+09   -0.120185360548580874E+03
    0.469596401535665675E+00    0.503611969050030694E+00    0.592320294088087797E+09   -0.120171354794110016E+03
    0.430829687173614584E+00    0.500301395678770078E+00    0.619703990170506358E+09   -0.120166195815210983E+03
    0.431018525748513293E+00    0.464865129357466600E+00    0.620760930457671285E+09   -0.120104728978493810E+03
    0.459642273523618528E+00    0.513431963211896658E+00    0.603410947987964869E+09   -0.120103097616759641E+03
    0.459642273523618528E+00    0.513431963211896658E+00    0.603410947987964869E+09   -0.120103097616759641E+03
    0.412270079696828606E+00    0.437972476098506647E+00    0.632428674856029868E+09   -0.120102985994563610E+03
    0.486134198142128326E+00    0.530654989403318567E+00    0.588538663497937202E+09   -0.120102096681496420E+03
    0.440351043229707362E+00    0.490183679891419644E+00    0.611088628177954912E+09   -0.120099756191048499E+03
    0.416937914434690582E+00    0.391023742961703391E+00    0.629133264987523556E+09   -0.120072113826974800E+03
    0.435884432288156431E+00    0.418256857765296530E+00    0.612304684504674673E+09   -0.120051821745611988E+03
    0.465936713602962127E+00    0.524343390066766446E+00    0.594482981710268617E+09   -0.120028112971508634E+03
    0.457663096979849526E+00    0.433036116081188638E+00    0.607297185246704578E+09   -0.120022452359527065E+03
    0.439221296291975094E+00    0.507175487221445565E+00    0.620586714790427566E+09   -0.120007385304170953E+03
    0.455235242033358356E+00    0.488906671303865892E+00    0.599348180040259600E+09   -0.119977183166922458E+03
    0.445933915892376020E+00    0.410548365587999342E+00    0.605848323517861843E+09   -0.119952279563008844E+03
    0.430234874150431656E+00    0.512304877612139720E+00    0.620235341524809122E+09   -0.119942602707950485E+03
    0.445411460361093636E+00    0.479624890766460865E+00    0.608959023522639751E+09   -0.119932617774530627E+03
    0.445411460361093636E+00    0.479624890766460865E+00    0.608959023522639751E+09   -0.119932617774530627E+03
    0.443741034400880086E+00    0.411947346116491531E+00    0.615219284019348264E+09   -0.119888493854861622E+03
    0.456031584808877233E+00    0.418361633759367635E+00    0.608828681798125505E+09   -0.119884856445286857E+03
    0.447841704324921930E+00    0.543336858900637765E+00    0.612360616338375807E+09   -0.119884191444392798E+03
    0.425975768471177407E+00    0.446665697844487397E+00    0.624432744250934839E+09   -0.119863690922617167E+03
    0.465932590619352105E+00    0.523128837994633500E+00    0.601081465033445597E+09   -0.119852809890849102E+03
    0.465932590619352105E+00    0.523128837994633500E+00    0.601081465033445597E+09   -0.119852809890849102E+03
    0.484839662396040205E+00    0.479918010275648399E+00    0.588158159979918480E+09   -0.119850594026837854E+03
    0.448501732938523912E+00    0.430111955486058406E+00    0.609493924893093824E+09   -0.119845483142726295E+03
    0.451622309885591211E+00    0.496324120914387379E+00    0.609957783640634060E+09   -0.119824853288058975E+03
    0.433894140142182805E+00    0.524072506762589541E+00    0.620895013788101554E+09   -0.119820400159967505E+03
    0.433894140142182805E+00    0.524072506762589541E+00    0.620895013788101554E+09   -0.119820400159967505E+03
    0.433222312347789129E+00    0.475709020079282396E+00    0.623502052835293293E+09   -0.119819518438644081E+03
    0.483501700523789324E+00    0.615074617307334037E+00    0.586102024100293517E+09   -0.119808726230912214E+03
    0.441528354475147766E+00    0.404902465218313523E+00    0.609615190712332964E+09   -0.119801951013088399E+03
    0.441528354475147766E+00    0.404902465218313523E+00    0.609615190712332964E+09   -0.119801951013088399E+03
    0.446097484642907549E+00    0.404901703197054985E+00    0.605436127517064333E+09   -0.119781897039346006E+03
    0.455182188293187018E+00    0.469799001178067499E+00    0.605043080412242651E+09   -0.119756435087434198E+03
    0.444109792950931337E+00    0.504842357482450765E+00    0.616757314565546632E+09   -0.119744390834140262E+03
    0.434172536579335133E+00    0.497404202375538063E+00    0.618650889768337607E+09   -0.119718160343958317E+03
    0.470347666334721359E+00    0.411561671572101773E+00    0.590734357842730284E+09   -0.119702200416862581E+03
    0.453853166591314972E+00    0.474009369347015763E+00    0.604530011104408383E+09   -0.119691603706293733E+03
    0.475251281945811788E+00    0.491143197875556936E+00    0.594679675545343876E+09   -0.119684834680711745E+03
    0.427827357663776997E+00    0.412548132971009451E+00    0.617725138073687315E+09   -0.119662708215172287E+03
    0.427827357663776997E+00    0.412548132971009451E+00    0.617725138073687315E+09   -0.119662708215172287E+03
    0.438183008145493713E+00    0.498427241061490278E+00    0.620045390564912796E+09   -0.119653254676918607E+03
    0.431319663200334436E+00    0.440827945614831407E+00    0.624173005035158873E+09   -0.119624680922310432E+03
    0.453016410177645878E+00    0.391414340690900531E+00    0.603916702211075068E+09   -0.119602840829131225E+03
    0.442038880105624032E+00    0.522566794522452582E+00    0.609904544498931646E+09   -0.119567889729275066E+03
    0.489016449901597705E+00    0.461262021965040958E+00    0.586606111405534863E+09   -0.119542656111005513E+03
    0.451532863829428477E+00    0.405325222415751085E+00    0.603983972664182186E+09   -0.119537278677886491E+03
    0.451532863829428477E+00    0.405325222415751085E+00    0.603983972664182186E+09   -0.119537278677886491E+03
    0.444030192593572293E+00    0.467047312463481745E+00    0.610573439792842150E+09   -0.119536093441391927E+03
    0.444030192593572293E+00    0.467047312463481745E+00    0.610573439792842150E+09   -0.119536093441391927E+03
    0.503965114249655732E+00    0.530455694391530841E+00    0.578004554251636982E+09   -0.119533491023780783E+03
    0.503965114249655732E+00    0.530455694391530841E+00    0.578004554251636982E+09   -0.119533491023780783E+03
    0.488541639046914555E+00    0.429843154318350074E+00    0.582541586194246769E+09   -0.119499208628909912E+03
    0.451798912409632492E+00    0.476760158954927959E+00    0.609361960132718563E+09   -0.119486525120962156E+03
    0.465695680961409342E+00    0.478868495194873844E+00    0.597222898758529782E+09   -0.119472817708834043E+03
    0.451649975855157537E+00    0.508377289087251327E+00    0.610193136788352609E+09   -0.119448200505179884E+03
    0.455721552580847844E+00    0.508718779729314008E+00    0.603618013030122519E+09   -0.119443451990635509E+03
    0.455721552580847844E+00    0.508718779729314008E+00    0.603618013030122519E+09   -0.119443451990635509E+03
    0.477020740073879956E+00    0.485581471695244460E+00    0.590731195935343266E+09   -0.119438478839139009E+03
    0.467553825610742102E+00    0.554881306869745572E+00    0.600701245280777454E+09   -0.119431281639362595E+03
    0.440438419155869731E+00    0.496238849589165198E+00    0.610589501129474044E+09   -0.119395289131008568E+03
    0.440438419155869731E+00    0.496238849589165198E+00    0.610589501129474044E+09   -0.119395289131008568E+03
    0.438759258965294885E+00    0.423544764487695957E+00    0.611986095301643610E+09   -0.119391162927877303E+03
    0.480111886575358193E+00    0.502035315660444681E+00    0.588828254119436264E+09   -0.119390480148397188E+03
    0.441753762868852096E+00    0.473087072912148798E+00    0.619106603629389763E+09   -0.119386148199003998E+03
    0.468085753083869460E+00    0.596973955086498975E+00    0.603016080502263784E+09   -0.119377116447895560E+03
    0.468085753083869460E+00    0.596973955086498975E+00    0.603016080502263784E+09   -0.119377116447895560E+03
    0.464547454621586531E+00    0.460812802595425453E+00    0.598514179865028858E+09   -0.119367033026554211E+03
    0.464547454621586531E+00    0.460812802595425453E+00    0.598514179865028858E+09   -0.119367033026554211E+03
    0.502464392040385510E+00    0.528910925840859747E+00    0.581171441392606258E+09   -0.119357601011579959E+03
    0.471401860275927898E+00    0.536989170524122983E+00    0.597209694512161016E+09   -0.119357502383144237E+03
    0.471401860275927898E+00    0.536989170524122983E+00    0.597209694512161016E+09   -0.119357502383144237E+03
    0.464132832104376059E+00    0.493205575325966095E+00    0.597115023525879622E+09   -0.119354996862469250E+03
    0.464132832104376059E+00    0.493205575325966095E+00    0.597115023525879622E+09   -0.119354996862469250E+03
    0.440764796251609359E+00    0.498760489061675472E+00    0.619070312314401507E+09   -0.119336923705847823E+03
    0.440764796251609359E+00    0.498760489061675472E+00    0.619070312314401507E+09   -0.119336923705847823E+03
    0.472472490752359031E+00    0.493359098558643794E+00    0.593867693812108874E+09   -0.119336606661225389E+03
    0.472472490752359031E+00    0.493359098558643794E+00    0.593867693812108874E+09   -0.119336606661225389E+03
    0.468857505993126145E+00    0.548171732535278622E+00    0.602126564360637426E+09   -0.119302835639757859E+03
    0.440146615317820511E+00    0.459549806125629345E+00    0.615305910686108589E+09   -0.119298563224933318E+03
    0.441329858512752027E+00    0.490490783971068822E+00    0.610647967958675385E+09   -0.119277414260053490E+03
    0.436037234676811769E+00    0.458847159182463216E+00    0.615592667635944724E+09   -0.119274911722365914E+03
    0.432100892777685097E+00    0.502141591695686174E+00    0.621727245898230553E+09   -0.119268947761625270E+03
    0.432100892777685097E+00    0.502141591695686174E+00    0.621727245898230553E+09   -0.119268947761625270E+03
    0.483401786755421392E+00    0.442303183911841202E+00    0.584701251505421758E+09   -0.119246527467284153E+03
    0.483401786755421392E+00    0.442303183911841202E+00    0.584701251505421758E+09   -0.119246527467284153E+03
    0.429364179380845978E+00    0.552011102177107915E+00    0.620509580351188779E+09   -0.119229324639056642E+03
    0.507877563987651270E+00    0.506582781566017104E+00    0.576701208437860727E+09   -0.119229088853665701E+03
    0.473106612323960452E+00    0.532876514967009385E+00    0.595039305457448483E+09   -0.119221063761129457E+03
    0.447514146211553776E+00    0.438019921020067926E+00    0.609068612399621248E+09   -0.119217285607529021E+03
    0.486707313983341272E+00    0.447175027898250477E+00    0.583777792682421684E+09   -0.119214722859688777E+03
    0.462947626370721510E+00    0.512357317647168742E+00    0.603039630495889425E+09   -0.119203997063820665E+03
    0.462947626370721510E+00    0.512357317647168742E+00    0.603039630495889425E+09   -0.119203997063820665E+03
    0.464622130282556833E+00    0.471854079343341226E+00    0.596085967305939913E+09   -0.119194401128957850E+03
    0.499708594867034173E+00    0.550609807032502729E+00    0.580702243809980631E+09   -0.119187666887831554E+03
    0.499708594867034173E+00    0.550609807032502729E+00    0.580702243809980631E+09   -0.119187666887831554E+03
    0.469077447522607882E+00    0.478094882506653107E+00    0.597437249471209288E+09   -0.119185951735653532E+03
    0.439428823719554495E+00    0.504890282326757145E+00    0.611546896918498039E+09   -0.119172252107882670E+03
    0.470668869617443586E+00    0.483707582941274694E+00    0.592853629328462124E+09   -0.119159373003732185E+03
    0.478234755008805579E+00    0.442973471183350398E+00    0.589147730356244564E+09   -0.119148526808859060E+03
    0.478234755008805579E+00    0.442973471183350398E+00    0.589147730356244564E+09   -0.119148526808859060E+03
    0.435963009001705259E+00    0.514909985270776360E+00    0.618048244917324305E+09   -0.119139039865544675E+03
    0.476831930858940600E+00    0.509573698989347790E+00    0.595931245678528786E+09   -0.119136859977038853E+03
    0.437746544465047294E+00    0.467525572098317355E+00    0.614288497317966461E+09   -0.119124678693611344E+03
    0.437746544465047294E+00    0.467525572098317355E+00    0.614288497317966461E+09   -0.119124678693611344E+03
    0.474662694356242365E+00    0.393715646230338834E+00    0.595822552734614611E+09   -0.119122071849672039E+03
    0.461001811652150817E+00    0.543440308145939355E+00    0.601484916173712492E+09   -0.119103126850891172E+03
    0.461001811652150817E+00    0.543440308145939355E+00    0.601484916173712492E+09   -0.119103126850891172E+03
    0.435812914518732608E+00    0.474660644950965604E+00    0.619454861918801785E+09   -0.119101998173450951E+03
    0.443483752276495224E+00    0.510122550158488508E+00    0.609326857790202141E+09   -0.119070952399073491E+03
    0.453290466897584121E+00    0.482970390384295456E+00    0.610612616125678062E+09   -0.119068624776463594E+03
    0.453290466897584121E+00    0.482970390384295456E+00    0.610612616125678062E+09   -0.119068624776463594E+03
    0.484941827007286441E+00    0.440002802177684060E+00    0.586596349367595196E+09   -0.119066976393187616E+03
    0.461424794041696118E+00    0.521028309027078862E+00    0.601037459645714760E+09   -0.119054746337617061E+03
    0.470286393440136230E+00    0.528332112279365163E+00    0.600073592455250502E+09   -0.119048811557598427E+03
    0.470286393440136230E+00    0.528332112279365163E+00    0.600073592455250502E+09   -0.119048811557598427E+03
    0.480384703370508426E+00    0.481224103178870877E+00    0.590219230285345078E+09   -0.119027452351114420E+03
    0.480384703370508426E+00    0.481224103178870877E+00    0.590219230285345078E+09   -0.119027452351114420E+03
    0.461651393895620710E+00    0.541390019204275319E+00    0.600177580152420759E+09   -0.119011694585920424E+03
    0.470359510130737124E+00    0.530052679479030786E+00    0.596549669228565812E+09   -0.118998214773834505E+03
    0.470359510130737124E+00    0.530052679479030786E+00    0.596549669228565812E+09   -0.118998214773834505E+03
    0.447797178936732321E+00    0.487242246555590341E+00    0.605334339929716110E+09   -0.118991658244008335E+03
    0.481673718469819212E+00    0.465644380821819581E+00    0.585811988199310303E+09   -0.118967549644125100E+03
    0.481673718469819212E+00    0.465644380821819581E+00    0.585811988199310303E+09   -0.118967549644125100E+03
    0.450054965852661248E+00    0.479256781397927156E+00    0.605938550106592178E+09   -0.118966882498712451E+03
    0.450054965852661248E+00    0.479256781397927156E+00    0.605938550106592178E+09   -0.118966882498712451E+03
    0.441975722195045773E+00    0.409364620143115587E+00    0.615114166486869693E+09   -0.118951264696058743E+03
    0.491648433549824349E+00    0.516818855306830471E+00    0.584951007527189493E+09   -0.118932145498187253E+03
    0.491648433549824349E+00    0.516818855306830471E+00    0.584951007527189493E+09   -0.118932145498187253E+03
    0.474068259726262597E+00    0.482809179432150515E+00    0.594262672198064327E+09   -0.118907555232701043E+03
    0.474068259726262597E+00    0.482809179432150515E+00    0.594262672198064327E+09   -0.118907555232701043E+03
    0.466854502986927211E+00    0.451953557874734457E+00    0.594702027941159129E+09   -0.118903208026871681E+03
    0.466854502986927211E+00    0.451953557874734457E+00    0.594702027941159129E+09   -0.118903208026871681E+03
    0.465819315785416521E+00    0.457386571033422840E+00    0.594455274706702709E+09   -0.118891554537470171E+03
    0.454305001728624758E+00    0.480013773657701037E+00    0.607459589367067099E+09   -0.118878701479785974E+03
    0.459338545825257349E+00    0.485510798916482855E+00    0.604400016757091999E+09   -0.118864466196887889E+03
    0.472217785786001598E+00    0.526727253569578835E+00    0.592960998764801264E+09   -0.118858384321461330E+03
    0.463349198847338994E+00    0.497651961803972753E+00    0.596179261445641637E+09   -0.118855424391688970E+03
    0.463349198847338994E+00    0.497651961803972753E+00    0.596179261445641637E+09   -0.118855424391688970E+03
    0.468381020214913790E+00    0.470736949343313782E+00    0.597935120085253000E+09   -0.118841211671654094E+03
    0.468381020214913790E+00    0.470736949343313782E+00    0.597935120085253000E+09   -0.118841211671654094E+03
    0.473976484736636616E+00    0.518749327485064526E+00    0.598648759857738733E+09   -0.118834876572677373E+03
    0.471570179793321387E+00    0.511692977143793470E+00    0.595617695492761135E+09   -0.118813259602464484E+03
    0.471570179793321387E+00    0.511692977143793470E+00    0.595617695492761135E+09   -0.118813259602464484E+03
    0.467048077428028507E+00    0.481803016617750046E+00    0.596384121136890411E+09   -0.118802019599074612E+03
    0.459202285365218676E+00    0.504026625276562612E+00    0.599602310533402681E+09   -0.118798892765104185E+03
    0.459202285365218676E+00    0.504026625276562612E+00    0.599602310533402681E+09   -0.118798892765104185E+03
    0.468388369629204881E+00    0.444306291995156144E+00    0.594053072392698288E+09   -0.118786077572043226E+03
    0.468388369629204881E+00    0.444306291995156144E+00    0.594053072392698288E+09   -0.118786077572043226E+03
    0.437524831648864188E+00    0.416463815179870522E+00    0.614812828417970657E+09   -0.118780447596677334E+03
    0.451239670879250432E+00    0.447262224660780916E+00    0.606373375627266288E+09   -0.118772669693993834E+03
    0.458327287883285472E+00    0.513497338017572247E+00    0.605474734082878828E+09   -0.118770005399188449E+03
    0.498858423981925148E+00    0.506147302151173761E+00    0.580834219936545849E+09   -0.118739159388479663E+03
    0.436965157681108829E+00    0.419750169062780287E+00    0.613869387240324497E+09   -0.118738852682350014E+03
    0.436965157681108829E+00    0.419750169062780287E+00    0.613869387240324497E+09   -0.118738852682350014E+03
    0.431442949025323486E+00    0.434545283910491520E+00    0.619728590375915527E+09   -0.118733127860584901E+03
    0.481557011619118625E+00    0.467365933683474566E+00    0.587781865396464944E+09   -0.118731126236463126E+03
    0.489517827966162111E+00    0.456739498126692567E+00    0.583348522839302301E+09   -0.118705143513343259E+03
    0.449808704867380005E+00    0.438833509060401639E+00    0.607187697296674371E+09   -0.118702409153097292E+03
    0.449808704867380005E+00    0.438833509060401639E+00    0.607187697296674371E+09   -0.118702409153097292E+03
    0.441164920125789006E+00    0.417081296636553134E+00    0.612090118520317793E+09   -0.118690268500240364E+03
    0.456321109532809965E+00    0.473978745096918175E+00    0.605619943910790205E+09   -0.118667290057533307E+03
    0.483332705888607772E+00    0.433462375910663056E+00    0.589074364638488531E+09   -0.118658521125860247E+03
    0.483332705888607772E+00    0.433462375910663056E+00    0.589074364638488531E+09   -0.118658521125860247E+03
    0.498364398867122305E+00    0.541206632093082618E+00    0.581446937965092778E+09   -0.118656946308289477E+03
    0.498364398867122305E+00    0.541206632093082618E+00    0.581446937965092778E+09   -0.118656946308289477E+03
    0.461431288143491214E+00    0.427269620354804758E+00    0.608165292334831238E+09   -0.118643924446124274E+03
    0.464458953325396384E+00    0.481647653187254221E+00    0.598450523394351721E+09   -0.118621588283175797E+03
    0.464458953325396384E+00    0.481647653187254221E+00    0.598450523394351721E+09   -0.118621588283175797E+03
    0.492314800497730909E+00    0.458759011909384284E+00    0.581235173240781784E+09   -0.118618481418298657E+03
    0.474810705620106965E+00    0.548059626162711311E+00    0.595464884337126255E+09   -0.118596020951751427E+03
    0.461854350847324013E+00    0.530985324543793880E+00    0.603329552827743053E+09   -0.118589322964268504E+03
    0.461854350847324013E+00    0.530985324543793880E+00    0.603329552827743053E+09   -0.118589322964268504E+03
    0.469351120570559777E+00    0.511600717555207751E+00    0.593381865352099657E+09   -0.118582377144716261E+03
    0.469374999341292176E+00    0.527445323607194538E+00    0.596226943526427269E+09   -0.118581634252829460E+03
    0.469374999341292176E+00    0.527445323607194538E+00    0.596226943526427269E+09   -0.118581634252829460E+03
    0.465101235728122009E+00    0.526464893632113018E+00    0.601514832802523017E+09   -0.118578569907912168E+03
    0.501807178879133731E+00    0.517454886621482757E+00    0.580744251464462996E+09   -0.118577561328352857E+03
    0.463946746141826571E+00    0.454107883233136889E+00    0.599756051894097805E+09   -0.118577201294718009E+03
    0.463946746141826571E+00    0.454107883233136889E+00    0.599756051894097805E+09   -0.118577201294718009E+03
    0.447213912639420841E+00    0.492233381189324248E+00    0.609654164534912467E+09   -0.118568009836545556E+03
    0.447213912639420841E+00    0.492233381189324248E+00    0.609654164534912467E+09   -0.118568009836545556E+03
    0.484772374178290555E+00    0.583589267177767823E+00    0.591526256236668587E+09   -0.118564326961167467E+03
    0.484772374178290555E+00    0.583589267177767823E+00    0.591526256236668587E+09   -0.118564326961167467E+03
    0.473924730264479732E+00    0.498547175523793129E+00    0.593953372153449297E+09   -0.118557808523266914E+03
    0.448359503531446990E+00    0.489213890460062473E+00    0.608530793603009462E+09   -0.118556544750684935E+03
    0.448359503531446990E+00    0.489213890460062473E+00    0.608530793603009462E+09   -0.118556544750684935E+03
    0.497264983073306355E+00    0.510568811261011390E+00    0.580930558304584265E+09   -0.118545322162697687E+03
    0.449194254030336471E+00    0.497130422865625476E+00    0.608359401955908298E+09   -0.118538222299619676E+03
    0.495977089802892401E+00    0.549448579611102161E+00    0.585268740482134819E+09   -0.118524727963985669E+03
    0.439484860866460547E+00    0.421786687594778442E+00    0.613188426981181145E+09   -0.118519595347866769E+03
    0.483181150506234114E+00    0.499243262046407565E+00    0.588683912923205972E+09   -0.118504697601249390E+03
    0.458334469383377574E+00    0.545432947318481354E+00    0.606151931694618225E+09   -0.118503515215050584E+03
    0.451445678615439328E+00    0.528604158615490149E+00    0.609559080023083925E+09   -0.118496783967390115E+03
    0.463833863874233421E+00    0.445744156646563638E+00    0.597072722045157909E+09   -0.118493264808659475E+03
    0.468070589202903342E+00    0.491002702600610519E+00    0.595547353483613729E+09   -0.118489889388194513E+03
    0.451680299479083669E+00    0.488153539066853881E+00    0.607143478850471735E+09   -0.118489698235352790E+03
    0.477060067215872963E+00    0.553357644896761869E+00    0.593889058383909225E+09   -0.118489358270384429E+03
    0.474229138996157151E+00    0.495928221492274446E+00    0.597081507428836942E+09   -0.118479259011863405E+03
    0.462466305129464406E+00    0.472443927477536718E+00    0.598336910604386091E+09   -0.118471557942021064E+03
    0.458413017936169676E+00    0.500108678862257960E+00    0.603506731633259773E+09   -0.118460351423337798E+03
    0.465305687846486071E+00    0.456313626241103165E+00    0.598201234457008600E+09   -0.118459020433607279E+03
    0.446431501432869915E+00    0.440146577848935294E+00    0.608941758259611011E+09   -0.118457724769504566E+03
    0.471186709604768938E+00    0.484569146005426887E+00    0.596003209535466433E+09   -0.118453528216983017E+03
    0.471186709604768938E+00    0.484569146005426887E+00    0.596003209535466433E+09   -0.118453528216983017E+03
    0.500193496262172799E+00    0.503473060851025167E+00    0.581509927358141661E+09   -0.118428256146676574E+03
    0.500193496262172799E+00    0.503473060851025167E+00    0.581509927358141661E+09   -0.118428256146676574E+03
    0.478089584714791072E+00    0.472445996959358183E+00    0.593617614278675556E+09   -0.118424520588330552E+03
    0.446631303146820313E+00    0.448119075511261400E+00    0.607361356445742130E+09   -0.118423509483789402E+03
    0.442734723839272093E+00    0.514046373079517949E+00    0.612613503551813006E+09   -0.118416982853599009E+03
    0.442734723839272093E+00    0.514046373079517949E+00    0.612613503551813006E+09   -0.118416982853599009E+03
    0.469816445591091481E+00    0.477272269621602518E+00    0.594335215088357449E+09   -0.118413672478014718E+03
    0.472054075786047467E+00    0.511586133634729379E+00    0.593850789656743050E+09   -0.118410025915273849E+03
    0.472054075786047467E+00    0.511586133634729379E+00    0.593850789656743050E+09   -0.118410025915273849E+03
    0.447759980919982148E+00    0.439376080668900215E+00    0.608864716996651053E+09   -0.118409783391001426E+03
    0.479525610730837160E+00    0.508659729060019217E+00    0.590883346020836592E+09   -0.118408115171438524E+03
    0.466669515984114602E+00    0.496578823432756167E+00    0.598630461087428570E+09   -0.118388480692164137E+03
    0.480566506410508687E+00    0.481550862906519939E+00    0.590393475870476961E+09   -0.118381771994906060E+03
    0.480495529023213686E+00    0.481360110809818664E+00    0.590591285794025898E+09   -0.118379484498075271E+03
    0.465615966415046934E+00    0.423655923620870567E+00    0.597018815822527409E+09   -0.118378814500959692E+03
    0.469199731099069484E+00    0.469509277229526845E+00    0.597850662246306181E+09   -0.118373022356034539E+03
    0.503051400277392369E+00    0.542311665575930135E+00    0.579352035587995172E+09   -0.118372156698418564E+03
    0.476030494756288114E+00    0.488404445887617555E+00    0.594506680632342577E+09   -0.118369633513694112E+03
    0.477094876596644846E+00    0.479393426620402963E+00    0.592371177147234917E+09   -0.118358147989040930E+03
    0.443027457119972545E+00    0.483997687517073061E+00    0.611090707157585859E+09   -0.118347397583743657E+03
    0.462248545959648705E+00    0.452043091925533602E+00    0.599851100077549934E+09   -0.118346126695379198E+03
    0.448629338163762714E+00    0.469072732283562388E+00    0.608731292344443321E+09   -0.118339920819314329E+03
    0.446914022747515682E+00    0.484298957551574816E+00    0.609447937235536814E+09   -0.118337413806855608E+03
    0.446914022747515682E+00    0.484298957551574816E+00    0.609447937235536814E+09   -0.118337413806855608E+03
    0.465653972503709435E+00    0.524309545378688568E+00    0.601103775407910347E+09   -0.118329308364220623E+03
    0.476175463676389299E+00    0.490321514978909079E+00    0.595115943118253946E+09   -0.118324744514948804E+03
    0.462719085173125821E+00    0.451901682138306171E+00    0.597414835811079979E+09   -0.118324475191651459E+03
    0.450653086955556281E+00    0.516261991344199700E+00    0.609965436481397152E+09   -0.118322839276866461E+03
    0.446893311313012742E+00    0.443778869049326730E+00    0.609749240532418489E+09   -0.118322434549172954E+03
    0.468925441524822850E+00    0.495578823556982684E+00    0.598259163023318887E+09   -0.118320798656992508E+03
    0.452348553829763078E+00    0.520326753766607197E+00    0.609861668830856562E+09   -0.118306684705623809E+03
    0.447159127977801940E+00    0.401279642703807227E+00    0.609920362259417057E+09   -0.118293985487615586E+03
    0.502261757188925961E+00    0.494791500283472629E+00    0.581061612760653019E+09   -0.118292022977505354E+03
    0.452748937739841706E+00    0.458733831397715619E+00    0.604220379388109446E+09   -0.118281546079722503E+03
    0.470725744921818179E+00    0.451486458023834913E+00    0.596467210388351798E+09   -0.118281341481802343E+03
    0.464928108548793795E+00    0.510548266390067340E+00    0.600207205717851400E+09   -0.118271506276592305E+03
    0.486810771318207047E+00    0.540397926123576511E+00    0.589074066222868562E+09   -0.118270688270931117E+03
    0.488957516724776386E+00    0.540105326620208714E+00    0.586353958489341736E+09   -0.118264479697196748E+03
    0.449960457654290602E+00    0.486236671465611892E+00    0.609666238028399706E+09   -0.118258878573057274E+03
    0.440414513519452155E+00    0.424884298866757604E+00    0.614033846525799751E+09   -0.118248431824762690E+03
    0.498386651188196139E+00    0.498720944252790233E+00    0.581914538136946678E+09   -0.118244039993046897E+03
    0.466475320171268137E+00    0.526359343963154203E+00    0.600453324610762119E+09   -0.118238239478045230E+03
    0.483782454682302854E+00    0.487999596497591170E+00    0.589265999903333545E+09   -0.118237950012874578E+03
    0.453232738743158114E+00    0.471332379165822601E+00    0.604866814768603563E+09   -0.118236401692799802E+03
    0.455494047737674934E+00    0.503574132555533183E+00    0.607867309848575950E+09   -0.118233039866291108E+03
    0.456784491310477381E+00    0.533660433095800357E+00    0.604870898200351000E+09   -0.118230860992892843E+03
    0.499969306842302119E+00    0.526681928451569803E+00    0.581562703743144751E+09   -0.118223180004255838E+03
    0.447573504144698098E+00    0.488417129562746410E+00    0.610393005950567722E+09   -0.118222737624828596E+03
    0.460975564179559871E+00    0.510689481536775958E+00    0.601707441149592757E+09   -0.118220878670529828E+03
    0.483782165250782714E+00    0.490479479185996325E+00    0.591038983805478096E+09   -0.118217835570375158E+03
    0.445263241706295387E+00    0.498921199537509352E+00    0.611460484229614973E+09   -0.118213658796653547E+03
    0.478443511618728334E+00    0.483273852742421184E+00    0.589732556051755190E+09   -0.118207295232600671E+03
    0.471506784113834843E+00    0.457426938164608998E+00    0.595396907160673380E+09   -0.118194471881389475E+03
    0.448533726163649782E+00    0.518896120676188843E+00    0.609602328522272706E+09   -0.118193823815034548E+03
    0.451238257574037516E+00    0.543629472445967821E+00    0.609197065412817717E+09   -0.118186572388977524E+03
    0.456270413655726070E+00    0.487428626416821942E+00    0.606937448548624635E+09   -0.118176422346515380E+03
    0.489414720760716904E+00    0.467268761588673698E+00    0.587512150312917709E+09   -0.118168385305796505E+03
    0.480226298670686280E+00    0.491134241714375364E+00    0.589287108566945791E+09   -0.118162234822013275E+03
    0.448651743653981749E+00    0.502780354751038772E+00    0.610208187801811218E+09   -0.118153136610950440E+03
    0.480120768572673440E+00    0.466036946391827911E+00    0.589959616330769777E+09   -0.118146599084878048E+03
    0.455069089584199560E+00    0.419718774075032997E+00    0.604904784837348104E+09   -0.118141606570367074E+03
    0.462354628467423701E+00    0.474719381014052644E+00    0.600626931549672723E+09   -0.118141213319683118E+03
    0.449928183672745785E+00    0.524743340794797675E+00    0.610478767031345844E+09   -0.118135433472352034E+03
    0.484819273019799324E+00    0.487538384418238380E+00    0.590599971975652695E+09   -0.118124321554545674E+03
    0.466612258699948101E+00    0.436013680872950005E+00    0.596657058160303593E+09   -0.118123796118954616E+03
    0.447135041839459346E+00    0.456740295591638201E+00    0.609736407935642719E+09   -0.118119186270183789E+03
    0.456762549626006709E+00    0.512085608438347606E+00    0.608200019146598101E+09   -0.118115671399171561E+03
    0.454704373650798577E+00    0.422248175585215435E+00    0.605822414850940824E+09   -0.118108543389505158E+03
    0.472757434041605973E+00    0.479318866661371246E+00    0.592948299121543169E+09   -0.118105505561195599E+03
    0.484323428329569816E+00    0.538557241931624020E+00    0.591184293305071354E+09   -0.118104174277696330E+03
    0.493709306234150658E+00    0.451832672044304218E+00    0.584046455630833387E+09   -0.118102300841875959E+03
    0.457356327239442861E+00    0.468289041734859524E+00    0.603457268578538537E+09   -0.118099504855341365E+03
    0.493912568052070122E+00    0.540450479338190348E+00    0.585268583677534580E+09   -0.118096951391352718E+03
    0.451358946614622003E+00    0.489259182203316101E+00    0.607897833385911226E+09   -0.118090313876390226E+03
    0.457863225017282771E+00    0.535477275094880412E+00    0.606330681752394915E+09   -0.118090309797520632E+03
    0.489532898986077825E+00    0.471177533516112135E+00    0.585766480230242729E+09   -0.118087541231569475E+03
    0.488268434592057654E+00    0.480271391774312661E+00    0.586119160115865231E+09   -0.118083575230409792E+03
    0.457411072280725917E+00    0.515575867688484735E+00    0.604104119904094458E+09   -0.118083119853443336E+03
    0.448639087752238541E+00    0.502484137383060414E+00    0.611335679411075711E+09   -0.118071602077324698E+03
    0.453929163741805419E+00    0.541292795782585046E+00    0.607079589491000175E+09   -0.118064439127706279E+03
    0.451744002311648740E+00    0.480305101987001493E+00    0.607795253478382349E+09   -0.118061192444879637E+03
    0.465739443212441762E+00    0.504789892246028771E+00    0.599564436562452078E+09   -0.118048310793740029E+03
    0.446724635672129555E+00    0.438337455877352511E+00    0.610468508656827450E+09   -0.118047463721679676E+03
    0.473616566286875484E+00    0.477925016283858639E+00    0.591977803533506751E+09   -0.118033680781372340E+03
    0.471648557245070599E+00    0.479982755203431921E+00    0.597731632020484924E+09   -0.118029341497770702E+03
    0.502249536907820038E+00    0.508970756821565118E+00    0.579839309827409148E+09   -0.118024668062665256E+03
    0.477596807615128682E+00    0.409832974718193910E+00    0.593803214194193602E+09   -0.118018720237040981E+03
    0.463241642360538608E+00    0.542766277418111898E+00    0.600951069696617126E+09   -0.118016536455842385E+03
    0.453478738863375586E+00    0.509153442863981454E+00    0.609718676592128277E+09   -0.118015937225290145E+03
    0.452600200262172014E+00    0.524676717057150910E+00    0.608933269036602736E+09   -0.118011814784275003E+03
    0.471796810272628153E+00    0.483020192769183510E+00    0.596730737432989359E+09   -0.118006043731137225E+03
    0.460074785867147784E+00    0.509102348553797768E+00    0.603622525026074648E+09   -0.117995419759486509E+03
    0.491604363423968238E+00    0.433952748634347074E+00    0.584618875154128194E+09   -0.117980125274161423E+03
    0.448046125651570148E+00    0.462799911178050749E+00    0.609227755641564369E+09   -0.117975730778748442E+03
    0.487413749231892957E+00    0.474988361161203798E+00    0.586620043431815624E+09   -0.117971483401740684E+03
    0.452682592140345563E+00    0.483815655936020050E+00    0.608634939027160406E+09   -0.117967600401169804E+03
    0.485696945130947688E+00    0.473645853948454487E+00    0.586894261792644739E+09   -0.117960387368182779E+03
    0.463826176606109475E+00    0.529590090526898649E+00    0.601191238047878504E+09   -0.117955715901918708E+03
    0.476578476722224587E+00    0.449948422350969324E+00    0.593583131164412737E+09   -0.117949463653511231E+03
    0.452866047204414868E+00    0.504294265122846141E+00    0.608883762281702518E+09   -0.117946218251214106E+03
    0.452296330153807991E+00    0.499607782510773646E+00    0.608636368245410204E+09   -0.117914735891700658E+03
    0.470517911045398640E+00    0.434280930533663678E+00    0.594411668246846437E+09   -0.117908300446614319E+03
    0.453935286767418511E+00    0.518085941554772944E+00    0.608043730028068066E+09   -0.117906068955985972E+03
    0.494888125094356091E+00    0.515855134448559127E+00    0.582800974759562850E+09   -0.117898816576254447E+03
    0.468271280224673736E+00    0.442836280242431712E+00    0.595878263623304129E+09   -0.117896038953366926E+03
    0.453299895445018475E+00    0.470005763113935160E+00    0.607500791606534362E+09   -0.117889922743494893E+03
    0.460129069510290201E+00    0.513794490475339316E+00    0.602176923159049988E+09   -0.117887272835288087E+03
    0.471735899367893008E+00    0.471408083543906287E+00    0.594986131098960161E+09   -0.117872331191006495E+03
    0.467178253439468727E+00    0.420723344076632699E+00    0.596415198119713068E+09   -0.117869501128499039E+03
    0.450616462778358151E+00    0.483889557713981233E+00    0.609536386193547726E+09   -0.117868116911590036E+03
    0.463732325195098716E+00    0.477963576980904747E+00    0.602481599168729544E+09   -0.117867252681294190E+03
    0.483621450405295639E+00    0.504322027802830419E+00    0.589884169523893833E+09   -0.117852325953798584E+03
    0.454174787763432286E+00    0.492555269819343167E+00    0.607869804229727626E+09   -0.117850000022620563E+03
    0.451520984073692400E+00    0.523861718579293978E+00    0.608625022339820147E+09   -0.117848600819646180E+03
    0.453134926516336745E+00    0.492114486812456065E+00    0.606942298227952719E+09   -0.117845538203927248E+03
    0.471268451515692688E+00    0.471450152159755831E+00    0.594667004331038594E+09   -0.117840722842482506E+03
    0.490851208423444485E+00    0.453335308097667422E+00    0.585024923056075573E+09   -0.117838947057454291E+03
    0.481480847422702474E+00    0.473048374235517599E+00    0.589603821563074112E+09   -0.117829413851067955E+03
    0.451144378175179772E+00    0.491366825065625790E+00    0.608217464516449690E+09   -0.117813050033380961E+03
    0.450938915213024039E+00    0.492123242203435396E+00    0.608892892003185987E+09   -0.117767096554630427E+03
    0.457194965283505117E+00    0.518134800363274195E+00    0.606521996022357225E+09   -0.117764127414365760E+03
    0.459836619349907716E+00    0.482939501459560105E+00    0.603976784412695646E+09   -0.117363753368697957E+03
    0.458639326919427992E+00    0.481432669852406292E+00    0.603840139632272959E+09   -0.117826895353462902E+03
    0.461990578548293285E+00    0.473729672881111341E+00    0.602973479726507902E+09   -0.117506711920975761E+03
    0.456466699319105274E+00    0.474284885375857002E+00    0.605843075583003044E+09   -0.117635119929552985E+03
    0.458203764583114403E+00    0.475801038409986887E+00    0.605331396202961206E+09   -0.117671404479824218E+03
    0.456503595176550980E+00    0.478642463641833160E+00    0.606162620449811697E+09   -0.117649434315929213E+03
    0.456385892645333580E+00    0.474635393277464956E+00    0.606510809287776113E+09   -0.117747089384970423E+03
    0.463436343888975866E+00    0.484295537594752190E+00    0.601407888086570740E+09   -0.117808273167692192E+03
    0.469383995108297425E+00    0.493635617836826412E+00    0.599162546959717274E+09   -0.117610213142115683E+03
    0.469798240202204065E+00    0.503336254022233476E+00    0.598068528290275216E+09   -0.117827497716076110E+03
    0.469295057248654279E+00    0.517209251195211550E+00    0.598759755389247179E+09   -0.117382931974338192E+03
    0.466814592345022594E+00    0.526139365129832726E+00    0.600497494473268509E+09   -0.117688978538844339E+03
    0.467278993264243103E+00    0.512985366035788815E+00    0.599112131104813933E+09   -0.117443863519053849E+03
    0.466224139648836022E+00    0.512971878636271583E+00    0.599220560120619297E+09   -0.117544034445885359E+03
    0.468594853347338913E+00    0.507227551832674095E+00    0.597889614534026861E+09   -0.117515653409938096E+03
    0.470392930706645007E+00    0.490115846501371522E+00    0.595705472151746750E+09   -0.117822571915637127E+03
    0.467867814559063178E+00    0.490976070822648936E+00    0.596296719356839180E+09   -0.117805165243989876E+03
    0.470046273338027010E+00    0.483458443966753748E+00    0.596098714121178269E+09   -0.117679265399280922E+03
    0.470205895947234553E+00    0.488183554581587131E+00    0.596830590108078837E+09   -0.117621313476994956E+03
    0.468522319920829045E+00    0.508031337476580802E+00    0.596561705820188880E+09   -0.117756263775018098E+03
    0.467116364471132028E+00    0.520358096757817634E+00    0.598791029400798202E+09   -0.117536330826509527E+03
    0.470790224787558054E+00    0.485855799955437817E+00    0.596968795170251727E+09   -0.117153735058988588E+03
    0.465946557540690476E+00    0.509845854733967485E+00    0.598351590252333641E+09   -0.117765045726282452E+03
    0.463153891387468930E+00    0.532016793501737695E+00    0.601045842406354070E+09   -0.117510106474111424E+03
    0.461362306952996404E+00    0.515061072663197450E+00    0.601312763823300123E+09   -0.117525148170105609E+03
    0.458909104206149998E+00    0.526336077542968184E+00    0.603445897532847166E+09   -0.117622338196994036E+03
    0.469363847040458249E+00    0.439630702020828323E+00    0.596295766464760542E+09   -0.117617428896586432E+03
    0.467698801169671774E+00    0.434163310308758099E+00    0.596487386811017871E+09   -0.117683681344204132E+03
    0.468037960111326423E+00    0.435500971872301079E+00    0.597445454779585600E+09   -0.117724000165668116E+03
    0.469409501761552883E+00    0.436656957049573080E+00    0.597511732700815558E+09   -0.117622184636912380E+03
    0.467907426971271800E+00    0.424315166851956249E+00    0.597621084647224188E+09   -0.117740698596358612E+03
    0.466173738039876995E+00    0.430769999781938751E+00    0.599900841359779358E+09   -0.117369971655299750E+03
    0.465803324802386232E+00    0.440228024809334428E+00    0.599915278626783609E+09   -0.117531984454009404E+03
    0.465742338939174938E+00    0.426685549299074651E+00    0.599389137798189163E+09   -0.117441717497236766E+03
    0.464819401765644125E+00    0.427343802576787724E+00    0.599558432160364628E+09   -0.117778176582270135E+03
    0.465423525440667285E+00    0.432902469684641744E+00    0.598637278086887240E+09   -0.117802112711839584E+03
    0.470542947504441034E+00    0.433684612811006787E+00    0.596549040881901264E+09   -0.117800933357324766E+03
    0.468107499543630012E+00    0.444324254364476090E+00    0.598019010880257368E+09   -0.117617962160807082E+03
    0.463507952151913039E+00    0.450835824624162385E+00    0.599189298577610850E+09   -0.117676399699951062E+03
    0.466990392295442314E+00    0.454376605560211644E+00    0.599045602976166368E+09   -0.117646970255735539E+03
    0.463789020808735741E+00    0.455504338064155689E+00    0.600785619319787264E+09   -0.117230028939504976E+03
    0.463789020808735741E+00    0.455504338064155689E+00    0.600785619319787264E+09   -0.117230028939504976E+03
    0.467148142407001976E+00    0.464311962250750554E+00    0.599727230582382441E+09   -0.117130560788647642E+03
    0.463203532452755973E+00    0.444170879200832758E+00    0.599454774877152801E+09   -0.117596929749517415E+03
    0.476837911485648913E+00    0.466446514295347114E+00    0.593463111791023254E+09   -0.117310791138182978E+03
    0.472513770851694104E+00    0.454149071045709007E+00    0.593783979707444429E+09   -0.117793938335912799E+03
    0.476300459605709214E+00    0.465933562775621368E+00    0.594758847898008585E+09   -0.117376132609383291E+03
    0.474113246438820080E+00    0.470984351384750255E+00    0.593093189109709978E+09   -0.117523244720941676E+03
    0.477046092810986144E+00    0.453754008094653827E+00    0.593241284508021832E+09   -0.117617638309720846E+03
    0.474257108767299873E+00    0.460276208015411470E+00    0.596563253274440765E+09   -0.117213515192192915E+03
    0.473650563079333953E+00    0.461557269489535571E+00    0.595320114858150601E+09   -0.117629472493370287E+03
    0.475101399259017343E+00    0.449165942173010535E+00    0.595639557163518310E+09   -0.116834040644537168E+03
    0.475101399259017343E+00    0.449165942173010535E+00    0.595639557163518310E+09   -0.116834040644537168E+03
    0.472411753519001276E+00    0.480042785457841958E+00    0.595126588271531343E+09   -0.117219835095774869E+03
    0.468424921294589902E+00    0.475331734918803761E+00    0.598784161288752556E+09   -0.117502482941122736E+03
    0.471893622914775379E+00    0.464385470436493364E+00    0.597334374654064059E+09   -0.117005493988163010E+03
    0.471893622914775379E+00    0.464385470436493364E+00    0.597334374654064059E+09   -0.117005493988163010E+03
    0.474251759707925824E+00    0.475025219034201029E+00    0.597023634882714272E+09   -0.117244686802172467E+03
    0.475570598609876771E+00    0.484878366351424006E+00    0.597117528348529339E+09   -0.117512173537196958E+03
    0.475226725011277329E+00    0.481979907777487782E+00    0.597122957990446568E+09   -0.117042862750221673E+03
    0.484209761575766506E+00    0.536629793994807258E+00    0.590768857992431641E+09   -0.117299584589847143E+03
    0.484209761575766506E+00    0.536629793994807258E+00    0.590768857992431641E+09   -0.117299584589847143E+03
    0.483976865368100639E+00    0.543071703048001453E+00    0.590462115426131725E+09   -0.117803320854282404E+03
    0.483628350172448429E+00    0.530127199368482849E+00    0.591037558706178665E+09   -0.117018357331028341E+03
    0.499690640723177593E+00    0.534071872191638874E+00    0.582846627706886768E+09   -0.117177773035780973E+03
    0.498033564249731109E+00    0.534968064085550310E+00    0.583243556028473616E+09   -0.117087493318587448E+03
    0.487447698442389665E+00    0.538593377613111102E+00    0.588799365204667330E+09   -0.117659511465644215E+03
    0.485737582005793866E+00    0.587129548721549099E+00    0.592416032952620506E+09   -0.117821064734764988E+03
    0.484085609849618514E+00    0.545786776502051652E+00    0.590902025053819418E+09   -0.117819220435355376E+03
    0.502105003956048956E+00    0.508269422032402218E+00    0.580801566957242727E+09   -0.116786558889241192E+03
    0.502105003956048956E+00    0.508269422032402218E+00    0.580801566957242727E+09   -0.116786558889241192E+03
    0.497922342733042089E+00    0.516833758511562991E+00    0.582671924509346485E+09   -0.117813232223919613E+03
    0.501125829128139633E+00    0.495738619173394568E+00    0.578355157014408827E+09   -0.117736998871395926E+03
    0.485831087622412616E+00    0.482984260718799518E+00    0.587314387779002905E+09   -0.117551288061901701E+03
    0.478975561977943110E+00    0.478239086831145244E+00    0.590057876029137135E+09   -0.117468674801843264E+03
    0.480860730634042111E+00    0.463173770705147092E+00    0.590317357408171892E+09   -0.117502423899321656E+03
    0.482658727456846626E+00    0.468231592950891340E+00    0.590089666482385397E+09   -0.117085664952140306E+03
    0.482658727456846626E+00    0.468231592950891340E+00    0.590089666482385397E+09   -0.117085664952140306E+03
    0.478327955402811200E+00    0.472513481731265728E+00    0.589833939023024082E+09   -0.117828625069224273E+03
    0.480825860257346194E+00    0.455659610217779232E+00    0.590531557866615653E+09   -0.117717730817756973E+03
    0.483276584233750250E+00    0.475748428560933689E+00    0.590119640871662617E+09   -0.117266792523495894E+03
