    0.189585936079530393E+00    0.482216038154621884E+00    0.101259320836147976E+11   -0.137788906216320413E+03
    0.196036726695876351E+00    0.560735362354883193E+00    0.100763653666685562E+11   -0.136841460490947213E+03
    0.153386086416248568E+00    0.448176036820928658E+00    0.112569272368652725E+11   -0.136749076871841311E+03
    0.159432417843289653E+00    0.472602089978881423E+00    0.112804399870158958E+11   -0.136118960091377062E+03
    0.147201257621250747E+00    0.564362723962720025E+00    0.116786259152132225E+11   -0.136035102537654723E+03
    0.159117234834315502E+00    0.446076350676701594E+00    0.110463047760187378E+11   -0.135697965621443814E+03
    0.192752087631331614E+00    0.498004664136926678E+00    0.100600953427046852E+11   -0.135612937042886443E+03
    0.160160471809075278E+00    0.441102707692946794E+00    0.110327825648429337E+11   -0.135467365401224356E+03
    0.215974475113848985E+00    0.571390992232714723E+00    0.954252147399215508E+10   -0.135427796562135853E+03
    0.183852316953718065E+00    0.526498214257486552E+00    0.103396783193803444E+11   -0.135424324214886127E+03
    0.166955015611413127E+00    0.536853244119440021E+00    0.110390668572135544E+11   -0.135077555701048084E+03
    0.181079423240795734E+00    0.430499231002505311E+00    0.105590343211075649E+11   -0.134988099700141987E+03
    0.173314201960544090E+00    0.409177135281373339E+00    0.107889604621608791E+11   -0.134953651064434155E+03
    0.188356876652250038E+00    0.447213635713643143E+00    0.101779275078924713E+11   -0.134820803342769295E+03
    0.201790418009979766E+00    0.493656997172159606E+00    0.982861894913479805E+10   -0.134683133211066860E+03
    0.178161165422699275E+00    0.532854717594226202E+00    0.106062912427449379E+11   -0.134493622120086144E+03
    0.164336286197450887E+00    0.442307337407347845E+00    0.110000061450265274E+11   -0.134474255658430422E+03
    0.166375653883066965E+00    0.497290112013315522E+00    0.110186143757073784E+11   -0.134426999454282907E+03
    0.164227445925893473E+00    0.467870411542072873E+00    0.109597318097879639E+11   -0.134374660763765178E+03
    0.171678589356271449E+00    0.494934244009607838E+00    0.107993041944786644E+11   -0.134358936532895143E+03
    0.175649561936329135E+00    0.493901957417454796E+00    0.106438983901276054E+11   -0.134258514058710830E+03
    0.187103629008500694E+00    0.525728119115671078E+00    0.102122057514242592E+11   -0.134258128697424098E+03
    0.185534751475544768E+00    0.415920256664179533E+00    0.102583189721042023E+11   -0.134195941078558860E+03
    0.156753789034779489E+00    0.418534326809092860E+00    0.112105472318186798E+11   -0.134123757392300377E+03
    0.160775404319866200E+00    0.409795839938960071E+00    0.110998756435595016E+11   -0.134103925121087173E+03
    0.199721912009648339E+00    0.550098038711313464E+00    0.994350958073355484E+10   -0.134075858855173067E+03
    0.177746348479222827E+00    0.487243259648481697E+00    0.106478235034012547E+11   -0.134048759850298239E+03
    0.192904487288881543E+00    0.512588601653762410E+00    0.101198622757098198E+11   -0.134013411306211879E+03
    0.162024173478567235E+00    0.482201182342702594E+00    0.111883757720020905E+11   -0.134001463615792915E+03
    0.150442462818739631E+00    0.552879963250891393E+00    0.115369172830532761E+11   -0.133962504476277388E+03
    0.162118961051581717E+00    0.544422474894146191E+00    0.110844300593937912E+11   -0.133934890079083914E+03
    0.190805703882868827E+00    0.529888273551934574E+00    0.101738327222758579E+11   -0.133878750577622498E+03
    0.185860035420127967E+00    0.505107756936597596E+00    0.103225634873019180E+11   -0.133777504299887823E+03
    0.204626236131384809E+00    0.485600422902168205E+00    0.985521618697858047E+10   -0.133546767778385288E+03
    0.167792961016333564E+00    0.413411492266630987E+00    0.108250357102830238E+11   -0.133488316251081727E+03
    0.198500133609158191E+00    0.496430528592755493E+00    0.995283070222612000E+10   -0.133466520154330965E+03
    0.166593806201230210E+00    0.396842884197663892E+00    0.108511116802964077E+11   -0.133445016447674021E+03
    0.184827788707514096E+00    0.559635474569970981E+00    0.103436867598602867E+11   -0.133422512182570301E+03
    0.168012831659314493E+00    0.440680141818809545E+00    0.108943439548240280E+11   -0.133404348665484349E+03
    0.156803144672539890E+00    0.440692664850704574E+00    0.112537645914072723E+11   -0.133398396975614475E+03
    0.174562278836817963E+00    0.407011451576371641E+00    0.106188814000313454E+11   -0.133349745683714218E+03
    0.157587766754810843E+00    0.473833454656677588E+00    0.111962641840899887E+11   -0.133347727809547365E+03
    0.176802375349401186E+00    0.518480449812450672E+00    0.105587301291115570E+11   -0.133270177471997044E+03
    0.159129186008555801E+00    0.448568419666685259E+00    0.112636358659118195E+11   -0.133222617883825222E+03
    0.172654380892786341E+00    0.440228292604396998E+00    0.107130544000769653E+11   -0.133199356226540203E+03
    0.177075352674462283E+00    0.545780223166723033E+00    0.105789362745621490E+11   -0.133147752346287916E+03
    0.165048238696354876E+00    0.434872371563535864E+00    0.109069389465674057E+11   -0.133094522439508211E+03
    0.193641750251245470E+00    0.489845113731540494E+00    0.101790360355790215E+11   -0.133087747839141457E+03
    0.188097039362350116E+00    0.413210188212680407E+00    0.102079935912162132E+11   -0.133085353598654848E+03
    0.192889854703524155E+00    0.600766383285764149E+00    0.100745134226131630E+11   -0.133049081642226298E+03
    0.150856587788828378E+00    0.571836278462470204E+00    0.115196728265478554E+11   -0.133037781448554114E+03
    0.188022224115318604E+00    0.535451113026287118E+00    0.102213281069285488E+11   -0.132996616186706319E+03
    0.191144439586776460E+00    0.562798567872260236E+00    0.101247445241069603E+11   -0.132988772779559270E+03
    0.180236484391282814E+00    0.544298882037850262E+00    0.104514244441888962E+11   -0.132977747181467436E+03
    0.169136447013952862E+00    0.395560809586001483E+00    0.108059160927411156E+11   -0.132974969514453079E+03
    0.163506883818205384E+00    0.548525892796654091E+00    0.109613158589919586E+11   -0.132972704169260055E+03
    0.169836444885978349E+00    0.488269577694328660E+00    0.108277730710595970E+11   -0.132919099311962157E+03
    0.167317830645980020E+00    0.454153135283071663E+00    0.108646368150959435E+11   -0.132901363368803800E+03
    0.176252701370885612E+00    0.507254220421913260E+00    0.105569249071376476E+11   -0.132892578278367409E+03
    0.188066338339463346E+00    0.478852409604193952E+00    0.103331911243111763E+11   -0.132836712829060332E+03
    0.150834141112321685E+00    0.518573765362583927E+00    0.114519286772002525E+11   -0.132832909930901195E+03
    0.154030493175041278E+00    0.458405717096880494E+00    0.113328292010103378E+11   -0.132820801700682210E+03
    0.162415042985637192E+00    0.482304707186408166E+00    0.110743370212593918E+11   -0.132803600167599029E+03
    0.164100865964554671E+00    0.422968164706203353E+00    0.110019069047988205E+11   -0.132801555946158629E+03
    0.169642498412760634E+00    0.487436643167352912E+00    0.108339151657441216E+11   -0.132800352411536323E+03
    0.182101720718482574E+00    0.581122164801591623E+00    0.103834231839199181E+11   -0.132737178025848834E+03
    0.183194122514591162E+00    0.517103154358945716E+00    0.103541302545990906E+11   -0.132708725614832360E+03
    0.188750661712709211E+00    0.515449658818969425E+00    0.103320963448096333E+11   -0.132677600144467391E+03
    0.159515512559485151E+00    0.509377686773133220E+00    0.111083205941558571E+11   -0.132674491589269678E+03
    0.171125785300108357E+00    0.374247470901970303E+00    0.108209507617431355E+11   -0.132660159298387327E+03
    0.163785472925720377E+00    0.506913459950709466E+00    0.109510947198342285E+11   -0.132640269432561951E+03
    0.162280712389605675E+00    0.544175597902112784E+00    0.110064162615244522E+11   -0.132631949397328867E+03
    0.166815701272554601E+00    0.378283782846541072E+00    0.109743313747059402E+11   -0.132617629333288107E+03
    0.166786754246520175E+00    0.489261924259349001E+00    0.109488080477115021E+11   -0.132605959253896714E+03
    0.165650416313015858E+00    0.441396543546893838E+00    0.110265613941309547E+11   -0.132586422541869155E+03
    0.163199480009913078E+00    0.496340288204390134E+00    0.109880845248702126E+11   -0.132581615534419171E+03
    0.157926334979942018E+00    0.474669866334870960E+00    0.112040013570593185E+11   -0.132574512145627040E+03
    0.160415775369822128E+00    0.484978522933198875E+00    0.111448493659565849E+11   -0.132564807521713874E+03
    0.154417123085115571E+00    0.486518135489115267E+00    0.113067519571229134E+11   -0.132561728634894848E+03
    0.183868276214888882E+00    0.573417823232269086E+00    0.103382957678455009E+11   -0.132559727928580600E+03
    0.186556316898207175E+00    0.507584404733073313E+00    0.103349629411509857E+11   -0.132549829211809481E+03
    0.171128619899298617E+00    0.448173789180820847E+00    0.107876217241735592E+11   -0.132535152656626849E+03
    0.167532116441799189E+00    0.371504093510221622E+00    0.108861415177520065E+11   -0.132530567062888792E+03
    0.160121208049692598E+00    0.458335898023383592E+00    0.110955191850294762E+11   -0.132463845725928422E+03
    0.181176431531256343E+00    0.572377911831162933E+00    0.104203296210032082E+11   -0.132449005433227427E+03
    0.167770063982910861E+00    0.543809564642710797E+00    0.108414199851857815E+11   -0.132437685950311902E+03
    0.164497226942491137E+00    0.531769107042986633E+00    0.109460243161082268E+11   -0.132418420863566098E+03
    0.188184584331060611E+00    0.480508797937389431E+00    0.103738899362690716E+11   -0.132406042858193587E+03
    0.177874370738150989E+00    0.507514997521692379E+00    0.105041254832102318E+11   -0.132394855468142282E+03
    0.183471069439364698E+00    0.490070753809019877E+00    0.104253117271154633E+11   -0.132335157157197585E+03
    0.159865563719084780E+00    0.439898260991213874E+00    0.111045214164891968E+11   -0.132332324675156258E+03
    0.164253030931420962E+00    0.557086415683421876E+00    0.109480733142782097E+11   -0.132326708184846154E+03
    0.166291844174529302E+00    0.449067066099191337E+00    0.108849028436171417E+11   -0.132322337084150917E+03
    0.170508155341074996E+00    0.433853284548838758E+00    0.107831132623013535E+11   -0.132291084116417096E+03
    0.188571718214431028E+00    0.582264930813190418E+00    0.102614163782813740E+11   -0.132271053257834751E+03
    0.173812009433984477E+00    0.514289315171559736E+00    0.106281203293247795E+11   -0.132265920578956184E+03
    0.167543602012362458E+00    0.536287302167878011E+00    0.109042140303700371E+11   -0.132251423434450572E+03
    0.170024969524426778E+00    0.464970857936865656E+00    0.108174309932760506E+11   -0.132241449424041889E+03
    0.168393274787654562E+00    0.452391013861717539E+00    0.108964138927837830E+11   -0.132238280860654754E+03
    0.177916765231663832E+00    0.426879985969577547E+00    0.106607475762131939E+11   -0.132229388972125378E+03
    0.187132704980787046E+00    0.500187927998766213E+00    0.102925150838209877E+11   -0.132199076605684667E+03
    0.158618639250810212E+00    0.480942942796984241E+00    0.112164025252693634E+11   -0.132174712512502879E+03
    0.177954336861601337E+00    0.530501529590667431E+00    0.106243258978989220E+11   -0.132160268709403681E+03
    0.178990059806156843E+00    0.494906900906498137E+00    0.105393593571545601E+11   -0.132143365622711144E+03
    0.183410341558742640E+00    0.552766264113696337E+00    0.104170303402169380E+11   -0.132126639494431743E+03
    0.187860069049610223E+00    0.530984963022902434E+00    0.102916529501994286E+11   -0.132111229749013290E+03
    0.189370470760625187E+00    0.470995599436523804E+00    0.102849838057982941E+11   -0.132099575643299488E+03
    0.157948213309448943E+00    0.498433172585670548E+00    0.112129271475838547E+11   -0.132097238501081478E+03
    0.188607397472572158E+00    0.504401776145757097E+00    0.102869749058568001E+11   -0.132066525736337439E+03
    0.158286225614819642E+00    0.514595296505866884E+00    0.111916414479159126E+11   -0.132061840258447916E+03
    0.162494441242110876E+00    0.516276912490523543E+00    0.110403145177600784E+11   -0.132001977841014650E+03
    0.174369543532803956E+00    0.545334960583176098E+00    0.106123154665765419E+11   -0.132001088874950710E+03
    0.188643833264554750E+00    0.561194515805123473E+00    0.103212721859072685E+11   -0.131999041322699668E+03
    0.158941859892169413E+00    0.435690200995717092E+00    0.111746440956117744E+11   -0.131993685968595628E+03
    0.177175025000030795E+00    0.503630307990359682E+00    0.106202672899782562E+11   -0.131987896646212903E+03
    0.168714060231233559E+00    0.425422708354446399E+00    0.108026895299439697E+11   -0.131978683041648054E+03
    0.162378680080173088E+00    0.496746738271347965E+00    0.110463059305905876E+11   -0.131965443098629351E+03
    0.167307569307791892E+00    0.383021222207656109E+00    0.108515019806098900E+11   -0.131954737096190513E+03
    0.156420310266209978E+00    0.477420494528239203E+00    0.112876675704523506E+11   -0.131950368570093474E+03
    0.156268302172077767E+00    0.466492030330815766E+00    0.113003151706246490E+11   -0.131943186668621223E+03
    0.164719899019840077E+00    0.447925691507149892E+00    0.109734721644611092E+11   -0.131861196573020891E+03
    0.184834924073719820E+00    0.454324233976564074E+00    0.104113101914329872E+11   -0.131823016506141869E+03
    0.185132050972365236E+00    0.546646627132503227E+00    0.103431891804314194E+11   -0.131782308508782222E+03
    0.186516111066675982E+00    0.476534578312797663E+00    0.103214545632146263E+11   -0.131778419882660046E+03
    0.186864346350075705E+00    0.561640083708631721E+00    0.102768391969986267E+11   -0.131746484539669950E+03
    0.167904445797389362E+00    0.384445687208796016E+00    0.108744358070044250E+11   -0.131745774492039345E+03
    0.167495283035690667E+00    0.411817813312095993E+00    0.109110277838894463E+11   -0.131736985322216015E+03
    0.164505082607593056E+00    0.426368367620694855E+00    0.109847398257957573E+11   -0.131735427067970818E+03
    0.185624930219876028E+00    0.522876502386360187E+00    0.103533553074470367E+11   -0.131651931803751921E+03
    0.172557209256901378E+00    0.451205912723693814E+00    0.107432740683373222E+11   -0.131650886149596630E+03
    0.155736214888675950E+00    0.508938095522964318E+00    0.113234776204925880E+11   -0.131618394634899062E+03
    0.155736214888675950E+00    0.508938095522964318E+00    0.113234776204925880E+11   -0.131618394634899062E+03
    0.174989806298763484E+00    0.549025551295713399E+00    0.106537379294898911E+11   -0.131612895434434620E+03
    0.178137576754014038E+00    0.487082161458051388E+00    0.105579234528103867E+11   -0.131590692475280434E+03
    0.171667870808075218E+00    0.513551825388883998E+00    0.107840314814236145E+11   -0.131568289160627273E+03
    0.182080777583877751E+00    0.553715115441770322E+00    0.104595532887599926E+11   -0.131566862383438661E+03
    0.181374001889507530E+00    0.550728222109221122E+00    0.104515832404016933E+11   -0.131545243751263996E+03
    0.174263378598795926E+00    0.424605845197712384E+00    0.107181990058202629E+11   -0.131533038790852544E+03
    0.182630024850502393E+00    0.549663138429675513E+00    0.104549583284057560E+11   -0.131528711253506145E+03
    0.182630024850502393E+00    0.549663138429675513E+00    0.104549583284057560E+11   -0.131528711253506145E+03
    0.183126298282836941E+00    0.570542933358158422E+00    0.104766308903301334E+11   -0.131524290896618936E+03
    0.189123724634707724E+00    0.507999352091632161E+00    0.102918445391912689E+11   -0.131522861236761031E+03
    0.189123724634707724E+00    0.507999352091632161E+00    0.102918445391912689E+11   -0.131522861236761031E+03
    0.180330504617813914E+00    0.580613220786510453E+00    0.104966006286259632E+11   -0.131513296550123158E+03
    0.182726989040071008E+00    0.580568284734852114E+00    0.104438545963645325E+11   -0.131480098089615296E+03
    0.186650658742808784E+00    0.602796750217120092E+00    0.103132639090455780E+11   -0.131468954698299399E+03
    0.186650658742808784E+00    0.602796750217120092E+00    0.103132639090455780E+11   -0.131468954698299399E+03
    0.185042314385691242E+00    0.528374154789108985E+00    0.104092042507566910E+11   -0.131446818902924377E+03
    0.160294503828867008E+00    0.472842491137209109E+00    0.111564878228976364E+11   -0.131426956286998063E+03
    0.182612576621399902E+00    0.559191633553925982E+00    0.104809045296488895E+11   -0.131426177316811760E+03
    0.171328821194404068E+00    0.530623559187738181E+00    0.107980368792194138E+11   -0.131414653094878076E+03
    0.166190123296634823E+00    0.532560800044326044E+00    0.109324406676409187E+11   -0.131410314271538027E+03
    0.168505928247395131E+00    0.457365086814922606E+00    0.108666878810470886E+11   -0.131407014515515129E+03
    0.205358726807014225E+00    0.495375247608972558E+00    0.990271835490061188E+10   -0.131390669902695151E+03
    0.177727638353791961E+00    0.566398889892658630E+00    0.105593350530450287E+11   -0.131352818932650791E+03
    0.169640090552440032E+00    0.474979895977140743E+00    0.108180938713951397E+11   -0.131343405548344549E+03
    0.188117554815172783E+00    0.607902559318667102E+00    0.103017104350301704E+11   -0.131319446714133562E+03
    0.170523712892515333E+00    0.380334417548418457E+00    0.108674394413987045E+11   -0.131316934193898561E+03
    0.177897205875024778E+00    0.497288481345169231E+00    0.105607676428714886E+11   -0.131307176256829109E+03
    0.167190283191955058E+00    0.425986958651350278E+00    0.108925456588241386E+11   -0.131286157626520009E+03
    0.198803600215159360E+00    0.532326376288722258E+00    0.100244997260077572E+11   -0.131270014213177149E+03
    0.198803600215159360E+00    0.532326376288722258E+00    0.100244997260077572E+11   -0.131270014213177149E+03
    0.173355968930776649E+00    0.471210931459459914E+00    0.107251499925469971E+11   -0.131262792710136949E+03
    0.175322430015188102E+00    0.518966874810386614E+00    0.106443826208834724E+11   -0.131254914200405125E+03
    0.175322430015188102E+00    0.518966874810386614E+00    0.106443826208834724E+11   -0.131254914200405125E+03
    0.186395233452827380E+00    0.565181322429818778E+00    0.102754420973984680E+11   -0.131246940128070378E+03
    0.170434576213232658E+00    0.438387086717760610E+00    0.107947939908132477E+11   -0.131242718079243616E+03
    0.178024321230005000E+00    0.522233025108274518E+00    0.105722110894794579E+11   -0.131240669900336883E+03
    0.181196131007790362E+00    0.580837982103052042E+00    0.104484258210630207E+11   -0.131217050139089338E+03
    0.176910203683726952E+00    0.533306559914768386E+00    0.105685407087392273E+11   -0.131204365098365571E+03
    0.176910203683726952E+00    0.533306559914768386E+00    0.105685407087392273E+11   -0.131204365098365571E+03
    0.179315223016638825E+00    0.536193875487667171E+00    0.105020856610006218E+11   -0.131199770871117039E+03
    0.187619143655342824E+00    0.559299502782177882E+00    0.102645183677267456E+11   -0.131187532333355790E+03
    0.171712902289484881E+00    0.385383043138160630E+00    0.107354624917782822E+11   -0.131161708444256561E+03
    0.166019570130348959E+00    0.525088349344148497E+00    0.109543115222628212E+11   -0.131151890070183356E+03
    0.167175686246997413E+00    0.477674034809732362E+00    0.109155997086304970E+11   -0.131116333483459641E+03
    0.168988494953025342E+00    0.538952166635930041E+00    0.108568188819141197E+11   -0.131115338130355212E+03
    0.179612824743517419E+00    0.535274733299097250E+00    0.105146400649165096E+11   -0.131110755979514153E+03
    0.179612824743517419E+00    0.535274733299097250E+00    0.105146400649165096E+11   -0.131110755979514153E+03
    0.179464810051274570E+00    0.523747405383458542E+00    0.105245207701470261E+11   -0.131110507822232933E+03
    0.179464810051274570E+00    0.523747405383458542E+00    0.105245207701470261E+11   -0.131110507822232933E+03
    0.172201305493369761E+00    0.474534921437047785E+00    0.107781260724143848E+11   -0.131109744038862885E+03
    0.172201305493369761E+00    0.474534921437047785E+00    0.107781260724143848E+11   -0.131109744038862885E+03
    0.176105493412759218E+00    0.518631976528618921E+00    0.106300709316556015E+11   -0.131076919603372062E+03
    0.171081511284067844E+00    0.397877247274680101E+00    0.107655045661996269E+11   -0.131035798128100566E+03
    0.174321843050464387E+00    0.433721013425351742E+00    0.106813214617855701E+11   -0.130994230435858526E+03
    0.175304231806771238E+00    0.481942402802710390E+00    0.106711745198349762E+11   -0.130993035882870629E+03
    0.167008314768646693E+00    0.496972119957014513E+00    0.109068338298826637E+11   -0.130968376955802512E+03
    0.171152590758257395E+00    0.455540697228283165E+00    0.107792360162471428E+11   -0.130921540906517009E+03
    0.191347200750638047E+00    0.493287734044770332E+00    0.102613971552010536E+11   -0.130920183680451771E+03
    0.175453261457365894E+00    0.550484797936245940E+00    0.106667926546542511E+11   -0.130913470770133358E+03
    0.179418286589600684E+00    0.544092053839904111E+00    0.105665015139840622E+11   -0.130907284588890690E+03
    0.186413708572147951E+00    0.546688452229997068E+00    0.103010431497626610E+11   -0.130904013328706185E+03
    0.186413708572147951E+00    0.546688452229997068E+00    0.103010431497626610E+11   -0.130904013328706185E+03
    0.178571351159357017E+00    0.508357022648841195E+00    0.105765086788443470E+11   -0.130887018203116440E+03
    0.178571351159357017E+00    0.508357022648841195E+00    0.105765086788443470E+11   -0.130887018203116440E+03
    0.184291406520009693E+00    0.538110438645491129E+00    0.103904604395258026E+11   -0.130882803975520176E+03
    0.181173245523280790E+00    0.559547031056888855E+00    0.105233945316341133E+11   -0.130876924299565985E+03
    0.181173245523280790E+00    0.559547031056888855E+00    0.105233945316341133E+11   -0.130876924299565985E+03
    0.189287447836409106E+00    0.538737674212764972E+00    0.102298567183150845E+11   -0.130867958652645882E+03
    0.179314682270293291E+00    0.510459128903615778E+00    0.105321406108078823E+11   -0.130856079324836969E+03
    0.174012822121439203E+00    0.550417756362296728E+00    0.106988697487481346E+11   -0.130832370840591068E+03
    0.174012822121439203E+00    0.550417756362296728E+00    0.106988697487481346E+11   -0.130832370840591068E+03
    0.177634574676930113E+00    0.560424752166069240E+00    0.105867663429971313E+11   -0.130822112674961772E+03
    0.211109957496134704E+00    0.512855036120889451E+00    0.975491400187931824E+10   -0.130801487236176740E+03
    0.171150393379355781E+00    0.433259322332268937E+00    0.107611751688205070E+11   -0.130765900655375049E+03
    0.171150393379355781E+00    0.433259322332268937E+00    0.107611751688205070E+11   -0.130765900655375049E+03
    0.206368900140718126E+00    0.513209787572513676E+00    0.986309697339154053E+10   -0.130756951015501414E+03
    0.167004051452733004E+00    0.489069625316618684E+00    0.109056864595076752E+11   -0.130732615450497548E+03
    0.177654898350067481E+00    0.556896891515251014E+00    0.105510079438218040E+11   -0.130705852330047662E+03
    0.177654898350067481E+00    0.556896891515251014E+00    0.105510079438218040E+11   -0.130705852330047662E+03
    0.177371062620202413E+00    0.444314801193705478E+00    0.106227487010137787E+11   -0.130666350140233988E+03
    0.177371062620202413E+00    0.444314801193705478E+00    0.106227487010137787E+11   -0.130666350140233988E+03
    0.175636047214224433E+00    0.534147379219827911E+00    0.106720669540926781E+11   -0.130666318827393695E+03
    0.171600524909806484E+00    0.440498881891802085E+00    0.107846353447783623E+11   -0.130641480958193938E+03
    0.181009768378483538E+00    0.561939781212403844E+00    0.104583156418716221E+11   -0.130634083375344630E+03
    0.183301969057564906E+00    0.540834864771493784E+00    0.104174321921010647E+11   -0.130622092678323924E+03
    0.196199833087845721E+00    0.518826102397957456E+00    0.101004569268943653E+11   -0.130608554776706654E+03
    0.177201264974143902E+00    0.518179701167246876E+00    0.106251532715218582E+11   -0.130608019754954000E+03
    0.177201264974143902E+00    0.518179701167246876E+00    0.106251532715218582E+11   -0.130608019754954000E+03
    0.186248308166796772E+00    0.572344858853865546E+00    0.103888936823067245E+11   -0.130605187610054088E+03
    0.186248308166796772E+00    0.572344858853865546E+00    0.103888936823067245E+11   -0.130605187610054088E+03
    0.192363296432205788E+00    0.523594341851298495E+00    0.102308050563606777E+11   -0.130590347001083387E+03
    0.170478789143155951E+00    0.386326280520188803E+00    0.108626859537629700E+11   -0.130586960888570388E+03
    0.170478789143155951E+00    0.386326280520188803E+00    0.108626859537629700E+11   -0.130586960888570388E+03
    0.171932589247682510E+00    0.476471895856033001E+00    0.107580572957912560E+11   -0.130585672270967109E+03
    0.171932589247682510E+00    0.476471895856033001E+00    0.107580572957912560E+11   -0.130585672270967109E+03
    0.168125890867128702E+00    0.428540123802784834E+00    0.108826098892565956E+11   -0.130583434889769421E+03
    0.185015904954407173E+00    0.499989826497227341E+00    0.103830307275201607E+11   -0.130573261722585897E+03
    0.183122483063061059E+00    0.525988141735087567E+00    0.104490044166807747E+11   -0.130515635765888590E+03
    0.183122483063061059E+00    0.525988141735087567E+00    0.104490044166807747E+11   -0.130515635765888590E+03
    0.191109994299104580E+00    0.535565572782035204E+00    0.101755129336361771E+11   -0.130501513054022496E+03
    0.191109994299104580E+00    0.535565572782035204E+00    0.101755129336361771E+11   -0.130501513054022496E+03
    0.176763727569506868E+00    0.544073472096425093E+00    0.106074528857481308E+11   -0.130498858228660907E+03
    0.176763727569506868E+00    0.544073472096425093E+00    0.106074528857481308E+11   -0.130498858228660907E+03
    0.190135517721649161E+00    0.535536971899105652E+00    0.102580115834278946E+11   -0.130494380924859399E+03
    0.168368754632564510E+00    0.523766768775990599E+00    0.108947237640804405E+11   -0.130488007585872197E+03
    0.186272916934256128E+00    0.585385496776984482E+00    0.103980591721924114E+11   -0.130485907929545533E+03
    0.188234477830661107E+00    0.544736845043864548E+00    0.103273302125620956E+11   -0.130485756363748266E+03
    0.174003054646207689E+00    0.470630781499677298E+00    0.107036821584867001E+11   -0.130485358644340351E+03
    0.174003054646207689E+00    0.470630781499677298E+00    0.107036821584867001E+11   -0.130485358644340351E+03
    0.179410900020561925E+00    0.508523577236680069E+00    0.105685989624163246E+11   -0.130466250746172761E+03
    0.176508438713557758E+00    0.436215961024831955E+00    0.106449028503490257E+11   -0.130450811986726166E+03
    0.167084697393224346E+00    0.491284908511168794E+00    0.109250363381924591E+11   -0.130441852605176223E+03
    0.167084697393224346E+00    0.491284908511168794E+00    0.109250363381924591E+11   -0.130441852605176223E+03
    0.189639383189167066E+00    0.537714017286425872E+00    0.102833626745371666E+11   -0.130438719253641011E+03
    0.189639383189167066E+00    0.537714017286425872E+00    0.102833626745371666E+11   -0.130438719253641011E+03
    0.185949559928967889E+00    0.532071787422204068E+00    0.103544331430956860E+11   -0.130435978075024821E+03
    0.185949559928967889E+00    0.532071787422204068E+00    0.103544331430956860E+11   -0.130435978075024821E+03
    0.187771736827030300E+00    0.540226248008043086E+00    0.102580698051425037E+11   -0.130426419061335764E+03
    0.166832216801106992E+00    0.518057973714448394E+00    0.109491001311892700E+11   -0.130417421103472208E+03
    0.186560234153278215E+00    0.483004710126287762E+00    0.103222727051107216E+11   -0.130405741448378308E+03
    0.186560234153278215E+00    0.483004710126287762E+00    0.103222727051107216E+11   -0.130405741448378308E+03
    0.177945894023037121E+00    0.520562950990539619E+00    0.105861785298403454E+11   -0.130397433142744973E+03
    0.177105177013767601E+00    0.457353246792921553E+00    0.106263818077371902E+11   -0.130396240431178171E+03
    0.181390067161058877E+00    0.529296327139149980E+00    0.104521295761508045E+11   -0.130393345866747580E+03
    0.176917266827520681E+00    0.533349049655281959E+00    0.106274711709807663E+11   -0.130385016756775030E+03
    0.176917266827520681E+00    0.533349049655281959E+00    0.106274711709807663E+11   -0.130385016756775030E+03
    0.186326380922901380E+00    0.530271884654906600E+00    0.103288931500623455E+11   -0.130375925868537280E+03
    0.181876504971691111E+00    0.559073437752745761E+00    0.104255816026294250E+11   -0.130375389370864752E+03
    0.181876504971691111E+00    0.559073437752745761E+00    0.104255816026294250E+11   -0.130375389370864752E+03
    0.175283271167945620E+00    0.507257836586308741E+00    0.106615700102227135E+11   -0.130372214525101526E+03
    0.175283271167945620E+00    0.507257836586308741E+00    0.106615700102227135E+11   -0.130372214525101526E+03
    0.184954321761535867E+00    0.589055834323248817E+00    0.104245914510429173E+11   -0.130370845546958947E+03
    0.187370715495943474E+00    0.539879001807399561E+00    0.103412316149130936E+11   -0.130357313830522372E+03
    0.187370715495943474E+00    0.539879001807399561E+00    0.103412316149130936E+11   -0.130357313830522372E+03
    0.182104102742870810E+00    0.549140055410843431E+00    0.104581195814783897E+11   -0.130352647223706100E+03
    0.182881905949501933E+00    0.559589340340849617E+00    0.104221278115910454E+11   -0.130351521796196351E+03
    0.168039787276973107E+00    0.383444830933122205E+00    0.109180350769079895E+11   -0.130335048796915231E+03
    0.184281215826706257E+00    0.553390718860967468E+00    0.104433652940170212E+11   -0.130324290696685466E+03
    0.184281215826706257E+00    0.553390718860967468E+00    0.104433652940170212E+11   -0.130324290696685466E+03
    0.183611868820821311E+00    0.567586673905749350E+00    0.104042663431009674E+11   -0.130316453444936741E+03
    0.189055547523437228E+00    0.538132454219525158E+00    0.102678629778801041E+11   -0.130306812324675946E+03
    0.189055547523437228E+00    0.538132454219525158E+00    0.102678629778801041E+11   -0.130306812324675946E+03
    0.177759042699756120E+00    0.554443603284253683E+00    0.105503109584720230E+11   -0.130304177345724412E+03
    0.177759042699756120E+00    0.554443603284253683E+00    0.105503109584720230E+11   -0.130304177345724412E+03
    0.175593559997898829E+00    0.499041044631278297E+00    0.106790633892673664E+11   -0.130302204480148305E+03
    0.175593559997898829E+00    0.499041044631278297E+00    0.106790633892673664E+11   -0.130302204480148305E+03
    0.205193010508481821E+00    0.528371103152169397E+00    0.986343435976601028E+10   -0.130290912405583896E+03
    0.171278923574225195E+00    0.454217211266687571E+00    0.107819099529397812E+11   -0.130289521531533751E+03
    0.173423038283749248E+00    0.548434707813914457E+00    0.107074465430858479E+11   -0.130284864529633069E+03
    0.178337817186677128E+00    0.455982954174420030E+00    0.105976904916082764E+11   -0.130279522502585451E+03
    0.167520746520132852E+00    0.489157711539046858E+00    0.109118466867889252E+11   -0.130256735016861938E+03
    0.167520746520132852E+00    0.489157711539046858E+00    0.109118466867889252E+11   -0.130256735016861938E+03
    0.168614472292315132E+00    0.508322606258159837E+00    0.108688683433133049E+11   -0.130199465991633019E+03
    0.168614472292315132E+00    0.508322606258159837E+00    0.108688683433133049E+11   -0.130199465991633019E+03
    0.182021889198010878E+00    0.545820483370180298E+00    0.104651676384034309E+11   -0.130193065084403884E+03
    0.180802508750289137E+00    0.563892924138473361E+00    0.105034153664338398E+11   -0.130189525648603450E+03
    0.185325063975696813E+00    0.550538541356148770E+00    0.103356450305738907E+11   -0.130186208202869011E+03
    0.172636246419883232E+00    0.422980350443996400E+00    0.107480704407733803E+11   -0.130166142818523639E+03
    0.172636246419883232E+00    0.422980350443996400E+00    0.107480704407733803E+11   -0.130166142818523639E+03
    0.167994646829163180E+00    0.495011546175751604E+00    0.109138127218974533E+11   -0.130162240263023790E+03
    0.170706931707897747E+00    0.490703261357250398E+00    0.108064203017233467E+11   -0.130142535192905001E+03
    0.178991624263399429E+00    0.513912169328524016E+00    0.105554108042106972E+11   -0.130135466474243799E+03
    0.174911559707266490E+00    0.544647548807702719E+00    0.106891585021921692E+11   -0.130128134015194803E+03
    0.184961431076523630E+00    0.474349040674113098E+00    0.103760629057019405E+11   -0.130115451978803947E+03
    0.184961431076523630E+00    0.474349040674113098E+00    0.103760629057019405E+11   -0.130115451978803947E+03
    0.183767320161571823E+00    0.546823435365524801E+00    0.103918121234230766E+11   -0.130113936220510112E+03
    0.183767320161571823E+00    0.546823435365524801E+00    0.103918121234230766E+11   -0.130113936220510112E+03
    0.179872194695447074E+00    0.525977776728726809E+00    0.105186770296114693E+11   -0.130100154828108202E+03
    0.179872194695447074E+00    0.525977776728726809E+00    0.105186770296114693E+11   -0.130100154828108202E+03
    0.188925382387167606E+00    0.540075279167773203E+00    0.102556641165795784E+11   -0.130093700959433477E+03
    0.186974104800105401E+00    0.539961402997120032E+00    0.103501272996966057E+11   -0.130093010888574696E+03
    0.186974104800105401E+00    0.539961402997120032E+00    0.103501272996966057E+11   -0.130093010888574696E+03
    0.177325627787383644E+00    0.438934943930595622E+00    0.106224673320286407E+11   -0.130079598407992023E+03
    0.182652375324085625E+00    0.530257648252220548E+00    0.104243659064856491E+11   -0.130078705708229563E+03
    0.180550424999457559E+00    0.502074677828570515E+00    0.105124122025321903E+11   -0.130073810609747511E+03
    0.189733107335119722E+00    0.511745667691936745E+00    0.102786330402964287E+11   -0.130064956809688510E+03
    0.181541502166780278E+00    0.546395079275196593E+00    0.104986192257553711E+11   -0.130043701539721781E+03
    0.178506516210071187E+00    0.504201898828760875E+00    0.105802807205228176E+11   -0.130039474296992807E+03
    0.184436169098933456E+00    0.535151957704940173E+00    0.104078927779105682E+11   -0.130036394827220647E+03
    0.184243793301274661E+00    0.537816595256522589E+00    0.104095769580813828E+11   -0.130021436342432423E+03
    0.191656788188988458E+00    0.416610452685269195E+00    0.102373457681175194E+11   -0.130017522863823643E+03
    0.191656788188988458E+00    0.416610452685269195E+00    0.102373457681175194E+11   -0.130017522863823643E+03
    0.177873258799132961E+00    0.539844808628933137E+00    0.106272885009209995E+11   -0.129998809101910012E+03
    0.184370628775560430E+00    0.527079054642630496E+00    0.104119027270474873E+11   -0.129989608661689857E+03
    0.184370628775560430E+00    0.527079054642630496E+00    0.104119027270474873E+11   -0.129989608661689857E+03
    0.186780054749692448E+00    0.556066839396379464E+00    0.103491747054530582E+11   -0.129984870096621819E+03
    0.186780054749692448E+00    0.556066839396379464E+00    0.103491747054530582E+11   -0.129984870096621819E+03
    0.202885351879536546E+00    0.524971207134719009E+00    0.993269805867986679E+10   -0.129983546805731351E+03
    0.184860108734737238E+00    0.516349743479288747E+00    0.103861879617097282E+11   -0.129982816201086564E+03
    0.188237025146403614E+00    0.523627535841038494E+00    0.102966349180815754E+11   -0.129979077369018569E+03
    0.189243476671289379E+00    0.513373381464006684E+00    0.102842827996078682E+11   -0.129946952960390746E+03
    0.189243476671289379E+00    0.513373381464006684E+00    0.102842827996078682E+11   -0.129946952960390746E+03
    0.183543977833265315E+00    0.601403236182907364E+00    0.104268827265041466E+11   -0.129937721293426193E+03
    0.186664133384254527E+00    0.580143988745124517E+00    0.103158230424922848E+11   -0.129925865878821355E+03
    0.197699502822831441E+00    0.506119866272470631E+00    0.100770951716137390E+11   -0.129922866745840992E+03
    0.177714310380315599E+00    0.490297975777131967E+00    0.105737253523375740E+11   -0.129908234769457664E+03
    0.201683603342796669E+00    0.505411113483930308E+00    0.997694817368421173E+10   -0.129908050764204546E+03
    0.187448566962699792E+00    0.530072034114663637E+00    0.103500671257671242E+11   -0.129906692953577704E+03
    0.187448566962699792E+00    0.530072034114663637E+00    0.103500671257671242E+11   -0.129906692953577704E+03
    0.173662562701835971E+00    0.463940182840282489E+00    0.107194244760136299E+11   -0.129900899573920810E+03
    0.173662562701835971E+00    0.463940182840282489E+00    0.107194244760136299E+11   -0.129900899573920810E+03
    0.186960124629224012E+00    0.486465989320482350E+00    0.103070012950450592E+11   -0.129899311268639707E+03
    0.179357495143361079E+00    0.512972437636292966E+00    0.105440714736069107E+11   -0.129896288479260761E+03
    0.179357495143361079E+00    0.512972437636292966E+00    0.105440714736069107E+11   -0.129896288479260761E+03
    0.203081687379125297E+00    0.513572708401362377E+00    0.994111965052847862E+10   -0.129891378141481624E+03
    0.172020655967052072E+00    0.541531581865141831E+00    0.107630842882375526E+11   -0.129884770032007964E+03
    0.189967047573284975E+00    0.514702732150700726E+00    0.102399632799363327E+11   -0.129856066247385371E+03
    0.189967047573284975E+00    0.514702732150700726E+00    0.102399632799363327E+11   -0.129856066247385371E+03
    0.189035826567883758E+00    0.510417553299300053E+00    0.103183265651022987E+11   -0.129851195328020367E+03
    0.188411992878915469E+00    0.528593048392352216E+00    0.103012952637113743E+11   -0.129831606208457373E+03
    0.188411992878915469E+00    0.528593048392352216E+00    0.103012952637113743E+11   -0.129831606208457373E+03
    0.189423893632214513E+00    0.514378189847629841E+00    0.103127034382961464E+11   -0.129811380859904233E+03
    0.189423893632214513E+00    0.514378189847629841E+00    0.103127034382961464E+11   -0.129811380859904233E+03
    0.187132197301129788E+00    0.539232388976531141E+00    0.103678546817817612E+11   -0.129809562565401848E+03
    0.180718864602130713E+00    0.521322562328109029E+00    0.105209399539562531E+11   -0.129808072658442171E+03
    0.186847328764833676E+00    0.512224364186305792E+00    0.103371805861881180E+11   -0.129777539751407573E+03
    0.186847328764833676E+00    0.512224364186305792E+00    0.103371805861881180E+11   -0.129777539751407573E+03
    0.180075041863403007E+00    0.563852614558268073E+00    0.105015847291649704E+11   -0.129774827254684055E+03
    0.180075041863403007E+00    0.563852614558268073E+00    0.105015847291649704E+11   -0.129774827254684055E+03
    0.184620100879404059E+00    0.547216523658775600E+00    0.103891924100162048E+11   -0.129763359846236369E+03
    0.185613380220723934E+00    0.540910559498200882E+00    0.103835169873101234E+11   -0.129737608019875154E+03
    0.185150147316796410E+00    0.459692127251170035E+00    0.103678949776208534E+11   -0.129734870934803013E+03
    0.187271585120738437E+00    0.545977965457126402E+00    0.103396205177465248E+11   -0.129714971783363239E+03
    0.184753124426562609E+00    0.449933380176869235E+00    0.104026181605218124E+11   -0.129673091701759688E+03
    0.185678991046686503E+00    0.545642921515629098E+00    0.103664110998742733E+11   -0.129651803233371538E+03
    0.185678991046686503E+00    0.545642921515629098E+00    0.103664110998742733E+11   -0.129651803233371538E+03
    0.187868680229910545E+00    0.533000009135964348E+00    0.103160865279231339E+11   -0.129649203821823079E+03
    0.187868680229910545E+00    0.533000009135964348E+00    0.103160865279231339E+11   -0.129649203821823079E+03
    0.188388212420466550E+00    0.523432147620495059E+00    0.103143447305670567E+11   -0.129615687457335838E+03
    0.182378799905857591E+00    0.528990270734075452E+00    0.104516374436826992E+11   -0.129613215914090063E+03
    0.182378799905857591E+00    0.528990270734075452E+00    0.104516374436826992E+11   -0.129613215914090063E+03
    0.189554569676082085E+00    0.500527566127784596E+00    0.102716642125585003E+11   -0.129609254079354855E+03
    0.189554569676082085E+00    0.500527566127784596E+00    0.102716642125585003E+11   -0.129609254079354855E+03
    0.182715179313726495E+00    0.527762445561760885E+00    0.104404199634281044E+11   -0.129587530869870648E+03
    0.206299051058854377E+00    0.525208344897125201E+00    0.984222299912627029E+10   -0.129587427860093442E+03
    0.178315646647699277E+00    0.540065409926487661E+00    0.106091802452233849E+11   -0.129583521700073106E+03
    0.178315646647699277E+00    0.540065409926487661E+00    0.106091802452233849E+11   -0.129583521700073106E+03
    0.182945617272001204E+00    0.545341639895777774E+00    0.104502790106434631E+11   -0.129581604201420987E+03
    0.182945617272001204E+00    0.545341639895777774E+00    0.104502790106434631E+11   -0.129581604201420987E+03
    0.187617918194914524E+00    0.508800043816979297E+00    0.103116750920835381E+11   -0.129577148722385317E+03
    0.187617918194914524E+00    0.508800043816979297E+00    0.103116750920835381E+11   -0.129577148722385317E+03
    0.204576728743015301E+00    0.509564601959805685E+00    0.989681275324640656E+10   -0.129575002975167138E+03
    0.204576728743015301E+00    0.509564601959805685E+00    0.989681275324640656E+10   -0.129575002975167138E+03
    0.179904476042801742E+00    0.468967555356851307E+00    0.105756503468845177E+11   -0.129572746327622298E+03
    0.179904476042801742E+00    0.468967555356851307E+00    0.105756503468845177E+11   -0.129572746327622298E+03
    0.182836987191275058E+00    0.607725843674778332E+00    0.104240411787566795E+11   -0.129554455414748674E+03
    0.182836987191275058E+00    0.607725843674778332E+00    0.104240411787566795E+11   -0.129554455414748674E+03
    0.189489572952289076E+00    0.509812705127739463E+00    0.102748998126935425E+11   -0.129500287767365080E+03
    0.189489572952289076E+00    0.509812705127739463E+00    0.102748998126935425E+11   -0.129500287767365080E+03
    0.204962261476844876E+00    0.515884165802225070E+00    0.989715901807980728E+10   -0.129489199345197051E+03
    0.188909086032098772E+00    0.511862535445775535E+00    0.103070466952216148E+11   -0.129485303424397699E+03
    0.188909086032098772E+00    0.511862535445775535E+00    0.103070466952216148E+11   -0.129485303424397699E+03
    0.180747229951293054E+00    0.501461707341082530E+00    0.105253540359958076E+11   -0.129474281591785001E+03
    0.182548313238113102E+00    0.619887652570005443E+00    0.104249173528060951E+11   -0.129474061457355646E+03
    0.177100492541457710E+00    0.469372009920910216E+00    0.106367722623595276E+11   -0.129472808572019574E+03
    0.177100492541457710E+00    0.469372009920910216E+00    0.106367722623595276E+11   -0.129472808572019574E+03
    0.190065939715848731E+00    0.531995469336843385E+00    0.102708146725085335E+11   -0.129463213029205690E+03
    0.190065939715848731E+00    0.531995469336843385E+00    0.102708146725085335E+11   -0.129463213029205690E+03
    0.188371948139161693E+00    0.501677134402561009E+00    0.103208846949051533E+11   -0.129445828164505059E+03
    0.188371948139161693E+00    0.501677134402561009E+00    0.103208846949051533E+11   -0.129445828164505059E+03
    0.189483154562613665E+00    0.504929569323772753E+00    0.102487825637846394E+11   -0.129428866006174076E+03
    0.209033415977117998E+00    0.500377446514919555E+00    0.982596111875197029E+10   -0.129417085856053120E+03
    0.182733147148777753E+00    0.556154625449023499E+00    0.104992588233727837E+11   -0.129408653576984250E+03
    0.184780867008461025E+00    0.516266531742882506E+00    0.103838035813618927E+11   -0.129405743027832244E+03
    0.187396104588392398E+00    0.588093457419507359E+00    0.103324736550035210E+11   -0.129404423145542182E+03
    0.187396104588392398E+00    0.588093457419507359E+00    0.103324736550035210E+11   -0.129404423145542182E+03
    0.178873927309789349E+00    0.503981540602893574E+00    0.106222882066920719E+11   -0.129402294781028246E+03
    0.186320361103416710E+00    0.550152527200676644E+00    0.103698859605483856E+11   -0.129394562932056260E+03
    0.186320361103416710E+00    0.550152527200676644E+00    0.103698859605483856E+11   -0.129394562932056260E+03
    0.186500816153206739E+00    0.521521621285486958E+00    0.103285732933638840E+11   -0.129384976806678793E+03
    0.179856639713021849E+00    0.542482647603673485E+00    0.105864368270164928E+11   -0.129377488896872848E+03
    0.179856639713021849E+00    0.542482647603673485E+00    0.105864368270164928E+11   -0.129377488896872848E+03
    0.178060182546154522E+00    0.499856584886156696E+00    0.106246112096451206E+11   -0.129359550489815405E+03
    0.184232828281406580E+00    0.556018706935905271E+00    0.104181298023350983E+11   -0.129358241087293663E+03
    0.193290461800723123E+00    0.533168423096867627E+00    0.102005460260085659E+11   -0.129346185353899529E+03
    0.193290461800723123E+00    0.533168423096867627E+00    0.102005460260085659E+11   -0.129346185353899529E+03
    0.178582238089458278E+00    0.561942198422951122E+00    0.105512552758902664E+11   -0.129343092452695828E+03
    0.178582238089458278E+00    0.561942198422951122E+00    0.105512552758902664E+11   -0.129343092452695828E+03
    0.180806532577187262E+00    0.542356258325405349E+00    0.105041513403336334E+11   -0.129335421013253551E+03
    0.186981842267016529E+00    0.520460703465364105E+00    0.103280378184056358E+11   -0.129328818571819454E+03
    0.178242072352693071E+00    0.501905935562181327E+00    0.105986415519309044E+11   -0.129295708522675170E+03
    0.178277069725474635E+00    0.545050712040847429E+00    0.105991212531395645E+11   -0.129290745810017683E+03
    0.178021781077440655E+00    0.497650746054249637E+00    0.106209179473649273E+11   -0.129289416337057702E+03
    0.178015968768062582E+00    0.502870428692222760E+00    0.106439321396545143E+11   -0.129288632367595056E+03
    0.178015968768062582E+00    0.502870428692222760E+00    0.106439321396545143E+11   -0.129288632367595056E+03
    0.181119686782855449E+00    0.567119672050317547E+00    0.104859233664459686E+11   -0.129282993603882829E+03
    0.185657457280191895E+00    0.550541009272837556E+00    0.103867441823504639E+11   -0.129272952370584107E+03
    0.178068494212972994E+00    0.510736955104999168E+00    0.105853607253913479E+11   -0.129272800327539301E+03
    0.178068494212972994E+00    0.510736955104999168E+00    0.105853607253913479E+11   -0.129272800327539301E+03
    0.182339613359735087E+00    0.526708988762145225E+00    0.104492865749481964E+11   -0.129263578360590884E+03
    0.184122851363779261E+00    0.523187181084187714E+00    0.104046690584334106E+11   -0.129262735737310919E+03
    0.195405512313030494E+00    0.504804927058765784E+00    0.101293259117044773E+11   -0.129243675065071415E+03
    0.187969215697175174E+00    0.517103638711496671E+00    0.103314128293393326E+11   -0.129236726566671422E+03
    0.180891259355796530E+00    0.509002000016728573E+00    0.105348801349632969E+11   -0.129230000416346002E+03
    0.181752455633205467E+00    0.556681480709537269E+00    0.105227681340986671E+11   -0.129223753807009700E+03
    0.177480760805908855E+00    0.504804600559744188E+00    0.106408606703791924E+11   -0.129222795270797064E+03
    0.180968087994771765E+00    0.551862012030952087E+00    0.105179822245142250E+11   -0.129218217988692885E+03
    0.182963649616137813E+00    0.538606410406462288E+00    0.104555328602262993E+11   -0.129218035659464363E+03
    0.186521801111664554E+00    0.494257404956892188E+00    0.103411502453631630E+11   -0.129209859694685491E+03
    0.195998511343433490E+00    0.508870128882001893E+00    0.101051394543579445E+11   -0.129207904126849598E+03
    0.195998511343433490E+00    0.508870128882001893E+00    0.101051394543579445E+11   -0.129207904126849598E+03
    0.213475722587257388E+00    0.495926963764446782E+00    0.972832705702363205E+10   -0.129198731560229646E+03
    0.184458236352850802E+00    0.529770507093829224E+00    0.104158868709755363E+11   -0.129187686683310829E+03
    0.173356934084481440E+00    0.545078841006766623E+00    0.107418013705399170E+11   -0.129183057294748409E+03
    0.185182895943487302E+00    0.470235703241128178E+00    0.103972417955249062E+11   -0.129176461299419032E+03
    0.184412805964809468E+00    0.604690764444688611E+00    0.103990018725017395E+11   -0.129175816697361682E+03
    0.182553011918238972E+00    0.555522487880287130E+00    0.105009522799189281E+11   -0.129153245297756882E+03
    0.182544871460499636E+00    0.606281450519695397E+00    0.104434100504645538E+11   -0.129137010103488450E+03
    0.174924530059232974E+00    0.506854693300581971E+00    0.107006342912212582E+11   -0.129132301578478291E+03
    0.174924530059232974E+00    0.506854693300581971E+00    0.107006342912212582E+11   -0.129132301578478291E+03
    0.186118017916395484E+00    0.456271892133637280E+00    0.103791075414902496E+11   -0.129130595665124844E+03
    0.186118017916395484E+00    0.456271892133637280E+00    0.103791075414902496E+11   -0.129130595665124844E+03
    0.187677846787815572E+00    0.509591264836583235E+00    0.103195158628657913E+11   -0.129126564800050801E+03
    0.179409602788189626E+00    0.491816490794942496E+00    0.105754782632394943E+11   -0.129116174837668382E+03
    0.179409602788189626E+00    0.491816490794942496E+00    0.105754782632394943E+11   -0.129116174837668382E+03
    0.187276353523632366E+00    0.512970471311033904E+00    0.103619522659462051E+11   -0.129115287047693101E+03
    0.174356568705803849E+00    0.526836347936374239E+00    0.107196492386590958E+11   -0.129112788980081405E+03
    0.195146291675477479E+00    0.508565247956695998E+00    0.101430331799086666E+11   -0.129111414552338175E+03
    0.195146291675477479E+00    0.508565247956695998E+00    0.101430331799086666E+11   -0.129111414552338175E+03
    0.178241473945175311E+00    0.500895684693428933E+00    0.105868798363658218E+11   -0.129102146961545401E+03
    0.205005481775177023E+00    0.518088538488070682E+00    0.988754246865957642E+10   -0.129099874595549181E+03
    0.180703873535844106E+00    0.549919408457151704E+00    0.105598745091318779E+11   -0.129092368055797181E+03
    0.186301744421694615E+00    0.586771447689571346E+00    0.103612748330098000E+11   -0.129088201816814944E+03
    0.186301744421694615E+00    0.586771447689571346E+00    0.103612748330098000E+11   -0.129088201816814944E+03
    0.180157993509374892E+00    0.495516432689782960E+00    0.105264125784439411E+11   -0.129087241469862477E+03
    0.185737671120659420E+00    0.521577240695771494E+00    0.103671355786513367E+11   -0.129071430300200632E+03
    0.189078617223317202E+00    0.539395261503184287E+00    0.102810315433010712E+11   -0.129071039910040781E+03
    0.192121497671973063E+00    0.523643642134612008E+00    0.101875499488740921E+11   -0.129068665264729304E+03
    0.178690608252704775E+00    0.559023142613007451E+00    0.105537616357128811E+11   -0.129068049739436219E+03
    0.186572583911334855E+00    0.600027992460535842E+00    0.103415954192901764E+11   -0.129062941009537553E+03
    0.200141374161022123E+00    0.518086651541535659E+00    0.100034572177547188E+11   -0.129054535408175326E+03
    0.180360977880798190E+00    0.563935055486812331E+00    0.105202596043925266E+11   -0.129052226533917917E+03
    0.179213599607659757E+00    0.509895407441769422E+00    0.105464709371464348E+11   -0.129048931973455836E+03
    0.177515808068514525E+00    0.509604361033380471E+00    0.106436302862348309E+11   -0.129047848620119197E+03
    0.185395818946863966E+00    0.463587332437871424E+00    0.104013343462480125E+11   -0.129037593339905357E+03
    0.188093217185410166E+00    0.480443265236269568E+00    0.103109439864218006E+11   -0.129034667611592027E+03
    0.186554788219172818E+00    0.468124749362818449E+00    0.103589601140981331E+11   -0.129034203498113243E+03
    0.179517623217504863E+00    0.500038282319831495E+00    0.105485346291948376E+11   -0.129029938571350527E+03
    0.194312281115751107E+00    0.506474520111426685E+00    0.101358969535127640E+11   -0.129025340958582717E+03
    0.191307396624468162E+00    0.526628424613672763E+00    0.102044862410252895E+11   -0.129021566268370236E+03
    0.191307396624468162E+00    0.526628424613672763E+00    0.102044862410252895E+11   -0.129021566268370236E+03
    0.184644681478639161E+00    0.450095067981624908E+00    0.104267745107272472E+11   -0.129014112181819428E+03
    0.178140346687623408E+00    0.513680012071429104E+00    0.105900986212674713E+11   -0.129008247395972489E+03
    0.186912720192887793E+00    0.508306512836462332E+00    0.103507390344103031E+11   -0.129003221375029483E+03
    0.200413283599446324E+00    0.526839489357453061E+00    0.999026496746383095E+10   -0.128993348143038304E+03
    0.187341707039457239E+00    0.514943464548018426E+00    0.103417009616694813E+11   -0.128979950385925008E+03
    0.189014786201452956E+00    0.517083037426420589E+00    0.102585538241372986E+11   -0.128973778700909236E+03
    0.179518517714635895E+00    0.501639497996155370E+00    0.105371126342594528E+11   -0.128965331229210875E+03
    0.180946705276190056E+00    0.538298530881514026E+00    0.105016355281418972E+11   -0.128959744050528457E+03
    0.186035589680130731E+00    0.513114985332411067E+00    0.103816649810950489E+11   -0.128939998915701096E+03
    0.182151919942114826E+00    0.560186340064340982E+00    0.104771776416270409E+11   -0.128936156585953483E+03
    0.191733604828606907E+00    0.543110648673511776E+00    0.102208472287739124E+11   -0.128935546886496752E+03
    0.178520054844711840E+00    0.460219685716705129E+00    0.105882683610309010E+11   -0.128931041561731661E+03
    0.182309145845855669E+00    0.566044302308277736E+00    0.104545810636269341E+11   -0.128927920366169303E+03
    0.187567959743889734E+00    0.544336335505612112E+00    0.103633982530955009E+11   -0.128913557831865859E+03
    0.190749569708804356E+00    0.532267059417257826E+00    0.102253456291272755E+11   -0.128913545708505353E+03
    0.184672877955703474E+00    0.536752040316217816E+00    0.103920253134586449E+11   -0.128910042376884917E+03
    0.179734145147178004E+00    0.493599031576250624E+00    0.105552167908616428E+11   -0.128900119645623647E+03
    0.181017389356209479E+00    0.490121390333385420E+00    0.104975317466019859E+11   -0.128892193800879909E+03
    0.179230299024896678E+00    0.493486975326932864E+00    0.105884018825220108E+11   -0.128891641683653205E+03
    0.185367164003210461E+00    0.589036159942571302E+00    0.103849216987073078E+11   -0.128886201698080640E+03
    0.189338816168512614E+00    0.524367405169146039E+00    0.102517966639286118E+11   -0.128872023411195016E+03
    0.191155304596784481E+00    0.544994644122457572E+00    0.102432151639672699E+11   -0.128871928618650344E+03
    0.190628367275942456E+00    0.532689521564822854E+00    0.102318452551934929E+11   -0.128866230266053918E+03
    0.182224645753501557E+00    0.559281745530721963E+00    0.104878390284081612E+11   -0.128855253058985028E+03
    0.178980405786173247E+00    0.463236249660486266E+00    0.105877493000523071E+11   -0.128853467041046429E+03
    0.184428549312175283E+00    0.555197232005305352E+00    0.104028171461195793E+11   -0.128841772608258054E+03
    0.174504773201566876E+00    0.514799975337826510E+00    0.107190533681452370E+11   -0.128836902348981766E+03
    0.189327192243494591E+00    0.520685600100311063E+00    0.103036822188878479E+11   -0.128832518968858068E+03
    0.209173818645494280E+00    0.528782926285959576E+00    0.976589759906109810E+10   -0.128822344988126616E+03
    0.179661931121745944E+00    0.495847877018496419E+00    0.105813108491909828E+11   -0.128820004607756744E+03
    0.184990743583372808E+00    0.453249842584293461E+00    0.104138426992287407E+11   -0.128819985207523160E+03
    0.180522630339572110E+00    0.540729621068269495E+00    0.105194015779568157E+11   -0.128813619596371041E+03
    0.186359053318105483E+00    0.472672939219151544E+00    0.103612962764738007E+11   -0.128812396520504507E+03
    0.178352063135713557E+00    0.465380292666138118E+00    0.105877005380159302E+11   -0.128806222709658670E+03
    0.200375867066417412E+00    0.505852170933218659E+00    0.100141934284011879E+11   -0.128803890088549906E+03
    0.174242007810905375E+00    0.531440402522891375E+00    0.107292892048552132E+11   -0.128775121420367071E+03
    0.186486665662525031E+00    0.543479247832983958E+00    0.103410879666116161E+11   -0.128767525075388761E+03
    0.187375116764243121E+00    0.506776094634860286E+00    0.103495415543267307E+11   -0.128763767783511383E+03
    0.185946557023185521E+00    0.481837079056122164E+00    0.103721885010123215E+11   -0.128763099579119768E+03
    0.190012767132524796E+00    0.517478860829868381E+00    0.102742613039639282E+11   -0.128762853411426079E+03
    0.210159648463030146E+00    0.517817009157791830E+00    0.976297114065583038E+10   -0.128757057678812799E+03
    0.205345852366219161E+00    0.528587609810902137E+00    0.985922166202059555E+10   -0.128753567587239957E+03
    0.210708067132441890E+00    0.517254679311774268E+00    0.975112088365369797E+10   -0.128751752559165425E+03
    0.180874304037709266E+00    0.560480054100555236E+00    0.105258847353774567E+11   -0.128749033640070735E+03
    0.182661619159824096E+00    0.537609251021153867E+00    0.104811925216038589E+11   -0.128747454508728538E+03
    0.196454376241874007E+00    0.511069145235873989E+00    0.100969321167545376E+11   -0.128737979567946923E+03
    0.203037413007860101E+00    0.515893642536266128E+00    0.993320252921818161E+10   -0.128713103572124623E+03
    0.180523235083664524E+00    0.565550006191635646E+00    0.105198685808288460E+11   -0.128710615297795243E+03
    0.180310498688050991E+00    0.544074454292841736E+00    0.105827194628601933E+11   -0.128703398778634892E+03
    0.187105511773210165E+00    0.534391151695256639E+00    0.103525809941163139E+11   -0.128699530983595025E+03
    0.189123879530992800E+00    0.528836256946949135E+00    0.102755106786658821E+11   -0.128699219096170395E+03
    0.188953186766090742E+00    0.514101206252126630E+00    0.102620924666070938E+11   -0.128689442162617866E+03
    0.175424008550717159E+00    0.512140308701457769E+00    0.106895111261261406E+11   -0.128684267814399675E+03
    0.186888662091927726E+00    0.512116799750144125E+00    0.103315643790011330E+11   -0.128674268893335721E+03
    0.186698701038249315E+00    0.520694999011601212E+00    0.103355077335732269E+11   -0.128661665825469953E+03
    0.196127326459940909E+00    0.508556907205200304E+00    0.101259716439755478E+11   -0.128658977408796090E+03
    0.186032575578573167E+00    0.518213054521288186E+00    0.103640712907650337E+11   -0.128653804415291063E+03
    0.185450986691934216E+00    0.531635555946976979E+00    0.103859859778765335E+11   -0.128640009498787776E+03
    0.194631883653221316E+00    0.505258398327100622E+00    0.101292762354279137E+11   -0.128631238593271632E+03
    0.179867499738863013E+00    0.491471300843697279E+00    0.105747943172360878E+11   -0.128621961905071430E+03
    0.186103881483507705E+00    0.551294479447587804E+00    0.104006830660598526E+11   -0.128616092417864849E+03
    0.182300543326548881E+00    0.540240111142276547E+00    0.104834086919720650E+11   -0.128615629754585029E+03
    0.190265747878240465E+00    0.540851925895108110E+00    0.102328689018255424E+11   -0.128612091667094887E+03
    0.178984905170124275E+00    0.554676554353585871E+00    0.105711371197042160E+11   -0.128607553552637171E+03
    0.180176021138493125E+00    0.554209880459213267E+00    0.105599581359101067E+11   -0.128600633423548572E+03
    0.193068802522288419E+00    0.547462660354895547E+00    0.102112629894218063E+11   -0.128583655321784079E+03
    0.183887954143326149E+00    0.535098122632284401E+00    0.104297073829183521E+11   -0.128577248397434232E+03
    0.189628352515545939E+00    0.522369317573152969E+00    0.102603318999065704E+11   -0.128575983666749238E+03
    0.178420139328476557E+00    0.506007615860928794E+00    0.106100849974695511E+11   -0.128570596896040286E+03
    0.186562414106927699E+00    0.529654355563728529E+00    0.103520732551368313E+11   -0.128568047775354444E+03
    0.179247476406655004E+00    0.467556461527342648E+00    0.105769353725309448E+11   -0.128567186149877699E+03
    0.191140449178428318E+00    0.527308458968544613E+00    0.102079060955169716E+11   -0.128563347884033249E+03
    0.187870690114929462E+00    0.476498311889139714E+00    0.103180092764291840E+11   -0.128551131548266312E+03
    0.182453507203287235E+00    0.561594499656177248E+00    0.104659858953214836E+11   -0.128545997051222599E+03
    0.186354334083645823E+00    0.524640700373561586E+00    0.103677087450395584E+11   -0.128539763567716903E+03
    0.190517655762139415E+00    0.533397502055141359E+00    0.102512143407894192E+11   -0.128535543203168629E+03
    0.189585012834629418E+00    0.525275877976261185E+00    0.103036373476762524E+11   -0.128531306110051872E+03
    0.189774678075210868E+00    0.519628194547696154E+00    0.102634964977477036E+11   -0.128530854397885435E+03
    0.187481839423136953E+00    0.545727139664297312E+00    0.103232035527280693E+11   -0.128530345677210221E+03
    0.202225631283803775E+00    0.520599381265917316E+00    0.995336216849644852E+10   -0.128525603459883655E+03
    0.199242904594009174E+00    0.511928259149499354E+00    0.100402344227593307E+11   -0.128522728411226012E+03
    0.180320870451817772E+00    0.561730665944125462E+00    0.105433438418730755E+11   -0.128522234345003938E+03
    0.183746699678719927E+00    0.440955676584467327E+00    0.104579634765683308E+11   -0.128521729527448258E+03
    0.186462153376892648E+00    0.531796067603426792E+00    0.103413886862177238E+11   -0.128521502602525970E+03
    0.185980531313828856E+00    0.593986263702483086E+00    0.103720167460673027E+11   -0.128515728997611120E+03
    0.186777360532306369E+00    0.467452359765584191E+00    0.103572601658806190E+11   -0.128494973191245435E+03
    0.185889674513889602E+00    0.549184356191993572E+00    0.103939228453415337E+11   -0.128467604553407000E+03
    0.188393435395232622E+00    0.604721497603186720E+00    0.102925182384356918E+11   -0.128446848820358156E+03
    0.191254123006631804E+00    0.527512516179427848E+00    0.102228871021165047E+11   -0.128437381300330173E+03
    0.185473048240345439E+00    0.529106222149959393E+00    0.103907248250246124E+11   -0.128433072697315424E+03
    0.190369623141121824E+00    0.540720321348519661E+00    0.102396388077596321E+11   -0.128430421477004131E+03
    0.199608199846031509E+00    0.516918437325077917E+00    0.100259051817264175E+11   -0.128428862589763213E+03
    0.185403013685141282E+00    0.592711256549003807E+00    0.103712582670114861E+11   -0.128425215267221006E+03
    0.180365090972446795E+00    0.556150663525578182E+00    0.105594264165121689E+11   -0.128423345946387627E+03
    0.185593196206401023E+00    0.453218544514699673E+00    0.104000657185345955E+11   -0.128415583078730464E+03
    0.185959469106042274E+00    0.546836375439305300E+00    0.103546287942503166E+11   -0.128412740668928450E+03
    0.189650438156804824E+00    0.519215447115131568E+00    0.102843797889183083E+11   -0.128411901647308753E+03
    0.186373572733879111E+00    0.455587015355373381E+00    0.103762058204384270E+11   -0.128373005658357897E+03
    0.196848072086975745E+00    0.507119855070655490E+00    0.100849920067713966E+11   -0.128369463711033717E+03
    0.196471747453816292E+00    0.507212690987943304E+00    0.100983034643998413E+11   -0.128356461791478864E+03
    0.190136128911299884E+00    0.539245669581621456E+00    0.102388178897925453E+11   -0.128352828683379016E+03
    0.192627998574699200E+00    0.523141875381794463E+00    0.101829793948103447E+11   -0.128349791951574474E+03
    0.181120839832887071E+00    0.561044936063368027E+00    0.105187374066888638E+11   -0.128335532472091302E+03
    0.184533179101518174E+00    0.537670698549595372E+00    0.104020541963650894E+11   -0.128332453145104012E+03
    0.187174422033035415E+00    0.482059877399109382E+00    0.103318882381392326E+11   -0.128323252903144635E+03
    0.185785629393859286E+00    0.471634953480927877E+00    0.103803201471389351E+11   -0.128321955204923626E+03
    0.192398557601446918E+00    0.547037767584534151E+00    0.102324283914122524E+11   -0.128310162933409970E+03
    0.187371489300043048E+00    0.509293442871994628E+00    0.103497772299577293E+11   -0.128308264593050268E+03
    0.192177026474414536E+00    0.527263182299311239E+00    0.102495572209186821E+11   -0.128277903075927100E+03
    0.189046206889700863E+00    0.533896502161921305E+00    0.103085138159095325E+11   -0.128275996641598880E+03
    0.189644676301063353E+00    0.522271579100852534E+00    0.102852947258816833E+11   -0.128259910455495685E+03
    0.182489501486791716E+00    0.559306630141239935E+00    0.104777027621583748E+11   -0.128255742532487773E+03
    0.184324439610808466E+00    0.531957290047964548E+00    0.104137932552900467E+11   -0.128251924691801264E+03
    0.188371839505821814E+00    0.606499039557778730E+00    0.102964795317709160E+11   -0.128237670588291877E+03
    0.181752744862006377E+00    0.560963079707281764E+00    0.105023726576811790E+11   -0.128231385693958117E+03
    0.189876367602385299E+00    0.517896862987932138E+00    0.102438791840325794E+11   -0.128221703644888578E+03
    0.187619649098035468E+00    0.545111911284667627E+00    0.103504887445431023E+11   -0.128218464544051074E+03
    0.186371884711568681E+00    0.520510312431348154E+00    0.103522737294766159E+11   -0.128212776662215731E+03
    0.191079515734515648E+00    0.543285394256123766E+00    0.102114465739431496E+11   -0.128208910244758869E+03
    0.186353913724146558E+00    0.549120834789562196E+00    0.103666078988216972E+11   -0.128204342966021841E+03
    0.178962069951794145E+00    0.494370669386054118E+00    0.106138813262863121E+11   -0.128202948704692062E+03
    0.185733668894397019E+00    0.455525761208688706E+00    0.103931980316067657E+11   -0.127901124634644987E+03
    0.187652591681420622E+00    0.482377657209397626E+00    0.103241269431578178E+11   -0.128069174702855662E+03
    0.187273211386092264E+00    0.509266770085009313E+00    0.103559552174296131E+11   -0.127843244373227577E+03
    0.186648368819363919E+00    0.509670467319926601E+00    0.103503475690175629E+11   -0.127932927404238384E+03
    0.187804139165815509E+00    0.510114432813281837E+00    0.103491296473808708E+11   -0.128149043867843375E+03
    0.183631241596474537E+00    0.557186120586401046E+00    0.104421598974441795E+11   -0.127920976539782259E+03
    0.180118468805838483E+00    0.544390162348635798E+00    0.105681148639272575E+11   -0.127862056488198050E+03
    0.183260586525012703E+00    0.536061203137897735E+00    0.104581905156715965E+11   -0.128164051202221685E+03
    0.186812933410239523E+00    0.532067874563313836E+00    0.103713177144454765E+11   -0.127262866180904012E+03
    0.186812933410239523E+00    0.532067874563313836E+00    0.103713177144454765E+11   -0.127262866180904012E+03
    0.186250881145100800E+00    0.525863709396595880E+00    0.103697816776478558E+11   -0.127762299114772929E+03
    0.191621016761620133E+00    0.544362773200099070E+00    0.102145395146530457E+11   -0.127724885377067253E+03
    0.191549771909196587E+00    0.544780718965490962E+00    0.102371687887881165E+11   -0.127101798172163768E+03
    0.192510845649825901E+00    0.546415109471725557E+00    0.102186555953155022E+11   -0.127325311460497716E+03
    0.192510845649825901E+00    0.546415109471725557E+00    0.102186555953155022E+11   -0.127325311460497716E+03
    0.192852741900871816E+00    0.547245007103324355E+00    0.101989326348538094E+11   -0.127563182584142055E+03
    0.192690751178753228E+00    0.546305089283013245E+00    0.102093537321652794E+11   -0.127617694990358260E+03
    0.191197539655023119E+00    0.542860898933721359E+00    0.102335235557314777E+11   -0.127871094556474901E+03
    0.193663877664288775E+00    0.550100500548323268E+00    0.101811380050462074E+11   -0.126807918064891680E+03
    0.193663877664288775E+00    0.550100500548323268E+00    0.101811380050462074E+11   -0.126807918064891680E+03
    0.193881170295346406E+00    0.551215375048492717E+00    0.102016732000424690E+11   -0.126728537898681850E+03
    0.193881170295346406E+00    0.551215375048492717E+00    0.102016732000424690E+11   -0.126728537898681850E+03
    0.190789575992657112E+00    0.541415076172597765E+00    0.102536902902002831E+11   -0.127664314006262998E+03
    0.191806378570976488E+00    0.545357046004074419E+00    0.102032414614147034E+11   -0.128103095068424409E+03
    0.192250096646752078E+00    0.546415584772322660E+00    0.102214157920467968E+11   -0.127617956817171830E+03
    0.194176249397167822E+00    0.549225067067398598E+00    0.101850317238887501E+11   -0.126918072121073749E+03
    0.194176249397167822E+00    0.549225067067398598E+00    0.101850317238887501E+11   -0.126918072121073749E+03
    0.190756434987421286E+00    0.542983797902820697E+00    0.102556533900517387E+11   -0.128100308269809631E+03
    0.191429544484919834E+00    0.541397236207505017E+00    0.102192551514377060E+11   -0.127991027896238961E+03
    0.188732991856655097E+00    0.530721806007354857E+00    0.103167446101516075E+11   -0.127867121875460796E+03
    0.189491990373842123E+00    0.526718109564852099E+00    0.103078115173171082E+11   -0.127236203107984437E+03
    0.189491990373842123E+00    0.526718109564852099E+00    0.103078115173171082E+11   -0.127236203107984437E+03
    0.188784681142052324E+00    0.528359985569466062E+00    0.103114923003907967E+11   -0.127557964047296878E+03
    0.189496645792441853E+00    0.523002471583486894E+00    0.102891276295430412E+11   -0.127651438278585417E+03
    0.188873157037981299E+00    0.533089362200433570E+00    0.103228539343865738E+11   -0.128015150299482144E+03
    0.189220083377065862E+00    0.526555524089609150E+00    0.102988840345362625E+11   -0.127969492097676735E+03
    0.189596774165558868E+00    0.511671620957169893E+00    0.102708390323138332E+11   -0.127816557066559483E+03
    0.190234863957692679E+00    0.519964159009177251E+00    0.102745281890026817E+11   -0.127531208432787381E+03
    0.190251050163733115E+00    0.511617628878322961E+00    0.102549846879098072E+11   -0.128090395201047215E+03
    0.191559742376174846E+00    0.529572671031024456E+00    0.102353654236586647E+11   -0.128031672391306273E+03
    0.191685180574406533E+00    0.533064910302980977E+00    0.102320845710619488E+11   -0.127616639054434017E+03
    0.192327048965624692E+00    0.529457496167184516E+00    0.102049388112685661E+11   -0.127639146604628735E+03
    0.190720732494551681E+00    0.534985860547575243E+00    0.102555932164898453E+11   -0.127733234615565038E+03
    0.191647650795295277E+00    0.527862273509121849E+00    0.102454266726912842E+11   -0.127641544444759120E+03
    0.191947875015758329E+00    0.529986703687088223E+00    0.102413189396613503E+11   -0.127005999906346545E+03
    0.191213627658749830E+00    0.527427887240365934E+00    0.102524364378116074E+11   -0.127636838360191547E+03
    0.191147256231302853E+00    0.529948716038013856E+00    0.102526613872247086E+11   -0.127889135654916345E+03
    0.191584947384526694E+00    0.528450146039549651E+00    0.102689332473558846E+11   -0.127303810974876455E+03
    0.191552535646470734E+00    0.532771616606900977E+00    0.102688945667667809E+11   -0.128105255752451910E+03
    0.191128036489077835E+00    0.534045810184707648E+00    0.102683254712187347E+11   -0.127926645686176073E+03
    0.190769043741833955E+00    0.527804368314761518E+00    0.102605348418736191E+11   -0.127464647344027512E+03
    0.192199046545859231E+00    0.529128560341227683E+00    0.102684275886870632E+11   -0.126891629196985036E+03
    0.192199046545859231E+00    0.529128560341227683E+00    0.102684275886870632E+11   -0.126891629196985036E+03
    0.190598375013374455E+00    0.533424061964822727E+00    0.102558282495837784E+11   -0.127611791337726018E+03
    0.192304212696975008E+00    0.522650116221832661E+00    0.102401748141884079E+11   -0.126890803472293328E+03
    0.192304212696975008E+00    0.522650116221832661E+00    0.102401748141884079E+11   -0.126890803472293328E+03
    0.191087087557413826E+00    0.532099595473248144E+00    0.102576273445308094E+11   -0.127847087603762532E+03
    0.191813101264061536E+00    0.524372861508497934E+00    0.102415214522486458E+11   -0.127159043038541085E+03
    0.191418172356832117E+00    0.533468963885990632E+00    0.102545848140936012E+11   -0.127193827185390489E+03
    0.191418172356832117E+00    0.533468963885990632E+00    0.102545848140936012E+11   -0.127193827185390489E+03
    0.186786803917244615E+00    0.550696880174960768E+00    0.103842441858259850E+11   -0.127358877466699184E+03
    0.187010038818835600E+00    0.546087282167722066E+00    0.103680280275145149E+11   -0.128101626719570788E+03
    0.186333076109365392E+00    0.549492826038154192E+00    0.103851759172075310E+11   -0.128039610093106205E+03
    0.187586800161283485E+00    0.547096957657259964E+00    0.103663727031665878E+11   -0.127350624610124896E+03
    0.200834180489579794E+00    0.519906648027754770E+00    0.999638639143973160E+10   -0.127940175981352269E+03
    0.199881530065660673E+00    0.529354448230334285E+00    0.100045235717324028E+11   -0.127374663778372238E+03
    0.199771994663072161E+00    0.513384591917088073E+00    0.100225861833803101E+11   -0.127813560507198417E+03
    0.200422512851830548E+00    0.513594875314314692E+00    0.100020512284945602E+11   -0.127733915810807616E+03
    0.199206452872656425E+00    0.522396004473256070E+00    0.100326071957409801E+11   -0.127173117459889767E+03
    0.199219604956489993E+00    0.517246741538841093E+00    0.100370895947053528E+11   -0.128087363454320240E+03
    0.199224224441894027E+00    0.524177707153947736E+00    0.100267218211210060E+11   -0.127555203188539849E+03
    0.201286977985239035E+00    0.503787957612418680E+00    0.999211731327043915E+10   -0.126733315383891409E+03
    0.201286977985239035E+00    0.503787957612418680E+00    0.999211731327043915E+10   -0.126733315383891409E+03
    0.201374067901858356E+00    0.507508558857029612E+00    0.999361973600567245E+10   -0.127877280919402182E+03
    0.201246207079665562E+00    0.505724121702966656E+00    0.999291451912276840E+10   -0.127590683206665062E+03
    0.204654012961684229E+00    0.507784301197336418E+00    0.990464320905566978E+10   -0.127759397624437185E+03
    0.203860999766533268E+00    0.507445868476558815E+00    0.992348727775178528E+10   -0.127336403314928631E+03
    0.203860999766533268E+00    0.507445868476558815E+00    0.992348727775178528E+10   -0.127336403314928631E+03
    0.203635606758515553E+00    0.516322242095759165E+00    0.991808729876992607E+10   -0.127381540686363081E+03
    0.201790246641755600E+00    0.522850802183935315E+00    0.996241356302973938E+10   -0.127894413923429994E+03
    0.203391070153473741E+00    0.504448942957868240E+00    0.993693406200252151E+10   -0.126510285296312730E+03
    0.203391070153473741E+00    0.504448942957868240E+00    0.993693406200252151E+10   -0.126510285296312730E+03
    0.203391070153473741E+00    0.504448942957868240E+00    0.993693406200252151E+10   -0.126510285296312730E+03
    0.200424801454694490E+00    0.525754898310415442E+00    0.999242381771980667E+10   -0.127859311554164435E+03
    0.199585450471398751E+00    0.510679563374987211E+00    0.100296562750938263E+11   -0.127956212514228397E+03
    0.200538482805443063E+00    0.521069012746455229E+00    0.999710327864968681E+10   -0.127242939476581213E+03
    0.200253203935861379E+00    0.526087528637553703E+00    0.100000764154514122E+11   -0.127881402587285109E+03
    0.200790621575122508E+00    0.503094827456799010E+00    0.100096033727113056E+11   -0.127043229165906524E+03
    0.200790621575122508E+00    0.503094827456799010E+00    0.100096033727113056E+11   -0.127043229165906524E+03
    0.199586140075637519E+00    0.517267938805508365E+00    0.100245017393150330E+11   -0.128134842941314986E+03
    0.203664647509775421E+00    0.509483337077259790E+00    0.992374531101958847E+10   -0.127386839017883787E+03
    0.198565765505671232E+00    0.521026655590690169E+00    0.100518022341693172E+11   -0.128042533044758102E+03
    0.201243616105616197E+00    0.524692384139907375E+00    0.997564534617485046E+10   -0.127280671583157513E+03
    0.201243616105616197E+00    0.524692384139907375E+00    0.997564534617485046E+10   -0.127280671583157513E+03
    0.199713855351262515E+00    0.511831799918716968E+00    0.100328813796126728E+11   -0.127348790389238772E+03
    0.199713855351262515E+00    0.511831799918716968E+00    0.100328813796126728E+11   -0.127348790389238772E+03
    0.202502926756899737E+00    0.503798098396938343E+00    0.996296405547238731E+10   -0.127695221228354526E+03
    0.207796250814907268E+00    0.520745766469243421E+00    0.981473468944080734E+10   -0.128035694770449822E+03
    0.209409524519621193E+00    0.506068748546999458E+00    0.980456155944720078E+10   -0.127986374339888215E+03
    0.206242753925585609E+00    0.514601689609261115E+00    0.986408507111225319E+10   -0.127933043362819944E+03
    0.196266002221185010E+00    0.509607433881269500E+00    0.101042536233148270E+11   -0.128067322510128804E+03
    0.194589566617167808E+00    0.505104762543432173E+00    0.101420706237757454E+11   -0.128126618236456039E+03
    0.194482063873426314E+00    0.505380362985601295E+00    0.101479597196251335E+11   -0.128085236900829159E+03
