    0.625945716581970402E+00    0.375553634963361915E+00    0.599868246449195504E+09   -0.155620875247457462E+03
    0.667624340515893255E+00    0.506901422922791056E+00    0.576447019467456937E+09   -0.155268736036994483E+03
    0.609691436009785592E+00    0.486354735711531205E+00    0.596124912049746990E+09   -0.153946273358707288E+03
    0.659221094418844689E+00    0.491304583867634648E+00    0.578380564447559834E+09   -0.153503481713303586E+03
    0.607980672655542898E+00    0.349116761224813388E+00    0.600779511574440241E+09   -0.153423163520430535E+03
    0.665005167603224367E+00    0.448181633333938123E+00    0.578563082241470456E+09   -0.153392394159366631E+03
    0.614104886694922802E+00    0.527983835848417016E+00    0.598737553067803860E+09   -0.153353873711432044E+03
    0.632303383165162436E+00    0.496969739897272333E+00    0.582603408109176397E+09   -0.153038086312528833E+03
    0.655290644960571544E+00    0.379487137757335447E+00    0.573312745494624019E+09   -0.153021212974186255E+03
    0.572783344505283676E+00    0.455730189966745414E+00    0.616442739220604300E+09   -0.152883291257706162E+03
    0.601027102816349412E+00    0.469426580522849690E+00    0.607110214317474365E+09   -0.152791553343526203E+03
    0.668626444784071627E+00    0.435253725337659603E+00    0.575533682156544089E+09   -0.152714381660378706E+03
    0.632663168018085975E+00    0.588616222450902171E+00    0.592377311143164515E+09   -0.152709520580067931E+03
    0.703592758682477948E+00    0.501031317562826928E+00    0.562247426190781951E+09   -0.152685550698433644E+03
    0.654975463184517936E+00    0.524787061561390544E+00    0.581100517754776478E+09   -0.152240953813165277E+03
    0.621967189861754366E+00    0.520023920348634761E+00    0.593950967721424460E+09   -0.152194074461500350E+03
    0.676008438667555112E+00    0.366716289244877203E+00    0.569161887259235740E+09   -0.152067179156315319E+03
    0.585305144428116209E+00    0.408030046937749802E+00    0.615512561651568294E+09   -0.152044846719118425E+03
    0.659469999550178265E+00    0.466909362189323218E+00    0.577693395653244257E+09   -0.152043597223386939E+03
    0.567018334975296856E+00    0.471009949866132871E+00    0.618133194397081733E+09   -0.151846489166001845E+03
    0.596230255783545160E+00    0.450599429071278479E+00    0.599236388573655009E+09   -0.151839140025378924E+03
    0.612334781772095771E+00    0.437978188365164556E+00    0.590229257619302392E+09   -0.151775430754641889E+03
    0.600690171754389435E+00    0.477188705004200742E+00    0.607010853710054278E+09   -0.151752012965833131E+03
    0.589318533272236156E+00    0.473414274053007844E+00    0.605958931203718662E+09   -0.151735121097459228E+03
    0.639662772480982689E+00    0.498920706791210478E+00    0.583154379479087830E+09   -0.151657378073193343E+03
    0.610048194774407415E+00    0.522509169958109254E+00    0.596475023788671136E+09   -0.151608198397978754E+03
    0.659018458257688122E+00    0.394111476385024417E+00    0.571096295438006520E+09   -0.151558659421296966E+03
    0.668967463245556559E+00    0.457533958394268581E+00    0.568316856990363240E+09   -0.151512284797287577E+03
    0.636437418357741036E+00    0.552329637957555519E+00    0.592508787141075373E+09   -0.151506214070551152E+03
    0.619982289258306896E+00    0.415245374610078599E+00    0.592700699491760135E+09   -0.151436965498381738E+03
    0.678669534883854619E+00    0.423144043077583021E+00    0.569884861073281884E+09   -0.151419469846434509E+03
    0.628345372113508160E+00    0.512851922513828384E+00    0.587007429912380695E+09   -0.151396114596875009E+03
    0.605328846565063694E+00    0.467487417966893304E+00    0.606525918697555900E+09   -0.151340045353968947E+03
    0.591780876862195493E+00    0.484541475652617848E+00    0.602213408897007108E+09   -0.151295205753961795E+03
    0.635755338466530873E+00    0.532981094056012239E+00    0.591308351594852209E+09   -0.151292298002602820E+03
    0.576039530253081966E+00    0.386875547474963000E+00    0.614012904535088539E+09   -0.151183023054030627E+03
    0.656877564536397118E+00    0.462553807592726685E+00    0.578802899151254892E+09   -0.151164239524159086E+03
    0.639637926388275213E+00    0.420309018409682267E+00    0.589128464834543467E+09   -0.150986302169041295E+03
    0.578942222850829080E+00    0.436390600476908475E+00    0.616182808114573240E+09   -0.150928241657392306E+03
    0.641730846731629279E+00    0.414345082897575878E+00    0.576494063657489538E+09   -0.150844250564204174E+03
    0.633227721261847676E+00    0.532334053389234896E+00    0.585917858509521842E+09   -0.150836577518860167E+03
    0.623289661584348953E+00    0.481088984466550684E+00    0.594169283213293791E+09   -0.150795594663701877E+03
    0.605393227467783457E+00    0.489547891117114276E+00    0.600801684868091226E+09   -0.150754410558300890E+03
    0.626630295860909237E+00    0.412943374260660079E+00    0.585128961392242193E+09   -0.150734216469125528E+03
    0.646759078235736418E+00    0.454060060885117522E+00    0.584259986781900287E+09   -0.150734166816605040E+03
    0.663865854001733591E+00    0.462418042264262752E+00    0.573720570959694266E+09   -0.150709286560834045E+03
    0.631688565737267615E+00    0.440462781023136074E+00    0.591570853287398219E+09   -0.150652172661927011E+03
    0.569728101924182107E+00    0.398354745221089601E+00    0.611415698763701439E+09   -0.150650951943843182E+03
    0.653989736752256801E+00    0.452836898818038236E+00    0.574111998865453720E+09   -0.150650315816008231E+03
    0.634782619612171861E+00    0.441981182399729278E+00    0.590302710356734157E+09   -0.150640908567217934E+03
    0.623542510521770232E+00    0.463679319943370416E+00    0.598532027677127123E+09   -0.150537121463978195E+03
    0.580176352141086649E+00    0.439744459268201382E+00    0.613313226025252700E+09   -0.150520522341092715E+03
    0.675617354173470908E+00    0.357608364074570417E+00    0.571909957551646113E+09   -0.150504005637620992E+03
    0.598526411594885954E+00    0.458416516322071033E+00    0.607566317033259511E+09   -0.150502264829044833E+03
    0.639189789439558065E+00    0.405141105478660890E+00    0.582905397402332187E+09   -0.150473368825364702E+03
    0.668105151085040760E+00    0.480407907023350234E+00    0.572996900806655407E+09   -0.150472553786752513E+03
    0.613558159881983145E+00    0.399743283549049977E+00    0.597269885754680634E+09   -0.150434062959786814E+03
    0.599054100791730715E+00    0.487439677144061889E+00    0.603656235947490811E+09   -0.150414754826676415E+03
    0.611878782826032697E+00    0.413216530728245601E+00    0.590252923723003268E+09   -0.150399430872145501E+03
    0.633877070428776945E+00    0.503975241268165064E+00    0.590333920439776063E+09   -0.150367625410204511E+03
    0.659611156846839131E+00    0.503764845893917013E+00    0.583088094206254244E+09   -0.150362307706041975E+03
    0.578763212936458826E+00    0.382286308764365756E+00    0.614747998980343223E+09   -0.150352225832390502E+03
    0.648232358783808582E+00    0.404133658252895600E+00    0.575863421787823081E+09   -0.150346006866927326E+03
    0.635193958875676645E+00    0.402664262681483365E+00    0.579715860444528103E+09   -0.150330536008297202E+03
    0.680555199269240796E+00    0.488867580524935619E+00    0.570907208417517424E+09   -0.150292890451954264E+03
    0.619064247600486506E+00    0.478183422070724617E+00    0.597083506318983912E+09   -0.150292367394471910E+03
    0.626966279316337194E+00    0.417565832378311796E+00    0.594112922511330128E+09   -0.150284885008675474E+03
    0.626966279316337194E+00    0.417565832378311796E+00    0.594112922511330128E+09   -0.150284885008675474E+03
    0.569906572109313392E+00    0.397716027126890026E+00    0.617162676090061188E+09   -0.150281689755725040E+03
    0.646165828148059562E+00    0.482965459650902318E+00    0.578569908959666133E+09   -0.150275025508212252E+03
    0.606988468043514140E+00    0.418721268625059651E+00    0.596487385570057392E+09   -0.150274350785077701E+03
    0.652446166391330240E+00    0.560040375765293419E+00    0.579725643982272387E+09   -0.150261140528563089E+03
    0.565406803434542082E+00    0.355950606093360378E+00    0.619347238129432321E+09   -0.150256875217455786E+03
    0.652455667865962652E+00    0.541270919443274323E+00    0.583116474462929845E+09   -0.150243540037784555E+03
    0.578948072927473634E+00    0.446985691872061608E+00    0.612231417562361836E+09   -0.150230283716646227E+03
    0.612488642198327771E+00    0.473449853890674177E+00    0.592581072220127940E+09   -0.150226983043696549E+03
    0.597047646478335525E+00    0.448627310231170640E+00    0.607127082149545193E+09   -0.150226435340230211E+03
    0.633770266560987672E+00    0.423667269840384719E+00    0.583256589937239528E+09   -0.150178992280631746E+03
    0.633597819550260621E+00    0.456925184341354651E+00    0.589987647513160706E+09   -0.150145447377976922E+03
    0.633597819550260621E+00    0.456925184341354651E+00    0.589987647513160706E+09   -0.150145447377976922E+03
    0.637874843161064908E+00    0.535797989928417095E+00    0.590860341072175980E+09   -0.150144378965409459E+03
    0.644974206824389551E+00    0.432223893879434939E+00    0.584042540209202528E+09   -0.150115167908660254E+03
    0.599358191250125572E+00    0.391521318751607339E+00    0.603018595631258011E+09   -0.150107126605175807E+03
    0.614325104680255474E+00    0.461418632585106181E+00    0.594722747992891073E+09   -0.150102477389832160E+03
    0.609151521232142112E+00    0.431610262448032245E+00    0.597299447065489531E+09   -0.150099010134758657E+03
    0.609151521232142112E+00    0.431610262448032245E+00    0.597299447065489531E+09   -0.150099010134758657E+03
    0.640723006517348592E+00    0.561624865418915320E+00    0.580897132932945013E+09   -0.150095842391439334E+03
    0.658454210759279124E+00    0.457026638725428924E+00    0.577271199122936845E+09   -0.150047734391907341E+03
    0.658191631369587582E+00    0.441537698336812667E+00    0.572710185686952949E+09   -0.150041511845217087E+03
    0.646842204422665046E+00    0.434287829664718572E+00    0.586495243166710734E+09   -0.150017730023596130E+03
    0.573159079262937188E+00    0.402093052056429201E+00    0.612661985802101374E+09   -0.150008873720092197E+03
    0.621881946680446829E+00    0.495840241203822529E+00    0.596687120166135311E+09   -0.150008722339267223E+03
    0.613511813151509822E+00    0.498471545942223315E+00    0.597245674305216312E+09   -0.149993889261582837E+03
    0.633793711765443302E+00    0.449395554305255018E+00    0.590001944172957063E+09   -0.149956005143941042E+03
    0.644881158276991551E+00    0.450107426057842375E+00    0.584533693050093293E+09   -0.149937128063318710E+03
    0.590794953823657321E+00    0.454933569843131380E+00    0.606936977692806482E+09   -0.149923372960446414E+03
    0.646050499719595606E+00    0.541567482148650470E+00    0.581987061538736105E+09   -0.149881941196286391E+03
    0.623795415349967519E+00    0.413459882068536899E+00    0.583563035681418657E+09   -0.149861824565018992E+03
    0.579307911055005564E+00    0.495132453659302030E+00    0.611898952167804599E+09   -0.149848934214173994E+03
    0.629293285761770349E+00    0.408629469886028218E+00    0.584561642566685081E+09   -0.149848644289635388E+03
    0.612544728059439825E+00    0.492405767772529757E+00    0.596224088814245224E+09   -0.149832923021009520E+03
    0.614561436381010906E+00    0.460187423046104271E+00    0.599390043890729904E+09   -0.149794012106853103E+03
    0.629201734812973590E+00    0.468108837683816503E+00    0.593371515074335814E+09   -0.149771100597541817E+03
    0.596201471762238921E+00    0.435045936433544611E+00    0.606644867757755995E+09   -0.149749560748849603E+03
    0.596201471762238921E+00    0.435045936433544611E+00    0.606644867757755995E+09   -0.149749560748849603E+03
    0.635064676215100321E+00    0.499261609998345790E+00    0.585972829874078631E+09   -0.149729102512248801E+03
    0.607911845053038746E+00    0.510973518876994603E+00    0.598983930827949762E+09   -0.149706678122748201E+03
    0.596487847104075208E+00    0.411387101321636806E+00    0.600192045024680138E+09   -0.149701447766812038E+03
    0.661701127909245734E+00    0.514599953007975230E+00    0.577084102863845110E+09   -0.149685421825708971E+03
    0.583146161187843237E+00    0.426345738480758740E+00    0.607374972555110693E+09   -0.149682653883439002E+03
    0.606013669741855443E+00    0.483943491838981998E+00    0.602846444017918706E+09   -0.149649017645197432E+03
    0.623493276672606678E+00    0.481336696329616842E+00    0.590342359583293676E+09   -0.149628203455515347E+03
    0.658412231164769546E+00    0.466838785003837131E+00    0.574454418919098616E+09   -0.149619276341751458E+03
    0.658412231164769546E+00    0.466838785003837131E+00    0.574454418919098616E+09   -0.149619276341751458E+03
    0.647546931891093136E+00    0.534965142638679225E+00    0.581631512681663394E+09   -0.149613991906418050E+03
    0.647079499516441836E+00    0.437892792975951295E+00    0.585039622126859307E+09   -0.149583796789434956E+03
    0.649905733298838606E+00    0.522400765282903023E+00    0.579503068139763594E+09   -0.149567016756451949E+03
    0.591402549035143110E+00    0.397983592580143153E+00    0.602826770838973999E+09   -0.149552577238344895E+03
    0.619109488961576027E+00    0.472235576474497876E+00    0.593875846750130177E+09   -0.149548050118856224E+03
    0.607945565491298634E+00    0.486682759089989148E+00    0.600807261138569593E+09   -0.149525267505401018E+03
    0.607945565491298634E+00    0.486682759089989148E+00    0.600807261138569593E+09   -0.149525267505401018E+03
    0.627405502328142628E+00    0.478679959663425691E+00    0.592603428455815911E+09   -0.149516901727984390E+03
    0.601479763068207718E+00    0.427301061448668307E+00    0.605259711925297856E+09   -0.149505389774976322E+03
    0.601479763068207718E+00    0.427301061448668307E+00    0.605259711925297856E+09   -0.149505389774976322E+03
    0.643218094860706691E+00    0.366943599092522277E+00    0.581330326402917981E+09   -0.149469403758547713E+03
    0.621307110141441798E+00    0.449056344941617169E+00    0.592422879800682306E+09   -0.149442607646642699E+03
    0.621307110141441798E+00    0.449056344941617169E+00    0.592422879800682306E+09   -0.149442607646642699E+03
    0.587244656744525306E+00    0.466583376431152885E+00    0.608085929559100509E+09   -0.149426195148971061E+03
    0.587244656744525306E+00    0.466583376431152885E+00    0.608085929559100509E+09   -0.149426195148971061E+03
    0.567373078273213705E+00    0.346738448533965737E+00    0.618159016775169969E+09   -0.149418112833317309E+03
    0.567373078273213705E+00    0.346738448533965737E+00    0.618159016775169969E+09   -0.149418112833317309E+03
    0.612354058460199857E+00    0.457239134544746406E+00    0.591803294546241045E+09   -0.149409372320634361E+03
    0.625681568570355839E+00    0.419904404649747320E+00    0.583418031862939477E+09   -0.149404484371625074E+03
    0.629608966287259153E+00    0.443350249105447958E+00    0.586271783124203324E+09   -0.149397372195909156E+03
    0.647675290347598409E+00    0.428807471430898701E+00    0.584371482091269970E+09   -0.149375815415821279E+03
    0.632586021407537391E+00    0.464948693376962652E+00    0.585836260618105531E+09   -0.149368419239649910E+03
    0.632586021407537391E+00    0.464948693376962652E+00    0.585836260618105531E+09   -0.149368419239649910E+03
    0.640146529110548257E+00    0.473687075585534245E+00    0.584492631324030757E+09   -0.149347512635650133E+03
    0.623613965639607915E+00    0.463051513187346941E+00    0.594324854194895625E+09   -0.149344751466487367E+03
    0.606430945642408181E+00    0.450664291720672239E+00    0.598218889409228086E+09   -0.149337084947993731E+03
    0.627559445443716002E+00    0.455202863862229634E+00    0.592688271056792736E+09   -0.149336199719742808E+03
    0.643903638204509687E+00    0.479656722212338238E+00    0.582279828139623165E+09   -0.149333628075471552E+03
    0.643903638204509687E+00    0.479656722212338238E+00    0.582279828139623165E+09   -0.149333628075471552E+03
    0.620297183001399688E+00    0.467227602232519246E+00    0.592821902696901679E+09   -0.149325499581798738E+03
    0.629499921944809193E+00    0.552544582081766933E+00    0.585900160369495749E+09   -0.149312360459807252E+03
    0.638305578141815100E+00    0.444035539448615069E+00    0.588318961683631420E+09   -0.149308103354290267E+03
    0.634465004469262905E+00    0.494979472486489769E+00    0.583429196376937985E+09   -0.149304297768933537E+03
    0.639889373741308942E+00    0.457138450187441592E+00    0.580401470460552692E+09   -0.149303549842614132E+03
    0.618199703486468022E+00    0.467314922363261331E+00    0.595925933357200503E+09   -0.149292948406444964E+03
    0.633896112830806380E+00    0.418914085255227775E+00    0.589273448607115746E+09   -0.149283178254523563E+03
    0.633896112830806380E+00    0.418914085255227775E+00    0.589273448607115746E+09   -0.149283178254523563E+03
    0.651065334050993760E+00    0.403164995082898159E+00    0.586391234524192929E+09   -0.149276155416161600E+03
    0.651065334050993760E+00    0.403164995082898159E+00    0.586391234524192929E+09   -0.149276155416161600E+03
    0.637868793224820929E+00    0.387638291762764098E+00    0.588815786334171414E+09   -0.149265947033794646E+03
    0.637868793224820929E+00    0.387638291762764098E+00    0.588815786334171414E+09   -0.149265947033794646E+03
    0.621085115460474291E+00    0.450430888683104769E+00    0.590701783919820786E+09   -0.149261578940466393E+03
    0.593201761404417827E+00    0.449099611240002972E+00    0.604965387685228944E+09   -0.149247771284635917E+03
    0.642302932693167961E+00    0.404438760364085326E+00    0.589179692225446582E+09   -0.149233495124180592E+03
    0.642302932693167961E+00    0.404438760364085326E+00    0.589179692225446582E+09   -0.149233495124180592E+03
    0.587699044331017162E+00    0.426438656938785243E+00    0.602998679479517460E+09   -0.149220328896790789E+03
    0.608678961482708392E+00    0.399587407992791910E+00    0.599376373711008191E+09   -0.149220269253483735E+03
    0.633005481767053624E+00    0.401054598096383330E+00    0.583719854432521939E+09   -0.149209092549417448E+03
    0.633005481767053624E+00    0.401054598096383330E+00    0.583719854432521939E+09   -0.149209092549417448E+03
    0.595839570682828223E+00    0.427256539587483886E+00    0.604071859252423286E+09   -0.149199288239935015E+03
    0.595839570682828223E+00    0.427256539587483886E+00    0.604071859252423286E+09   -0.149199288239935015E+03
    0.599837067913525424E+00    0.425733215775451868E+00    0.604656712831861734E+09   -0.149197871769400820E+03
    0.647941549924388571E+00    0.381392196537975181E+00    0.580449332764526844E+09   -0.149192896414143519E+03
    0.647941549924388571E+00    0.381392196537975181E+00    0.580449332764526844E+09   -0.149192896414143519E+03
    0.625899103296546633E+00    0.476744751893242835E+00    0.587351258979064703E+09   -0.149184418153854324E+03
    0.612684338836361086E+00    0.520342524677431584E+00    0.599024547105107665E+09   -0.149173020313928220E+03
    0.612684338836361086E+00    0.520342524677431584E+00    0.599024547105107665E+09   -0.149173020313928220E+03
    0.607380141593683587E+00    0.436412352876963894E+00    0.597708704689364552E+09   -0.149171353981025902E+03
    0.607380141593683587E+00    0.436412352876963894E+00    0.597708704689364552E+09   -0.149171353981025902E+03
    0.595164610663524996E+00    0.442015218240152663E+00    0.601095874603294253E+09   -0.149160122708305352E+03
    0.599370661593283782E+00    0.471850380286984006E+00    0.604004279136681557E+09   -0.149137627090611630E+03
    0.599370661593283782E+00    0.471850380286984006E+00    0.604004279136681557E+09   -0.149137627090611630E+03
    0.600837856575927365E+00    0.411729400290708369E+00    0.599069358597715974E+09   -0.149115061703715185E+03
    0.597634290288224679E+00    0.446789901109671206E+00    0.606009884199517131E+09   -0.149108573811592663E+03
    0.597634290288224679E+00    0.446789901109671206E+00    0.606009884199517131E+09   -0.149108573811592663E+03
    0.592321082688882838E+00    0.459103702803691505E+00    0.605997426292070150E+09   -0.149107390149864898E+03
    0.628237164665358727E+00    0.392740602428139240E+00    0.582223490949895620E+09   -0.149086818567451814E+03
    0.628237164665358727E+00    0.392740602428139240E+00    0.582223490949895620E+09   -0.149086818567451814E+03
    0.642387606766523511E+00    0.576517156879388537E+00    0.582416604828193665E+09   -0.149076759443638878E+03
    0.625980395343744389E+00    0.427322144168581275E+00    0.590487335529928446E+09   -0.149067726754446483E+03
    0.635960963906848753E+00    0.492408233376430360E+00    0.589961258646652102E+09   -0.149066030276380019E+03
    0.635960963906848753E+00    0.492408233376430360E+00    0.589961258646652102E+09   -0.149066030276380019E+03
    0.637301062000315555E+00    0.451475514698461922E+00    0.582795214955268383E+09   -0.149055279294117099E+03
    0.642982580925838820E+00    0.511500844171674629E+00    0.580172034558346152E+09   -0.149046696741455321E+03
    0.607944615828368673E+00    0.459013518274009158E+00    0.599598544729907751E+09   -0.149039925065966941E+03
    0.649068755417692267E+00    0.410075429167527261E+00    0.586361766677036762E+09   -0.149022482604827985E+03
    0.595962812280551701E+00    0.390425743011622473E+00    0.601241264775881410E+09   -0.149020348407229591E+03
    0.640158745372958249E+00    0.500892612059015363E+00    0.584314785171398401E+09   -0.149010882656689262E+03
    0.575335004918227422E+00    0.430159729424634207E+00    0.613211103086104393E+09   -0.149010055185182750E+03
    0.575335004918227422E+00    0.430159729424634207E+00    0.613211103086104393E+09   -0.149010055185182750E+03
    0.648702802227247965E+00    0.469256551820961931E+00    0.584289585314559817E+09   -0.149002623875211754E+03
    0.648702802227247965E+00    0.469256551820961931E+00    0.584289585314559817E+09   -0.149002623875211754E+03
    0.640102476958019473E+00    0.457042285353391975E+00    0.583213951742366314E+09   -0.148979725395481296E+03
    0.640102476958019473E+00    0.457042285353391975E+00    0.583213951742366314E+09   -0.148979725395481296E+03
    0.647241546489465969E+00    0.402798389686484626E+00    0.582780159288019061E+09   -0.148973099772915418E+03
    0.589058642544758482E+00    0.412215035767742322E+00    0.605022628210149884E+09   -0.148968038228906209E+03
    0.626409721974145683E+00    0.527447170093767070E+00    0.592566817455212593E+09   -0.148949541698206076E+03
    0.607932984876588645E+00    0.451223099886277623E+00    0.596197648151950598E+09   -0.148948377984331728E+03
    0.637712694504499633E+00    0.454829157699503384E+00    0.582507549069841743E+09   -0.148945395979467037E+03
    0.637712694504499633E+00    0.454829157699503384E+00    0.582507549069841743E+09   -0.148945395979467037E+03
    0.607089048313627755E+00    0.419051915526992502E+00    0.599799411291261911E+09   -0.148940488049839075E+03
    0.607089048313627755E+00    0.419051915526992502E+00    0.599799411291261911E+09   -0.148940488049839075E+03
    0.637851083067024649E+00    0.485657493128350382E+00    0.583486867094349623E+09   -0.148939884525944990E+03
    0.622790638179204215E+00    0.456393432742508764E+00    0.593619294119936109E+09   -0.148933983753483119E+03
    0.622790638179204215E+00    0.456393432742508764E+00    0.593619294119936109E+09   -0.148933983753483119E+03
    0.623746412987821408E+00    0.468406145080722425E+00    0.593647182257222176E+09   -0.148933313286249501E+03
    0.607610142201278847E+00    0.392818821810456242E+00    0.598061280654899836E+09   -0.148931852544143084E+03
    0.637991097775065907E+00    0.468634563476964416E+00    0.583229914703843236E+09   -0.148898444509145804E+03
    0.637991097775065907E+00    0.468634563476964416E+00    0.583229914703843236E+09   -0.148898444509145804E+03
    0.599478056202490728E+00    0.465738797797252246E+00    0.603469702211227179E+09   -0.148895376263133414E+03
    0.623308696692031261E+00    0.417938760126695286E+00    0.594239506115446925E+09   -0.148892101953502106E+03
    0.623308696692031261E+00    0.417938760126695286E+00    0.594239506115446925E+09   -0.148892101953502106E+03
    0.629292813433391718E+00    0.387603417719104115E+00    0.585015181367328882E+09   -0.148888149472321089E+03
    0.582633617641476365E+00    0.422285151487042043E+00    0.608948788550275564E+09   -0.148885916617259454E+03
    0.632387557848744120E+00    0.425241053757343224E+00    0.586710562389877081E+09   -0.148872328039524575E+03
    0.632387557848744120E+00    0.425241053757343224E+00    0.586710562389877081E+09   -0.148872328039524575E+03
    0.622728222405341536E+00    0.431902591237278699E+00    0.588570359434479952E+09   -0.148845795445855003E+03
    0.597307370862700138E+00    0.495102429598752281E+00    0.603455843481314421E+09   -0.148844809684530901E+03
    0.615569055062143433E+00    0.435333067869178691E+00    0.595312473424200535E+09   -0.148827323025852309E+03
    0.639827750514660898E+00    0.424218041408002122E+00    0.587197099463426232E+09   -0.148825901864302466E+03
    0.614111715130515989E+00    0.455045458411939663E+00    0.593320677538405299E+09   -0.148817847313540824E+03
    0.625702298086941111E+00    0.450760850654251755E+00    0.586035353376353860E+09   -0.148804760120225382E+03
    0.625702298086941111E+00    0.450760850654251755E+00    0.586035353376353860E+09   -0.148804760120225382E+03
    0.598766796947838187E+00    0.406512269649271119E+00    0.605902313111965418E+09   -0.148804746276807577E+03
    0.606253049451889403E+00    0.381263858426173385E+00    0.599891410499189615E+09   -0.148766507091589091E+03
    0.621507854256499570E+00    0.449333510505397271E+00    0.592017121364868045E+09   -0.148761822682305109E+03
    0.602175830990103189E+00    0.438416630176760691E+00    0.602525425139933825E+09   -0.148753183528025232E+03
    0.595554232011069273E+00    0.457436778677228872E+00    0.600397380735528946E+09   -0.148751198767081661E+03
    0.595554232011069273E+00    0.457436778677228872E+00    0.600397380735528946E+09   -0.148751198767081661E+03
    0.600718476341292718E+00    0.413196490462135912E+00    0.604779915837752461E+09   -0.148745341049246804E+03
    0.607630444134928838E+00    0.428391248977458616E+00    0.598125008965126872E+09   -0.148735336736337985E+03
    0.594303235858364420E+00    0.417951265931273852E+00    0.606236479823340297E+09   -0.148731543604684816E+03
    0.594303235858364420E+00    0.417951265931273852E+00    0.606236479823340297E+09   -0.148731543604684816E+03
    0.620407458708775117E+00    0.411959608696284008E+00    0.590118801351945639E+09   -0.148710713590517400E+03
    0.620407458708775117E+00    0.411959608696284008E+00    0.590118801351945639E+09   -0.148710713590517400E+03
    0.634532449752215233E+00    0.415930838246636014E+00    0.583098913618740797E+09   -0.148710076605708309E+03
    0.614548110917073842E+00    0.449022956203023682E+00    0.599284560548877954E+09   -0.148706096898475636E+03
    0.648506007273713436E+00    0.462302509973273601E+00    0.581963130394341350E+09   -0.148700971641500587E+03
    0.650584319009125833E+00    0.468500951083928641E+00    0.583580884266831160E+09   -0.148700448575991658E+03
    0.599997744786024079E+00    0.468084389173490933E+00    0.597112501522373438E+09   -0.148693365094532453E+03
    0.599997744786024079E+00    0.468084389173490933E+00    0.597112501522373438E+09   -0.148693365094532453E+03
    0.638057526483679083E+00    0.433205274769811410E+00    0.588030667921327591E+09   -0.148688057279798187E+03
    0.633764498758851991E+00    0.383197443642444568E+00    0.587602733358603597E+09   -0.148676080449088488E+03
    0.633764498758851991E+00    0.383197443642444568E+00    0.587602733358603597E+09   -0.148676080449088488E+03
    0.626120211744131794E+00    0.442879408738487967E+00    0.587111494742088795E+09   -0.148675971187836524E+03
    0.626120211744131794E+00    0.442879408738487967E+00    0.587111494742088795E+09   -0.148675971187836524E+03
    0.620844274737744284E+00    0.443148270379683851E+00    0.591685474926101923E+09   -0.148672941389709678E+03
    0.608738670799672921E+00    0.450542570056899905E+00    0.597535215404743910E+09   -0.148671183121385894E+03
    0.631656380423603614E+00    0.447907045101889167E+00    0.585934516732299328E+09   -0.148670069254851711E+03
    0.614817605089252095E+00    0.428876919539805002E+00    0.596891070491720319E+09   -0.148668349409275237E+03
    0.626650892244488444E+00    0.415775758421395025E+00    0.589645458801224470E+09   -0.148667701336238167E+03
    0.634017947700899476E+00    0.447278492456923971E+00    0.588150745250220537E+09   -0.148667495896968546E+03
    0.636612358501021935E+00    0.442912720552744332E+00    0.584609364204920053E+09   -0.148645439480389769E+03
    0.650459023173267759E+00    0.394394991410694118E+00    0.580336859347130299E+09   -0.148644737917951431E+03
    0.633393711955331007E+00    0.400447762743965541E+00    0.585890098069973826E+09   -0.148637116759413857E+03
    0.633737589074731322E+00    0.453596948758850260E+00    0.590506192977230787E+09   -0.148627292347941165E+03
    0.621154594040530195E+00    0.472889535407386319E+00    0.591814671750629783E+09   -0.148613577795945503E+03
    0.620286345318820320E+00    0.444108832173974122E+00    0.594575786377752781E+09   -0.148605560412704932E+03
    0.593833082277147595E+00    0.407425813838941053E+00    0.605750654717095375E+09   -0.148597112218562785E+03
    0.641766032606640668E+00    0.401429941108661481E+00    0.583278617502049446E+09   -0.148592539427738785E+03
    0.613168165435890700E+00    0.445367178303033739E+00    0.594503208663928747E+09   -0.148577524147137353E+03
    0.615678201363017985E+00    0.412859766829871688E+00    0.595809066268152714E+09   -0.148576643588238397E+03
    0.605230787608543652E+00    0.444310423202164628E+00    0.595711933533262968E+09   -0.148576628403569259E+03
    0.641595325243330628E+00    0.429744740659748103E+00    0.585732503874276876E+09   -0.148573607517948631E+03
    0.637197476738635804E+00    0.422031509613722378E+00    0.584969274336130619E+09   -0.148547100961908342E+03
    0.641285334902250592E+00    0.503387995553772782E+00    0.584690336129613042E+09   -0.148521734368426166E+03
    0.635016797320433923E+00    0.376362511833757907E+00    0.588968698302040815E+09   -0.148510805251418873E+03
    0.606415143602230144E+00    0.456753324354542301E+00    0.595356845947916389E+09   -0.148504714164718564E+03
    0.611611636146580095E+00    0.463853981760344425E+00    0.596733791015946865E+09   -0.148488961275319582E+03
    0.619824931311265703E+00    0.403612615092939109E+00    0.592072406911440969E+09   -0.148488382398595292E+03
    0.619824931311265703E+00    0.403612615092939109E+00    0.592072406911440969E+09   -0.148488382398595292E+03
    0.608008388365538943E+00    0.460751482099631460E+00    0.594275058223207831E+09   -0.148480368435107039E+03
    0.609730942189210201E+00    0.411696822294588927E+00    0.598613147270254612E+09   -0.148477038973356628E+03
    0.609730942189210201E+00    0.411696822294588927E+00    0.598613147270254612E+09   -0.148477038973356628E+03
    0.603692366022664739E+00    0.483645395385208232E+00    0.602117163918845892E+09   -0.148474863987516414E+03
    0.592040551602681875E+00    0.452772002506625526E+00    0.606468107047986865E+09   -0.148461885344045299E+03
    0.630037493510456348E+00    0.437922607614652293E+00    0.586688375999139547E+09   -0.148460865367095266E+03
    0.645410164832230793E+00    0.478174210316119286E+00    0.582082155610977054E+09   -0.148447259312878685E+03
    0.607140235023783226E+00    0.495196940730940227E+00    0.600093816749176860E+09   -0.148434522555052354E+03
    0.635970089104219594E+00    0.381779900282007034E+00    0.587933253130277753E+09   -0.148430203281799834E+03
    0.630059230680106164E+00    0.474665822823496342E+00    0.591721520993899345E+09   -0.148427754754371591E+03
    0.630059230680106164E+00    0.474665822823496342E+00    0.591721520993899345E+09   -0.148427754754371591E+03
    0.617623160036419483E+00    0.418353430285236527E+00    0.596292349330856562E+09   -0.148409833685225749E+03
    0.620798324285693925E+00    0.393928664398714545E+00    0.593963983631932974E+09   -0.148403887311124777E+03
    0.628563578850067528E+00    0.471389585594616634E+00    0.589904018750236988E+09   -0.148381413695128828E+03
    0.634992887136367368E+00    0.446156159504951688E+00    0.585420123359069347E+09   -0.148374741471811717E+03
    0.589694382151662366E+00    0.471613435546899495E+00    0.607322214998715758E+09   -0.148371026378024425E+03
    0.637966253479438916E+00    0.435775927384653983E+00    0.583787888317196012E+09   -0.148357386948903638E+03
    0.588368267991166483E+00    0.453721719312969896E+00    0.607671225215415120E+09   -0.148348652026789779E+03
    0.640098933525036995E+00    0.471297705872697037E+00    0.581950801222881436E+09   -0.148341746535336512E+03
    0.640098933525036995E+00    0.471297705872697037E+00    0.581950801222881436E+09   -0.148341746535336512E+03
    0.629498649819255851E+00    0.407422844856222710E+00    0.590851890042106271E+09   -0.148338189604262141E+03
    0.615184051568174239E+00    0.490374817065927004E+00    0.592655441843654394E+09   -0.148337970627238178E+03
    0.615184051568174239E+00    0.490374817065927004E+00    0.592655441843654394E+09   -0.148337970627238178E+03
    0.635814784804069610E+00    0.454762343339327302E+00    0.589399880340578556E+09   -0.148326970821515744E+03
    0.635814784804069610E+00    0.454762343339327302E+00    0.589399880340578556E+09   -0.148326970821515744E+03
    0.618645699864371901E+00    0.470590293733732068E+00    0.596184528645298123E+09   -0.148320245911968016E+03
    0.618645699864371901E+00    0.470590293733732068E+00    0.596184528645298123E+09   -0.148320245911968016E+03
    0.629575209465684349E+00    0.403742010504593907E+00    0.591177249800050735E+09   -0.148319046824561894E+03
    0.633910617623025363E+00    0.367443503716078368E+00    0.584402186931630731E+09   -0.148317914840569870E+03
    0.633910617623025363E+00    0.367443503716078368E+00    0.584402186931630731E+09   -0.148317914840569870E+03
    0.605634790988954563E+00    0.410442493092183724E+00    0.601997023603667617E+09   -0.148316747967730606E+03
    0.640167680574507791E+00    0.494572640719932011E+00    0.584232111392747045E+09   -0.148312369155520855E+03
    0.635941263411695212E+00    0.367949635908766837E+00    0.585949647598063350E+09   -0.148312038944313258E+03
    0.625453276603961772E+00    0.395545907621201565E+00    0.594045029398273110E+09   -0.148302813353296926E+03
    0.595421885007697105E+00    0.400217031828887571E+00    0.605273295147753239E+09   -0.148302758250762508E+03
    0.595421885007697105E+00    0.400217031828887571E+00    0.605273295147753239E+09   -0.148302758250762508E+03
    0.637716029720286071E+00    0.443953710449775940E+00    0.585167232402209520E+09   -0.148293233130299427E+03
    0.632914283380607734E+00    0.414855024320841537E+00    0.587568381564331055E+09   -0.148290828543807351E+03
    0.614090318649437195E+00    0.401509194927863078E+00    0.595991526291454554E+09   -0.148282916791417421E+03
    0.636036792618159708E+00    0.462804580943505073E+00    0.585291006169913292E+09   -0.148279644604167373E+03
    0.613008845917306866E+00    0.432951053854539580E+00    0.596766067551794648E+09   -0.148276624697424523E+03
    0.633790651248239301E+00    0.447625299214521988E+00    0.586728082793452501E+09   -0.148265618159569271E+03
    0.614177455065118894E+00    0.452213190781499463E+00    0.597145325783493042E+09   -0.148258607234499550E+03
    0.614177455065118894E+00    0.452213190781499463E+00    0.597145325783493042E+09   -0.148258607234499550E+03
    0.630035995214943689E+00    0.468124800576504185E+00    0.587239672753879905E+09   -0.148257112508697958E+03
    0.613087614605640319E+00    0.483881471245808825E+00    0.593100903582136273E+09   -0.148255351219784615E+03
    0.616974895196053086E+00    0.409232782574118659E+00    0.595878070044491291E+09   -0.148252035404215746E+03
    0.632000629867798147E+00    0.460221978858829317E+00    0.589800461476599455E+09   -0.148240749301620724E+03
    0.630943441115733195E+00    0.470839687268359341E+00    0.587439824639922261E+09   -0.148236568374214471E+03
    0.633072018341004794E+00    0.383975474371647252E+00    0.587192357061252236E+09   -0.148223566244573760E+03
    0.618765668108893108E+00    0.399887183084564057E+00    0.596385551792205215E+09   -0.148206495424724835E+03
    0.623766884692081969E+00    0.435497598748902703E+00    0.591844756816496134E+09   -0.148205473773639227E+03
    0.622109347967808035E+00    0.441898327926748991E+00    0.591613393284530997E+09   -0.148204502844471222E+03
    0.626541309999439355E+00    0.460430301513806484E+00    0.592411214776260138E+09   -0.148202212807019947E+03
    0.618002202173485893E+00    0.485831256334117612E+00    0.594679443488145232E+09   -0.148201829158600447E+03
    0.621034530998800127E+00    0.422747892311283735E+00    0.594236377086731076E+09   -0.148197645332966914E+03
    0.629466655312145740E+00    0.408386067245569251E+00    0.588332995789685607E+09   -0.148186965461776879E+03
    0.621004651694644028E+00    0.401580835049305307E+00    0.592841498859605670E+09   -0.148182648600199997E+03
    0.598009413835183690E+00    0.404407640074602170E+00    0.603595261797095537E+09   -0.148169877845093993E+03
    0.640412867847177991E+00    0.421612943160310394E+00    0.583503703013399005E+09   -0.148162736908222627E+03
    0.641592069775524187E+00    0.433757002872571462E+00    0.585595876888888240E+09   -0.148158861220676272E+03
    0.636534290400097680E+00    0.448231777617740690E+00    0.585149575427760720E+09   -0.148158729926485336E+03
    0.629167643800225829E+00    0.411753447383478743E+00    0.588055807308025002E+09   -0.148155573582197235E+03
    0.626609198449191718E+00    0.439447240339255529E+00    0.590081013676922679E+09   -0.148134645334970628E+03
    0.627171675176003696E+00    0.442506797532072227E+00    0.587886530715682387E+09   -0.148129896185285219E+03
    0.636202499265921317E+00    0.441865793215104219E+00    0.588415976385738492E+09   -0.148129285997524192E+03
    0.639573034969839527E+00    0.414049772865773491E+00    0.583514088047128677E+09   -0.148126961721718345E+03
    0.615895415961355441E+00    0.445120483416083346E+00    0.595256181027087092E+09   -0.148120588713570271E+03
    0.618786206762410362E+00    0.441526989434407824E+00    0.590391141126585722E+09   -0.148110641520227546E+03
    0.635338077092802767E+00    0.395310389534076378E+00    0.585339450527433634E+09   -0.148109247094843226E+03
    0.614127961297684211E+00    0.430411968119223332E+00    0.590589151098049521E+09   -0.148104927285693748E+03
    0.633646991210566779E+00    0.442657731415172506E+00    0.587200147581761003E+09   -0.148095032842218473E+03
    0.620884440426034301E+00    0.393945279411960669E+00    0.588679067146906853E+09   -0.148091560463384894E+03
    0.617151207445073346E+00    0.415033178473249720E+00    0.593564077227417588E+09   -0.148087836525158480E+03
    0.603689689197094537E+00    0.429875183135946415E+00    0.599448092483316064E+09   -0.148087690641260451E+03
    0.622577744017133505E+00    0.442118115742758278E+00    0.590784601234215736E+09   -0.148086711170192700E+03
    0.618857433986471750E+00    0.445128313077809423E+00    0.593514387934904337E+09   -0.148086512532222116E+03
    0.631283992980392283E+00    0.401765109242955276E+00    0.589131277173152566E+09   -0.148085810701989686E+03
    0.627163610658703186E+00    0.475024804354859498E+00    0.592996696193319440E+09   -0.148082816436527338E+03
    0.618968181304533238E+00    0.391110712383980541E+00    0.591545769010704398E+09   -0.148080706845047814E+03
    0.618568253932076706E+00    0.400542278109627503E+00    0.591840114583401799E+09   -0.148061354831295859E+03
    0.641356511529967865E+00    0.439769327395181264E+00    0.585902592730728745E+09   -0.148057749955605743E+03
    0.642828372143391613E+00    0.426671286069034039E+00    0.584055091714760900E+09   -0.148050486058112739E+03
    0.636070086160836046E+00    0.392158759537203139E+00    0.584810627437682271E+09   -0.148049673457636743E+03
    0.616502980642829268E+00    0.450565084840503616E+00    0.597078058997815251E+09   -0.148046409049312842E+03
    0.639634375926387944E+00    0.410292537265675605E+00    0.585392797306394577E+09   -0.148034680618256914E+03
    0.612510593364740119E+00    0.465430456679975180E+00    0.596017082443432689E+09   -0.148027491695224398E+03
    0.619703919306051176E+00    0.381202096575009364E+00    0.590550540493115902E+09   -0.148021830455094232E+03
    0.598521958468999027E+00    0.446230641397370675E+00    0.602936650358844638E+09   -0.148018121532990278E+03
    0.623865401643289075E+00    0.384186507841310032E+00    0.589011043229641676E+09   -0.148009222555002253E+03
    0.618683574523460345E+00    0.399980555633627333E+00    0.594500715283159614E+09   -0.148008812352283314E+03
    0.622654240616337673E+00    0.368202336116251416E+00    0.589686836720958114E+09   -0.148006082393498559E+03
    0.616043970118871576E+00    0.456969451391204373E+00    0.596250475340117216E+09   -0.147995245824167171E+03
    0.640196624486597088E+00    0.404060715628499878E+00    0.583441022218115330E+09   -0.147991766319967354E+03
    0.591554615208617185E+00    0.404636911441670577E+00    0.605060088372348785E+09   -0.147981796571680491E+03
    0.633218687512485001E+00    0.449146520015244022E+00    0.585759496857724428E+09   -0.147971543355704426E+03
    0.620370253534709204E+00    0.395120661890393521E+00    0.590410055972095490E+09   -0.147960429942255587E+03
    0.599425791643123707E+00    0.414688813052382699E+00    0.601071879730287313E+09   -0.147958827245360879E+03
    0.602599397911023238E+00    0.453942575791279168E+00    0.601863777263019919E+09   -0.147955724793483654E+03
    0.631845958086729942E+00    0.443648376196083660E+00    0.585011439281446338E+09   -0.147953984277403208E+03
    0.632098900221206073E+00    0.435413959151663477E+00    0.586178138914758921E+09   -0.147949412826861590E+03
    0.645668197476242600E+00    0.419344328611332529E+00    0.581758201371570230E+09   -0.147941013988310402E+03
    0.618492409521560260E+00    0.434097658598771474E+00    0.593723509562413335E+09   -0.147929792171520575E+03
    0.606381991616259497E+00    0.447571905991877017E+00    0.594889586228649735E+09   -0.147927099290850634E+03
    0.606230012963676734E+00    0.411521736153705575E+00    0.597100272715487480E+09   -0.147917690826700095E+03
    0.602392548372599701E+00    0.440761816959176045E+00    0.600048770117854238E+09   -0.147916383185962957E+03
    0.594461087492940798E+00    0.417837003470529211E+00    0.604330512316230774E+09   -0.147914212193303172E+03
    0.645840670541919182E+00    0.474579772700469249E+00    0.582411303856165171E+09   -0.147910260569072960E+03
    0.615455551673525836E+00    0.478710557789623792E+00    0.593262981980253935E+09   -0.147899701976472556E+03
    0.604839461729508310E+00    0.444047476505968319E+00    0.599363311440325856E+09   -0.147880452358771777E+03
    0.595714988511968579E+00    0.424336777417170907E+00    0.602395346365165234E+09   -0.147863176632206290E+03
    0.613847140241630784E+00    0.448920470815375339E+00    0.593923241448560119E+09   -0.147860704150548941E+03
    0.601610103865171664E+00    0.413691585737133494E+00    0.599474061079868317E+09   -0.147852075593604695E+03
    0.621753685354330621E+00    0.385674678773320068E+00    0.594971656917035699E+09   -0.147845965437631918E+03
    0.630302658739169352E+00    0.420699386706504086E+00    0.589902442754157066E+09   -0.147844291187093205E+03
    0.607931146523920329E+00    0.416718740791644393E+00    0.598444435418588996E+09   -0.147838359305540962E+03
    0.608157634647280343E+00    0.422738548770880129E+00    0.597083840118945599E+09   -0.147835503784409923E+03
    0.613886849466289353E+00    0.427906467298747373E+00    0.596026454989383578E+09   -0.147833826729126770E+03
    0.620081246277077613E+00    0.438462820923975372E+00    0.594767913929670572E+09   -0.147828929337183723E+03
    0.612230853884445869E+00    0.485420637811877498E+00    0.592883741972668886E+09   -0.147821888833996695E+03
    0.619563513119537390E+00    0.389434998007772037E+00    0.591404744218749523E+09   -0.147817601769555495E+03
    0.621688368259690649E+00    0.400552060331849091E+00    0.590780940684911013E+09   -0.147812407190153635E+03
    0.614396851769987706E+00    0.478664221188624950E+00    0.593418961402476311E+09   -0.147804010935854308E+03
    0.620924793759595861E+00    0.387168160546826456E+00    0.595103488646592498E+09   -0.147797331847268254E+03
    0.609370114085292180E+00    0.435995664936260852E+00    0.598227754294508457E+09   -0.147797122463940354E+03
    0.618169040889998467E+00    0.425716922039505619E+00    0.594847260450419068E+09   -0.147790665011525476E+03
    0.630349252285019479E+00    0.383164077277360349E+00    0.590025696309591174E+09   -0.147778990019026878E+03
    0.616978373900564536E+00    0.389032357700484610E+00    0.596191940035917521E+09   -0.147765847332143750E+03
    0.621220841654333222E+00    0.407781937257436056E+00    0.590371365290906668E+09   -0.147759056072977899E+03
    0.619038427324042795E+00    0.416031824183548338E+00    0.594172925192533374E+09   -0.147739672578084509E+03
    0.612939283695984161E+00    0.432081967251303212E+00    0.595303757721863508E+09   -0.147738093955500119E+03
    0.620359199593734423E+00    0.397891457115484570E+00    0.589204399516726136E+09   -0.147721133657719946E+03
    0.625781831895345753E+00    0.394369924094545965E+00    0.588888981991127729E+09   -0.147715675274912371E+03
    0.608276094048701310E+00    0.431816604577202057E+00    0.598582616237165451E+09   -0.147705051764055355E+03
    0.629270685805802032E+00    0.400404197328336764E+00    0.588262580209603786E+09   -0.147703091273821258E+03
    0.633771353843554097E+00    0.457153576837951547E+00    0.585185564023375869E+09   -0.147700987266711877E+03
    0.626523671567234541E+00    0.388171197285593905E+00    0.590316861783706784E+09   -0.147698345457373847E+03
    0.605389494010732387E+00    0.418408051852779295E+00    0.598302589020391107E+09   -0.147697348678522360E+03
    0.611575742023280244E+00    0.419103356650303738E+00    0.595597059066589594E+09   -0.147694743093302350E+03
    0.624547757508844725E+00    0.462598857914400696E+00    0.592230701390794277E+09   -0.147690271067634541E+03
    0.600213579274289422E+00    0.447546965997512203E+00    0.601213907626987576E+09   -0.147689469875655959E+03
    0.633690592177846512E+00    0.418837533478830792E+00    0.589648790118230581E+09   -0.147685980068547451E+03
    0.603525189736433876E+00    0.404499523929452209E+00    0.598883576075161815E+09   -0.147681445935570650E+03
    0.625209967246527443E+00    0.365831039509982858E+00    0.590269299887879372E+09   -0.147679362711549970E+03
    0.617411227017756303E+00    0.434439004646655746E+00    0.594195773367973685E+09   -0.147631315634952387E+03
    0.620083631229521370E+00    0.438405984590675146E+00    0.593367016817998648E+09   -0.147305924490368682E+03
    0.616009733749037669E+00    0.429126018932583619E+00    0.594757984739465952E+09   -0.147611273950146312E+03
    0.613746251412437105E+00    0.431749092912081522E+00    0.595029284271496892E+09   -0.147496740108321006E+03
    0.612345119027215334E+00    0.427333178772418165E+00    0.594408187430520296E+09   -0.147354105787155589E+03
    0.612844403103218305E+00    0.432110487091218687E+00    0.595221397339729786E+09   -0.147316465568086358E+03
    0.616213060436476390E+00    0.456466261822733088E+00    0.595489056286718488E+09   -0.147675644382813687E+03
    0.614953021399557209E+00    0.403144332490523283E+00    0.595454713650813460E+09   -0.147346510990062882E+03
    0.618259586378608228E+00    0.421990443332305176E+00    0.593785758489196062E+09   -0.147556486609029491E+03
    0.620586410399342148E+00    0.424420050701218798E+00    0.593480135612486005E+09   -0.147338196793535246E+03
    0.597397826707514401E+00    0.430636174175788256E+00    0.601706083194574118E+09   -0.147552478564848855E+03
    0.601844356838580175E+00    0.435326479617232920E+00    0.600745189363077164E+09   -0.147512263700630399E+03
    0.593778151196520887E+00    0.458661044165227239E+00    0.603681902725213528E+09   -0.147432234616401900E+03
    0.611790847007129268E+00    0.387898340822001586E+00    0.595677490083411813E+09   -0.147317434145083496E+03
    0.610089652154787832E+00    0.400778052786430194E+00    0.597133601236126542E+09   -0.147204670127784993E+03
    0.608401740615276854E+00    0.405922228227549198E+00    0.597804259955156684E+09   -0.147154775210487685E+03
    0.610487010966614729E+00    0.399813770563950399E+00    0.597053991719215035E+09   -0.147448699668394255E+03
    0.605850207512017014E+00    0.394257127463506052E+00    0.599083548739145875E+09   -0.147170337224229229E+03
    0.608463370335684428E+00    0.391605135357382395E+00    0.598031597252492905E+09   -0.147390727341276829E+03
    0.611941301246534342E+00    0.412689064834239616E+00    0.596938888699405432E+09   -0.147496606557486388E+03
    0.605386791526999923E+00    0.408603761898637785E+00    0.599549553015076995E+09   -0.147435254703833522E+03
    0.609104517458121664E+00    0.407663336932754916E+00    0.598232531923229694E+09   -0.147635759918606226E+03
    0.603776183925553878E+00    0.407368182869385365E+00    0.599564660880254269E+09   -0.147320186011947214E+03
    0.604627000251619862E+00    0.421879382581199280E+00    0.598875407073018312E+09   -0.147619453722292207E+03
    0.605328391495820295E+00    0.410854707973399513E+00    0.598822373537906766E+09   -0.147404734384579342E+03
    0.603691770301330144E+00    0.423765118373820471E+00    0.600133166900670767E+09   -0.147499087207097716E+03
    0.600458888922588918E+00    0.413934073540534797E+00    0.600448870581384182E+09   -0.147299440670027536E+03
    0.609771764143417827E+00    0.417073086663982906E+00    0.597795378818880558E+09   -0.147534058441680088E+03
    0.595160608703488414E+00    0.412689393428042450E+00    0.603853417502825022E+09   -0.147581919176131748E+03
    0.643044859122057444E+00    0.404362049830137238E+00    0.582653446722729206E+09   -0.147662025355657079E+03
    0.633861950579167388E+00    0.448872843200948779E+00    0.585884350221875429E+09   -0.147619735347657752E+03
    0.635285801618065471E+00    0.428630876195137844E+00    0.586085476439493299E+09   -0.147635532397909770E+03
    0.629996960352600111E+00    0.397301234852701413E+00    0.585927246518884778E+09   -0.147664931980483118E+03
    0.637112350466063071E+00    0.392669917961805837E+00    0.584998015691095233E+09   -0.147517132687920878E+03
    0.635518418570372279E+00    0.382492456067865305E+00    0.586000183027302384E+09   -0.147257393147208006E+03
    0.630587778443221336E+00    0.394283271101960153E+00    0.587593280287838459E+09   -0.147357636038766174E+03
    0.625211220545223934E+00    0.422552195009163967E+00    0.592982865795102954E+09   -0.147477791392690847E+03
    0.623728702538523749E+00    0.422759838823573375E+00    0.593163564386144876E+09   -0.147609703422912361E+03
    0.629856280741113439E+00    0.437345666799389576E+00    0.590324385322270513E+09   -0.147096019869707447E+03
    0.627551049990305643E+00    0.422963989430417797E+00    0.591635776158936501E+09   -0.147538387758200827E+03
    0.620112979348099946E+00    0.410373964542552372E+00    0.593658555774205685E+09   -0.147644278402916285E+03
    0.625030641075483340E+00    0.400395904195727681E+00    0.589917743685615540E+09   -0.147120102976598332E+03
    0.625173395321181991E+00    0.400631066014581094E+00    0.590023581491021633E+09   -0.147512014974266947E+03
    0.626894591212101449E+00    0.401868935832531804E+00    0.589879677272864461E+09   -0.147210984682013759E+03
    0.629186447569442531E+00    0.399720768807460658E+00    0.589520479830204368E+09   -0.147323099659321770E+03
    0.626735980913518453E+00    0.392937458583164201E+00    0.588811277562441349E+09   -0.147555839594373310E+03
    0.617942383673694029E+00    0.389574790208291333E+00    0.592256125195180058E+09   -0.147669892905121173E+03
    0.624977880943066832E+00    0.383078875831602161E+00    0.590477601751118660E+09   -0.147147511989872072E+03
    0.621466809454817248E+00    0.388066789950764601E+00    0.589644139160378098E+09   -0.147572126854816617E+03
    0.625093449298642856E+00    0.386064525125270563E+00    0.590979440268493533E+09   -0.147410638169973993E+03
    0.625214416345686863E+00    0.387735665475164026E+00    0.590367310901421905E+09   -0.147100993518069743E+03
    0.624743453016906591E+00    0.390629668903843097E+00    0.592195077377824426E+09   -0.147392084112422879E+03
    0.620011409056845153E+00    0.394126076775155099E+00    0.591217712498636365E+09   -0.147644426251726486E+03
    0.621579594807639468E+00    0.402377523346419963E+00    0.589424088482371330E+09   -0.147214603886636610E+03
    0.623347022026863762E+00    0.401722528175984195E+00    0.590838846766371012E+09   -0.147298272927711764E+03
    0.622102108895151606E+00    0.405169223751649099E+00    0.590582726918684959E+09   -0.147328599638544006E+03
    0.623294548017836014E+00    0.403962025867146579E+00    0.593453893855563998E+09   -0.147606612424925288E+03
    0.628625300229892936E+00    0.360439717695651751E+00    0.585068766626779199E+09   -0.147338734489782610E+03
    0.626934973638059057E+00    0.361930409230295069E+00    0.587293798684927702E+09   -0.147299318263698012E+03
    0.625164899416852493E+00    0.367878757429275893E+00    0.587863097514438152E+09   -0.147598005620910385E+03
    0.622912953181826490E+00    0.364265022056640575E+00    0.590778034739655614E+09   -0.146909086661405468E+03
    0.624595951530135141E+00    0.362431932652283351E+00    0.589866935265053749E+09   -0.147064421622200769E+03
    0.631581631344109606E+00    0.358920915972936072E+00    0.589459372542562485E+09   -0.147534152131218605E+03
    0.628402785058271296E+00    0.383754550946003192E+00    0.588816825514070511E+09   -0.147260810883333249E+03
    0.629443233817434944E+00    0.387030857601857292E+00    0.588534259010821462E+09   -0.147664625874356204E+03
    0.631476843088266127E+00    0.379704270204006988E+00    0.589291382283756137E+09   -0.147372359019906696E+03
    0.626201339609699592E+00    0.376383900769006630E+00    0.588725165781873584E+09   -0.147293315814052761E+03
    0.634089176102144880E+00    0.364845824415809261E+00    0.589650956430923343E+09   -0.147246046861377465E+03
    0.619643624621495248E+00    0.371840309470545805E+00    0.590658386277817369E+09   -0.147236305023324007E+03
    0.620815576818986359E+00    0.369671858802531617E+00    0.592162485486834049E+09   -0.147226200772221546E+03
    0.618635647493577134E+00    0.387169556334530540E+00    0.592816105808142066E+09   -0.146915128743792707E+03
    0.618635647493577134E+00    0.387169556334530540E+00    0.592816105808142066E+09   -0.146915128743792707E+03
    0.614792692746311542E+00    0.380647462287555527E+00    0.595478992511391878E+09   -0.146485020297869539E+03
    0.614792692746311542E+00    0.380647462287555527E+00    0.595478992511391878E+09   -0.146485020297869539E+03
    0.616760586495831653E+00    0.386862175553609688E+00    0.595293659614298344E+09   -0.147520114230140081E+03
    0.616726273595062491E+00    0.386035865667937017E+00    0.593762072266005516E+09   -0.147476452087565519E+03
    0.618801602669351913E+00    0.382568648028920322E+00    0.595006342316015601E+09   -0.147467719816716510E+03
    0.620405013217056100E+00    0.382072652309677352E+00    0.595778803320027947E+09   -0.147231103454469576E+03
    0.618221505313348740E+00    0.376174979599499082E+00    0.594660197682578683E+09   -0.147369595405918290E+03
    0.618494619404182933E+00    0.379628935129732170E+00    0.594309857096134543E+09   -0.146972649132127231E+03
    0.622586281903143690E+00    0.379063207661122448E+00    0.592903996184621692E+09   -0.147672891309145967E+03
