    0.163379028578834296E+00    0.576623552250005389E+00    0.648938460921217728E+10   -0.222354593064020094E+03
    0.169298211304198143E+00    0.563915711423367938E+00    0.637748406317389870E+10   -0.222318898017173296E+03
    0.251935102148620083E+00    0.550563648441746878E+00    0.521760836211055279E+10   -0.222240858887971797E+03
    0.184310871889606043E+00    0.666375982398363931E+00    0.607338278007023239E+10   -0.222224809730048150E+03
    0.189598067386660241E+00    0.583561209033820916E+00    0.598367076983917809E+10   -0.221411580235057272E+03
    0.265523841961553098E+00    0.659276308611252304E+00    0.515972941059158993E+10   -0.221376570443897691E+03
    0.276987235709924839E+00    0.708481817157052163E+00    0.507187025989930153E+10   -0.221313866654440488E+03
    0.203987478933246758E+00    0.670141812920766355E+00    0.592712535963881874E+10   -0.220846335339830574E+03
    0.192921074959578942E+00    0.677684571315468887E+00    0.594923812741157055E+10   -0.220804068854699580E+03
    0.170936141858484325E+00    0.581907243124202722E+00    0.634850760036954784E+10   -0.220683946635195696E+03
    0.186480549595285150E+00    0.720879327036321627E+00    0.605590715199344254E+10   -0.220643721712597227E+03
    0.192958270602555659E+00    0.547803723019699262E+00    0.597650169617135048E+10   -0.220526939992729069E+03
    0.210627028944470884E+00    0.650422028485584391E+00    0.575875301322157383E+10   -0.220382212974667596E+03
    0.175176160790245283E+00    0.637710758916465892E+00    0.628077313994155121E+10   -0.220359828488514182E+03
    0.223706524436360021E+00    0.685520096592979300E+00    0.561285946188852692E+10   -0.220303885962405730E+03
    0.240757332478438724E+00    0.648230218886570952E+00    0.540427827590098000E+10   -0.220190705658315323E+03
    0.220031730715918472E+00    0.577085799811676736E+00    0.565332665874345970E+10   -0.220186731892134105E+03
    0.183247159931982651E+00    0.530130839483444305E+00    0.618839761961305714E+10   -0.220154826868298244E+03
    0.204209256597642330E+00    0.646833330401317852E+00    0.587539309216620064E+10   -0.220127996269563624E+03
    0.189494633279962632E+00    0.577207970577715557E+00    0.608195190070036030E+10   -0.220109309018957418E+03
    0.184530506191486587E+00    0.658057103101509000E+00    0.612061665594352245E+10   -0.220094074342562806E+03
    0.220299840392869151E+00    0.510264699905675911E+00    0.562700970231601620E+10   -0.220080049389239718E+03
    0.197307892271524121E+00    0.700692699306390665E+00    0.590378274413921165E+10   -0.220064150924022783E+03
    0.199680148362359144E+00    0.699487583245348432E+00    0.586431115766356468E+10   -0.220056985550184720E+03
    0.209596150918194113E+00    0.553288038180275166E+00    0.572381244543758488E+10   -0.220056030933166653E+03
    0.226537570426094126E+00    0.570795784223083302E+00    0.554058666268073559E+10   -0.219992965305611506E+03
    0.208766235408588574E+00    0.712328809515256012E+00    0.583854866831735802E+10   -0.219963091905822807E+03
    0.230953314100146856E+00    0.669642830905281983E+00    0.551957369176830292E+10   -0.219928278942462498E+03
    0.193646570544861729E+00    0.682074857804016332E+00    0.601964339058410645E+10   -0.219875172440150294E+03
    0.193901146883317388E+00    0.619815423264689969E+00    0.595722089761244678E+10   -0.219831808100611568E+03
    0.214164167693087604E+00    0.669429218894176614E+00    0.566464546579520130E+10   -0.219829267474939400E+03
    0.196974740936338766E+00    0.620767509807189199E+00    0.589916515869312000E+10   -0.219826941030422290E+03
    0.214376463407726758E+00    0.670957821163609580E+00    0.568181610064323997E+10   -0.219825146433452574E+03
    0.186848383963846454E+00    0.675111746453971762E+00    0.611330927902621269E+10   -0.219821157470148734E+03
    0.213253097620122123E+00    0.669314162297427018E+00    0.574622199747460079E+10   -0.219797235460570079E+03
    0.184652111867484758E+00    0.678758367308416766E+00    0.611356682183907700E+10   -0.219761701203351208E+03
    0.221441633546723138E+00    0.670175822432266699E+00    0.556633395012401962E+10   -0.219731638968015318E+03
    0.189821092904525590E+00    0.648409332856008547E+00    0.609211301746826744E+10   -0.219678345118059354E+03
    0.197130064817004513E+00    0.622683041249732838E+00    0.588888362514348984E+10   -0.219666457227953742E+03
    0.231549716935451899E+00    0.630852355075132820E+00    0.551530352115821075E+10   -0.219660745847818418E+03
    0.213136850959523450E+00    0.683395041696568839E+00    0.569994429743037891E+10   -0.219635694630942510E+03
    0.241428346162537943E+00    0.679458289592577813E+00    0.540336465322103405E+10   -0.219586981426816521E+03
    0.187861702697691646E+00    0.610731175732420084E+00    0.607663595705578041E+10   -0.219562793108572862E+03
    0.204755831423407642E+00    0.666692203995825849E+00    0.581194075256996822E+10   -0.219543534551942969E+03
    0.217646780303157483E+00    0.531681465015026333E+00    0.562797178886702633E+10   -0.219540761271087320E+03
    0.197309066508358111E+00    0.572194822468487629E+00    0.589130888366911125E+10   -0.219505154794529716E+03
    0.216874140109620972E+00    0.694983189121050060E+00    0.567805808451271725E+10   -0.219396376250026719E+03
    0.220113199343896393E+00    0.621470495635636055E+00    0.564447196393898201E+10   -0.219378036282354174E+03
    0.225987170149893501E+00    0.586907620638060123E+00    0.557132921886264420E+10   -0.219323665120114384E+03
    0.229542262244110840E+00    0.569509705434928293E+00    0.548030262777742386E+10   -0.219318832261198338E+03
    0.200235037976594032E+00    0.730822265360353995E+00    0.590133706358806419E+10   -0.219299174581716784E+03
    0.211637187017707340E+00    0.653666999810475602E+00    0.571702082939000511E+10   -0.219277845667313443E+03
    0.221012167776075352E+00    0.724017152359950344E+00    0.568619298387793159E+10   -0.219245778341221381E+03
    0.194686230566007645E+00    0.563988901749377547E+00    0.596477113183997726E+10   -0.219239004086780596E+03
    0.220859840348321623E+00    0.723847631217861220E+00    0.566943067014510250E+10   -0.219215179647793775E+03
    0.221297771428656864E+00    0.629902281565239974E+00    0.564395725502967358E+10   -0.219211669379355669E+03
    0.194952830306106994E+00    0.636397424798982314E+00    0.600357308935714722E+10   -0.219207878149573901E+03
    0.202278715236217377E+00    0.576352394119439282E+00    0.581865068424797630E+10   -0.219201120355673766E+03
    0.205357310898084233E+00    0.603767665946342902E+00    0.579191936290969276E+10   -0.219169616311043455E+03
    0.206833253661073080E+00    0.557846003184192085E+00    0.577705346316366673E+10   -0.219134797798340912E+03
    0.224280174729489745E+00    0.575012140929395343E+00    0.556437459648881054E+10   -0.219101415310126612E+03
    0.198104588006527360E+00    0.599084111967261634E+00    0.597637839220853996E+10   -0.219062965165807611E+03
    0.194342858109516958E+00    0.567558251314936868E+00    0.598685838501097202E+10   -0.219029054326955531E+03
    0.204084052590918830E+00    0.607940162293337139E+00    0.581060090086470318E+10   -0.218983781058396147E+03
    0.204084052590918830E+00    0.607940162293337139E+00    0.581060090086470318E+10   -0.218983781058396147E+03
    0.210911408985217985E+00    0.682356384848073816E+00    0.575468802107680702E+10   -0.218976808868150812E+03
    0.280177714558398350E+00    0.687159352764819431E+00    0.504414945268072510E+10   -0.218975040926529516E+03
    0.229429176374561117E+00    0.614377721595202431E+00    0.551635361998233414E+10   -0.218956432814612413E+03
    0.229429176374561117E+00    0.614377721595202431E+00    0.551635361998233414E+10   -0.218956432814612413E+03
    0.215945841173531106E+00    0.730248496171315153E+00    0.566442933420321655E+10   -0.218951611680743241E+03
    0.259420055655190052E+00    0.663425919602094183E+00    0.522799295933263111E+10   -0.218927390842374422E+03
    0.212794753111936630E+00    0.644713324326664505E+00    0.574412227184911633E+10   -0.218896940060028555E+03
    0.231665734133671752E+00    0.650624540152628938E+00    0.552401775307193947E+10   -0.218890490487119678E+03
    0.212029629652353502E+00    0.594405667211333366E+00    0.575760014662909508E+10   -0.218881223733506886E+03
    0.206554972311316309E+00    0.726210575679075987E+00    0.584421446122640324E+10   -0.218873947256870082E+03
    0.199810778201775230E+00    0.722240881135931545E+00    0.592014361136661911E+10   -0.218869150389022167E+03
    0.226256209274927012E+00    0.649990476064850498E+00    0.557041008304673386E+10   -0.218834756966047536E+03
    0.226256209274927012E+00    0.649990476064850498E+00    0.557041008304673386E+10   -0.218834756966047536E+03
    0.211446469615470978E+00    0.648706843105781417E+00    0.577432233405877876E+10   -0.218826567489969761E+03
    0.211446469615470978E+00    0.648706843105781417E+00    0.577432233405877876E+10   -0.218826567489969761E+03
    0.233246251799453852E+00    0.625651996186009640E+00    0.544690978226665020E+10   -0.218807114229176392E+03
    0.208288821127016965E+00    0.622339289911465698E+00    0.577425602335975170E+10   -0.218785744846054399E+03
    0.208288821127016965E+00    0.622339289911465698E+00    0.577425602335975170E+10   -0.218785744846054399E+03
    0.235981403500081621E+00    0.697765731707393755E+00    0.543938374805800247E+10   -0.218772779742342607E+03
    0.193333180139600769E+00    0.561652874572128979E+00    0.595524408689092350E+10   -0.218769059622883276E+03
    0.243659368553441169E+00    0.592280675605456608E+00    0.537641423577165031E+10   -0.218763717317486680E+03
    0.247152139517345548E+00    0.641496456997408870E+00    0.530626134430600834E+10   -0.218763040227787343E+03
    0.232398517012168071E+00    0.669974894421175193E+00    0.546858943739959526E+10   -0.218751439881790134E+03
    0.211755215783119566E+00    0.634975731013692979E+00    0.573164626472264862E+10   -0.218716970690570577E+03
    0.224519456007084284E+00    0.699918828451666641E+00    0.559468565367234421E+10   -0.218714421925191203E+03
    0.224519456007084284E+00    0.699918828451666641E+00    0.559468565367234421E+10   -0.218714421925191203E+03
    0.201581149992929587E+00    0.707840201096203714E+00    0.588408407489565468E+10   -0.218685018835255619E+03
    0.221259719265048449E+00    0.521228840735464161E+00    0.560950962481570339E+10   -0.218684402948800880E+03
    0.220715538275895518E+00    0.698635405981217872E+00    0.567607615528351402E+10   -0.218668083902804824E+03
    0.220715538275895518E+00    0.698635405981217872E+00    0.567607615528351402E+10   -0.218668083902804824E+03
    0.198638013186277218E+00    0.649527421704036101E+00    0.595084067128797054E+10   -0.218653394437735528E+03
    0.236288646093994747E+00    0.639811752458561145E+00    0.543920031867089272E+10   -0.218650850763794807E+03
    0.226481755596845080E+00    0.661887885566898149E+00    0.555608246678508472E+10   -0.218644732871481068E+03
    0.222692214053648752E+00    0.702541178649514819E+00    0.560471104381177235E+10   -0.218635174139276444E+03
    0.236604648817087926E+00    0.622651199428990054E+00    0.541619684316650391E+10   -0.218634496242102472E+03
    0.235513599295910925E+00    0.619856222995863959E+00    0.548381725540270424E+10   -0.218625533739073376E+03
    0.235513599295910925E+00    0.619856222995863959E+00    0.548381725540270424E+10   -0.218625533739073376E+03
    0.244266762806429560E+00    0.571091535724232102E+00    0.532216518998575020E+10   -0.218619400791737405E+03
    0.244266762806429560E+00    0.571091535724232102E+00    0.532216518998575020E+10   -0.218619400791737405E+03
    0.218239645386616665E+00    0.613121670882625480E+00    0.561696190499394512E+10   -0.218599436116176321E+03
    0.202795335764702545E+00    0.629069879450090852E+00    0.582212958130694294E+10   -0.218597532783633397E+03
    0.202795335764702545E+00    0.629069879450090852E+00    0.582212958130694294E+10   -0.218597532783633397E+03
    0.229779990215651153E+00    0.570271306781680920E+00    0.549273498014451122E+10   -0.218589597613817205E+03
    0.229779990215651153E+00    0.570271306781680920E+00    0.549273498014451122E+10   -0.218589597613817205E+03
    0.218644409752773272E+00    0.652010102852571549E+00    0.571068359813301945E+10   -0.218581419958687263E+03
    0.218644409752773272E+00    0.652010102852571549E+00    0.571068359813301945E+10   -0.218581419958687263E+03
    0.194827059519729395E+00    0.599967303805657437E+00    0.596377955134338856E+10   -0.218575596839031675E+03
    0.230943933673094848E+00    0.678680891220022176E+00    0.547341344807205963E+10   -0.218559320093464464E+03
    0.199985965258290488E+00    0.705886402436972205E+00    0.593873488858913326E+10   -0.218550367068227274E+03
    0.222008152962833216E+00    0.725059478727708040E+00    0.559932896802973557E+10   -0.218530430459298628E+03
    0.211761633818739969E+00    0.580798770209870696E+00    0.574582262562068081E+10   -0.218515761277626893E+03
    0.211761633818739969E+00    0.580798770209870696E+00    0.574582262562068081E+10   -0.218515761277626893E+03
    0.211191540373318443E+00    0.700923346502960953E+00    0.572509583588061905E+10   -0.218510770776575555E+03
    0.211191540373318443E+00    0.700923346502960953E+00    0.572509583588061905E+10   -0.218510770776575555E+03
    0.198009880153354856E+00    0.572349415582614540E+00    0.589349794272519875E+10   -0.218502088701096852E+03
    0.189909594682007632E+00    0.570013620832876100E+00    0.602487385021911812E+10   -0.218498309558100118E+03
    0.235170649209304305E+00    0.630488909498243544E+00    0.545045941265495777E+10   -0.218493113834148431E+03
    0.208228755527871512E+00    0.716302446394841752E+00    0.584320637907570171E+10   -0.218480893715734425E+03
    0.208228755527871512E+00    0.716302446394841752E+00    0.584320637907570171E+10   -0.218480893715734425E+03
    0.206929330901844455E+00    0.569192745964731017E+00    0.576673794206477928E+10   -0.218477984361367248E+03
    0.204117979947089634E+00    0.678706779806814708E+00    0.586625452364751339E+10   -0.218464056636073110E+03
    0.204117979947089634E+00    0.678706779806814708E+00    0.586625452364751339E+10   -0.218464056636073110E+03
    0.226351257913609216E+00    0.645911808804900289E+00    0.561634154195951653E+10   -0.218458139422743329E+03
    0.214210543472537540E+00    0.542078119157984872E+00    0.574033359784907722E+10   -0.218432343118125317E+03
    0.196958133436673843E+00    0.567215968998489473E+00    0.591573877448104668E+10   -0.218411863318284247E+03
    0.207011513573440553E+00    0.614008999824234181E+00    0.582312852699507046E+10   -0.218397050308574705E+03
    0.215760567073012555E+00    0.564763434896836003E+00    0.565179776642985725E+10   -0.218385655716049996E+03
    0.220129430486971200E+00    0.645379186862832910E+00    0.566840937974087906E+10   -0.218377668990320217E+03
    0.205494317278198224E+00    0.579280364704487738E+00    0.584984500636283112E+10   -0.218373274076076115E+03
    0.204149766380718245E+00    0.688728518700457926E+00    0.587742258421297836E+10   -0.218350028794868365E+03
    0.208266401278982438E+00    0.616466870519394305E+00    0.578945933600879097E+10   -0.218338011109580407E+03
    0.208266401278982438E+00    0.616466870519394305E+00    0.578945933600879097E+10   -0.218338011109580407E+03
    0.225596941796293471E+00    0.683746107874185327E+00    0.555015705581476402E+10   -0.218331155491271033E+03
    0.225596941796293471E+00    0.683746107874185327E+00    0.555015705581476402E+10   -0.218331155491271033E+03
    0.208515896278418988E+00    0.559598236082630152E+00    0.573410556020694065E+10   -0.218329976750739263E+03
    0.219014903474906264E+00    0.678106604251475176E+00    0.563453195803615284E+10   -0.218316224459189840E+03
    0.219014903474906264E+00    0.678106604251475176E+00    0.563453195803615284E+10   -0.218316224459189840E+03
    0.231422217781312001E+00    0.629361220607176364E+00    0.552772337528001690E+10   -0.218305820126568193E+03
    0.219689668838179641E+00    0.619694242136182183E+00    0.565057307406426430E+10   -0.218305038010789588E+03
    0.206487351789092166E+00    0.639443557511716776E+00    0.578660599130056190E+10   -0.218299981344717736E+03
    0.218719362667754824E+00    0.656385847512687803E+00    0.566833697223258972E+10   -0.218297254136300865E+03
    0.197293681106506358E+00    0.644233779006789575E+00    0.595451368167798233E+10   -0.218290354087281401E+03
    0.197293681106506358E+00    0.644233779006789575E+00    0.595451368167798233E+10   -0.218290354087281401E+03
    0.220487097687685540E+00    0.701270115628327417E+00    0.564614501316342926E+10   -0.218281621812608705E+03
    0.203321120465918104E+00    0.602557209370022662E+00    0.590683088064895916E+10   -0.218279016178939003E+03
    0.230535409736105590E+00    0.581488744149584846E+00    0.550290602313698769E+10   -0.218278077281430967E+03
    0.230535409736105590E+00    0.581488744149584846E+00    0.550290602313698769E+10   -0.218278077281430967E+03
    0.200187892502715181E+00    0.620442917383494219E+00    0.590704528014026737E+10   -0.218262304478907339E+03
    0.200187892502715181E+00    0.620442917383494219E+00    0.590704528014026737E+10   -0.218262304478907339E+03
    0.209648514698483224E+00    0.587645128434019171E+00    0.580161200100157642E+10   -0.218261434531732448E+03
    0.206710945098311227E+00    0.718690065899799890E+00    0.584154436721692371E+10   -0.218261415269177974E+03
    0.194124275642710009E+00    0.614481189583358400E+00    0.599397631495966053E+10   -0.218251579217383210E+03
    0.212977549881745443E+00    0.606383385696354082E+00    0.572108140902050877E+10   -0.218246918714269327E+03
    0.220540969290942412E+00    0.633100216694327145E+00    0.562785518860614586E+10   -0.218244050372914501E+03
    0.220540969290942412E+00    0.633100216694327145E+00    0.562785518860614586E+10   -0.218244050372914501E+03
    0.214481850430136789E+00    0.529971791747929188E+00    0.566426902945273685E+10   -0.218215645782697038E+03
    0.252518903810230178E+00    0.683353131334765607E+00    0.525391898126450443E+10   -0.218208633598146008E+03
    0.203625946791580470E+00    0.628092836833218371E+00    0.589499333806023979E+10   -0.218175552331522510E+03
    0.251447900099499300E+00    0.658658630273942336E+00    0.527233067152569389E+10   -0.218166596957518578E+03
    0.251447900099499300E+00    0.658658630273942336E+00    0.527233067152569389E+10   -0.218166596957518578E+03
    0.192781570236940092E+00    0.638833650002464282E+00    0.600651582194570732E+10   -0.218160919105171359E+03
    0.215090528318847507E+00    0.714840723763527919E+00    0.569547830875807762E+10   -0.218160892326185831E+03
    0.213596957930832165E+00    0.564811713512952451E+00    0.569612865099527931E+10   -0.218155833260579129E+03
    0.213596957930832165E+00    0.564811713512952451E+00    0.569612865099527931E+10   -0.218155833260579129E+03
    0.211867058244146200E+00    0.591939750289574462E+00    0.572653820958197784E+10   -0.218155832744671500E+03
    0.215196074766817680E+00    0.594935752647007376E+00    0.566034020524699211E+10   -0.218155782179052352E+03
    0.215196074766817680E+00    0.594935752647007376E+00    0.566034020524699211E+10   -0.218155782179052352E+03
    0.214034632092559407E+00    0.549751065731156174E+00    0.570552690450900078E+10   -0.218144831655074256E+03
    0.237750080861083513E+00    0.693606170493033858E+00    0.544499247236804485E+10   -0.218137797701277520E+03
    0.217259755627604134E+00    0.680364671312803537E+00    0.567330059207370949E+10   -0.218065711726532641E+03
    0.198140880969207234E+00    0.623823579833972630E+00    0.595871277507142639E+10   -0.218055032770440562E+03
    0.201321362734717568E+00    0.660198614510568049E+00    0.590703734069908237E+10   -0.218052278686914860E+03
    0.236466220308374997E+00    0.663340557232237060E+00    0.544094690480868244E+10   -0.218047468496010140E+03
    0.216059445518229865E+00    0.577784567965686335E+00    0.569633836127594948E+10   -0.218038354052634702E+03
    0.228987163925666426E+00    0.628632624425492281E+00    0.554215353738378525E+10   -0.218031080806351724E+03
    0.221094975811633510E+00    0.696226392177425879E+00    0.564823758472986889E+10   -0.218030598291834167E+03
    0.255969513288689665E+00    0.653744439196952243E+00    0.525643775371906281E+10   -0.218023801503123110E+03
    0.255969513288689665E+00    0.653744439196952243E+00    0.525643775371906281E+10   -0.218023801503123110E+03
    0.195129499305648824E+00    0.624981373501327653E+00    0.598923450746065426E+10   -0.218023577723108673E+03
    0.195129499305648824E+00    0.624981373501327653E+00    0.598923450746065426E+10   -0.218023577723108673E+03
    0.214223392550752345E+00    0.600226541449689677E+00    0.569423199364377117E+10   -0.218019456324723194E+03
    0.215430148339339655E+00    0.670355353087879635E+00    0.568655415388153458E+10   -0.218003723103140487E+03
    0.230671214376618583E+00    0.672237150548991025E+00    0.551267183813037586E+10   -0.217977771701038137E+03
    0.246717159291445720E+00    0.603000017721395665E+00    0.535263848167630196E+10   -0.217945718123422637E+03
    0.227635540600152342E+00    0.675807655072137692E+00    0.553667313390768814E+10   -0.217945352877514836E+03
    0.234132338978906895E+00    0.683988119887805723E+00    0.548200464106296921E+10   -0.217944318646739816E+03
    0.234132338978906895E+00    0.683988119887805723E+00    0.548200464106296921E+10   -0.217944318646739816E+03
    0.214208298175386613E+00    0.558773900488681363E+00    0.570543575513216496E+10   -0.217912319759022068E+03
    0.214208298175386613E+00    0.558773900488681363E+00    0.570543575513216496E+10   -0.217912319759022068E+03
    0.226122570124506594E+00    0.659480362014237542E+00    0.554343623953723431E+10   -0.217908611930672691E+03
    0.226122570124506594E+00    0.659480362014237542E+00    0.554343623953723431E+10   -0.217908611930672691E+03
    0.229712081429562676E+00    0.649614859463177652E+00    0.550320834077228069E+10   -0.217906846407958597E+03
    0.229712081429562676E+00    0.649614859463177652E+00    0.550320834077228069E+10   -0.217906846407958597E+03
    0.207061068924956626E+00    0.574162070616431208E+00    0.581411174862990570E+10   -0.217899635680986705E+03
    0.227028617593481863E+00    0.623620289567545782E+00    0.555363036451484966E+10   -0.217888520953529223E+03
    0.208960603405125067E+00    0.590825215599528164E+00    0.576080966718480396E+10   -0.217876723696024015E+03
    0.212604513874356638E+00    0.713837166891785557E+00    0.571407620001050282E+10   -0.217870747743318475E+03
    0.217367489107828493E+00    0.579831718924042505E+00    0.569168869847789669E+10   -0.217869840321685160E+03
    0.221520608453604217E+00    0.629441441481654707E+00    0.566142279157630730E+10   -0.217869755689346363E+03
    0.199117006556830900E+00    0.604960204880281793E+00    0.591360911077627754E+10   -0.217863312221437184E+03
    0.207945698671897772E+00    0.657735908727286045E+00    0.582831999101596069E+10   -0.217860272132215130E+03
    0.227703115196948691E+00    0.605440504149836300E+00    0.556765529507266617E+10   -0.217857090828276711E+03
    0.208891953802917585E+00    0.656482989758291779E+00    0.577390304696013165E+10   -0.217845990651583207E+03
    0.222052917413009254E+00    0.619960535881666885E+00    0.568841586525850964E+10   -0.217800631245768500E+03
    0.235077887459867851E+00    0.685241656763651008E+00    0.544991852970071697E+10   -0.217795809303215407E+03
    0.233691928876219368E+00    0.650057290901990825E+00    0.553236465292141342E+10   -0.217753075015531635E+03
    0.233691928876219368E+00    0.650057290901990825E+00    0.553236465292141342E+10   -0.217753075015531635E+03
    0.230260166138146205E+00    0.692555448454807987E+00    0.550832138741156769E+10   -0.217735328653265839E+03
    0.230260166138146205E+00    0.692555448454807987E+00    0.550832138741156769E+10   -0.217735328653265839E+03
    0.214713037584466637E+00    0.746536477649859975E+00    0.573842327192369461E+10   -0.217727745350301262E+03
    0.227316351410257245E+00    0.683398431887765057E+00    0.552867935046686745E+10   -0.217721752376213999E+03
    0.227316351410257245E+00    0.683398431887765057E+00    0.552867935046686745E+10   -0.217721752376213999E+03
    0.213104892054276018E+00    0.534491107092938122E+00    0.568164265579204845E+10   -0.217714299454924145E+03
    0.225622451179155636E+00    0.630560640422483942E+00    0.560955472968378830E+10   -0.217708821917453463E+03
    0.245442197135873397E+00    0.629847343171984875E+00    0.534217453795064354E+10   -0.217708219121053560E+03
    0.235904784876649176E+00    0.687062873136618180E+00    0.543290592693938446E+10   -0.217694023319974747E+03
    0.226953517835780771E+00    0.622511589073795335E+00    0.560094247917157364E+10   -0.217677993366403854E+03
    0.223129340818685740E+00    0.616464524614048770E+00    0.556918628175483131E+10   -0.217669123405832863E+03
    0.217041569586103600E+00    0.596972904775615376E+00    0.564654836070563793E+10   -0.217644136376260349E+03
    0.217041569586103600E+00    0.596972904775615376E+00    0.564654836070563793E+10   -0.217644136376260349E+03
    0.227455437680684103E+00    0.663790247780621456E+00    0.554191018935133648E+10   -0.217639446079638788E+03
    0.227455437680684103E+00    0.663790247780621456E+00    0.554191018935133648E+10   -0.217639446079638788E+03
    0.230621833558210809E+00    0.656369209792055486E+00    0.550155631417094994E+10   -0.217632511329244807E+03
    0.230621833558210809E+00    0.656369209792055486E+00    0.550155631417094994E+10   -0.217632511329244807E+03
    0.214551778598668752E+00    0.729387792526187795E+00    0.573116657270803356E+10   -0.217631120663152160E+03
    0.247311228688821494E+00    0.608243878738450761E+00    0.533921023796836758E+10   -0.217624922666859561E+03
    0.247311228688821494E+00    0.608243878738450761E+00    0.533921023796836758E+10   -0.217624922666859561E+03
    0.220493336860016598E+00    0.634709859838247681E+00    0.563009987501108360E+10   -0.217619263666032282E+03
    0.209077405315860776E+00    0.573135503050286488E+00    0.575317392564885426E+10   -0.217614748550130741E+03
    0.207228177692141580E+00    0.679135473265111145E+00    0.582541867905640030E+10   -0.217613549589694799E+03
    0.220593442880821500E+00    0.681517380588976707E+00    0.562531145515525150E+10   -0.217612130659673710E+03
    0.200787756370109705E+00    0.578189035803207574E+00    0.591839969593083382E+10   -0.217596239077686562E+03
    0.207788410306152194E+00    0.596192989208759627E+00    0.579612130931442070E+10   -0.217588306622445316E+03
    0.207435751801250734E+00    0.576503619129351108E+00    0.578689460549507141E+10   -0.217572697398660381E+03
    0.211797282570419909E+00    0.648452884491403481E+00    0.574997718753352451E+10   -0.217557494314555981E+03
    0.227086492804035645E+00    0.659767320910429333E+00    0.552934982425339127E+10   -0.217555817799606473E+03
    0.206829155420539368E+00    0.651080146419296568E+00    0.583607887258755207E+10   -0.217553509460677788E+03
    0.206829155420539368E+00    0.651080146419296568E+00    0.583607887258755207E+10   -0.217553509460677788E+03
    0.232160795333496262E+00    0.672375586217814458E+00    0.552283594956799984E+10   -0.217546989741957361E+03
    0.232160795333496262E+00    0.672375586217814458E+00    0.552283594956799984E+10   -0.217546989741957361E+03
    0.216818255854270447E+00    0.591754641873396992E+00    0.570639283272615528E+10   -0.217542379941266574E+03
    0.212835277982721338E+00    0.615791002665126541E+00    0.573115976341417313E+10   -0.217532590304181724E+03
    0.224669648337235128E+00    0.575183105421226415E+00    0.559156703021912670E+10   -0.217530860908823627E+03
    0.224669648337235128E+00    0.575183105421226415E+00    0.559156703021912670E+10   -0.217530860908823627E+03
    0.215841572977633844E+00    0.589381943107149198E+00    0.568305706122767830E+10   -0.217528402436378514E+03
    0.217570111293939439E+00    0.642111639916798538E+00    0.566819913405778694E+10   -0.217520500489042547E+03
    0.225854946775783660E+00    0.602381977658769330E+00    0.561150921581373692E+10   -0.217518957861818450E+03
    0.206619885591606323E+00    0.600440257071564787E+00    0.584624638597374153E+10   -0.217490411421104909E+03
    0.204428779681171180E+00    0.693680000496053495E+00    0.586020367416371441E+10   -0.217488995660867658E+03
    0.207836166133896993E+00    0.657476203547670224E+00    0.581146215496244907E+10   -0.217469489272251565E+03
    0.216329614647003177E+00    0.639320264389295900E+00    0.570157560470932293E+10   -0.217463605115183668E+03
    0.214586002074564297E+00    0.723312979711918658E+00    0.572865425131425476E+10   -0.217462490806390463E+03
    0.214586002074564297E+00    0.723312979711918658E+00    0.572865425131425476E+10   -0.217462490806390463E+03
    0.238466281127393043E+00    0.676725901239834116E+00    0.541289933509777260E+10   -0.217458007462116910E+03
    0.216834391251196301E+00    0.561561267455834567E+00    0.565593841389190578E+10   -0.217457099004026986E+03
    0.216834391251196301E+00    0.561561267455834567E+00    0.565593841389190578E+10   -0.217457099004026986E+03
    0.211749365100676157E+00    0.580840405227061041E+00    0.572991925293216038E+10   -0.217450950488215170E+03
    0.211749365100676157E+00    0.580840405227061041E+00    0.572991925293216038E+10   -0.217450950488215170E+03
    0.215407036232337645E+00    0.655513189720027256E+00    0.570297550456228638E+10   -0.217443794786205927E+03
    0.216510297332465684E+00    0.577841592597687637E+00    0.565705527117671013E+10   -0.217443573157959918E+03
    0.234411866028235660E+00    0.656101134678459985E+00    0.548037990061477280E+10   -0.217442730803503537E+03
    0.204569344972119149E+00    0.595256044832723319E+00    0.584892116065658569E+10   -0.217419994470220558E+03
    0.234131398775992372E+00    0.689515337679292628E+00    0.549838422010550022E+10   -0.217408817056662031E+03
    0.220347367480411449E+00    0.633080721022158954E+00    0.562835828322467995E+10   -0.217390147571440082E+03
    0.230544203968943484E+00    0.713432284616917656E+00    0.553618211538738251E+10   -0.217382593339593313E+03
    0.222042045061580762E+00    0.677483341593889676E+00    0.559686734590253639E+10   -0.217370767057818398E+03
    0.217357642818069907E+00    0.620054157294593011E+00    0.565416497171682930E+10   -0.217358725011332098E+03
    0.217357642818069907E+00    0.620054157294593011E+00    0.565416497171682930E+10   -0.217358725011332098E+03
    0.234448622268924378E+00    0.682801388184318014E+00    0.548271926138520908E+10   -0.217358624268074692E+03
    0.218525321578249554E+00    0.567454855171261485E+00    0.566253823712996387E+10   -0.217346119524416849E+03
    0.218525321578249554E+00    0.567454855171261485E+00    0.566253823712996387E+10   -0.217346119524416849E+03
    0.215483870731882687E+00    0.686644279680075798E+00    0.573342452557300091E+10   -0.217345947346802632E+03
    0.215483870731882687E+00    0.686644279680075798E+00    0.573342452557300091E+10   -0.217345947346802632E+03
    0.219351285227207149E+00    0.578360602200280738E+00    0.562997292575622749E+10   -0.217336476077182084E+03
    0.219351285227207149E+00    0.578360602200280738E+00    0.562997292575622749E+10   -0.217336476077182084E+03
    0.206515014579819745E+00    0.644632872392708833E+00    0.583279496688317108E+10   -0.217333716376491992E+03
    0.231251834425714620E+00    0.685366587636501379E+00    0.553102568518235588E+10   -0.217332361090193501E+03
    0.236983949865508636E+00    0.541269181901446572E+00    0.545205994631122208E+10   -0.217323481798817426E+03
    0.226340978868963538E+00    0.603100057220880004E+00    0.557500351612769508E+10   -0.217316616523135167E+03
    0.207857742830876935E+00    0.629195346464705096E+00    0.581694391251895809E+10   -0.217307742928494235E+03
    0.221884382310518158E+00    0.603126908677891649E+00    0.563954195369636345E+10   -0.217307255010971858E+03
    0.230861579589857036E+00    0.709689738652079072E+00    0.552294194284418774E+10   -0.217300136103617604E+03
    0.220076180316058356E+00    0.612019349571941262E+00    0.564023856714904213E+10   -0.217297513140132537E+03
    0.230047911258540905E+00    0.615995679076990044E+00    0.554642968518716812E+10   -0.217281731968283509E+03
    0.213778819735683967E+00    0.650488835591838566E+00    0.572625760498198223E+10   -0.217277419433456771E+03
    0.229637308959525610E+00    0.639122320517683917E+00    0.553380811852496529E+10   -0.217273754299410484E+03
    0.222508947851546568E+00    0.595927755043097918E+00    0.558293945334447765E+10   -0.217273720307841302E+03
    0.217125222621799285E+00    0.583998006169114348E+00    0.569855404375454712E+10   -0.217265076713848373E+03
    0.250993461273643914E+00    0.650700364579218871E+00    0.529806405819136333E+10   -0.217263750967666823E+03
    0.228743793943458340E+00    0.627463934804733725E+00    0.558542719258542728E+10   -0.217252559183584452E+03
    0.230022025889028481E+00    0.619159118894671678E+00    0.553601276649292278E+10   -0.217251956682335418E+03
    0.214735949647993196E+00    0.556133969283386875E+00    0.569890315588695812E+10   -0.217245915285645196E+03
    0.216313163613731929E+00    0.577059519380647146E+00    0.566771102520764351E+10   -0.217242686733311018E+03
    0.218732581713598273E+00    0.607275582782389023E+00    0.563657649581538963E+10   -0.217237904953774091E+03
    0.221153832485906421E+00    0.628958931794702636E+00    0.561774807338355923E+10   -0.217232440770241453E+03
    0.209999149626318105E+00    0.595949841599221486E+00    0.575900635551780033E+10   -0.217228134837108712E+03
    0.209999149626318105E+00    0.595949841599221486E+00    0.575900635551780033E+10   -0.217228134837108712E+03
    0.213331491110892058E+00    0.633868172257546547E+00    0.573526189950047588E+10   -0.217220714594202207E+03
    0.213331491110892058E+00    0.633868172257546547E+00    0.573526189950047588E+10   -0.217220714594202207E+03
    0.233430725569992337E+00    0.681023647638824059E+00    0.549780137332580662E+10   -0.217220161331579106E+03
    0.233430725569992337E+00    0.681023647638824059E+00    0.549780137332580662E+10   -0.217220161331579106E+03
    0.219562454566159859E+00    0.659178703157969892E+00    0.563737772773960590E+10   -0.217209633400158623E+03
    0.217949897384510760E+00    0.654069538442431764E+00    0.569902151368368912E+10   -0.217204451346728632E+03
    0.236349015625625436E+00    0.677376888374130459E+00    0.544418723957719517E+10   -0.217198730455528278E+03
    0.257220435527161673E+00    0.691115853841512973E+00    0.523221257976919556E+10   -0.217194726592615780E+03
    0.230471123880314932E+00    0.619558599761042217E+00    0.555474581231796360E+10   -0.217187176811031492E+03
    0.224836031913360490E+00    0.703567063519287217E+00    0.559788655277865887E+10   -0.217183052619636982E+03
    0.211754463129560255E+00    0.585635090833871885E+00    0.572327333395266533E+10   -0.217173127552466781E+03
    0.222235627996073326E+00    0.640508315511969073E+00    0.567614101251210690E+10   -0.217170695862407513E+03
    0.236648797388586907E+00    0.679765112463206478E+00    0.543406825967105103E+10   -0.217166024831370862E+03
    0.220142697092701678E+00    0.570196554172246906E+00    0.564641266575576973E+10   -0.217165096619725460E+03
    0.220777792680047158E+00    0.582019393780377925E+00    0.562066544368925381E+10   -0.217159011847190328E+03
    0.226206626091880580E+00    0.617412409250274408E+00    0.562405052819813347E+10   -0.217156250337042877E+03
    0.218677245417645105E+00    0.598500378392756716E+00    0.568252477651949310E+10   -0.217154387884835103E+03
    0.214667006544335792E+00    0.655776373615255537E+00    0.574023264904064178E+10   -0.217147804157025462E+03
    0.216623461238107384E+00    0.652284591608527364E+00    0.569999467886962891E+10   -0.217144288420560315E+03
    0.209081026324552555E+00    0.590697401429981284E+00    0.579894964501214695E+10   -0.217144269509357684E+03
    0.210797017881190762E+00    0.542274495533355605E+00    0.574835354917620468E+10   -0.217144030394678452E+03
    0.243658145886912036E+00    0.652085390445920510E+00    0.536563275218362141E+10   -0.217140695963876425E+03
    0.206816330642189461E+00    0.659982212840455773E+00    0.582525654273205566E+10   -0.217136218839649928E+03
    0.219185108515276283E+00    0.664103981990550096E+00    0.564406121189191151E+10   -0.217126680873820987E+03
    0.220952476998515557E+00    0.580538210707640445E+00    0.561746347416536236E+10   -0.217120001968451220E+03
    0.218070673163660411E+00    0.592621773164427879E+00    0.564993405459825039E+10   -0.217115621475170599E+03
    0.211660491449763677E+00    0.517684469600524721E+00    0.573225877981706619E+10   -0.217110116230073004E+03
    0.220789736069639198E+00    0.612533501522401380E+00    0.561739096325971031E+10   -0.217109104784461579E+03
    0.231548450594441346E+00    0.654648760189889600E+00    0.552117038684813690E+10   -0.217089405848723288E+03
    0.229401001861097520E+00    0.656687009924292298E+00    0.556307590406740952E+10   -0.217085582411982386E+03
    0.224329789948038760E+00    0.652939585326597793E+00    0.559837025412555408E+10   -0.217082620795373316E+03
    0.220602187503855074E+00    0.677036239710256282E+00    0.565687530314315891E+10   -0.217082505312538814E+03
    0.220408022116525937E+00    0.682312012381473210E+00    0.564483143531246376E+10   -0.217076621452008681E+03
    0.211680385000798332E+00    0.668610409012575957E+00    0.572978778030945873E+10   -0.217066482861853103E+03
    0.226440709538012208E+00    0.655550839694399201E+00    0.557340756974933147E+10   -0.217059530927196249E+03
    0.216405100958189767E+00    0.660512914615578595E+00    0.571619654145438480E+10   -0.217059190821833397E+03
    0.219359071841501385E+00    0.586155244935683939E+00    0.563172164882412529E+10   -0.217058343577359693E+03
    0.206526748600833088E+00    0.579550588878527506E+00    0.582075700868467999E+10   -0.217054389489101425E+03
    0.233638301944554316E+00    0.565213106673567722E+00    0.549859761191679573E+10   -0.217052967121420579E+03
    0.235243330877722701E+00    0.665047747512765852E+00    0.545038421951464176E+10   -0.217049801621026432E+03
    0.219281698026283167E+00    0.578562150073691939E+00    0.566878507662411213E+10   -0.217048390116376225E+03
    0.211869592293587206E+00    0.536426542978862386E+00    0.574556727495211124E+10   -0.217048318066012541E+03
    0.229239595573116184E+00    0.714225407345487895E+00    0.554834175616403198E+10   -0.217042517604444299E+03
    0.223524166354868825E+00    0.656802195293007429E+00    0.559588934644555092E+10   -0.217034583466711695E+03
    0.227757655184489816E+00    0.635505972869459868E+00    0.555834031999866581E+10   -0.217026835255621535E+03
    0.215758101673348468E+00    0.670449309554195239E+00    0.571579001289936829E+10   -0.217023471696926691E+03
    0.212697899060565687E+00    0.606103619101949320E+00    0.572790873168315697E+10   -0.217020377623081060E+03
    0.213881983819421195E+00    0.647861108992085377E+00    0.572506610869667625E+10   -0.217015564319738814E+03
    0.221398751540551275E+00    0.564174536872760868E+00    0.560275408637366962E+10   -0.216998788189640493E+03
    0.210127410411482363E+00    0.598150658634693855E+00    0.578260118289573479E+10   -0.216989355254338506E+03
    0.221869318321751441E+00    0.688702019843869806E+00    0.563649222430176258E+10   -0.216971076950635450E+03
    0.218735173832129204E+00    0.598010327870008851E+00    0.564367388962531948E+10   -0.216968851251987502E+03
    0.216698088774810560E+00    0.601851921903385545E+00    0.568439170828169155E+10   -0.216967313607046009E+03
    0.231609453515343233E+00    0.655040127185500864E+00    0.551596895836090088E+10   -0.216963582624063378E+03
    0.213465736114778648E+00    0.620997204260017810E+00    0.573574516699404621E+10   -0.216962368181715306E+03
    0.215483438514995351E+00    0.608706823929221486E+00    0.570326218094008350E+10   -0.216952821576032449E+03
    0.221248020223159647E+00    0.630946532597100429E+00    0.563902645619168377E+10   -0.216950034664512714E+03
    0.232995558166960492E+00    0.696309081427656906E+00    0.549183524508093643E+10   -0.216949775859197132E+03
    0.247648912585046954E+00    0.636659707940536279E+00    0.532908567528216171E+10   -0.216943113231743325E+03
    0.232510372182446634E+00    0.645740937841349449E+00    0.548413372781069088E+10   -0.216942400229531131E+03
    0.220608295731634263E+00    0.667251146880589729E+00    0.564212264708538818E+10   -0.216934975259915433E+03
    0.211849431782929920E+00    0.667426965001098438E+00    0.575921704504740524E+10   -0.216932402861215508E+03
    0.211669144412999055E+00    0.615077200079305442E+00    0.574301693821400356E+10   -0.216927080333796539E+03
    0.219564233500719019E+00    0.607840075288503812E+00    0.564108339696246719E+10   -0.216922990094455258E+03
    0.220050017410231169E+00    0.598411024448179063E+00    0.564823117056139851E+10   -0.216917657826399079E+03
    0.214903464958947521E+00    0.572137560918671184E+00    0.569825317833694077E+10   -0.216916447811561113E+03
    0.249872855499946867E+00    0.673594770519478914E+00    0.530545448204812431E+10   -0.216912854060496841E+03
    0.222849853470190928E+00    0.690546196672523038E+00    0.565722538782543659E+10   -0.216910945133294206E+03
    0.217345395236782812E+00    0.612988752682966265E+00    0.566781210448873520E+10   -0.216908690983993836E+03
    0.219274195609200084E+00    0.668773064184676969E+00    0.567751445107128620E+10   -0.216908093490047207E+03
    0.234493445628488839E+00    0.670454065135039912E+00    0.545841045745743942E+10   -0.216902876356677268E+03
    0.224783424772191376E+00    0.608904830528953056E+00    0.559170235871914005E+10   -0.216897236486440022E+03
    0.228376953711535824E+00    0.711399518378222240E+00    0.556516362964691639E+10   -0.216758656382816639E+03
    0.227964630828205894E+00    0.713883948790826395E+00    0.556957657462417316E+10   -0.216325365448524678E+03
    0.226957178754481348E+00    0.705839030379753041E+00    0.557907137916681290E+10   -0.216773664648792590E+03
    0.232604381947069505E+00    0.717067253764112067E+00    0.550948671817582607E+10   -0.216704546685887834E+03
    0.222394309044253780E+00    0.691620958618528903E+00    0.563269981738001633E+10   -0.216815709594341655E+03
    0.222432730062249340E+00    0.692018365631239973E+00    0.565490622464922523E+10   -0.216610453091484601E+03
    0.223460183992658601E+00    0.697407362332764791E+00    0.564138092930183029E+10   -0.216523246742484531E+03
    0.227699019752829523E+00    0.639033933687201738E+00    0.558748892303030014E+10   -0.216584468093555216E+03
    0.227088814177159481E+00    0.634118656175079565E+00    0.558043095138029480E+10   -0.216560048960774679E+03
    0.228943150091295233E+00    0.621325176924386824E+00    0.555761952393527412E+10   -0.216728041570506690E+03
    0.228735396443885519E+00    0.635019511156830418E+00    0.553922557299226475E+10   -0.216708144147178245E+03
    0.228590772777792328E+00    0.641674015327442504E+00    0.555252139825276184E+10   -0.216571878640365782E+03
    0.227170540417067801E+00    0.636494078462344959E+00    0.560030595573135853E+10   -0.216190703581128730E+03
    0.227170540417067801E+00    0.636494078462344959E+00    0.560030595573135853E+10   -0.216190703581128730E+03
    0.224830408056118647E+00    0.645707587750043999E+00    0.560092928006295300E+10   -0.216455372193314417E+03
    0.225751603963428360E+00    0.657550612820736902E+00    0.558661712991995811E+10   -0.216639757437370463E+03
    0.226176345277432078E+00    0.658243816438623952E+00    0.558852957527299118E+10   -0.216693391187044341E+03
    0.227018358490740535E+00    0.655085261372596150E+00    0.559378381392310619E+10   -0.216243712440556038E+03
    0.226790946752661038E+00    0.652677206080676697E+00    0.558011679359801960E+10   -0.216845411074562321E+03
    0.226128409179907952E+00    0.656200803139068256E+00    0.557914399138133049E+10   -0.216719111367545736E+03
    0.226062590366189198E+00    0.664473860247268178E+00    0.558291889483933353E+10   -0.216764035483203088E+03
    0.227685535292725671E+00    0.650872247178803320E+00    0.556388932804371452E+10   -0.216469078064196196E+03
    0.229864261079342658E+00    0.653773668401964159E+00    0.553212999051836395E+10   -0.216864209678666839E+03
    0.231915026227939858E+00    0.657918625544077429E+00    0.552192831560109520E+10   -0.216176508148090733E+03
    0.231915026227939858E+00    0.657918625544077429E+00    0.552192831560109520E+10   -0.216176508148090733E+03
    0.234447862864376133E+00    0.657451517317381828E+00    0.546714193551229668E+10   -0.216651200208801470E+03
    0.233884242222917815E+00    0.661922739665495641E+00    0.548717218935564327E+10   -0.216431951479221567E+03
    0.233884242222917815E+00    0.661922739665495641E+00    0.548717218935564327E+10   -0.216431951479221567E+03
    0.232537768402661771E+00    0.647570901907844387E+00    0.549814236730857563E+10   -0.215895691107695370E+03
    0.234315375582968777E+00    0.677735820939215472E+00    0.549093043132105255E+10   -0.216392926059071044E+03
    0.233211235108534698E+00    0.675136073743443532E+00    0.548986958667378139E+10   -0.216537531613450369E+03
    0.229549831548678751E+00    0.568458151463930861E+00    0.552510038107989788E+10   -0.216323958597930414E+03
    0.232241271028644780E+00    0.566023641580141401E+00    0.550950790054196835E+10   -0.216184680719500705E+03
    0.232241271028644780E+00    0.566023641580141401E+00    0.550950790054196835E+10   -0.216184680719500705E+03
    0.232433556686726772E+00    0.557161116445090698E+00    0.550099230866246605E+10   -0.216209449162249115E+03
    0.232433556686726772E+00    0.557161116445090698E+00    0.550099230866246605E+10   -0.216209449162249115E+03
    0.231255887950642447E+00    0.571622944811414513E+00    0.551443291464565849E+10   -0.216605558529154536E+03
    0.227624530044806483E+00    0.576153252596149912E+00    0.556251856584885216E+10   -0.216560758991250339E+03
    0.221537526310546407E+00    0.555719338181642541E+00    0.563249100930020046E+10   -0.216190237569953723E+03
    0.221537526310546407E+00    0.555719338181642541E+00    0.563249100930020046E+10   -0.216190237569953723E+03
    0.222055956507929420E+00    0.555147371083297259E+00    0.563324857209591198E+10   -0.216185166302669245E+03
    0.222055956507929420E+00    0.555147371083297259E+00    0.563324857209591198E+10   -0.216185166302669245E+03
    0.223061412421038052E+00    0.586518583909835911E+00    0.560466208146612072E+10   -0.216214272833323946E+03
    0.223344486385417929E+00    0.593734599953821274E+00    0.559403937800943184E+10   -0.216260890662950402E+03
    0.223344486385417929E+00    0.593734599953821274E+00    0.559403937800943184E+10   -0.216260890662950402E+03
    0.224129664014043606E+00    0.589847207998314360E+00    0.559031564009970474E+10   -0.216602359126731244E+03
    0.223976239095099061E+00    0.588837268013410409E+00    0.558992382807258701E+10   -0.216870057546033536E+03
    0.224222289083653881E+00    0.591541774719392066E+00    0.561700571481069183E+10   -0.216315408772328283E+03
    0.224222289083653881E+00    0.591541774719392066E+00    0.561700571481069183E+10   -0.216315408772328283E+03
    0.224438780689678208E+00    0.580284637050814567E+00    0.560995858092540932E+10   -0.216128568239384890E+03
    0.224438780689678208E+00    0.580284637050814567E+00    0.560995858092540932E+10   -0.216128568239384890E+03
    0.222506994063856378E+00    0.572706127301801260E+00    0.562354777480112553E+10   -0.216301604099486440E+03
    0.224297238516133257E+00    0.575044894077716862E+00    0.560796875541499043E+10   -0.216751274543684502E+03
    0.221671174772506085E+00    0.588688528732181027E+00    0.561681565354327106E+10   -0.216850944513454607E+03
    0.223739273615229939E+00    0.604461425355824034E+00    0.560116897377422619E+10   -0.216369124550916922E+03
    0.225381336538302002E+00    0.599393143092978420E+00    0.558602290705851746E+10   -0.216867095500947499E+03
    0.226957248512507426E+00    0.605240803301562380E+00    0.556490623048719597E+10   -0.216143395991752044E+03
    0.226957248512507426E+00    0.605240803301562380E+00    0.556490623048719597E+10   -0.216143395991752044E+03
    0.223417115375348196E+00    0.599116102595090183E+00    0.560375327137118244E+10   -0.216723452915275544E+03
    0.224040302651489498E+00    0.586193714508979724E+00    0.559927164776703262E+10   -0.216487183548445500E+03
    0.216772007534987654E+00    0.600347517466136793E+00    0.569264408349037457E+10   -0.216688375463617149E+03
    0.213589572580282105E+00    0.614278912968801549E+00    0.571873278533360863E+10   -0.216755446052215575E+03
    0.214075161710298612E+00    0.612744568428627900E+00    0.570334443022912884E+10   -0.216881512390249952E+03
    0.218836746741292332E+00    0.589573191683161468E+00    0.567945813495074081E+10   -0.216860028116183742E+03
    0.216590182544155130E+00    0.589386411824113665E+00    0.568480777520078278E+10   -0.216752899427549892E+03
    0.217126920706812554E+00    0.588096528150288123E+00    0.567839033678529263E+10   -0.216487788719287096E+03
    0.214388911741764610E+00    0.602076713123533835E+00    0.570091741629432774E+10   -0.216891687379655338E+03
    0.221393089806313059E+00    0.590557953042569750E+00    0.565388030038954926E+10   -0.216637221640962849E+03
    0.214950192010988417E+00    0.628463400413570739E+00    0.570808932690325165E+10   -0.216660837431286552E+03
    0.213004795190885166E+00    0.625252769263846986E+00    0.572414923767440987E+10   -0.216737967180330457E+03
    0.217881489644843829E+00    0.590855308290356263E+00    0.568773626138869095E+10   -0.216742622930519701E+03
    0.214361890549068623E+00    0.549254635528699353E+00    0.570674963521278095E+10   -0.216603728886002870E+03
    0.214401288577226734E+00    0.553717036219365966E+00    0.571723040423161507E+10   -0.216707902205850672E+03
    0.215321542886642459E+00    0.571595975909563236E+00    0.571428240955554390E+10   -0.216534977854950085E+03
    0.219614276098485273E+00    0.579099842741124249E+00    0.565773703534553337E+10   -0.216648431691956063E+03
    0.220310478430764622E+00    0.601769171197393149E+00    0.562534147860574055E+10   -0.216790324900519920E+03
    0.218907348656437239E+00    0.612153711532471334E+00    0.565893571953575516E+10   -0.216565741179275363E+03
    0.218573030053560102E+00    0.616361052992457914E+00    0.566023139980605030E+10   -0.216668999047440508E+03
    0.219995460370821183E+00    0.616670118214825536E+00    0.564443733096436787E+10   -0.216597114296414134E+03
    0.220195165406489479E+00    0.617633516651256542E+00    0.565629501128172588E+10   -0.216576584233648248E+03
    0.220224121790313310E+00    0.621133260548747401E+00    0.563888919964730549E+10   -0.216757221481300661E+03
    0.222306102296101260E+00    0.623193365818316636E+00    0.560710694092085361E+10   -0.216857067783317916E+03
    0.221576553725705283E+00    0.619740330678888895E+00    0.561553991578950977E+10   -0.216716413408767892E+03
    0.222563301127681690E+00    0.620707927646066082E+00    0.560845945270175648E+10   -0.216702341757436443E+03
    0.220032546527963113E+00    0.606513693985576197E+00    0.563478393814026070E+10   -0.216759099111195496E+03
    0.220550552186084714E+00    0.637913147874813902E+00    0.567787830458846188E+10   -0.216770386101604657E+03
    0.218651690165861168E+00    0.642636096649315647E+00    0.565170872664915085E+10   -0.216357365194153374E+03
    0.221217599098317008E+00    0.640908700672511600E+00    0.565161709058263016E+10   -0.216182165723869161E+03
    0.221217599098317008E+00    0.640908700672511600E+00    0.565161709058263016E+10   -0.216182165723869161E+03
    0.219593389024471342E+00    0.640626805629946006E+00    0.565727850486678982E+10   -0.216733299959046633E+03
    0.218276548254224712E+00    0.646348316998494710E+00    0.566851468337345600E+10   -0.216730441165501560E+03
    0.220751408204189981E+00    0.631572010409291451E+00    0.565373064427028942E+10   -0.216840234045166227E+03
    0.247265823950484964E+00    0.641637223270310031E+00    0.533428021299642658E+10   -0.216881291271119778E+03
    0.249366832555033391E+00    0.623657871085907090E+00    0.531407086514844894E+10   -0.216770963140794720E+03
    0.252990733039019922E+00    0.630735095459113992E+00    0.528002358627152252E+10   -0.216362568636242997E+03
    0.254854998833983215E+00    0.656741477979821298E+00    0.525848409960107708E+10   -0.216236506073850791E+03
    0.251594074064755535E+00    0.608039047943314870E+00    0.529601156270936298E+10   -0.216665005282811649E+03
    0.255183408038951010E+00    0.610594739612945858E+00    0.525854490178688335E+10   -0.216001072459157115E+03
    0.255183408038951010E+00    0.610594739612945858E+00    0.525854490178688335E+10   -0.216001072459157115E+03
    0.244374288166311238E+00    0.611885955584089203E+00    0.536462662600695229E+10   -0.216522394554926080E+03
    0.253239195186548138E+00    0.643748033118772156E+00    0.527359677015630913E+10   -0.216530648036704349E+03
    0.249587034022223597E+00    0.690846125714781323E+00    0.530686920032587528E+10   -0.216795524042721922E+03
    0.249482191657754426E+00    0.609284226970597587E+00    0.531604193438174629E+10   -0.216275685687375670E+03
    0.249482191657754426E+00    0.609284226970597587E+00    0.531604193438174629E+10   -0.216275685687375670E+03
    0.256246297087665331E+00    0.637822719800418270E+00    0.524792388866593170E+10   -0.216487288184982020E+03
